{
  "input_shape": [
    28,
    28
  ],
  "preprocess": {
    "scale": 255.0
  },
  "layers": [
    {
      "type": "dense",
      "units": 128,
      "activation": "relu",
      "W": [
        [
          0.8940613506448537,
          -0.7770883136006695,
          1.4197079905975598,
          -0.9615942292937114,
          -0.009687932782665356,
          -0.7906893354883475,
          -1.5155992701394712,
          -1.0063337655887306,
          -0.78589857539173,
          -0.6726407176392768,
          1.0318674103061602,
          0.7899189627944811,
          -1.5143160330637377,
          -1.111772100087267,
          1.179825118806997,
          -0.41971195680348466,
          0.9417225810838169,
          -1.1381882309836229,
          -0.20890219728397597,
          -1.104547117098632,
          -0.14183680357075384,
          -0.36079719095301477,
          0.23783552942661354,
          -1.0514554015983282,
          -0.3759754650262552,
          -1.210858465494988,
          0.843305756240163,
          -1.021859983269014,
          -0.11253155820771521,
          -1.6533415758419732,
          -0.15543331581295622,
          0.2182009646750792,
          0.38739250902667094,
          0.0813227995439102,
          -0.19200113094454366,
          -0.5454219511779653,
          -0.9187049761385218,
          -0.15192055563239612,
          0.8276379721938412,
          -1.625930965626128,
          -0.6240358546373348,
          -0.5354236436288811,
          -0.6525368133701059,
          1.672833260945248,
          2.431944305956277,
          -2.507569095035131,
          -0.7964128486359906,
          -1.058795414144723,
          0.647667113473463,
          0.8514538303905468,
          -2.1778216356630806,
          0.7591845931213446,
          -0.45415501197347385,
          -0.9125585773372855,
          -0.9054802314879677,
          0.8648329768090649,
          0.9904542604988806,
          -0.1319447408696815,
          0.5708086369233781,
          1.4676613198676147,
          0.983633231500406,
          -0.6681617168004226,
          -0.7568831368613876,
          1.0659931547288088,
          0.05202230316253047,
          0.35738254620803317,
          -1.9064438812518132,
          -1.58104566182495,
          1.0569937054409122,
          -1.0501585366886106,
          -0.9676304484632191,
          1.4710102215947085,
          -0.5799175663474194,
          -2.0967469407478867,
          -0.683866359749574,
          -0.3947971569281663,
          2.2469342499768787,
          0.7740647763384924,
          -0.9683962407085758,
          2.102598974901982,
          0.24776966515684284,
          -1.0838401506281239,
          -0.267978128276729,
          0.6264589220308514,
          0.3953587178516551,
          0.6577235421091756,
          -0.45083121600927456,
          1.2233648254515828,
          -0.4873699639803186,
          0.9419302788351682,
          -0.37590471148004834,
          -0.7730312380706749,
          -0.7215309385764651,
          0.5645801586765301,
          0.829960221734005,
          0.9786857174115499,
          -0.9663874707719647,
          2.2492044864669984,
          0.9424719695253213,
          1.6889185394714452,
          1.473983463681042,
          0.3358967520078757,
          0.8067948727000943,
          0.059888858102034044,
          1.2412044996621678,
          2.12816311806228,
          0.7520008593634758,
          0.32874656604939567,
          0.368273844740527,
          -1.336507507936401,
          -3.4203115534649657,
          0.2204219226240491,
          0.00027641076572192206,
          -1.5607512900191511,
          -0.14450764886918682,
          -2.521413189012294,
          -0.46876657506512087,
          1.318529673976363,
          -0.17577312091172448,
          0.5399275606238415,
          -1.5352627415891036,
          -0.5616167210608238,
          -0.8552880699753813,
          0.5330447738679746,
          -0.7869163706789045,
          1.2091415682852602,
          0.7838378662444763,
          -1.379284237050611,
          -0.8695360133988776,
          0.9800671950574923,
          0.0074428264423305555,
          0.12176718118137698,
          -1.3945784368472782,
          0.38879901827115976,
          0.6230294181502049,
          0.24303315094597194,
          1.705546940192604,
          0.8709402812548597,
          -0.45886637865026575,
          0.043526350221738605,
          -1.4132382337937823,
          -0.0416784108541543,
          0.07834931660842795,
          -0.466727961516864,
          0.34348361849048514,
          1.5053603986924822,
          -1.1402327285481244,
          -0.692218297913536,
          0.32979096930860946,
          -1.48937701786664,
          -0.8482565380317059,
          0.3232897784180915,
          -0.2379395936535182,
          0.3841532217255621,
          0.4831559219861156,
          1.9688037926702047,
          -2.379326825209338,
          -0.9169004450603975,
          0.7435382880567029,
          0.36086901171983904,
          -0.28431666471334094,
          0.926810884969149,
          -0.8532645568328512,
          -0.6820908448753814,
          0.7396700792908606,
          0.09237856154957562,
          1.0976830519986185,
          1.3789834562544239,
          2.870144243121555,
          0.2698331387464891,
          -0.7529274541771624,
          2.3035302059310854,
          0.4092978872885486,
          0.3083553864008194,
          1.3060416161074557,
          -0.19638135059617742,
          0.5704994952777994,
          -0.39819117523163666,
          -0.26142443258418424,
          -0.5893217835980427,
          0.7828377888358425,
          -0.0885887641739079,
          0.8323114346628152,
          0.9165914979143954,
          0.09152091252288654,
          0.8035733053289087,
          -0.16671140581370386,
          0.8966366620826499,
          1.4105325133671218,
          -0.4893159879666951,
          1.0088817071382827,
          0.5768066238858695,
          2.2615165297516833,
          -1.5281398007947176,
          0.775643758670797,
          0.6607932333883018,
          0.641032989103925,
          0.5691004245265013,
          -0.0386661609567965,
          1.5593738434872444,
          -0.6791149581408829,
          -0.42399222209625154,
          -0.21636125213521065,
          1.0164156570944805,
          0.2390824586197912,
          1.2993300203732165,
          -0.18473342892010658,
          0.5947940984577956,
          -0.7099920943524766,
          0.3457541880481932,
          -0.16819637934479095,
          -0.4980779221647805,
          -0.7151474137170385,
          1.8580687132814668,
          0.2984711068896782,
          1.2266702023880525,
          -0.4380758335507728,
          1.2003020637209094,
          1.2665491918672185,
          1.3909801170254175,
          -0.33671286532895434,
          0.08072046330050507,
          -0.12582427854080078,
          -0.925087214205042,
          -2.174001859696324,
          0.9777280740677967,
          -0.8324598414915781,
          0.7412252360079519,
          0.1071130674391463,
          0.17217133755937272,
          0.36941910840886155,
          -1.8787807524865132,
          -0.45018483697072254,
          0.016307221188613694,
          -0.7219703545806478,
          0.0051725624682718895,
          -1.012488651301824,
          0.31108598165686546,
          -0.8126780305377127,
          0.7949016009119938,
          -0.9554009191545134,
          0.9657218324963492,
          -2.429797356339309,
          -0.4447318831235994,
          -1.5170530170700645,
          -1.1851512008958731,
          0.5285856579313734,
          -1.186250881446564,
          0.813169694692695,
          1.118632732534401,
          0.07076118587986237,
          -2.3269932429915725,
          -0.8041822261480225,
          1.3689844174112784,
          0.7867643740498144,
          0.11027557752326858,
          0.09689196716414572,
          -0.2813391711819295,
          0.04163349178220095,
          0.4001540870571215,
          0.8307532957529649,
          -1.9135989007755054,
          -2.15644933542023,
          0.4122482239507572,
          -0.9934731357590167,
          -0.6443191955032945,
          1.2377601875327622,
          1.3977067934478458,
          1.996133793185954,
          -0.356137058367798,
          0.6060110577353405,
          0.5296440424619876,
          -0.6145232769543133,
          -1.0593640450333228,
          -0.9937958225999347,
          0.14396672347845893,
          -1.4849384946547886,
          -1.047804924086938,
          0.24108616293079213,
          -0.16897548264800832,
          1.2793578442092302,
          1.0805114801173041,
          1.796807561251861,
          -0.24132670234529197,
          0.6239643898110131,
          -0.22009363205316027,
          -0.9533848962040005,
          -1.103380305112742,
          -0.9600826580386349,
          1.5961714487286516,
          -1.1476413707970148,
          -1.643931513192042,
          -1.6788834154658405,
          -1.7558021449523562,
          1.0226677064945353,
          0.017053355305914602,
          0.071526041381314,
          -0.8598994291500637,
          1.2477946766513375,
          0.5072990973504605,
          -0.7559778805222955,
          0.4106482182419254,
          1.5919256569810452,
          -0.4642781977092119,
          1.167032482607883,
          0.6657406097490588,
          -0.1779931689017144,
          0.6837387080738077,
          -1.085110086326057,
          -1.044835020082111,
          -1.2025490213736818,
          1.4240034235304404,
          -2.017389763130356,
          -0.1595930569661609,
          -1.897873750440006,
          -0.45188412373115033,
          -0.2766955903286118,
          -2.0951481795120226,
          1.2582719312495685,
          -1.095884779174483,
          -0.020170467354646192,
          -0.1284868066474988,
          -0.7980400127896812,
          -2.1477811370748374,
          -0.005181097990072266,
          0.3795283253348378,
          0.026514138613591573,
          1.1721820330302661,
          0.280363065313677,
          -2.2162605730478417,
          -0.456971170822654,
          -0.23312515673401474,
          1.4375964957447764,
          -0.4702229769361488,
          0.2672088115580554,
          -1.5273252268665292,
          0.33169806777844013,
          -1.1093525149697059,
          0.41114439688407445,
          0.763794842468151,
          1.868372260322916,
          1.3500920522470858,
          -0.5635692802150973,
          -0.7107019563479192,
          -0.44604515075044804,
          -0.6556944802883452,
          -0.8519027444200753,
          0.9614038194734489,
          -0.7614395260866623,
          -0.14346713285464285,
          -1.0908051074215999,
          0.4027217501448397,
          0.14242605468143543,
          -0.31575624059839635,
          0.06388151429442435,
          1.8983686769638732,
          -0.47580129132719345,
          0.32044381817115486,
          -0.32699089473882914,
          -0.6756226667539555,
          -0.3136046633741584,
          1.037384977219799,
          0.5035476595369369,
          0.8669313283295269,
          0.7916394395783894,
          -0.4620594303693151,
          1.9514658916491787,
          2.4577355490212267,
          0.862407230225495,
          -0.893963864517631,
          -0.4778526459233851,
          -0.16553626630274093,
          0.811141494823007,
          -0.557493456578706,
          -0.45389084229967375,
          0.9647901012637492,
          -1.5478461233080583,
          -0.23674413535093855,
          0.021490193325973826,
          0.07061286403183095,
          0.5707792635662361,
          -1.0309324378294427,
          0.1342400022638266,
          -0.44324614898885356,
          -1.6118771585233314,
          -1.1698919575027944,
          1.7312388146168836,
          1.0133896169673204,
          -0.36501002130831084,
          1.4457766538818664,
          -1.1400629179350976,
          -1.1073261491748125,
          0.9956706539658366,
          0.84876223516967,
          0.3666353415595885,
          -0.1630539098804948,
          -1.2502231925905765,
          -0.6875591450792367,
          0.4233293571497639,
          -0.5855592861044419,
          -0.4679977847851158,
          0.1697829829516506,
          -0.5241500272444333,
          0.11463145658672605,
          -0.46570200910609716,
          -0.41175619532708607,
          -0.8402203582131491,
          0.007792154748182784,
          -1.8074800641111928,
          0.3042652091216476,
          1.1913103473928883,
          -0.8105158359896748,
          -0.593966029119258,
          -0.5822479170248459,
          -1.7143576013524495,
          -0.7478442742093441,
          -0.6429771405499549,
          -0.8070434157865383,
          0.8951210476148533,
          0.3147220983377479,
          -0.8777250823838861,
          -0.8197133468576194,
          1.313673612093362,
          0.15533279201542532,
          -1.4226389643583885,
          -1.1300664013357222,
          -0.025988429627322306,
          -1.0826463462616245,
          -1.093552225986083,
          0.09528159872527547,
          -0.5831977330371843,
          -0.39321645374980974,
          -0.23895692444571653,
          0.27079314834885876,
          -0.36706575889711746,
          1.8727771497622299,
          3.0401368655644165,
          0.5751288486868743,
          -0.5742757202826703,
          -1.243545477564396,
          -1.1371193500759746,
          -0.4761503429602435,
          2.012244001688341,
          0.8544877587638137,
          -0.09537777447041608,
          -2.0150567112335454,
          -0.21929448610710034,
          -1.3561780321927928,
          0.5910656737633404,
          -1.4541464960556436,
          -0.2413895854648844,
          -0.31203593583028494,
          0.940015710124622,
          0.08459792690007929,
          0.12165977095092573,
          0.21126759073109092,
          1.1064060497252877,
          0.5864555721539723,
          0.4347398013755362,
          0.3555729294929251,
          -0.443163829093523,
          -1.5779810984951048,
          0.22375570408226136,
          -1.5732558860833512,
          0.6828981843240217,
          -0.002824512658928113,
          -0.01922394651484373,
          0.6634223088851685,
          1.219172318998485,
          0.6070868109482032,
          1.0686667189257526,
          -0.15623267214427872,
          1.048753516425076,
          0.186621509146308,
          0.329522503504807,
          0.1260244734194966,
          0.42314064462709683,
          -2.9512039517327184,
          -0.5508032092295719,
          1.3855210448188036,
          -0.036192871617569504,
          0.31541984912897264,
          -0.27603397637600424,
          -0.7046654375535893,
          -1.2264405709184425,
          -0.4242622109048799,
          1.412209801199274,
          0.19716953397384052,
          -0.9614618577965467,
          -0.44639623549064894,
          -0.6099194514718098,
          -1.026338495608093,
          -0.03146916109763156,
          0.07397729795618231,
          -1.1438480290007618,
          -1.0349125861227653,
          -1.246655998831462,
          -0.015400604912751302,
          -0.7970522240106019,
          1.0313701850024883,
          1.8053936238307817,
          -0.5901788367526806,
          -0.6180180868900431,
          0.4387264153784866,
          -0.8120601701664768,
          0.18158145182674199,
          2.814547942266393,
          -1.2650201575197344,
          0.37519601955382714,
          -0.5385083253425721,
          -0.8347870928787238,
          -1.8977589140656184,
          1.8426788836768593,
          1.6483786035646553,
          0.5634339000347109,
          -0.57750494422565,
          -0.045671890228882114,
          0.6892424127118049,
          -0.0240119013516974,
          0.48349625659323103,
          -0.6090844916147881,
          -1.5515247624126367,
          -1.097653696686402,
          -0.04343084300855358,
          0.5134415574464909,
          0.8767879446082467,
          -0.47334189602801247,
          0.11325747812833446,
          0.4296222629976175,
          -2.1596162773679124,
          -0.328159795297812,
          0.0703457072191457,
          -0.8511764825490108,
          2.034160813124189,
          -1.2082643149361434,
          0.3247767637833398,
          -0.8587044578565229,
          2.202468541828546,
          1.0294905081078392,
          0.5525285374193106,
          -2.0093198416332365,
          -1.7576227134639602,
          0.33766997063275994,
          0.5251906241220775,
          -0.6090814734738743,
          0.6178541423313235,
          0.4504553019301846,
          -0.009583943800668763,
          -1.0780732699849322,
          -0.7017670617145875,
          1.3700877966942109,
          0.21895909958041782,
          0.03972892487722048,
          1.4063824012212351,
          0.4836827796269682,
          -1.4444198613982833,
          2.5453554883904217,
          0.6062146372551416,
          0.06329490774225822,
          0.5659881175363308,
          -0.5051220600477511,
          0.392449315207774,
          0.016190295951431653,
          -0.17160875218428845,
          0.6429355456208634,
          -0.9759420436761953,
          0.48200967607567186,
          1.2429743703563787,
          -1.1371796424960046,
          0.39274570827623884,
          0.1323374711080977,
          0.06234780982424467,
          0.059814229531650574,
          -1.036946422938981,
          -0.3674821113504124,
          0.5315598657974344,
          -0.8592527944295613,
          -0.7628258844246426,
          -2.5492213321727375,
          0.7162216595290191,
          -0.5170420089218276,
          -0.4668850355110904,
          2.2728088640689728,
          0.15280472315806873,
          0.07053093087282876,
          -1.3725654188462892,
          -0.03184972855032598,
          1.0459414002216143,
          0.4171909359542163,
          0.8806727850583881,
          -0.6212525909049053,
          0.054955697742232516,
          -0.7754694309986734,
          0.021081838127695915,
          0.6489928153023663,
          -0.2811796067842732,
          0.5295391039057539,
          -0.19605230096939838,
          -0.7448916930415185,
          0.09358328716422072,
          0.7201886699877756,
          -1.9882540089356417,
          0.8778860975042039,
          1.0650932930865482,
          0.423957255376767,
          2.1624536338772566,
          -0.13472464107425408,
          3.33479013553801,
          -0.43535548651398986,
          -0.1107102400852049,
          -0.8527460453282762,
          2.330693708381972,
          0.6231200974230242,
          2.5197777812811037,
          0.18488676075944546,
          -0.7486303484347028,
          1.4786646758721,
          -0.8184318027476402,
          -0.5053778861488416,
          1.9099144291508294,
          -1.598616320200762,
          -1.7179396015609714,
          0.5164610536292428,
          0.21760451177479617,
          -1.4519020981119257,
          1.5935094105132,
          -0.5363024039030889,
          -0.4441515790230545,
          -0.3943880052922165,
          -0.44247219541184585,
          1.2833616956472644,
          -0.7986608391011562,
          -0.32807107721150774,
          1.2013598638379153,
          0.7682335791704146,
          -1.6152521748000126,
          -1.0918822810530446,
          -0.43498056135374985,
          -1.5490320358302256,
          0.24929365300559728,
          1.0828000139680505,
          -1.2324805882358012,
          1.4682561682350284,
          0.639426733461991,
          -0.7941684098425115,
          -0.12421227624732606,
          0.6712410385767561,
          0.9134577840914442,
          -0.43754454220085603,
          1.301252584163285,
          -1.541261288241682,
          1.151043726204502,
          1.701266247709495,
          0.7504116848146245,
          0.8785474992989543,
          0.3011637815194688,
          0.9132178064991556,
          -2.9951454454941415,
          0.1931322249511473,
          -1.1205824636369284,
          0.7566155673407203,
          0.2878760271451535,
          1.338276117465624,
          1.9449137507968552,
          0.48073278940246966,
          -0.7252977584308279,
          -0.3038732726160265,
          -0.9189854942742876,
          0.5886436227846275,
          -1.6260175501471013,
          1.019106506550589,
          0.29973099126577074,
          -0.23384284785048162,
          -0.9622022724205583,
          1.0067855921056825,
          1.5705747413015199,
          -1.581494892274096,
          -1.1098574485879094,
          0.40527062664112956,
          -0.09572127660275634,
          -0.18714406619891388,
          2.6341152673757757,
          1.0665514024100435,
          -1.3774348048911433,
          1.966826574829559,
          -0.9010939728499616,
          -0.5340288068840001,
          -0.6137700446395656,
          0.9479251941366501,
          0.2117791933708242,
          -0.9278094860378826,
          -0.3857986944726298,
          0.10697097376352507,
          -0.4566840009194381,
          0.8453149696913913,
          -0.32099085387580006,
          -1.6473875261841888,
          1.8813082035797233,
          -2.0727194177853256,
          -1.1326255492434056,
          -0.7109157574265563,
          1.2797882098039952,
          -2.521623780576815,
          -0.22964008220325766,
          -0.38831757593537863,
          -0.7379846092339537,
          0.08457518529923676,
          -1.339249772701751,
          -0.3313507693771943,
          0.35740826769095124,
          0.8919720759470429,
          -0.960883404646581,
          -0.6632746928103549,
          0.6043418246835095,
          -0.743276434220475,
          -0.6530758604670253,
          1.3183770267950585,
          -0.9881844205766526,
          1.2703463949803293,
          -0.7218786647688635,
          0.7581263404663297,
          -0.97192726218539,
          0.49134679448205687,
          0.6843949862878794,
          -0.7714694553549128,
          0.060703503696921804,
          1.3887399738824273,
          -1.1495240367768174,
          -0.5262340861397132,
          1.058536099281032,
          0.2885882165587604,
          0.6114342910727268,
          -1.6656034221441183,
          0.899337877752287,
          1.6317229434746527,
          -1.3924698605059511,
          -1.191501351474601,
          -2.853729558733379,
          -1.136880870233378,
          -1.2312531756323981,
          1.1693701195777415,
          1.2342965820290768,
          0.08138696031684566,
          0.45250678744288114,
          2.182134991411358,
          -0.3516329584267714,
          -1.1108107120730453,
          0.5834149519864814,
          -0.777838678660326,
          0.3970607271181003,
          0.7208230174121611,
          0.049537538419507074,
          0.3644198042420382,
          0.9497009655428437,
          -0.46448996465832976,
          0.6862117688638203,
          0.6336726386735105,
          1.697350024961584,
          1.9645325245706178,
          1.1600109009966297,
          -0.3318489918739707,
          0.7611101141963684,
          0.2751452090920426,
          -2.342046878489327,
          -0.39952045042053697,
          0.6840753277760151,
          0.40920070112205514,
          2.3088372951473244,
          -0.1905446606813846,
          -0.31820262478661737,
          -0.8392920546246799,
          -0.5931636174844584,
          0.3305291172465638,
          -0.25020405416296243,
          0.8273937263666474,
          -0.13838935293015805,
          -1.1418176255346315,
          0.011375190573438209,
          -0.906005158236912,
          0.7478566711776037,
          -1.5508294494219013,
          0.3973667135219055,
          -1.1734023968966278,
          -1.5408478067559088
        ],
        [
          0.588647444429298,
          -0.667868302338478,
          -0.6703216001464043,
          1.6834985612206628,
          -1.5952248885090479,
          0.45350801925541856,
          0.3247700955910784,
          0.10301181836798758,
          0.476534411625058,
          -0.6304736555096956,
          -0.7341217359780449,
          0.21493012708286321,
          -1.1219436567076855,
          -0.6531873212199125,
          1.6794344546229383,
          0.942774255706911,
          0.07639470594615308,
          1.2499458574624283,
          -2.280127429004808,
          0.07927905238753775,
          0.3181753795754318,
          -1.3129302503803244,
          -0.2184806024852748,
          0.7061315750929554,
          2.041839858583721,
          0.8888167867497689,
          0.20751769707595286,
          0.7616057837276277,
          -0.26357466440488375,
          -1.5549406637400731,
          0.0779840869037198,
          -2.1982169795237203,
          0.94901062757918,
          0.6463976654702168,
          -0.531076588326374,
          1.4521764849889123,
          -1.1302357465828905,
          0.47063083745833073,
          -0.16322048383990495,
          1.521840174002344,
          -0.05789996377917735,
          1.3782697328873121,
          -0.5369398119046175,
          -1.0913312919305926,
          1.5804828419159938,
          -0.3554647844067648,
          1.5217368272483989,
          -0.2703362449665716,
          1.030311701287664,
          1.7129600349278473,
          -0.6956081497159304,
          -1.374877574130297,
          0.8567190254459734,
          -0.31049572334028536,
          0.9118745794071993,
          -1.1539520752356622,
          -1.286725830270755,
          0.38057571026507336,
          -0.13106990809751282,
          0.9318680993463505,
          0.102117929783363,
          -0.7163919417362339,
          0.17575440845126142,
          0.685513173343062,
          -0.5185229196694755,
          -1.3233951535797914,
          0.6595578732651136,
          0.6994748647555256,
          1.2027275912885882,
          -0.02147927960437666,
          -0.22073216215861327,
          1.2128730474371792,
          0.8688023588943533,
          0.4042263216029247,
          -1.0187848366242316,
          -1.036696526501157,
          -1.5710307223802116,
          -0.6415490760499503,
          -0.09390755900359998,
          0.3341685922328439,
          1.4328465109075788,
          1.6637507882708482,
          0.5857741868082649,
          0.28085876407157445,
          -0.6271902765980514,
          -0.005577319414016389,
          -2.0084152125290116,
          1.0704588070608587,
          0.8074135050483275,
          -0.016740053918897047,
          0.24434209426930792,
          0.3978509539740371,
          -0.4940564117436568,
          -1.4494639565454333,
          0.8907627984519738,
          0.7470520475375622,
          -0.1126220080855784,
          0.4143097559468784,
          -0.8350564988010128,
          -0.8581121624661768,
          -0.16498566291672945,
          0.06150022122079288,
          1.3036392719480605,
          -2.08214713462363,
          1.5378279252361078,
          0.11947452873491521,
          -2.295547796763022,
          0.8229221756277789,
          0.808237675369647,
          -0.781149020001232,
          -0.5996767845271095,
          0.8068135635695495,
          1.0081043351906882,
          1.3564931214041032,
          -0.2640138619348423,
          1.1121034889769,
          -0.18761513850695932,
          -0.1964807193496258,
          0.5132023828361962,
          0.6968789433839213,
          -0.13454874128686542,
          0.30351993632931484,
          0.585264859986019,
          -2.4349043743496215,
          -0.17673544968324795,
          -1.0278972430952296,
          -0.3410732644355242,
          0.29363406704360984,
          0.25390333970883733,
          0.9283345948316079,
          1.1678453524093158,
          -0.094877122887273,
          -0.37080193745412793,
          0.9137114910823451,
          -0.8112115219041242,
          0.9203897912045803,
          0.36856000705388353,
          1.477394113443706,
          -1.311317392273112,
          -0.42012718865422743,
          0.7028326801175508,
          -0.09526749946322896,
          -1.5424237267853287,
          -1.27902328603555,
          -0.21860458476626582,
          1.0738881845565347,
          -0.27143049794153273,
          -1.3243238693842263,
          0.5098561885896387,
          -0.24458102148174857,
          0.2487576086709934,
          1.7004421540383992,
          0.3088570021589883,
          0.6677265629437743,
          0.11821744042674553,
          -1.2502347807775174,
          0.23035010780218854,
          0.8977199242320708,
          -3.0771352914298546,
          1.427682719277595,
          -1.5831931232880687,
          1.1488288871737373,
          -0.028771938228672522,
          1.085680602876452,
          -0.7680044223695021,
          -0.8236148052027688,
          -0.7040733331768836,
          -2.215927749297161,
          -0.11403997090638003,
          1.297722571783702,
          -0.6044126748350097,
          -1.4738890369223354,
          -0.9684356676075716,
          0.7936875038081943,
          -0.21119912818395536,
          0.0371147303562096,
          -0.4591726084155188,
          -0.22525290761770791,
          0.3736398994313048,
          -1.3075756233351494,
          0.26467742167250596,
          -0.6786912139868473,
          0.9841680274058402,
          0.534742332175562,
          0.3127846651312122,
          -1.494678745795957,
          -1.141000698771823,
          2.366516747105537,
          -0.8216779979584108,
          0.6113265951924197,
          0.1651354777870773,
          -0.5779838031781751,
          -0.6177588573022453,
          -0.0391386919887023,
          -0.5892232721452105,
          1.2512858024854367,
          0.4376689201402372,
          1.0422500749055235,
          0.5867766328058045,
          1.5446924559468347,
          0.46155705620081466,
          1.273170451413405,
          0.5025750604071731,
          0.11526219618550017,
          -0.40957410121912985,
          -0.3826169298728115,
          0.8675203951075868,
          0.13362816622240017,
          2.0080739774100973,
          0.35853743267436344,
          0.07887879194585007,
          -1.43480289954404,
          -0.6312950188390892,
          1.4408983457943219,
          -0.753058212094377,
          -1.36386053731621,
          0.5107621646326779,
          -0.28217270773334074,
          -0.8970539306983897,
          -2.330912352308694,
          -0.7387733488707653,
          -2.5303188951544597,
          -0.948326775408121,
          0.027955941230943103,
          0.585526482367107,
          0.15185407822390673,
          -1.9112079769964008,
          0.15083319592726419,
          0.008460091163511645,
          -0.2221745469515678,
          -1.7251441233391247,
          -0.36498186110552633,
          1.1983799572050406,
          -0.5737494712868912,
          -0.354209363400695,
          -0.3078918163732175,
          0.23457448114151988,
          -0.015422937443713147,
          -0.9742113863913647,
          1.7387045627727216,
          0.2860315751764771,
          0.7630046440773873,
          -1.7152583614073225,
          0.6415660122847452,
          0.11770128658583164,
          -1.6158824903045999,
          1.0756625043926735,
          -2.4205154048317303,
          0.2020332708808331,
          -0.40321102569371975,
          -0.5310113033311573,
          0.21987002659011814,
          -2.6262573211020155,
          -0.1172292042969735,
          1.539796561298751,
          0.40613013485390254,
          -0.022357212331157294,
          -0.6603665680137627,
          -0.674079969821742,
          1.626089028865434,
          -0.3213150138218229,
          -2.958082351381072,
          2.0345028381103494,
          0.7817947797895537,
          -0.30019865493369186,
          0.7486243896656868,
          0.5958778456022309,
          0.5536914793453014,
          -1.4082553731100271,
          0.3837811771367532,
          1.0710447493111863,
          1.0832551427555068,
          1.858064686065083,
          0.5446081632487506,
          -1.6395500208574538,
          -0.604655085695017,
          0.0151703324391559,
          -0.5176244507384271,
          0.2377629365037009,
          -0.17345105506905245,
          -0.8666957300364759,
          0.9631473562766846,
          0.16789093259854496,
          0.07375478448184976,
          1.0745943568482004,
          -0.12366786747064147,
          -1.2817437641568132,
          0.5729235756456731,
          1.1999953454177683,
          -0.36639602918897174,
          1.3603639818765643,
          -1.3107109145638318,
          0.7830806537976508,
          -0.8553810510301986,
          -1.6021825517922665,
          -0.6123332956292702,
          0.20453861205383778,
          0.05123246999559503,
          0.34853908400736044,
          -1.5784302468984837,
          -0.7177275989675143,
          1.6188567747936078,
          0.45419732073346786,
          0.22744051408403762,
          -0.8762122981625069,
          1.2298667307596907,
          -1.0732851041991447,
          0.8153301945802613,
          0.08641046560072572,
          1.62011149183118,
          -0.676256725568717,
          -0.588949617683503,
          0.8810857982776171,
          -1.091058521027687,
          -1.0877101394153528,
          -0.11434211877803307,
          -0.4376166384107278,
          1.4976317669571806,
          0.008368330213386559,
          0.31349325435253955,
          -1.1624057686778921,
          -0.3819453419128903,
          0.2526740306488916,
          0.8228149644603675,
          2.6864736019091633,
          -0.9867405967360386,
          -0.2640631921889885,
          0.7128140577870893,
          -1.512039806554539,
          -1.9048701678316773,
          0.3253606299179741,
          -0.666710520625145,
          1.238164825556809,
          -1.042405239356431,
          -0.7082975037310119,
          -1.6563125950803814,
          -0.1768969885247335,
          -0.08182928149706914,
          -0.11771290321252684,
          0.21111366708127344,
          -0.07180677623803104,
          -2.4314605329370202,
          -0.5382115968140608,
          0.8605578773370963,
          -0.40707546248481924,
          -0.20380338137574236,
          1.9779758002598413,
          -0.11846358811844367,
          2.2206440350149004,
          1.703922073533302,
          -0.7796608761441365,
          -1.9222539399633525,
          -0.8561107088378002,
          1.6528309489830153,
          -0.22245390788322186,
          -1.8804491069515512,
          -0.7980218210891413,
          0.6181289883431615,
          0.05068925715351235,
          -0.0045569182939215,
          0.23818666339800992,
          -1.6549183622692858,
          1.2267321069000625,
          0.946495077065801,
          -2.186791518990872,
          0.19451014759585736,
          2.0574000620055415,
          -0.29817317964027595,
          0.14357638716347063,
          0.6899475028210987,
          -0.33715225871467447,
          1.000085405778323,
          -1.0340877629088485,
          -0.8751553117593456,
          0.6822629517075343,
          -1.2334057740420383,
          -1.6312566230096412,
          0.8888490278749924,
          0.6357670896718363,
          -0.33780805864875424,
          -0.1151980453499507,
          -2.6564717154771853,
          -0.2430350034987821,
          -0.46282001765249065,
          1.4506867713836362,
          -0.6641129817022723,
          -0.11417244218826993,
          0.09109175117979953,
          -0.23855506714361488,
          -0.16903823503248397,
          -1.4787364411767985,
          0.817961633859976,
          -1.1996964640386427,
          -0.9695187764871145,
          0.15034709022058432,
          0.2945800272813042,
          0.45313716119487885,
          0.7392799686513434,
          0.5616437213883532,
          0.2317885744076137,
          1.8310350284413626,
          -1.355340527446081,
          0.7424289236805207,
          0.8171446200074017,
          -0.14155522711640886,
          -0.8885654717056027,
          -0.646806642499324,
          -0.9774710312522199,
          0.7659192187203823,
          1.1255194016134364,
          0.4482373624923116,
          -0.9524896650619474,
          -0.059682000046904805,
          -2.393955941243734,
          -0.5623152802091657,
          -0.7302699564653724,
          -0.3620121030050956,
          0.024323019793912055,
          -0.4788349384269531,
          0.31862043685810637,
          0.4321623861081353,
          0.6175963810905968,
          -1.7894490272878765,
          -1.1827478642323863,
          -2.022960445049736,
          1.7413978918310287,
          0.08755570306458112,
          1.2143215024585763,
          -1.2930496874644126,
          0.016171164368762203,
          0.4957036772527923,
          0.58080091385304,
          0.6758546166330412,
          -0.058905645501758086,
          -0.06521802947752439,
          0.32755789927344914,
          -0.7157407162258836,
          -0.22520766572213702,
          1.0004769427653708,
          0.9842600405389783,
          0.622032370313464,
          1.251878055149605,
          -0.642070181718163,
          -1.776945300988988,
          0.7265020815182589,
          0.05801477949871387,
          -0.5219199647035125,
          1.2748704989026414,
          -0.6160681254817243,
          -0.2817643903059448,
          -0.49348976125805427,
          0.6128846092088004,
          -0.8936742606022179,
          -0.9631630173092629,
          1.4498485511623078,
          -0.37586765869299676,
          0.20156514736055192,
          -0.7047304857698472,
          1.6984533270262263,
          -1.5958179284367628,
          0.8482240430556651,
          0.8282448109286057,
          0.7571519172611818,
          -0.03696935074016004,
          -0.4532543078438096,
          1.1630304442250952,
          1.6347638389157664,
          -1.1079364370275937,
          -0.06782002361397582,
          -0.16172998751619186,
          0.168559847076883,
          1.7885625351685561,
          0.816030235578705,
          0.8427641134678024,
          -0.1900947741267073,
          -0.24964705269335835,
          2.040087090195117,
          0.41822795600584595,
          -2.308128082864434,
          -0.7206651821263033,
          0.9600220711952424,
          -0.38306464974418497,
          0.5675898915317757,
          1.2466674667808413,
          -0.2758978733356644,
          1.7515940265795287,
          1.6551747857154022,
          0.3571025018949556,
          -1.150408318013665,
          -0.8301872747503332,
          -0.6387199036633783,
          0.192014447835903,
          -1.134504972901734,
          -1.68351295759694,
          -0.36336390193845225,
          0.5354366506901623,
          0.8546404709624714,
          1.019266678023827,
          -0.4314485886698848,
          -1.5168785440416803,
          0.5369075014812593,
          0.258877339499512,
          0.6621944821083643,
          -1.4243116674185616,
          -0.5002432075673792,
          -0.27646266858747387,
          0.14074452286156672,
          1.8284667702124449,
          0.5605065766950236,
          -0.559516806543083,
          -0.9421790093408295,
          0.4079205739991912,
          -0.935275546653662,
          1.6128743992909913,
          0.07902503502995267,
          0.5470612581617802,
          0.5515464645956134,
          -0.3115381299062245,
          1.6997248473672384,
          -0.7682493447552251,
          0.7067782965438903,
          1.1659649561116632,
          -1.2569802536530894,
          -0.22366977563514343,
          -0.07150356162821615,
          0.08736633830726803,
          -0.2823658014580051,
          0.07383324108089909,
          -0.5115176802268903,
          -0.21863082039617152,
          -0.44626639329608164,
          1.239267855439825,
          0.5066447241512133,
          0.8818803118209866,
          -1.7145457943924756,
          2.4277370944501504,
          0.6668161523639267,
          0.3639819036958163,
          -0.09668461024691367,
          1.3466553879523562,
          0.35026269574401986,
          0.4133035618705649,
          -0.014931572151420706,
          2.2902865754283233,
          0.28477447597765276,
          1.7039131626067177,
          0.007030051988317982,
          1.91590240790667,
          -0.3940326639021649,
          0.15490623017768362,
          -1.0503961040023377,
          0.7146067969104368,
          0.0648551769314333,
          -0.8119561296784376,
          -0.14199596944136725,
          -1.3403721188622337,
          -0.3795492235180093,
          2.343903371549648,
          -0.316116539685469,
          0.1261169203423622,
          1.1127855722655207,
          -0.47569466260375387,
          0.46439241855201313,
          -0.4166253291434134,
          0.2877135314673957,
          0.26937539459964477,
          -1.2306298071100905,
          -1.346622972059927,
          0.5014485691314655,
          0.4737124166285089,
          -1.689752144067002,
          0.7997273287890624,
          -1.3006966105901347,
          -1.1226235656118526,
          0.36921862097124897,
          1.4361826160030031,
          1.2360083502881096,
          -0.929031147205116,
          1.1521949442473485,
          -1.2607859121024683,
          0.33940974393362866,
          0.4144660524847792,
          -0.03664781852531144,
          -1.372324892138548,
          -0.8429212137200753,
          -0.9157258109970212,
          -0.3973472650872229,
          0.7946740681321753,
          -0.9277167515774561,
          0.2140411700465295,
          -1.3186901394228723,
          0.4904366813125148,
          -0.03243803530366026,
          -0.5918496287754142,
          -0.9066058548865545,
          -0.16660512029767324,
          0.05631862685502734,
          1.2484442636227178,
          0.1168257690340936,
          -0.2647150139735013,
          0.1282922048615478,
          -0.7661190149662358,
          0.5250166582295458,
          -0.6888451014009224,
          -0.8265386360279556,
          0.4871310066372504,
          0.07481875424993045,
          -0.8636205707124601,
          -0.04849154124725304,
          -0.29693415342606294,
          -0.5058254283008292,
          0.021673537717019974,
          -0.40729906904555024,
          0.741975526074809,
          0.5192418145766493,
          1.2740658557522457,
          1.9430148827880298,
          -3.3414393665965667,
          -0.3189111807869512,
          -1.0309854746347327,
          -0.9018584683115595,
          1.3600726354229606,
          -0.02573623788763754,
          -0.10182257442731593,
          0.27782415061297316,
          1.0278519048099253,
          1.300735883363215,
          -0.7762906763999692,
          -1.6042618211813386,
          -0.26592389987664977,
          1.0235691431888558,
          -0.8635855461685455,
          -0.37821925356245395,
          1.028448093209345,
          0.11135938835399399,
          -0.4798718261527034,
          1.1179601576540523,
          -0.9338647722171157,
          0.12698920958766413,
          -1.0359835736959524,
          0.7140996347850039,
          -0.46954902593670533,
          2.0674786934976996,
          -0.9017137634954748,
          -1.1128704570367562,
          1.494697270746449,
          1.6923633498517023,
          1.769635397509086,
          -0.23917464609301345,
          0.11094140543744373,
          0.23516547535991342,
          -0.5126668170832022,
          0.0465651079500995,
          1.5542701163113402,
          0.5941135951290215,
          1.447781684660951,
          -0.7644130626862518,
          1.0912487959898023,
          0.37784877857882926,
          1.3505074205184093,
          0.7375025479677704,
          -0.3351305133218624,
          -0.6790214814159857,
          0.5719348147516248,
          -0.8889877987925214,
          0.05446750302205937,
          0.8176261475849167,
          -0.8393993761404582,
          1.029248505142098,
          0.41344127505141076,
          -0.4167298381789605,
          0.3978134856361764,
          0.9504872780889806,
          -0.5912862963895772,
          -2.1720249479203253,
          0.12395736022053083,
          2.38361870207345,
          2.256366748814798,
          0.11077042155118677,
          0.061725039884854414,
          0.05072572371676767,
          -1.1638175044121692,
          -0.040169588442220815,
          -1.0436005094864358,
          0.673111920717123,
          0.3611670750340262,
          -0.41936079845856755,
          -0.2243609060868317,
          0.48216114416138006,
          0.6827015964490843,
          1.8091637793409212,
          -0.14367950105186178,
          0.9531929561123489,
          -2.442376625081722,
          -0.331800345595914,
          0.41358624003329864,
          -0.9977344582954445,
          -0.41417152599553875,
          0.9380254139213429,
          -0.36614644911966276,
          0.5188812380729284,
          -0.39138727439060667,
          -2.2124831235820404,
          1.888052591680294,
          -0.42000308323026375,
          0.39071870088757443,
          0.10714164946910622,
          -0.3028895054046181,
          -1.0840486644372918,
          -0.01078774266479237,
          -0.9642749793340911,
          -0.08662663324093835,
          0.453873043290095,
          0.4533935698550772,
          0.403705976898969,
          0.5716433149825695,
          -1.1375413275426078,
          0.5412168770989816,
          -1.393215691766544,
          -0.2588441742580214,
          -1.27078114341022,
          0.533377135122286,
          1.5775449566298083,
          0.05548608076029425,
          1.6617802731910691,
          0.1574162167448453,
          0.5799543909741048,
          2.0197427658254896,
          0.1532643262415476,
          -0.12166863862250013,
          -1.1230371683637577,
          -0.3268191651287237,
          -0.15326413605233788,
          0.09557198655780852,
          1.3715873905064753,
          0.7422689262766989,
          -0.06315748392623757,
          0.23357562724148578,
          -1.8850422883832219,
          -0.11437641867949579,
          -1.2580406194591032,
          1.0592967877983914,
          -0.888699604847723,
          0.2528585448227752,
          0.667056436094473,
          1.1666551101274554,
          0.12913306639170521,
          0.875364778760315,
          -0.04600200460876642,
          0.8268269990967121,
          0.21426973467101812,
          -1.2201240912800448,
          0.4708077859437595,
          0.17321122803615535,
          0.9658937874325989,
          0.20356435950899227,
          0.36084910355614214,
          0.5503012337687032,
          0.1693715541785291,
          -1.6178606284288777,
          0.42269702661167785,
          0.15091145042237977,
          -0.04508223312447231,
          0.9216734358725807,
          0.557054737569532,
          -1.999152610116114,
          1.9881730908961244,
          0.5952477880636493,
          -0.5809212145293092,
          -1.1590768820762087,
          1.2199565658725307,
          0.6214180978551698,
          0.8293024625086699,
          -1.6905299856422797,
          0.2764081984633909,
          0.08812453870500214,
          0.8850441712833306,
          -0.9828487671241283,
          0.3128836743887664,
          0.5206161015416716,
          -0.3791708125347862,
          -0.4837724192828786,
          1.2768260744073716,
          -0.008598952626291803
        ],
        [
          -0.029337683561160163,
          0.3901734883751856,
          -1.0625042696504963,
          0.4862874990073856,
          0.8993369018247511,
          -1.5750066101033326,
          0.9918745943862762,
          0.2512246183598071,
          -1.2085913538555657,
          2.204606601802421,
          -2.4361771588786745,
          -0.4633126507380505,
          -1.7302204416066347,
          0.6957421562358356,
          0.08391306305674222,
          -0.9054720021368511,
          -0.06915591437846971,
          0.8241807092683578,
          -1.1084765539327919,
          0.7241242957711038,
          -0.030089698004242667,
          -0.9234756848242887,
          0.8426017157793422,
          -1.2120573907157954,
          1.5346606526434292,
          -0.1921353885638684,
          -0.6522916898940181,
          -0.9361541155622195,
          -0.0815467354083677,
          1.1447628371546614,
          1.2139354793230397,
          -0.7092479038965587,
          -0.8034419756359552,
          1.957452969656508,
          0.18368985349501232,
          0.4350592807452887,
          -0.2646056830397571,
          -1.8766121729420426,
          -0.8864131957048672,
          1.122721004700575,
          1.5780654094128608,
          1.7618258358886016,
          -0.6263212072108605,
          -1.6092267132001812,
          1.7065953181258517,
          -0.8482029349293992,
          1.0093645519298122,
          1.7044734272869275,
          0.344853521666625,
          0.5486311773428172,
          -0.08751397484460041,
          1.2024469192649214,
          -1.6142427673566464,
          0.11733895179271296,
          1.1010848318841626,
          -0.1827022384298101,
          -1.873758722425161,
          -1.4631311430133072,
          0.04069895331863448,
          0.9362699635323551,
          0.4317737345699113,
          -0.02449301499712017,
          0.4126468430781988,
          1.4719082284671594,
          -0.2240098828753153,
          -0.8458895086769058,
          1.3475580257367499,
          0.12505861092846446,
          1.187534601755672,
          0.09172690220255056,
          -0.6118752578685555,
          -2.0749260793040056,
          0.9190575385746975,
          -2.282859487676381,
          1.3030520009649664,
          0.6434975030408748,
          -2.6786063859338856,
          1.271854968935188,
          -0.201739107890534,
          -1.3140069036499462,
          0.89395407937766,
          -1.915278852864511,
          0.7101061032226669,
          0.10878621328000386,
          -2.277658709157196,
          -0.12017369993040378,
          -0.0534467114360655,
          0.9304561225445843,
          -0.0650465397113522,
          0.5844819649812458,
          -0.7843186323109986,
          -0.3756282533406158,
          1.1040961556258353,
          0.5828266242807041,
          1.8773609298876033,
          0.8436418049650556,
          1.754788125285185,
          0.45900846589060773,
          -1.5159478937266015,
          0.21261167495576785,
          0.5281899155165145,
          0.7667341198339436,
          0.03648500027573178,
          -0.21167586368836572,
          1.6783804658458237,
          1.156838639919653,
          0.060628081621966444,
          0.40870375767161654,
          -0.4728695308813037,
          1.2093851548847774,
          -1.5231837264095098,
          2.041160864093891,
          -0.934505217110865,
          0.5899556089475543,
          0.9387623417906095,
          2.0911416163492134,
          -1.53752265765776,
          0.12658186388844092,
          1.2126477565353764,
          -1.2549695537674759,
          -2.564962648318584,
          0.5140965344705553,
          -0.8057448490986929,
          1.0996608120555142,
          -1.6838557696495622,
          0.32596320289498515,
          1.2401663246663261,
          -0.11030366432134159,
          -0.6684583107142019,
          -1.7514506519626802,
          -0.2844073120332417,
          -1.7017736404405959,
          0.1887794677533961,
          -0.08759640034480191,
          -0.167196756911464,
          0.061338693891905924,
          -0.6883602010049565,
          0.79561218373535,
          0.20262054616164948,
          0.19954433708071173,
          -0.6396788326231697,
          0.02321159865883143,
          0.1002156925760938,
          0.9196887169475753,
          -1.4870400632399616,
          -0.1735591029870527,
          1.4191167895471921,
          0.012158371085865243,
          -1.492173560292836,
          0.4234898724125603,
          -0.03643175532055,
          0.01543582121796209,
          1.988142686337329,
          0.7634129376324712,
          -0.6938065849724293,
          1.5465109226373055,
          -0.8351391527519632,
          0.5508112802630719,
          0.6108333612206169,
          -2.011593277085039,
          -0.09367744354151877,
          0.48554565462844135,
          0.060344138740321795,
          -1.3675898387263203,
          1.6136957427659202,
          -0.23771554361328745,
          0.11783530409740137,
          -0.8464928703849891,
          0.38292761787792995,
          -1.020565788671477,
          1.4847263222228477,
          0.6626177607149905,
          0.33295761318555833,
          1.1325970659164966,
          0.17910745619951954,
          -2.0709609044013018,
          1.9965810365900853,
          -0.8602321152136974,
          0.31675907706682715,
          -0.9220893385454741,
          -0.8648079181853351,
          -0.5680884086648793,
          2.0791472453144513,
          -0.1700893914535749,
          -0.12560529605923482,
          -0.6426949949110301,
          -0.9610562993090667,
          2.159214547602064,
          0.7134000746922984,
          0.8592006826281005,
          -0.2835599976930985,
          1.2396084711154987,
          2.0252126218795277,
          1.144625438640702,
          -0.3709798290855277,
          -0.9939121846667403,
          -0.08269368154530811,
          0.4141583312942293,
          -2.0604141754582774,
          -1.3648913078411313,
          -0.7851888248180183,
          -0.5362290768390553,
          -0.850559215391668,
          1.4611745110183265,
          -0.19858517838773207,
          1.5233353704188735,
          -0.5336449538364766,
          -0.9118773088696936,
          0.16047438672369468,
          -1.523506115780949,
          -0.577944827037599,
          0.010079606795799058,
          -1.1396907052857541,
          0.7942388953361914,
          1.000300584646755,
          0.6584983635258413,
          2.2941458694115187,
          -0.4737466993055301,
          1.6476713686551876,
          -1.9355045660194383,
          0.09912614481856154,
          -0.6837681048974014,
          0.5408304835366848,
          2.4112176067385462,
          1.8412351175578445,
          -0.27863080036954424,
          -0.7629902731194225,
          -0.027682415828821413,
          -0.2549281771486728,
          0.8035674403930304,
          0.8706407150447603,
          -1.5278184918735749,
          -0.14554578922845163,
          0.5764434615236698,
          0.5888009437070324,
          0.16620120132348853,
          -0.9978800336659839,
          -0.4235894310921769,
          -0.2768143269659609,
          -0.2965047742414905,
          -1.5967355735765338,
          0.18876759568483506,
          -0.18797579446502197,
          -1.737198522529057,
          1.4158351717645987,
          -0.8288461181016771,
          -0.11426551657752361,
          -1.4257234680269417,
          -1.15829719733436,
          1.9272248313364713,
          -0.04964923224225093,
          -0.5559713082597336,
          0.3177223135850449,
          1.0812966892513085,
          -0.4921673078817518,
          0.4300195554492572,
          0.924148951925352,
          -0.8121396543384287,
          -1.2918113458711398,
          0.9350993587729277,
          1.3547293824937299,
          1.0916687475639515,
          -0.7800097860874544,
          0.406748046149719,
          0.8967272552441077,
          -0.035863318855406404,
          0.79252182260474,
          -0.22061020106606066,
          0.6662274741954227,
          0.9057444713192386,
          -0.14931549193341234,
          0.5994223803248611,
          -0.651500527701638,
          -1.9132010940772843,
          -0.17152252393471015,
          -0.4973657932233481,
          -0.2903088827618234,
          -0.5146381584142695,
          0.05690289764193777,
          -0.26553167265302396,
          0.9228282580000267,
          -0.08670351102467733,
          -0.49966320833384487,
          2.5010373148776006,
          -1.0432585679427875,
          -0.3457793889074652,
          -0.9449053242830276,
          2.6262596723457112,
          1.288147514334798,
          0.6638430612366193,
          0.5782814474881944,
          0.44003961487424215,
          -0.1286840158354477,
          0.22234881622534539,
          0.21330889008506448,
          0.05387475314779657,
          -1.8117488647999753,
          -2.018513956835368,
          -2.5273141918178386,
          -0.6616141610235905,
          -0.7492761851053189,
          -1.0546659839311487,
          1.3683258591341694,
          -1.4204367072180306,
          0.9334206675098351,
          0.024387480121529102,
          -0.7776847831516238,
          0.4047766816590885,
          -1.5628582363296928,
          -0.9405833314704571,
          -0.47912481282421204,
          -0.8705801306701341,
          0.8772118522947904,
          -1.0491973241171397,
          -2.4450341123392936,
          -0.6752236460156876,
          2.382029594309644,
          -1.5198567355645123,
          0.5840231131918019,
          -2.054885266014872,
          0.8704159227532027,
          0.6554926360634468,
          1.1836780863090866,
          -0.8203836820880652,
          -1.4579441440015257,
          -0.21856673225741202,
          -0.20794243575294435,
          -0.8494927091416533,
          0.44574932608146783,
          -0.08334150078422771,
          -1.2502063767835645,
          -0.9321814168478976,
          5.494431106955436e-05,
          1.1719454881321905,
          -0.12532900025836713,
          -0.9369756172107716,
          -0.48454107507842514,
          -0.7809168377807698,
          0.8419250343980154,
          -0.8426055305789801,
          -0.5345335105164383,
          -1.7618511748209116,
          -1.9164440479001779,
          0.5341858056439528,
          -1.7849042301188398,
          1.254324257326642,
          -0.5860825184205397,
          2.868641864318135,
          0.18380444570323523,
          0.004971528618067074,
          1.1911322173549372,
          0.9514406676883981,
          0.15189798769941168,
          -0.3118204239953832,
          0.02456681276971397,
          -1.8537268211780513,
          0.16195288331164195,
          0.3795153121523427,
          1.3622941117152805,
          0.04514455625181838,
          -0.5739418511179456,
          1.4387112857714461,
          -1.4729280707826162,
          -0.8386381732844916,
          -0.16347509037217298,
          -1.6862254821989744,
          -0.3814356698829128,
          1.3801538833282891,
          -0.5781073251498897,
          -0.6635802310889255,
          -0.6827216505961258,
          -0.43892273555800576,
          0.8041628062625361,
          -1.2314516567061589,
          -2.788962779522269,
          -0.775500152526273,
          -1.0473959147292071,
          0.361251045188152,
          -0.054487963222173606,
          -0.0037275234273038372,
          -0.4396750766070528,
          0.25461670395535946,
          -0.14614060018731753,
          0.33967170471654434,
          0.8481564749408844,
          0.2048721190845171,
          -0.003593524853491811,
          -0.21091341225983842,
          1.8214216726304766,
          -0.7842634060541631,
          0.7241315805375139,
          -0.2784789104048438,
          -0.47428052627043876,
          0.35380256525033943,
          -1.0710921982722186,
          -0.48355148131612163,
          1.2810508011957717,
          -0.13992813441136384,
          1.2953594287940269,
          0.7258697749979646,
          1.428073488970783,
          0.5526045129354119,
          -0.017960328079255024,
          1.1080165589910833,
          -1.3291582933701502,
          1.1355818813420746,
          1.2272714972581031,
          0.186833372223191,
          -1.4026326676276266,
          0.13390176436891216,
          0.43170044582815903,
          1.7902417160670545,
          0.2843057081114279,
          1.2391094207662408,
          -1.3994613685732487,
          2.6746891913387096,
          0.2776514105808182,
          -0.02136154936758526,
          0.43862096775525394,
          -0.6341751458080589,
          0.8887143561592988,
          1.9939379749343575,
          0.5540511935742781,
          0.7503826153773925,
          0.6280567977292995,
          0.83383693368738,
          1.4092072699808653,
          1.088263678090279,
          1.3773678106186704,
          -0.034953840288553265,
          -0.5469964631167372,
          1.4779790793025502,
          1.2790107966434285,
          0.8612455784095875,
          -0.12249588881347345,
          -0.5203587044026605,
          0.16622956446483286,
          1.423710129938565,
          0.422070396718139,
          -0.17912942434246218,
          -0.9816286242908143,
          0.4667819020433922,
          0.39392908332031307,
          2.043089851441866,
          1.6061454094987124,
          0.7337505241340001,
          1.8058021153131016,
          -0.4319333436218505,
          -1.7843358733372892,
          0.049553587886862864,
          -0.19088002487228983,
          0.4459042876578995,
          0.03690949149554511,
          -1.3515311854072687,
          0.19026837655906376,
          1.3183917666517841,
          1.1857832362101621,
          1.5705959384204433,
          -0.23834232898052318,
          -0.6374757144199422,
          0.5792396025011802,
          0.7430940648854362,
          1.1775326366240055,
          -0.38027160553970685,
          1.0523127740368954,
          0.01297425509443272,
          -0.6400499347276913,
          0.541930714134846,
          0.08650769454274088,
          0.7786805926931043,
          -1.3185193990260455,
          -0.843647580799437,
          1.004529610290758,
          -0.2531363462798701,
          1.5511079675219837,
          -0.6570027221496323,
          1.1514784174956891,
          0.8759836190459581,
          -0.06326016011861306,
          -1.0019495824731723,
          1.0075682086699134,
          -0.8319505419420535,
          0.4908973221302754,
          0.9354341755724019,
          -1.268709135377915,
          0.10120140248864773,
          -1.0958250238680338,
          0.6056031373374404,
          -0.3071987707427334,
          0.725740126777345,
          2.0984380369195796,
          0.6156549036311931,
          0.10921465491868922,
          -1.43498372089189,
          0.7228123876942555,
          0.09447513883258253,
          1.5625995031977407,
          0.9323057093542408,
          0.24485786694090755,
          0.27077320120470666,
          2.4293484968021772,
          0.37014068521740334,
          -0.2169247961383281,
          1.4520982334927384,
          -0.03854845619402916,
          -0.9805913763170414,
          -0.8734036777312916,
          -1.6346119336545797,
          -0.5743514988072654,
          0.0770150054270005,
          0.6171165277979069,
          -0.24535574300622828,
          -0.6485209666758525,
          -0.030095897437936364,
          1.6397615912710761,
          0.21632999287635563,
          0.5032419612124912,
          0.08396515078726254,
          1.3111748774095338,
          1.116962582504548,
          -0.19892943850227102,
          -1.4053437831662645,
          -1.1043450422352004,
          2.1685689483204444,
          0.06171722985521912,
          0.7851697063453553,
          -0.3746228140390361,
          1.4564757979384046,
          2.740830549514867,
          0.20667346359050603,
          -0.5843846781462432,
          -2.032998387870546,
          -0.14065401235118588,
          1.1255322007518396,
          -0.9968158704043204,
          -0.7340791205157391,
          0.11981118648127624,
          2.2646718003695954,
          1.272987399447767,
          -0.4788034249190209,
          -0.09493925662923637,
          0.6931371128366167,
          -1.17852989089373,
          1.325987087150613,
          2.2995745047976452,
          -0.1893520732912892,
          -0.9443826283909981,
          0.10556170857903052,
          0.47769416385201335,
          -0.8717855315022552,
          3.053464351046682,
          0.7286557169312855,
          -0.25745828074145477,
          -0.7821281672166062,
          -3.0110755236561144,
          0.8716238242371269,
          -1.9570270579959306,
          -0.5048263207850114,
          -1.0225743678279355,
          0.8202371608832365,
          -0.5431686425880043,
          -0.8132693198273985,
          -0.701157327746033,
          1.4794056980835641,
          -2.2716523629495553,
          0.3064379750771523,
          -1.5328153042844437,
          -0.14570517274027472,
          -1.3678653903419644,
          0.35594356757619333,
          1.1851526274958004,
          -0.1624713579922542,
          0.5095883978296128,
          1.5208846191711523,
          -0.08819141499065544,
          0.8734065414449702,
          1.5531511184839453,
          -0.14677782495852904,
          -0.5463657270399706,
          0.28874905760687214,
          1.5960928770503553,
          0.5865941791258057,
          0.6634549049211216,
          0.8329140011661398,
          -0.9239034357312815,
          -0.7930398611779191,
          0.9934288736641365,
          0.4781846400137601,
          0.17961726871936362,
          0.726625871854166,
          -1.0820630676042693,
          -1.7441067725730377,
          -0.6270097276158124,
          0.48086280217623495,
          1.9290330899741461,
          -1.7795071112244145,
          -0.7591858576172438,
          1.6871974313818112,
          -0.3758850407357153,
          -0.6820014697147271,
          -1.020997437498613,
          -1.7659635755338652,
          -0.04619104985725381,
          0.2803874936248925,
          -0.9199767842128991,
          -0.21890121264069018,
          -1.685779372324559,
          0.5009456334016139,
          0.3347899485136506,
          -1.6109114062321597,
          -2.468413541646942,
          -0.6407506598549852,
          -2.1747473030389832,
          -0.15610186059865322,
          2.0495812899184838,
          2.215416738647368,
          -0.7454475375126691,
          1.3238570642562413,
          1.1888533080933417,
          1.6556064374988504,
          1.1297466332289667,
          1.5774333179043738,
          -1.102644570037242,
          -0.6380548607467396,
          0.10628430142952629,
          0.8643590306131844,
          -0.0874518704722699,
          -0.8828925030909838,
          0.4229225623622644,
          0.3861000091767616,
          0.4424262667533267,
          -1.0885126769017082,
          -0.8968254248387194,
          0.42877785354214115,
          0.3822438414011757,
          -0.12840784892986773,
          1.232186633866205,
          -0.393666233621043,
          0.29872967802662015,
          1.3735346992395634,
          0.22074122209280944,
          -0.24628942806594945,
          1.1154326982269425,
          0.5549832818187529,
          1.883341963138352,
          1.3792556346856353,
          0.41340206523274825,
          -0.8911374457840926,
          -1.2135514582851654,
          0.2831841871270993,
          -1.3411049980965348,
          -0.413909498069282,
          1.0831692653520928,
          -2.547836138073022,
          0.9811907739670099,
          0.05096857726387839,
          0.6405823631869827,
          -1.6522516187482703,
          -2.3123274625531702,
          1.1278039679590373,
          0.6284937010332464,
          -2.0413698920124244,
          0.4509970689523728,
          1.1846367226014003,
          -0.2412565320779767,
          0.7729310166124258,
          0.8167174508691213,
          -1.4163569759928822,
          -1.1701204056853551,
          1.2754644331173832,
          -1.805161243625806,
          -0.7934984688964432,
          1.0955477665107802,
          -1.1534206424823175,
          1.3674986694605356,
          0.32561235901966595,
          0.7981114671217019,
          0.3247517979135329,
          0.7111640767194064,
          0.9456270895058468,
          -1.0159013689387644,
          -0.5126376564680111,
          -0.466724908331798,
          0.18533423113396735,
          -1.4079537872543622,
          0.21881464643960163,
          -0.8105036594084857,
          -0.5707188147611463,
          1.3963705863259988,
          0.6148186226463824,
          -1.1968534534938333,
          0.12466658340762665,
          -0.31323935146725934,
          -1.655895875245354,
          0.05902304820658907,
          -1.3062488848244642,
          0.8387525733390006,
          0.5988412484896709,
          0.43580455559514825,
          0.11903603086693385,
          1.176620641189292,
          -0.30907826197387256,
          -2.1567600865712313,
          -0.9154751082672657,
          -1.5223681186836406,
          1.805840277165385,
          -0.2559888811111302,
          -0.38240083206394815,
          0.7945155647546339,
          -0.8959714513578958,
          0.6222472385918494,
          -0.7859589514504504,
          -0.6839823882882402,
          0.6323484324340236,
          -1.4027696714264684,
          -0.03184225726134402,
          0.640599794493639,
          0.5013200263367281,
          2.1265338648819636,
          -0.12433043570321618,
          -0.8195055086096205,
          -0.35937478002480044,
          0.7585708435722235,
          -0.9901730433623617,
          0.09302697139148323,
          -0.25661049240992667,
          -0.3993925173605535,
          -2.916094520715829,
          -1.7584441850154753,
          0.38377791332359695,
          0.3756844653574305,
          -0.46560209024899096,
          1.9018925968075595,
          -0.41670067996159543,
          0.34516425114140903,
          0.10702690476272403,
          -0.281851493836441,
          0.895492014219438,
          1.0956296340274023,
          1.4324543704892212,
          0.4692339564983333,
          0.38003558151945577,
          1.0190299943985828,
          2.367618174469335,
          0.5115703774753174,
          -0.7489358949953006,
          1.4049367615271944,
          0.060971151256465156,
          -0.0030676975960298343,
          0.9423180825168045,
          -0.12158851453668924,
          -0.43740328371886533,
          0.31198435265058794,
          0.5627231702192815,
          0.8860029527208971,
          2.0006925562953395,
          -1.6681421633798441,
          0.6166816906594897,
          0.17387798378961883,
          -1.6336961207868268,
          -1.1017584499859931,
          1.2611927549665456,
          -1.0368350933086439,
          2.2760367846390035,
          0.4033385889442187,
          1.745707226907533,
          1.4207114757007873,
          2.257320351633882,
          -2.4743000041350247,
          -0.5844182018040295,
          0.5251529294887283,
          2.4764957585265304,
          -0.672587043647077,
          0.6324267052388368,
          -1.6724287185946258,
          -0.3440579710960617,
          -0.5396182825557394,
          0.3433188593364551,
          0.5152299496454495,
          -0.960880255691859,
          -1.4605833375703814,
          -0.057467394087542374,
          -0.22773541047566498,
          0.881252874365084
        ],
        [
          -2.3653850760644954,
          0.6317091881427094,
          1.40041494627159,
          1.404027700010562,
          -0.3633746596637855,
          0.9096613010806172,
          0.232472701715147,
          3.3775150147988753,
          -0.4213454871011554,
          0.9130912742586689,
          0.3159834009697107,
          -0.031306229283440755,
          1.55559185479997,
          -1.1872711828805163,
          -0.02714302879769564,
          2.4145684016043125,
          -0.9424118426950454,
          0.5118723253001597,
          0.35005401950316,
          -0.08541665494701031,
          0.5296689507832881,
          0.6246629656552023,
          -0.03696442778165638,
          0.35039721828458537,
          -3.1810588466671814,
          1.0419164924659026,
          0.15884551019458001,
          2.3799345545174426,
          1.8823318695520082,
          -1.3806285689985824,
          -0.17337143760977755,
          0.11206041097831583,
          1.062193950323807,
          0.6810528223745091,
          -0.6690976614968603,
          0.29465672390076286,
          0.3890697210492975,
          1.8484178062421819,
          -0.5288587165633197,
          0.5801569630930277,
          -0.6150929501973295,
          0.7304946994737865,
          -0.6837864732981899,
          -1.8053050108479827,
          -0.37269963524098587,
          -2.0726648281529476,
          -1.65831433012865,
          -0.8498339778116758,
          0.9307294197505585,
          0.009410641791113516,
          1.1017366021120156,
          0.04825298622172552,
          -0.8632886994568844,
          0.5322896559438487,
          -1.1754085525663671,
          0.7239848646470887,
          0.5554603559113617,
          -0.3178386894070754,
          0.9007868854714195,
          -0.3126092671089534,
          -2.131018890724077,
          -0.04557896391031088,
          0.15606418165129146,
          0.6174724508164693,
          0.25673161723765586,
          -0.7545067490662359,
          -0.3141166587758194,
          -0.328350239938482,
          -1.5551024107366362,
          0.8290206672587306,
          -1.1261072973322312,
          -1.6296349313821243,
          -0.8088416338867959,
          -0.18729835654844001,
          0.010108166511531002,
          -0.12198478311041795,
          -0.03726459364207698,
          -1.1109474747887962,
          1.742222858112093,
          -1.5884315892236291,
          0.1639684316860024,
          -1.311206792985428,
          0.22852851789106887,
          1.6086964240059745,
          0.9664123666647962,
          0.30674875093780823,
          0.4761380812064785,
          -0.011367220883000207,
          -1.2506229375896676,
          0.6851537979369973,
          0.617646824873242,
          1.4643369034456322,
          0.2682064705224719,
          0.24810681393710474,
          -0.7127117317524964,
          0.017493353926365817,
          -0.22105084084900478,
          -0.9665434121908008,
          0.6771737053152477,
          0.48563056982294434,
          -0.4074857629416144,
          0.32445623651127087,
          0.476036231841255,
          0.6343373625337434,
          -1.0037582491741495,
          -0.24199253931641002,
          0.7798328551935398,
          -1.7822737162267086,
          0.9321014080837774,
          0.14249809934710608,
          0.68209763894611,
          -1.4459868877927937,
          -0.9337886137625284,
          1.9433899305562878,
          0.47469685327408595,
          -0.26136250408910744,
          -0.5038914169465801,
          3.014152347471083,
          -0.36661047201627894,
          -1.6960349475004297,
          0.31752680386698945,
          -0.29222433707979917,
          -0.4587234756055555,
          -2.315638826681874,
          -0.04622384212280897,
          0.35116350913788985,
          -0.7401820079524524,
          -0.03955323639541206,
          -1.120401387939371,
          -0.37906080589391344,
          -1.2498995976032408,
          1.50711200388251,
          -0.26903286425270134,
          2.073124045165666,
          1.420483086600188,
          -0.5529874323682177,
          0.4769413982183719,
          0.2409718601132213,
          0.5188087058064029,
          -0.6657776470084231,
          -1.1701652990508544,
          2.0106463813133586,
          1.3227959081037677,
          1.2761061172077073,
          -2.2405935392147893,
          0.6041982832478925,
          0.6185908273566811,
          1.9259447777794376,
          0.6130521483029374,
          1.0388802967779487,
          -0.12076128371026693,
          0.2921855782311849,
          1.4333851997146265,
          2.111483317278329,
          -0.6151046143416139,
          -1.6412593735312444,
          -1.0374371174474442,
          0.2114690594743448,
          -0.14444841511229786,
          -0.2946967960933941,
          -1.662629081739825,
          0.6854920521969481,
          0.4975711379187939,
          1.5634248806797575,
          1.4854827713732779,
          1.1492609576060697,
          0.22242164239548673,
          0.6619219792716621,
          -0.615747763592296,
          -0.8988131229483817,
          1.2823245351882815,
          -0.054389886842413054,
          -1.3008636225101038,
          -1.5896546445532473,
          0.23146823123152527,
          2.750105635314169,
          -1.199230311745449,
          0.07255932748306568,
          0.05661826786484532,
          -0.5130023883962143,
          -0.14565125231203527,
          -1.7698186162724463,
          -0.44502085846246664,
          -0.46306632416181087,
          1.8546350878242042,
          -0.328432507730286,
          -2.17867114266951,
          -1.3623347184475516,
          1.4407592316910087,
          -1.8718526816032623,
          -1.3699510958401089,
          1.2320981313211805,
          1.138580771817586,
          -0.2811803949745013,
          -0.43654040767041075,
          1.2269003772045295,
          1.512815706705595,
          -0.5019102787175539,
          0.785493584736548,
          -0.10400529535819875,
          -0.3570382465583433,
          0.8011465044759344,
          -0.26341502421777857,
          1.3158236079454473,
          -0.018081389748102687,
          -0.7981965874132759,
          -0.7563077500468468,
          0.05643175787109616,
          1.7593767401858593,
          -1.6185600634858777,
          -0.3239130634974918,
          0.34780784369632034,
          1.3869581533524538,
          -0.4715950117442897,
          1.3858447842656656,
          2.184922282447231,
          1.6396958432086006,
          0.22766360791580356,
          1.9432601873847355,
          -0.7415045443934785,
          0.5667285183232272,
          -0.38486420645293157,
          -0.04702152800257096,
          0.27182471300667466,
          0.5825502543718827,
          0.2022398563521543,
          -1.452625249611714,
          -0.5539562584000655,
          0.4308657024711967,
          0.2773303137317368,
          -0.1950811419057283,
          -1.329666005808671,
          0.43802899862953304,
          -0.6060829924070873,
          1.4612558455145415,
          -0.18191554278008032,
          -1.0336944711828162,
          -0.5480835782586797,
          1.1380065169106264,
          1.1847187378054373,
          1.0334491714739398,
          0.35641611536381335,
          1.7130425467738097,
          -0.03837075453346836,
          -1.7655534582013466,
          0.8725589993400522,
          -0.8276997600713292,
          0.5228259345080131,
          0.6775078390626655,
          -1.940618930034767,
          -0.8383502627847332,
          -0.38317325129817914,
          0.004119134102874204,
          -0.1098812275699671,
          -0.273695332876418,
          2.2127491225486446,
          -0.8328041608470399,
          0.34296472618259655,
          -0.22552897340250241,
          0.2828448246284049,
          -0.4658026507162372,
          -0.9431392341573477,
          -0.6486386140983282,
          -0.1862382385104348,
          0.4302999610002736,
          1.368966100544103,
          -0.709399889414299,
          0.5921070092857932,
          -0.4907867676910407,
          1.7252705568684323,
          -0.10960472042354101,
          -0.9638504275502764,
          -2.9743646386914393,
          1.0100284588244905,
          -0.8414793389611255,
          -0.629247520205242,
          -0.9576840015787057,
          1.627331604296788,
          0.4437290876800468,
          -0.46881162478745103,
          0.9987221563338692,
          0.03244980247642924,
          0.2034476259879947,
          -0.17100741339472336,
          -0.7012640853161075,
          1.3196499350095203,
          1.6988217951656033,
          0.5329945419084028,
          -0.18955633257974214,
          0.1496410374846962,
          0.633143352572572,
          -1.4140790185736332,
          0.7033869209766421,
          0.1242931164027922,
          2.162010130625872,
          -1.1763343924368448,
          0.4873203345313305,
          0.6365261021616135,
          -0.9633414810153372,
          0.27986231035206227,
          0.6121442857451017,
          -0.04491232953253804,
          -0.6872710461609755,
          1.1290221109105878,
          0.210947816808772,
          -0.19631488564029403,
          -0.4440209828278656,
          -1.5709878988546142,
          -0.7559663413853687,
          -0.985582739649627,
          -0.9771663968040716,
          -1.3965394496376993,
          -0.21719804168393067,
          1.0992169453245395,
          -0.7380087132185348,
          -0.8269147935152106,
          0.057671120203028794,
          -1.9143705020696251,
          0.9124182512089223,
          0.26526271438497395,
          0.21736333701209842,
          -1.0146723296910085,
          -1.3453705996690413,
          0.2609412578177651,
          -0.37134480955977545,
          -0.916354096199028,
          -0.5068307222356462,
          1.1808738232745037,
          -1.5607485714754634,
          -0.15651659027740641,
          -1.21248932903614,
          -2.2249107559190437,
          -0.979683959685332,
          -0.24496392298064648,
          -1.3389858343182826,
          -0.9622164771547348,
          -0.46367360474501607,
          0.49597337438419814,
          0.5685740868408448,
          0.6319506855074059,
          0.07944156969171615,
          -1.1037273256255498,
          -0.10873346096780148,
          -1.5630975991245808,
          -1.3982556139239335,
          -0.24528341144626653,
          -0.20675104569862904,
          -0.21692692003448266,
          -0.45552994582549106,
          0.8981929012270617,
          0.914877762512183,
          -0.7045611237237315,
          0.8683457034252707,
          -0.032388848246723126,
          0.5549657357922552,
          -0.3653864110500867,
          -0.6292248794889748,
          0.8652113574454057,
          -1.9104773673640985,
          -0.9084852645831805,
          1.9865358169525464,
          0.40516589427834904,
          -1.7161330322209696,
          -0.2086370595958324,
          -0.46963206189344187,
          -0.021040390734826584,
          0.35319052505730875,
          -0.12355639982524139,
          0.1834180220485443,
          1.3805719115922852,
          0.5951105981757436,
          -0.5193283310707231,
          -0.4223477503390382,
          -0.4208752028780186,
          -0.44073019440657096,
          -0.5000734002090257,
          0.20026222631125304,
          -0.223116879481529,
          -0.28423910001542513,
          -0.7767565887005453,
          0.07767787033984401,
          1.3869881503434933,
          -0.6290549674998361,
          1.4153777297006536,
          -0.9517326228138001,
          -1.621475034291627,
          -0.8281934392871442,
          -0.12553625861470535,
          1.0194131242680142,
          0.7067889507764978,
          0.8808453652704769,
          1.2371883796419478,
          0.7715511898236709,
          -0.326438125982987,
          0.558036598464356,
          -0.02203637165802106,
          -1.8196868847526324,
          0.7126725240829926,
          1.3145809216010274,
          0.102304704497035,
          -0.3917329696389634,
          0.010507378961248847,
          -0.6779505551679527,
          0.7883045968988804,
          0.11094420752633291,
          -0.5306973836437382,
          -0.039641958345970375,
          -1.8230643387312464,
          0.7542183968733442,
          -0.1514122798349247,
          0.1296310456901248,
          -0.9689733586478309,
          -1.717427021954168,
          0.7898650704602123,
          1.6035418428516217,
          0.14441471933288313,
          0.33344220420128007,
          1.9719705397616742,
          1.5619561347398334,
          1.1239910244314695,
          0.5736822880147245,
          -0.4625230638584597,
          0.11504258512665227,
          -1.0559434271777788,
          0.24148833258251992,
          -1.3771408925811053,
          -1.255371021441352,
          0.27709642350226943,
          -0.5688123162498135,
          -0.2085888750042772,
          0.9490767883859978,
          -1.0598404000320618,
          -0.13909189560157753,
          2.7488079237099274,
          -0.41538005200910105,
          0.24220066305143223,
          0.23541946565368618,
          -0.028379837396414424,
          0.5157916472385381,
          -1.2894122120978762,
          0.5085324634093364,
          0.5561841468117316,
          -0.9833553993763197,
          -0.6569454184688257,
          -0.21862121246874458,
          -1.0287021038165376,
          -0.31522615722369385,
          0.4895080943192396,
          0.09152222407116312,
          0.06525053667434187,
          0.4401934711095126,
          -1.5346184872585968,
          -1.0309442595022116,
          -0.29598202427049747,
          0.3112626156872534,
          1.9824255483353568,
          -0.9246863729068867,
          0.30782240061659627,
          0.6476029788429414,
          0.036552382620747004,
          -2.107063993654392,
          0.42057376669073904,
          1.0676284814202888,
          1.0375086408029193,
          -1.1763506182990706,
          0.46979094188150494,
          0.10220249307608534,
          -1.0917483368887528,
          -1.1320432727641736,
          -0.567917204204357,
          1.051197455141807,
          0.5780820219048269,
          -2.3021300274833867,
          0.5310834215640533,
          2.1046421987729156,
          0.14684322108905123,
          -1.8315101902370918,
          -0.8964239959767568,
          -0.22551799319236907,
          -0.1590776757426511,
          -0.16834216649431497,
          -0.25953758203657806,
          0.6185941828379539,
          0.24631294482708735,
          0.14497453450200573,
          0.8197812086563532,
          0.07575506408305797,
          -0.4035593256407932,
          -0.19870880168928717,
          0.7419179906089753,
          1.3050425115256312,
          1.1577240850712511,
          1.3552074486672232,
          -0.6842928622785334,
          0.22679441854545218,
          0.20993570930060393,
          -1.3532871894785572,
          0.19773930378226492,
          -0.1561083473969702,
          0.0701530341826928,
          -0.5923718003697903,
          -0.9721265411434581,
          -1.3393766689459792,
          -1.419377894434103,
          -1.3352261827752558,
          0.3041487377954627,
          -0.3972549653683404,
          -0.457427859447262,
          -0.417202247414512,
          -1.4818106364699388,
          1.6393300693734596,
          -2.5740885676085985,
          -0.10239663717413025,
          0.7781751616476318,
          1.3559239561526035,
          -1.4335139068014506,
          1.1885629334693746,
          -0.12361043097352763,
          -1.234133672123944,
          -1.1815651682032295,
          -2.5453580464035612,
          0.15285025116473874,
          0.4851816513581062,
          0.03293123961292621,
          2.3124592048987465,
          -0.04848232431694573,
          -0.36337700327931505,
          -0.0010836518568048993,
          -0.10569654338761378,
          0.2615946640922475,
          0.9885209174415639,
          -0.28724129619600763,
          -0.002852175871045835,
          -0.09705639749599194,
          0.21978274389257868,
          -1.0038222811115995,
          0.4174499831097338,
          1.5715527178285158,
          0.07660072836099156,
          -0.3896891999115776,
          2.2293695534870515,
          1.5061852098697759,
          -0.24167232990124915,
          -1.5818963510738606,
          2.1609492257708345,
          -0.6592657043071635,
          -0.8265831735125173,
          0.09277205632637552,
          -0.1179414433438014,
          0.923364476039059,
          -0.39443292271778957,
          0.760320575357337,
          1.0270933055083362,
          -0.8313937797265397,
          0.8782719089630774,
          2.5846894331165173,
          -1.2555765732751476,
          -1.5500985452067393,
          -1.167643291147218,
          -1.4002124709064512,
          -0.9791604024795186,
          0.0942796128732908,
          -2.520103165384821,
          -0.48410973871937124,
          0.6848218922706764,
          -1.8412114303166418,
          -0.7045977288680465,
          0.2392449586750449,
          0.050688801995523156,
          -0.2631497074475806,
          0.9894235865794512,
          -0.7203797825624768,
          0.5403356369817542,
          -1.656065389726736,
          0.49238338362332823,
          -1.4476799424181166,
          -0.7939984914275616,
          -0.2869520927338861,
          -0.5838584493150522,
          -0.6133962674253229,
          1.151635142109651,
          -0.06267349764395404,
          1.1212982063174695,
          1.2164189527898994,
          -0.22219348573163789,
          0.392039698756426,
          1.528770869029536,
          0.7999081002606918,
          0.2215931801962925,
          0.5529317058585277,
          -0.7355951444923244,
          0.38264539967140415,
          -0.5226505668371592,
          -0.6483492763090838,
          -0.16466638834217492,
          1.1740927037424571,
          -0.03482726961678138,
          -2.0181864989734426,
          -0.9041211289111767,
          -0.6613666391606612,
          0.9743158570651916,
          0.2329582108376359,
          -0.9530599819399251,
          0.5981143706269799,
          -0.4811375353448566,
          0.5788477494744756,
          -1.0271911017490116,
          0.6983739442980669,
          -1.7062794502479313,
          0.7880728734228589,
          1.4998745451380684,
          -1.3259238618325258,
          0.7300010183648652,
          1.6208414992234437,
          1.3072523179465187,
          -0.7689244573468296,
          0.9291788899672422,
          0.10406169751267716,
          -0.0658140883035748,
          -0.20696897614748105,
          -0.592648156086345,
          0.4742527066973192,
          1.5396947240016463,
          -0.0022148334986477783,
          1.74421228872413,
          0.34677336787192603,
          1.6873430521120136,
          -1.022774808354876,
          0.18383306369831293,
          0.9562182953721909,
          0.48180410801787815,
          1.3232891621746468,
          0.06571709902393402,
          -0.18772366177081085,
          0.9971327712594091,
          1.5188682268456464,
          -0.4644454202082607,
          -0.5753268180319027,
          0.843605021025588,
          0.9230387638831322,
          -0.5599207415267419,
          -0.2483704345958678,
          -0.5820108508490844,
          2.439954224600649,
          0.903439880915876,
          -1.2171058350444401,
          -0.9185587002008284,
          0.8486980332927033,
          -1.05175053328958,
          -1.2023830389696724,
          1.1476481654733317,
          -0.9928489317644941,
          0.6508178629395364,
          -0.473153919208132,
          -0.12439281039939346,
          -0.25707657770152015,
          -0.4561167617816259,
          -0.05404635154163778,
          -0.9752960427982228,
          1.2222573454560586,
          -0.4425950859905784,
          1.3221616315518459,
          0.8213196900870068,
          -1.0373258281506164,
          0.8920172032527809,
          0.6751636047226058,
          0.5804144190241374,
          -1.416359231609662,
          1.465291457191542,
          -0.9757247472758649,
          -0.9171878724289699,
          -1.2155637978891822,
          -0.19616062772965234,
          -0.9707567869099203,
          -0.09042846885802293,
          -0.8234946621617513,
          -1.9655329267874178,
          0.6769580306222529,
          0.09364051496623835,
          -0.6902723263267874,
          0.27674118804617576,
          -0.10135254697611343,
          0.48648079239368497,
          0.24145812064324815,
          -0.35558906524579015,
          0.07047779928118547,
          -0.9826539290393708,
          1.5599662980213984,
          -0.23083683902695828,
          1.775793153754725,
          -0.525444014251611,
          -0.2531650091425381,
          0.02971043541347565,
          0.59004786941488,
          -0.7032627432332584,
          0.5749076416329623,
          0.8308850603327621,
          -0.9525952676382032,
          -0.45145127173560834,
          1.4485217748323382,
          1.9425902122960221,
          0.08954360767444783,
          0.8227574226904253,
          0.767911991644472,
          1.655684762816463,
          0.510555272893455,
          1.2142131970454204,
          0.09208237453267312,
          0.3443690242670862,
          -2.438564502169822,
          0.07574099865591015,
          -0.3584865162530494,
          0.16591032870157973,
          -0.7839474235685105,
          -0.4864351042459063,
          0.45596512991696264,
          -3.3083380470764587,
          -0.637120673978444,
          -1.2729547659769835,
          -0.6088082056596682,
          -0.8526510612390694,
          0.6394780538013037,
          1.3791980954800436,
          0.3008750663937758,
          0.619480426680922,
          -0.7602637209044801,
          -1.7525984847269467,
          1.3514009363865254,
          0.21464284969683525,
          0.7998358793199761,
          0.055269839332240875,
          -0.0324068863468965,
          0.4405491044495012,
          0.21839644394751512,
          0.016612972831463447,
          0.11290346912906225,
          1.0195725539580056,
          -0.9386402947375256,
          -0.35897307578130766,
          -0.36914234389362705,
          0.512999893103536,
          1.0061998452299772,
          1.1045117220326295,
          -0.15894898066392302,
          -1.0609245612003826,
          -0.31162787407370623,
          0.4586036023836258,
          -0.03436831926321883,
          -2.872104047726849,
          -0.8090495388056143,
          0.10879926155283555,
          0.431442274982429,
          -0.5932459862622864,
          -0.5295613208825309,
          2.099930738203712,
          1.3928176043967042,
          -1.7873316152974676,
          -0.6414067053112947,
          0.9007582836935402,
          0.2687387663284845,
          -0.23891188009890402,
          -1.7959516579802715,
          -1.24585793638349,
          1.1703988389390243,
          -0.27899139545001933,
          -0.8673806366432277,
          0.5299813592858834,
          0.5316374570881215,
          1.199899717823712,
          -1.0781151905498014,
          0.36326002384521894,
          -0.012435516723391883,
          -0.2638919194544676,
          0.211798619305391,
          -1.5915694681166366,
          -1.774980942677891,
          0.187236194026443,
          -0.7437657156525678,
          -0.6830503813839871,
          0.30709204984275723,
          -2.072423708850102,
          -0.49441398925758523,
          -1.3866100273575037,
          -1.5313400629217373
        ],
        [
          0.20797481760853534,
          -0.7776453047710035,
          1.1364554382118905,
          0.798980651506747,
          0.44978132839194807,
          -0.4218403914276968,
          0.03828932306773895,
          -0.6733128604661799,
          -0.5239278347368488,
          -1.148362742410828,
          -0.46423447141376795,
          -0.7461658466720926,
          -1.308124595194745,
          -0.09738012812764166,
          -0.274712974287797,
          -0.8928848132430125,
          -0.6758409375793145,
          0.8777691914029034,
          1.1098729092577684,
          0.643126170693333,
          -2.1059872907579256,
          0.12796434640933876,
          0.3155462658171771,
          -0.8677729498872292,
          0.31249315798189925,
          0.6309663472776144,
          0.6504018707837487,
          -1.4565112843368813,
          0.3840215617915805,
          1.0311940525120673,
          -0.488833774751642,
          0.7876522231730451,
          -0.24683000211326905,
          2.2732520286917945,
          -2.2232364669041362,
          0.0012576297087545766,
          0.7855111328372381,
          1.2156578829693292,
          0.9262730095899392,
          -1.3991267767943063,
          0.22348115573451102,
          -0.022620898651918908,
          0.5240962320633421,
          -0.02146592226046932,
          1.6789497954017467,
          -0.8859418228041757,
          -0.47528740336755393,
          -0.811588041422211,
          -0.1728572031321902,
          0.2375159574501853,
          -0.8962897164401047,
          0.3135231314908852,
          -1.5697882720080054,
          0.4541261075941746,
          0.8224524368121197,
          -0.5284087065597953,
          -0.9905441347517848,
          1.1494032126043718,
          -0.46677422634517723,
          -1.860054852821435,
          -0.26644460940478226,
          -0.1429534970865767,
          0.27050658442189174,
          -1.3490306013074154,
          -0.3693661826124056,
          -0.07756054010770162,
          0.4618944085681832,
          -0.886753830869257,
          -1.0005225792525716,
          0.3135100852273354,
          0.1423793535906153,
          0.22543483783836482,
          0.3845789728034359,
          -0.4000149390649567,
          -0.6234162466535252,
          1.0200033459865079,
          1.2613900832381746,
          1.1895274909604456,
          1.972231358329795,
          -1.129013536829909,
          0.8087955542798667,
          -0.20820353549989873,
          -2.173686113768544,
          1.9004394263955977,
          -1.770561026373188,
          -0.12244651966492495,
          -0.0471463929694602,
          0.560199923679964,
          -1.1351625602076427,
          0.8521419096547351,
          -1.3650389536028724,
          -0.5480133668482818,
          0.03433623437640369,
          -0.8452756975827602,
          0.5382681692657808,
          -0.39133698991348653,
          -1.2420001579165065,
          1.643953355710719,
          -1.3905556249405708,
          -1.257424387040696,
          -0.28618483112133875,
          -1.2336255588685685,
          -1.9060807676002747,
          0.6914399652461388,
          -0.5156061719299688,
          0.18221979587497295,
          0.020220648225569876,
          -0.37088614183314994,
          -1.0307671515392123,
          0.8061604108181237,
          -0.2686523024913124,
          -0.027106968398364312,
          0.7103547860889858,
          -0.4366581139412432,
          -0.18100632919318752,
          0.8625743452763837,
          -0.2991179154171905,
          -1.182747649341517,
          -1.4542683700257553,
          0.08216538098411288,
          -0.9005572897552274,
