{
  "input_shape": [
    28,
    28
  ],
  "preprocess": {
    "scale": 255.0
  },
  "layers": [
    {
      "type": "dense",
      "units": 128,
      "activation": "relu",
      "W": [
        [
          -0.0003428936394515768,
          -0.002324455393439881,
          0.002200133020356398,
          0.0055733504942222616,
          -0.00781579978221089,
          0.021116201402938427,
          -0.012385238488004156,
          -0.012137296408098103,
          0.008799948982110813,
          -0.00805484873061747,
          -0.0022329080905180466,
          -0.010793429325793594,
          0.001611981366645494,
          0.0024866677797432675,
          0.007095785753518922,
          0.0010087108923695347,
          -0.012601206048425644,
          0.004246373815409054,
          -0.02240840426752715,
          0.0055493918409400735,
          -0.007500288961885065,
          0.018032176576069148,
          -0.00796778221299915,
          0.013771202341512741,
          -0.011880922325416168,
          -0.029962272685625964,
          -0.0026624099702273088,
          0.0102130054273943,
          0.004486941436893672,
          -0.009132424082034839,
          0.000159487573415705,
          0.021826639963787843,
          -0.009223675907793735,
          0.004856627982973447,
          0.0032575304413461756,
          -0.006033856052504838,
          0.004923989422160125,
          -0.01932772346366384,
          0.011877544430269322,
          -3.34725466604438e-05,
          -0.004258915925253922,
          -0.008675800871481057,
          0.0075179989677230585,
          -0.007070419841324566,
          0.013919170457533398,
          0.0037764774875764236,
          -0.005926371591011509,
          -0.004498475510420114,
          -0.01275267160889955,
          0.006392079835480347,
          -0.0076360806276411395,
          0.0031003913858405363,
          0.015262732860907645,
          0.007368813856386664,
          0.010959570372658257,
          -0.007496757293371383,
          -0.009139570646147944,
          -0.00021620803790888007,
          -0.006008133575058778,
          0.00847888447304668,
          -7.405773959729588e-05,
          0.0004095917135580144,
          0.01624308060241215,
          -0.0007638018104816059,
          0.010188028573425925,
          0.0027384752830007355,
          0.017148874972802576,
          -0.014662036778066668,
          -0.0016026171472933771,
          0.010706790596371188,
          0.010307525468746019,
          -0.003163818955770665,
          -0.003973143779007231,
          -0.0044162269189198826,
          0.007323069401103078,
          0.0015575094476944576,
          -0.0234008064260537,
          -0.008661652084031577,
          0.002537630903941729,
          0.005273685805449833,
          0.0053203708677778995,
          -0.006897242329153427,
          0.013549863271765201,
          0.008415804500026736,
          -0.007369348267075779,
          0.006822782324759595,
          0.0008611539935819213,
          0.0004962454525871702,
          -0.0005492659552782169,
          -0.006526263004990126,
          0.003748208886026223,
          -0.0032438304765226205,
          0.004320681491149987,
          0.0014898112690367256,
          -0.0070094998421363795,
          -0.005344587819499337,
          0.0094899629673389,
          0.0026103445315808676,
          0.0026494408832099027,
          -0.011406792209625365,
          0.0019667552724060467,
          -0.0038536289870672942,
          0.001243754496891262,
          0.006742087159153385,
          0.005583126092936311,
          -0.006001487577829679,
          0.0013939910516084933,
          -0.0016579255185487896,
          -0.0031984325452295804,
          -0.01459989184450537,
          -0.013100520883098312,
          -0.006716434196400136,
          -0.0004481806308394296,
          0.012563207100283712,
          -0.007010804560826623,
          0.007580633246445368,
          0.0028296017224097064,
          -0.006956305736450148,
          0.007647133757943454,
          0.005284083907800995,
          0.01696573194695608,
          0.009408888452184965,
          0.0075613146350532335,
          -0.0013981574993559372,
          0.0004892466042844783,
          -0.001000889376066952,
          0.00588468841855657,
          -0.0012009591552737898,
          -0.004512996907094457,
          -0.004705901867504885,
          0.004817555236251407,
          0.020328663954573396,
          -0.002869039518964465,
          -0.0055126866333052435,
          -0.004974584792170898,
          -0.01414690689491432,
          0.0019962641059643343,
          -0.006241378513146486,
          -0.004352106850298893,
          -0.007293961582581908,
          0.0052147959761440115,
          0.014390944818302229,
          0.004108632262690567,
          -0.01652520151792364,
          -0.008958905492626389,
          0.015753620654109516,
          -0.004370156303201457,
          0.0019282787094544343,
          -0.0006630457733037071,
          0.005118407935755782,
          -0.007234566286021664,
          -0.007340959657449995,
          -0.002590145647523117,
          -0.006165150340109641,
          -0.011746591344095067,
          0.0019870429043570693,
          -0.014129114815513112,
          0.0018600162025931353,
          -0.006149024432551239,
          0.00024819581010022956,
          0.008869766865631368,
          0.00613308676671718,
          -0.002925639893591704,
          -0.0021970973614943434,
          -0.013182116113603122,
          3.3755331336078337e-05,
          0.015941304940149115,
          0.002717141879910902,
          -0.00022803476682575738,
          0.0027905894680796003,
          0.015315197029000267,
          -0.0018638936298768134,
          0.007179939715977439,
          0.006452165392727633,
          -0.000342415770059955,
          -0.005274837793347864,
          -0.012487521614611941,
          0.009846249902653705,
          -0.006079545440706319,
          0.007692102652735404,
          0.007830278043450128,
          -0.0181854943439824,
          0.008736955207523697,
          -0.007796264896787969,
          0.01363528608887201,
          0.008349053083414102,
          -0.0104976201847631,
          -0.004182017837725134,
          0.012573365504587231,
          -0.006013331101022997,
          0.001413334032164888,
          -0.00805809873955074,
          -0.0025649694337912545,
          -0.017974166836170872,
          -0.00528875958218838,
          -0.008696432180881859,
          0.003070468315501751,
          -0.0038311696613347397,
          0.002423550990372707,
          -0.027009491760440138,
          -0.012375466297091724,
          -0.006979653142408154,
          -0.0049244763588947825,
          0.004919972068464434,
          -0.013563777275760617,
          -0.0007510874709185184,
          -0.01703064744455588,
          -0.026465456481351197,
          -0.007813396850787373,
          0.0065333059074423536,
          -0.01818628291050222,
          0.00664458261828211,
          0.00016345530647560643,
          -0.0008503978196344621,
          -0.002445244954746752,
          -0.01121291846921196,
          -0.0022396257922936546,
          0.0034844985738724777,
          0.0015533759897800147,
          -0.01030596810042457,
          -0.010375378360822859,
          0.001607883181483078,
          0.011643507884583282,
          0.003046256809528895,
          -0.01879962124171076,
          -0.013307639857591397,
          0.01062170467343499,
          0.01878720695615344,
          0.00471897360725748,
          -0.004169082918630346,
          0.009084678263883138,
          0.006839960921189587,
          0.002458002620129757,
          0.006081271829009303,
          -0.005753821027197648,
          -0.01016775750435159,
          0.0019610896984731292,
          0.0014218055898213519,
          -0.006163007584651234,
          -0.008914844182923968,
          -0.009317203087184794,
          -0.0062242942808561985,
          -0.0008991433946730141,
          -0.004074458833380017,
          0.00926073353707389,
          0.022059957296511314,
          0.012427343501390584,
          0.009445015972349799,
          -0.0049755204009139815,
          0.02429571367384195,
          0.02090087686149798,
          -0.0005527823863093944,
          0.007057165970725613,
          -0.007575539345249912,
          -0.008584102989266075,
          -0.016215694947628694,
          0.010243982854214016,
          0.01217234335900203,
          -0.01059864704222205,
          0.003912879424427252,
          0.0004999139650944163,
          -0.011551559085091381,
          7.062588702602873e-05,
          -0.0016405979957557736,
          -0.024371341097565603,
          -0.0017494748064160893,
          -0.004272159342382402,
          -0.005047798291866431,
          -0.008041857814371537,
          0.01586772058269754,
          -0.005784849668581207,
          0.007687143691670383,
          -0.007279917646927065,
          -0.01181652210511267,
          -0.00734141563044027,
          0.002044047648068297,
          0.007590307820085284,
          -0.0016140884175888535,
          -0.0028888379981460437,
          -0.0036284363950368492,
          0.00937726756076868,
          0.007132958470830043,
          0.008891674608344233,
          -0.0031529382766662113,
          -0.027294543552710118,
          0.01794050587835074,
          0.0015489969046415023,
          0.009723611007488437,
          -0.00809472387713109,
          -0.003978492925663715,
          0.018378426148032243,
          0.002129352845137089,
          -0.009124184653593785,
          -0.010819524246004113,
          0.007973397975669353,
          -0.0065493756474158255,
          0.004208370266644347,
          -0.005075120876873034,
          -0.004614381965589746,
          -0.010578401703630306,
          -0.007907902953751815,
          0.010291830322010094,
          0.016516995730566534,
          0.0008562037128237466,
          -0.01810391565594193,
          0.007594778366435173,
          -0.021943196026766087,
          0.014143726231120814,
          0.01370500444212935,
          -0.00012018101074095512,
          0.001662551167387992,
          -0.005813567652369879,
          0.012822904974690012,
          0.007327458057969835,
          -0.011983720214405719,
          -0.008391482822340392,
          -0.007304938335217387,
          -0.0052176744135326945,
          0.008169821948534531,
          -0.010191833329918713,
          -0.01096639226666617,
          -0.0032917909188447305,
          -0.005365492408264422,
          -0.006030161465656971,
          0.003596100990896009,
          0.0001341996931713176,
          0.0022085136701064934,
          -0.01245093412347324,
          -0.011960896528294612,
          -0.005951572741040419,
          -0.009707504074073472,
          -0.0027272494822625087,
          -0.00018909199722080478,
          -0.010108534639201442,
          0.006451134988207912,
          0.0007107329093732585,
          0.002222429122697809,
          -0.002202487046707847,
          -0.011628932954202127,
          0.013848335684587916,
          0.003082491536494606,
          0.0022189295535999724,
          0.01476732181691349,
          -0.0008154411052319341,
          -0.0018064975659258123,
          0.0013098858101606534,
          0.024979323704306628,
          0.0014853105811049206,
          -0.002598065166506559,
          0.006637627070249034,
          0.0013431594089251052,
          -0.00880394551310333,
          0.011466510556918899,
          0.012709854777830883,
          0.0020156912255676358,
          0.01826621734122177,
          0.008851705211723645,
          -0.006634241301531768,
          0.0005911048369203114,
          0.0038629535008918086,
          0.0065512853325399864,
          0.01746466382269565,
          -0.0010143661011430415,
          0.004102638544985983,
          -0.011620553621163274,
          0.004090716867755317,
          0.0069540972404685455,
          0.0040077866343717575,
          0.0045685064784188245,
          0.0024468196115716694,
          0.0001731468775643975,
          -0.0027544835596847624,
          0.017341133456037758,
          -0.013618611020114302,
          -0.005921637662434375,
          0.00883645897367477,
          0.0011982090223278754,
          -0.007096392069742697,
          0.005621108608043973,
          -0.0018608723983773601,
          -0.014730224089460953,
          -0.015805648856617675,
          0.0037737262648276583,
          0.007563617575941192,
          -0.00874158601080258,
          0.00967840443224523,
          0.012211137353545936,
          -5.848720991717811e-06,
          0.00036294165385072897,
          0.009205415615635986,
          0.021167675082627513,
          -0.0018462157282653716,
          0.006840717307354036,
          0.020872001834247294,
          -0.005270604149701431,
          0.024517011338663457,
          -0.023779861575787917,
          0.004324559777385793,
          0.004313172574251514,
          0.00016436592849843114,
          -0.0017563545178155215,
          -0.009703865086628552,
          0.013382539853205566,
          0.011263879209310457,
          -0.0010286807195796265,
          -0.002037952324828665,
          0.004377511405520436,
          0.019349904865166096,
          0.012618797430949959,
          0.006601065626333778,
          -0.014602608144243417,
          -0.01413292340441325,
          -0.018635617440712706,
          0.0009811655612370393,
          -0.005187863271413675,
          -0.00629944162530454,
          0.004788837826390138,
          0.01723223223034989,
          -0.0027023292511316704,
          0.01995770600510202,
          0.001764932563156446,
          -0.009437903974335877,
          0.004770996871880208,
          -0.006231349288498778,
          0.014690212567361575,
          0.0002661865556571297,
          -0.004329017532376016,
          0.008555689310295716,
          0.017486828212565784,
          -0.0009914314457677533,
          -0.0051698660571517655,
          -0.008150643833754254,
          -0.005697404993625527,
          -0.009281647352952893,
          -0.006239077255412931,
          -0.012241433469289964,
          -0.0030807763151588716,
          -0.01257070809983824,
          -0.008952599880583492,
          0.00500753075329956,
          -0.014008887266983894,
          0.0016319971902516257,
          0.012032745669207421,
          -0.0014366851308167655,
          0.003408712150310949,
          -0.007995753391002846,
          0.0038324809215042207,
          -0.003125076410795138,
          0.0007583939286544201,
          -0.009533991155889472,
          -0.006849834793644211,
          0.013839995353984693,
          0.006202906097158232,
          -0.01563293067038655,
          0.015290356666433571,
          0.00334997879907978,
          -0.006985937388650652,
          0.02132422847557398,
          -0.01260341067481454,
          0.0014387522232104338,
          -0.000323827719106991,
          -0.0037480880223708336,
          0.006681665630926331,
          -0.003567384748567615,
          0.005542637383613677,
          -0.011960482099046542,
          -0.012428641063505847,
          -0.0012360022992781634,
          0.009445462158983951,
          -0.009591482105043242,
          -0.005085353885973992,
          0.02546670084021441,
          0.000641842524916124,
          0.002979294621328331,
          -0.010858061417797413,
          -0.005356935446406586,
          0.005212913528367106,
          -0.009495621857127039,
          -0.015806942304445636,
          0.005772988481487401,
          0.002100111104211873,
          0.010866279612798133,
          0.00010979034625523026,
          0.0013704574057759706,
          0.004725920099142215,
          0.005521240871540065,
          0.011532222951837067,
          -0.0027058940188000543,
          -0.0036362713383183754,
          0.0011757225476737544,
          -0.022104017920574287,
          -0.0014665011352373706,
          -0.015406634951340328,
          -0.020300758705310624,
          0.012379812883778343,
          -0.008531924388233154,
          -0.012607263793440602,
          -0.006063174456424881,
          -0.006791786695142,
          -0.015306235187767164,
          -0.002748887547266021,
          -0.034677929172680824,
          -0.0015891163477953119,
          -0.01104174797188734,
          0.005695849517176819,
          -0.0014524288301801663,
          0.004791739595861313,
          -0.007252404579249253,
          -0.0001781280827900443,
          -0.0011416350280953015,
          0.013424627834677703,
          -0.01737233996915937,
          -0.004076537199640396,
          0.004325954991609656,
          0.012257671420591374,
          0.006926342104210938,
          0.007845548310126974,
          -0.030260651519296418,
          0.0031026894124850735,
          0.01812624567117804,
          -0.011250722454429506,
          -0.010407268373271187,
          -0.0008283438476769308,
          -0.026766910684370215,
          0.010748357326455755,
          -0.006369846564206434,
          0.005699029373907518,
          0.020321995214609676,
          0.007220711082701336,
          -0.018216546514039846,
          -0.0018375404554011425,
          0.005400592546663114,
          0.015064111688342216,
          -0.0003579635850722338,
          -0.0005492635103542851,
          -0.0170657043591233,
          -0.01083604881642257,
          0.010483279066577946,
          0.0068559863590578465,
          -0.003799249924661685,
          -0.0051397024508721455,
          0.0021912669082262055,
          0.006600016085989757,
          0.009550843301842199,
          0.0041000911997739736,
          0.006875742384350534,
          -0.0008270966220358375,
          0.01282257911552612,
          0.006232871583155769,
          -0.014652141254199103,
          0.0024180824040220907,
          0.0013867615560115491,
          0.0010666044521652706,
          -0.008630281607689326,
          -0.0005676162489751391,
          0.010081092183262507,
          -0.011902518832222705,
          -0.02554210227631017,
          0.004064063396890654,
          0.003825016305013318,
          -0.008653565746413008,
          0.008641373666967775,
          0.0005135058511254129,
          0.01028951843017945,
          0.009162857865672742,
          -0.0016382832742285556,
          -0.0017083339194225047,
          0.014884903392937989,
          -0.0102106967929396,
          0.010215772589243137,
          0.01504419261839126,
          0.004655329391197075,
          -0.022263365344239366,
          0.01610768488864933,
          -0.010261355980199815,
          -0.007023039991265168,
          0.001877605919199203,
          -0.013949123734016203,
          0.00816628997626812,
          -0.0018858389858758,
          0.006994107698916701,
          0.0005190879718547245,
          0.029518857999195555,
          -0.012259275433925007,
          -0.011153187258595947,
          -0.0051300617294192065,
          -0.001287477132558664,
          0.02218634670684278,
          0.005936826056825387,
          -0.009373617283909692,
          -0.008886497185227821,
          0.0030526560992271386,
          0.013800552784492888,
          0.007642384867794068,
          -0.00991281754359895,
          -0.010618302546507983,
          -0.005439704073406246,
          0.009953297355958292,
          -0.013467612970076986,
          -0.004169025207789412,
          -0.009582897466314239,
          -0.007358250584422308,
          0.00408473964023008,
          0.004842061179352314,
          -0.010860612724407644,
          -0.002744817865372147,
          0.002765178610515699,
          -0.007384137494321886,
          0.011387511069608551,
          0.00396594321355272,
          -0.013350147814187733,
          -0.00933889571010326,
          0.008775021640856103,
          -0.01275054032705132,
          0.009111020814166157,
          -0.002157793753105161,
          -0.00783059644037742,
          -0.015319349652949186,
          -0.002892701569602484,
          -0.012093294015456753,
          0.006688476657860989,
          -0.005708917533989571,
          0.01236346952729457,
          -0.004615081089228906,
          -0.009703984735382847,
          0.01850520141503077,
          -0.01573824220695159,
          -0.008145425580871946,
          -0.013237098975295375,
          0.0076562445973453125,
          0.003136796598505669,
          -0.0006387677925224928,
          0.007768043307335392,
          -0.016944616340476254,
          0.009942402068601253,
          -0.0020846885393591068,
          0.0024881173862562394,
          -0.00014077975799945438,
          -0.00730570344169007,
          -0.010204848452553298,
          0.005936980694216751,
          0.006241787659940307,
          0.004071793482285661,
          -0.010258419678034513,
          0.0036675899359968423,
          -0.010044042983849004,
          0.012685473356366373,
          -0.007722710062558459,
          0.0365648724163898,
          0.0026999844905262,
          0.017875366360643165,
          -0.020746203874194232,
          0.0021682745740985686,
          -0.001350565078733785,
          -0.0005363070282611836,
          0.02135992475652912,
          0.007598366876674344,
          0.011326397658200307,
          -0.010773225175457367,
          0.0053870101218277955,
          -0.013419952335620449,
          0.0023943641121585077,
          -0.006640448729483336,
          -0.0071565006222849194,
          -0.003461114286368862,
          0.0023831558183525256,
          -0.0046093657204481385,
          0.003188741760397155,
          -0.004377703530890385,
          -0.0025937808944866154,
          0.00038866964097664694,
          0.024181920424997495,
          0.004606618984013486,
          -0.005926144360156815,
          0.002551095985915212,
          0.015239576520711938,
          -0.017179543887110394,
          0.0011193856739357448,
          0.004285370950649313,
          -0.009415319167702224,
          0.006448038855284597,
          -0.011076796319028491,
          -0.01449548276870851,
          -0.0015018295662454547,
          -0.004499584750389131,
          -0.018006404716962285,
          -0.007533439735107861,
          0.0069587146867209,
          0.0033889897803677338,
          -0.015305767198803862,
          -0.008448394083714348,
          -0.0003276054716667121,
          0.010577051924153843,
          0.014259576549808384,
          0.001383778013063898,
          0.008473040929684629,
          -0.005552415627739147,
          0.0010276595675891324,
          -0.013886304657353575,
          -0.008488290164279336,
          -0.0037890018926840657,
          -0.016896682776519557,
          -0.005669446533606166,
          -0.0012434540949737755,
          0.025834347239270694,
          0.010922522141714108,
          -0.0038802205279514757,
          -0.013783255654401878,
          0.0061488833389114865,
          0.004103570872065989,
          -0.008115258616920126,
          0.009028093113495598,
          0.006873973454373543,
          -0.001610353122585534,
          -0.0078009172149226085,
          0.007981920581129337,
          0.011005467528756316,
          0.005316296002033407,
          -0.0066624794575704405,
          -0.008600387956549311,
          -0.0020988599504205433,
          -0.01457369701918715,
          -0.003131070860573774,
          -0.018326663784437158,
          0.006419198269034197,
          0.0046770240795254246,
          -0.02492753619932064,
          0.007841203097748928,
          0.016130491067888462,
          0.00027527143225286095,
          0.005374164246170956,
          0.008108025203809207,
          -0.0048340671372463255,
          0.007060183117077032,
          0.02111534870374225,
          -0.01784148434969532,
          0.0012148608635235794,
          -0.005285137236358971,
          0.018771119612573564,
          0.0038410757629277,
          -0.01988293869604734,
          -0.0025988827802747557,
          -0.004603968765018465,
          0.004682495418231255,
          -0.0077333780945948805,
          0.0014744357955918793,
          0.00717017002701431,
          0.02111811126203116,
          -0.028201148344005167,
          0.016870630523716245,
          -0.0033068177250320857,
          0.0042411088615539865,
          0.005479428894720438,
          0.00705098650547044,
          0.00864593102748981,
          -0.0031094753001369934,
          -0.006638735151718346,
          -0.01646449993340867,
          0.009981318155235631,
          -0.004504275308182258,
          0.007553525423948388,
          -0.018148893220672434,
          -0.005507548299475897,
          0.014769796994173983,
          -0.003451927271019166,
          0.008136285338699586,
          -0.0075772136189497874,
          0.006503676093921296,
          0.0048216057050739225,
          0.0036471716954688607,
          0.0006860829709719709,
          -0.004456869585844358,
          0.01029486371064783,
          -0.008942328169873446,
          0.018621842623151374,
          0.0020821532608493796,
          0.004782794996093293,
          0.01470574092436854,
          0.009600623736147057,
          -0.002648188356603464,
          -0.009364739043513943,
          -0.0058008342116265075,
          -0.0021212821000734165,
          0.009841899447904614
        ],
        [
          -0.01219013689414663,
          0.013122618102743684,
          0.012646143103906727,
          -0.001201897081501197,
          -0.016253541488618333,
          0.003354963703931207,
          0.0076246222571080624,
          -0.008148427045992527,
          0.0032553660853292983,
          0.008596153866662057,
          0.011347279291044223,
          0.0020588517908916642,
          0.006385397906182627,
          0.019533977726711223,
          -0.007978990234435344,
          -0.0016535621824629167,
          0.000798278234996703,
          -0.012397145470799571,
          -0.006777384040747165,
          -0.01269105693622893,
          -0.010034309051921153,
          0.004474066762082405,
          -0.003743740237384813,
          -0.011015226943196975,
          0.006529443058972346,
          -0.0034132829648211905,
          0.002329028098716232,
          0.00527818862823424,
          -0.01684106166081099,
          0.01864086573097062,
          -0.000565809719070451,
          -0.002938873975042511,
          -0.009324264480434937,
          -0.008590073147674918,
          -0.0018334674572861199,
          -0.005579677360669066,
          -0.017207512911497993,
          -0.0005041541590411198,
          0.0052965726390190515,
          -0.014316458064375861,
          0.006309167355446847,
          0.002022757370179123,
          0.002834797773859912,
          0.003801356611509537,
          0.016036895441727844,
          -0.000651140913816008,
          -0.016722521616422462,
          -0.0009502252007798838,
          0.021558860480978187,
          0.011172032338075037,
          -0.0013939675742761866,
          -0.008250577432505252,
          -0.000946330820565167,
          -0.010902679640668107,
          0.004946920375858374,
          -0.0008340999415955902,
          -0.0033627532075679173,
          0.0004665319359953753,
          -0.007287062401840547,
          -0.002891037103568698,
          -0.023921583118168523,
          0.0012102271095644102,
          -0.003382071763392241,
          0.0008726949816943228,
          -0.012492493823729673,
          0.016774984256277527,
          -0.010005793904597484,
          -0.007910226964637326,
          0.004987419752722104,
          -0.012738555523710657,
          -0.009794300665914024,
          -0.009188572022166261,
          0.0025486439863567217,
          -0.0034211154395517424,
          0.0026433181237006287,
          -0.010321397204659,
          0.0014690620909607488,
          -0.02127852845642018,
          0.002927146918622003,
          0.0041926112437751534,
          0.001507596168322901,
          -0.006054014207708294,
          0.01064307734315499,
          0.004501891697233668,
          -0.0007418287814622322,
          0.0003647204590627818,
          -0.000370908659493095,
          0.0023833942138533006,
          0.00254318191508406,
          -0.00143723801298357,
          -0.012767030511529142,
          0.008318299502853378,
          0.005443330828991486,
          0.008777958830845908,
          -0.014955199024753332,
          0.013435916915936125,
          0.008660631986006403,
          -0.008301032595076063,
          -0.014134199684177253,
          0.010721356946985248,
          -0.005173716643249366,
          -0.0018205680470736994,
          0.003503860401764766,
          0.0042038125797780905,
          -0.007269728015320923,
          -0.018127784792227604,
          0.005709918423588336,
          0.0007850644425769498,
          0.004127439668352214,
          -0.012928590594266353,
          -0.010009323985898868,
          -0.008223139480984586,
          -0.018600510371825855,
          -0.008695662484346263,
          -0.0004364409497713771,
          -0.009311925629510968,
          -0.02215771267043907,
          0.0056839649466957085,
          -0.0020320214503896554,
          0.0011336368647289726,
          0.001577558915155784,
          -0.007376533491048513,
          -0.00374381991028974,
          -0.00010248045084611582,
          0.01580992416911927,
          0.014651404896931668,
          -0.001812933539431978,
          -0.0030318318039750498,
          -0.0028889221109827746,
          0.0034368663112122892,
          -0.0025736579390305135,
          -0.0073196572191111964,
          0.001060203928223895,
          -0.013925801872441872,
          -0.00914202669628875,
          -0.0018295321775298784,
          0.01030370726982958,
          -0.005423986388664074,
          0.004820006822944055,
          -0.0024592658806386713,
          -0.002029322758716475,
          0.006378368403106992,
          0.010005817673819629,
          -0.006956834678199615,
          0.013479537184446713,
          0.0015235764738253097,
          -0.005365647656380709,
          -0.0035754802187843984,
          0.02073385601465944,
          -0.00013561827357984276,
          0.00048050419628897556,
          0.0015174465201775096,
          -0.0032419349224495383,
          -0.012362266406344776,
          0.007034154750404059,
          0.002080889596233537,
          0.009346870354877626,
          -0.02179855359963851,
          -0.005023285804580094,
          0.0019729202028334236,
          0.0002946639954089498,
          -0.0025911963497594645,
          -0.01242727477824593,
          -0.0025424861319409305,
          0.00040459399577232416,
          -0.012767064254627907,
          -0.016880717605845533,
          -0.00158242301997834,
          0.020188567691481113,
          -0.00020828869607752027,
          0.0038739776707575092,
          0.019287736062683924,
          -0.009893446635549306,
          -0.006939046521837818,
          -0.008394186723121809,
          -0.01122222085347934,
          0.006585727464185696,
          -0.008585867718623389,
          -0.005389049618654016,
          -0.0034960476141240445,
          0.008069251990402346,
          0.011817328062813307,
          0.014189197398198251,
          0.007501336649348881,
          -0.01760290031681116,
          0.012841214908202885,
          -0.00029907139052906095,
          0.00045277626492560245,
          -0.0007887947583062561,
          -0.0005320106209572067,
          0.013200556108451628,
          0.007982949006800322,
          0.0028221127244006682,
          0.00611414087034595,
          -0.013733470771485758,
          0.009882323739851356,
          -0.006126826021335293,
          -0.02126282145979693,
          0.0012796508123253123,
          0.0008162618286611102,
          0.0032364953579439976,
          0.013134645168802375,
          -0.013096671300118979,
          0.01624590720779659,
          -0.009350120498590303,
          0.008048883601825596,
          0.015812179110982854,
          0.0027224384140928687,
          -0.008658472339804471,
          0.01030712448186634,
          0.0003908621571916135,
          0.006799665443652102,
          0.016623113975620482,
          -0.010741784351515299,
          0.009996714456250805,
          0.0017467345594732414,
          -0.01530138471624498,
          0.0037667165595724338,
          0.029580621829830282,
          0.012415848226839927,
          -0.002869768308122034,
          0.0024674591092994323,
          0.005566478907223449,
          0.001135321496376495,
          0.0019516866748949552,
          0.0014290469582075383,
          0.005716984919323105,
          0.011309245139270473,
          0.013095868417051884,
          0.01957691541015773,
          0.0025254387983582685,
          0.016709880406725965,
          -0.01513493083349766,
          -0.0028738521089956676,
          0.004154283812805961,
          0.007027010123960319,
          0.013605582479934448,
          0.013152555002878765,
          -6.253149709450135e-05,
          -0.015299078412127796,
          -0.012280887320136342,
          0.02189865025307713,
          0.0074515902542471035,
          0.003056401632356968,
          0.001233598908573682,
          -0.010802732851974677,
          0.0011409162639483528,
          0.00047053154400839253,
          -0.009563362423583962,
          0.009135490875104364,
          -0.007179182301954591,
          0.0025923966212432733,
          -0.007506694997542906,
          0.0019076330707002947,
          0.006471642692808259,
          0.0043051326817192355,
          -0.006742144990497566,
          -0.03280316202932272,
          0.0028792328765692306,
          0.0035092390671832923,
          0.0034648848407076178,
          -0.0028089961833462863,
          -0.0004013046187823502,
          -0.013085483418513176,
          -0.012454218349291177,
          -0.022843902977564196,
          -0.00034818953925338153,
          -0.002494579295638886,
          -0.01593055310393434,
          -0.002920888943647252,
          -0.003002031857572967,
          -0.004002293921304535,
          0.008336870577302799,
          0.015623234821315796,
          0.004296953841360734,
          0.021533651077060536,
          0.004771251511884993,
          -0.020334039367395165,
          0.00833167058928392,
          -0.0014203482693052507,
          -0.0012830148661396054,
          -0.009512933463999717,
          -0.004235724730840355,
          0.014683368158246968,
          0.007921003134386654,
          0.017167898382461206,
          -0.004697954010341682,
          -0.0016520065836894957,
          -0.001615711126237225,
          -0.0007832162387770781,
          0.008233713157900176,
          -0.008233101688279502,
          0.00829571055370932,
          -0.0008021824661283234,
          0.005543869629656194,
          0.0036348232455267267,
          -0.00488549924083131,
          -0.011006249420509508,
          0.007453975439368681,
          0.0011737921142689384,
          -0.0031484579814758515,
          0.004745792958876783,
          -0.01354141052645133,
          -0.007368980172903807,
          0.00947942731613787,
          -0.0196647456621459,
          0.007427748046143801,
          -0.011309013114540852,
          -0.015029512376354281,
          0.0040961834208190885,
          0.009751521291948211,
          0.010262064956019657,
          0.002180982439589213,
          0.01019512678901648,
          1.4187743557931308e-05,
          0.006918948622373716,
          -0.0012306092820772298,
          0.012119360951316953,
          -0.012996778435949997,
          0.0021265768722429318,
          -0.020353902078624496,
          0.021360832100755928,
          -0.0017554246122096749,
          0.005506070085465953,
          0.015365832767346486,
          -0.013503536337971401,
          -0.019618038497367214,
          -0.008177681879450862,
          0.010475336683004379,
          -0.007835626648161308,
          -0.008918883278262004,
          -0.008385588239194783,
          -0.0030645320817495746,
          0.010008611058379132,
          -0.00376449433660363,
          0.015327845044951825,
          0.0085941891045069,
          -0.0147484976229238,
          0.004348844628829844,
          -0.009781889807339841,
          -0.001752934110392416,
          0.026599731176050963,
          -0.004074899363508455,
          -0.014860644370403199,
          0.01374634005213773,
          0.021031130298643008,
          0.0010818589679052794,
          -0.007102863433141557,
          -0.016675395033708643,
          0.00020963794432687485,
          0.009811055607881097,
          0.009946099629777234,
          -0.0075376804401290345,
          -0.00016191774384121372,
          -0.016241242662262238,
          -0.005579002383636962,
          -0.01839550551210466,
          -0.0037522705581129823,
          0.01338561440114294,
          0.004013337597467403,
          0.0015622677086981115,
          0.0035784748903457913,
          0.0075507726167901084,
          -0.002545841596396941,
          0.010117430051137657,
          0.029112739011047585,
          -0.009872795989681122,
          0.01389410474831293,
          -0.010405545643375917,
          0.00797403742446095,
          -0.0020337544463316063,
          -0.012850312694980255,
          -0.0026451288116681026,
          -0.006470085997658685,
          0.010421316572589672,
          -0.0053435879424402226,
          0.0076822133289121365,
          0.006735508173680037,
          -0.004572667131768782,
          0.0032463642643243825,
          0.012556942249305144,
          0.0022532899633671234,
          -0.0031248044712606504,
          0.009761338939444137,
          -0.010990975041866897,
          -0.006271094048666188,
          0.004022495325988896,
          0.012145892307621906,
          -0.0005472087698312324,
          0.022840352168007085,
          0.010057050431048811,
          -0.005779845482781872,
          -0.017550620483371412,
          0.0007690344019526202,
          -0.008173610963334575,
          0.012805149662553847,
          -0.008830177311430591,
          0.009548261237511863,
          0.006416758545294088,
          0.0024050544477785857,
          -0.006373371893549107,
          0.0021539082323572636,
          -0.0027383181625609517,
          0.013035890224981804,
          0.009472101494178145,
          -7.455124205706398e-05,
          -0.0023560107778349743,
          -0.0009953727654536926,
          -0.02048184771103813,
          -0.0006233657703491761,
          0.02016963335013644,
          -0.009153663166608969,
          0.003972088797532569,
          0.007535701032881175,
          0.016858353451953325,
          2.3647542991064295e-05,
          -0.012831903266148637,
          -0.016747993414579786,
          0.01774131485337354,
          0.0020651441120153368,
          -0.005169099704240775,
          0.006153502675006403,
          0.008153392273836279,
          -0.002423712133702522,
          -0.008012056399401276,
          -0.01753771398739356,
          0.01922612821283543,
          0.00986279768268358,
          -0.007210807781124968,
          -0.01678854288249409,
          -0.01010308515074044,
          -0.0004155937568640368,
          -0.007015295171283842,
          0.012100377857420163,
          -0.007457573660721807,
          -0.0023207407383434714,
          -0.018833119040025194,
          -0.01325311671794094,
          -0.01050629007361925,
          0.0033719342710776287,
          0.003890842456915884,
          0.0024990646033314526,
          0.0010292127867126736,
          -0.009290436705909759,
          0.013318113471087297,
          0.01409955935001499,
          0.003576071661390985,
          -0.01606697675454289,
          -0.01085312928713449,
          0.010206176329831639,
          0.0038323802110929845,
          0.010992803540705918,
          -0.00939228001074829,
          -0.00232974480668981,
          0.021714333004458387,
          0.015949831581780555,
          0.0011244773760876923,
          -0.0019879585182378877,
          -0.01108505025650967,
          -0.003780989382568403,
          -0.010010469542737438,
          0.015656956522528746,
          -0.006734595784990978,
          -0.001206157626572812,
          -0.013660668971725073,
          -0.006103808317978755,
          -0.012593117548462514,
          -0.009073489702792998,
          -0.027733274544878377,
          0.006721806132120588,
          0.014581952501021385,
          -0.0027899658871607803,
          -0.00820426192597387,
          -0.0068152956118603504,
          0.006528979448821481,
          0.013870243422485037,
          -0.015001648444160076,
          0.0036769516942192068,
          -0.028760982738923628,
          -0.003811066104585469,
          0.008339156302958416,
          -0.003924777577331241,
          -0.00399993142383246,
          -0.009759371511350966,
          0.013849509676327145,
          0.005647351129346651,
          0.005466372968256626,
          -0.00783985172505517,
          0.00020864405004408616,
          -0.0009787644023486032,
          0.015286607405232886,
          -0.006543878690693741,
          -0.010326727082700786,
          -0.025296437135270817,
          0.0015726725166898242,
          -0.008340010201834459,
          0.00582597789306973,
          -0.0015533612900717711,
          0.00794007971354448,
          -0.0034873871877276895,
          0.00876213491022395,
          -0.006866578921642971,
          0.0012077340657895832,
          -0.016607155913843402,
          0.006563556250936349,
          0.014985198277845134,
          -0.018074990938565953,
          -0.0006079746447357868,
          0.03194962449119583,
          0.01445504978234106,
          -0.006677203416781402,
          0.0027810341479858735,
          0.006576482707409753,
          -5.1653991775227565e-05,
          0.00926377302043344,
          -0.0133090545709004,
          -0.005890846137201761,
          -0.0025519604861267892,
          -0.006381879896039368,
          -0.018463340399128687,
          0.015501292960398384,
          -0.010136968193703745,
          0.0014015654704682288,
          -0.0086269263184764,
          -0.0015769657289540146,
          0.007573080224551239,
          -0.01776912007916385,
          -0.004027528977657033,
          -0.008552054004435579,
          -0.00784224734293325,
          0.014994727201258072,
          0.00612087424396056,
          -0.019260033383630044,
          0.015295726197611137,
          -0.01870988694853684,
          -0.004717189217346509,
          -0.002426709699512406,
          -0.0031609381216876303,
          -0.000172447768814292,
          -0.019584987419752987,
          0.004250631442593543,
          0.0002512019191501064,
          0.0011571213797146494,
          -0.008785831965631999,
          -0.0076320519849040905,
          -0.011323820136156999,
          -0.014712563118812088,
          -0.0014570243258059102,
          -0.007929905265878995,
          0.005461503430662598,
          -0.014364193926851678,
          0.0005616947956317671,
          0.004182049068197946,
          0.008739303559262767,
          0.0002597039638015006,
          -0.006714972037204785,
          0.006623124829214719,
          -0.011817335110313307,
          0.0006008973494683634,
          -0.001588344070559763,
          0.0017772070680949564,
          -0.007599766067589945,
          0.006355415424269641,
          0.004119908649938779,
          0.004887663435370314,
          0.004241972086046388,
          -0.004155532431675235,
          0.015629733130720042,
          -0.010539594722536101,
          0.01377560499409426,
          0.0028966861923430958,
          -0.029742649546849624,
          0.006830848926231183,
          -0.008203923435548436,
          -0.004118780897852278,
          0.005151209055746224,
          0.0027764063366502736,
          -0.0020411355722835525,
          -0.004131962894773049,
          -0.002948823170551328,
          0.0170563580226019,
          -0.004681708270770211,
          0.006053903456208854,
          -0.012146782434941718,
          0.008510527238921766,
          -0.008934375087486183,
          0.008205500116316588,
          -0.00679231632765337,
          0.014127611532647594,
          0.017483392177686727,
          -0.0018842590303642826,
          -0.005717209310561284,
          0.012510452052684275,
          0.002684047439155364,
          -0.008577354157852346,
          0.007266990563402504,
          -0.014534568846232663,
          -0.001150466923617411,
          -0.005096562331946583,
          -0.01651026919674869,
          -0.0030932790544405237,
          0.0048497574321766735,
          0.007839325168356589,
          0.019348840673052505,
          0.0009278717435859585,
          -0.00697915278595435,
          0.009482076573057871,
          0.00385655079128068,
          0.011680103976643047,
          0.009767602434974456,
          0.009554935730802074,
          -0.0036942377730989533,
          0.001927564815157856,
          0.009366118535352904,
          -0.012338139356369385,
          0.006082282528766728,
          0.002218001007806345,
          0.00022971103616276634,
          -0.00023212034746437882,
          -0.0026205187890531623,
          0.00605974058636139,
          -0.025157810307620845,
          -0.005821874504308532,
          -0.007518826620405482,
          0.007645134026042206,
          -0.00015292485819371802,
          -0.01747569017831686,
          -0.001562768548928626,
          0.008622877817680374,
          0.006985827990372134,
          -0.010186593279954031,
          0.006880008176832014,
          0.008374485538565478,
          -0.006694445799438061,
          0.005745280845313418,
          -0.0049932343081160865,
          -0.002085410573751369,
          -0.0018698025788521904,
          0.019352964329794154,
          -0.0027618408918550943,
          0.006470124371332261,
          0.002779437405622587,
          0.012790817641424802,
          -0.009836462210506146,
          -0.0043475273888900455,
          0.010151510973492334,
          0.009010420324570768,
          -0.0004130765032137851,
          0.011991534396891242,
          0.010121586925793315,
          -0.00047807772361623994,
          -0.007024004932779342,
          -0.0062925765124733244,
          -0.014531209559993676,
          -0.016096774596653478,
          0.004558120291864612,
          -0.001223301895631346,
          0.03075666677485122,
          0.012515804852669874,
          0.004768315321708148,
          -0.015530950315646748,
          -0.01915161993460348,
          0.007545940317655981,
          -0.009797349621183223,
          0.004777037101689804,
          -0.010630330730754268,
          0.002989554682017403,
          0.004800198996188812,
          0.01890894897087581,
          0.00697848325678816,
          0.006247562487738986,
          -0.014830752734012914,
          -0.029460511699508047,
          0.014333019067549782,
          -0.00697433346708088,
          -0.009986196902448652,
          0.006279110006921393,
          0.008667038194893043,
          -0.008569320731367024,
          -0.004464500896914632,
          -0.005603754622815114,
          -0.0029799769230576573,
          0.007662746933889252,
          0.0009857588114685328,
          -0.0013006837441354624,
          -0.005717682953442916,
          -0.013938206243721479,
          -0.009309696822380273,
          -0.0048273365379892675,
          -0.000665378491903587,
          -0.00918316632140144,
          -0.008755262630387492,
          -0.018955921864998178,
          -0.010592310831821187,
          0.0009467849006673082,
          -0.008140146895238546,
          0.014615472863579995,
          0.005585190109614481,
          0.0012549948906518597,
          0.011180753471286666,
          -0.007330259477909435,
          0.0024257563633983043,
          0.0035015201629618,
          -0.005025035937165939,
          0.0018890751111462082,
          -0.016571263656683127,
          0.009676118049599104,
          -0.011348163292808673,
          -0.007489419765297879,
          0.0023790830915623095,
          0.010099936643235066,
          0.004180732239478472,
          0.01123128658951672,
          -0.011994642272707513,
          -0.012590255636879969,
          -0.0034772077073743426,
          0.008323163462021936,
          -0.0038210852843511794,
          -0.0006369643537978356,
          -0.006486556280847777,
          -0.011240371494129138,
          -0.00686641984574695,
          0.0056426948471758566,
          -0.005939319909995629,
          0.00899264489128478,
          -0.0040359257143310085,
          0.0014525419057658693,
          0.009811250661619735,
          -0.0007911555069586764,
          0.0008629311860012281,
          0.0066178029627823876,
          0.006481585170697019,
          -0.000344413127264393,
          -0.024992971943382573,
          0.003843262665514689,
          -0.008277405046701885,
          0.007237726419482052,
          0.005032071295395885,
          0.009338508583999056,
          -0.00797709594813107,
          -0.024697302229870665,
          0.0031856059240364287,
          -0.010597686325996598,
          -0.007065334121157741,
          0.0007622605240155564,
          0.01512839229644417,
          3.0120181130343383e-05,
          0.016032723089825864,
          -0.001429031359073646,
          0.012504892087392179,
          0.021175785668508525,
          0.01102376043149717,
          0.0047906709148347205,
          0.005176925058591775,
          0.010980384965580313,
          0.0050165571902854745,
          -0.01209884193585002,
          0.010364216775884243,
          -0.010970758370617258,
          -6.517167379288126e-05,
          -0.023683700164171217,
          -0.010546247176812252,
          -0.003480147643229514,
          0.016965158226335625,
          -0.007262368527023554,
          0.013294949161946758,
          -0.005571053243535355,
          -0.008040137290436867,
          -0.025691697589706276,
          0.0067507593384431,
          0.01731931142173804,
          0.008735565655738284,
          0.0030094698197260894,
          -0.004710924706228906,
          -0.020476969778101147,
          0.0010887204452878347,
          0.015197434863281754,
          0.004324592215055191,
          0.008736803692792172,
          -0.005373369746254744,
          -0.00045373763631932943,
          -0.0021829669573391343,
          -0.012388103112209024,
          -0.006276997594311031
        ],
        [
          0.004132909152049222,
          -0.005815518167799706,
          0.012425725770198253,
          0.0098735048028281,
          -0.01754239253866025,
          0.00726682484943382,
          -0.00035130945381064266,
          -0.0023677737654822367,
          0.005932657736605087,
          -0.004065250502246433,
          0.012146334355931534,
          0.002592615507047828,
          -0.00420651058357736,
          -0.006388471889669003,
          0.01011094647867981,
          -0.0007179252701229742,
          0.006741888163424163,
          0.018152693011755868,
          0.007025181999782984,
          0.010303364938095886,
          0.007015640858714247,
          0.013779300780803994,
          0.0010646569022162886,
          0.002713595940272912,
          -0.0002003908821015064,
          0.01982175934140171,
          -0.005736040220534359,
          -0.004478795090145796,
          -0.005504526546897202,
          0.0037631768248083636,
          -0.0069065350231269675,
          0.009879450116441996,
          0.004732389003576558,
          0.005129650767091712,
          0.024564922535491175,
          -0.0027939392696001027,
          -0.006727243792966389,
          0.006947315846216284,
          -0.0035483060668360313,
          -0.020838344811323076,
          0.010278862968857844,
          0.02302339629097199,
          0.014010038140772655,
          0.012213949323213454,
          -0.017236224797473682,
          0.005339944101047363,
          0.008066777348092613,
          -0.009483926615363824,
          -0.001941105038490133,
          0.0036811640230304146,
          -0.010013848918321378,
          0.006976593668661713,
          -0.0006110713814491255,
          0.0143707350826575,
          -0.0012449838608987358,
          -0.008530493379352844,
          0.012264349109006813,
          0.007419525767839402,
          0.005313671074452704,
          0.0019999052582568904,
          -0.017311201221467166,
          -0.006480895048661199,
          0.0034330114025555394,
          -0.004233511116265728,
          0.012209419706541727,
          0.0034255695010608923,
          -0.01838967746469972,
          0.010007130671951596,
          0.0024452251361172174,
          0.011626760859831388,
          0.002185416323466677,
          -0.010760738432035158,
          -0.0055241807661694595,
          -0.019976666844187488,
          -0.004305781746310257,
          -0.008952901507879753,
          0.0033420592382246866,
          0.004743691276416267,
          -0.02105558051314974,
          -0.00801935984514261,
          -0.0018320891184398728,
          -0.01620667914568442,
          -0.0006485567354526264,
          -0.01417923606224031,
          0.0017921570020975922,
          0.007962853551473317,
          -0.00936942139971161,
          -0.0026899120899686315,
          0.012372721080644009,
          -0.0034820890624714684,
          -0.0008605781684763398,
          0.009132333329276585,
          0.009174718765584199,
          0.005824865695404965,
          -0.0017202014142505186,
          -0.0031174292745137036,
          0.004046852113571272,
          0.009093945101909348,
          -0.002551689367877753,
          0.008155561575195192,
          0.0024355083570909344,
          -0.016168171822643886,
          -0.0014291292334560055,
          -0.002083704379614441,
          -4.683477317156809e-05,
          -0.0034443775060055784,
          0.004126007879793653,
          -0.0003536362538874413,
          -0.031721399418007674,
          0.00020114096155900767,
          0.0002671043003632918,
          0.019214701414435823,
          -0.017014204800257865,
          -0.001218525897493495,
          0.005650590496943861,
          0.012026236453137742,
          0.008519653741249364,
          0.005339086622487229,
          0.00037473947029653665,
          -0.003978378185471713,
          0.011374978058283977,
          -0.003517007636797906,
          0.009180460232531907,
          -0.005735348456818322,
          -0.010882860704359678,
          -0.005577925800136492,
          -0.013615504647240156,
          -0.006125692684449762,
          -0.0035264701126529675,
          -0.010746753735931945,
          0.0050857063551203174,
          0.008848808428555035,
          -0.01336696222576013,
          0.014123621245386592,
          -0.0012576365033827046,
          0.017528305880522694,
          0.019562491261006964,
          -0.007885424064801732,
          0.0037322957285596072,
          0.012026335536806832,
          0.0006075809461582854,
          0.0019491959924877724,
          -0.016058957134096396,
          0.005178111851222432,
          0.019986639416444806,
          0.005518649347555475,
          0.01185857753139529,
          0.010866091071506026,
          0.011410663024326336,
          -0.009881887540054,
          0.012362589424180639,
          -0.006070196233481756,
          0.005690193650404422,
          0.006100747915583563,
          0.0040077807521820205,
          0.0023496884292152674,
          0.02018601683871327,
          0.017396778526208516,
          0.02414183474810716,
          -0.006402732008048144,
          -0.014815256379250429,
          -0.005138670487150111,
          -0.0111597736930626,
          0.009550320821486252,
          0.006058872452972555,
          0.0038449084657238937,
          -0.00980940065866022,
          0.004208687737477478,
          0.009766254489204743,
          3.6474834903832767e-06,
          -0.010109860655445451,
          -0.008775461792266683,
          0.004699370879977883,
          0.00032061791855284775,
          -0.007543145880114655,
          -0.013396504019489995,
          -0.005762763575269151,
          -0.00035416283314250305,
          0.004499687765355197,
          -0.015854095339977527,
          -0.012919677466263775,
          -0.0018079408681694773,
          0.013815537539115987,
          -0.004424218225421262,
          0.0014876565643732462,
          0.007335001407419153,
          0.00847260952649951,
          0.005247249248861067,
          0.023053154474785613,
          -0.017565204965654335,
          -0.00488801916372655,
          -0.0016110168161545388,
          -0.0039108479398140324,
          -0.011230635480252167,
          -0.015058609937459005,
          0.007474078730691002,
          -0.002042926811123476,
          -0.008967746070922636,
          0.0060553691876704275,
          0.002974581017148002,
          -0.006034805082494821,
          0.006853662467229749,
          -0.004617539065522063,
          -0.014281066066818502,
          0.012539440043470768,
          -0.0001306738833015478,
          0.005822014474358091,
          0.006702803399457993,
          0.006747725946662594,
          0.007235196371336258,
          0.021158496444557678,
          -0.012162992637609922,
          -0.0011371947697749601,
          -0.009257737581747456,
          -0.0017784476298023666,
          -0.0031065103016979234,
          0.016018583079125327,
          -0.004459805705173034,
          0.004641384899918032,
          0.0018384942202885092,
          -0.002517963824934078,
          -0.001700652905374923,
          0.00333247520757663,
          0.002208285833146236,
          0.01322169877768036,
          -0.008975639132965665,
          -0.00444743385685753,
          0.009146500433116687,
          -0.02265807353526964,
          0.012845063068363576,
          0.004453020740806572,
          -0.007194876524497704,
          -0.0048567551968994324,
          0.007275832707472253,
          -0.0033097041834871618,
          -0.004032919213674206,
          -0.00378736908964185,
          0.010258865711628122,
          -0.014694098935077957,
          0.007031277589365601,
          -0.009652544420430178,
          -0.010265330690412312,
          0.013007595097077662,
          -0.010011688150180545,
          -0.02008711440687323,
          -0.0010467024666608277,
          0.000963944902196228,
          -0.000362537218887692,
          0.004365612772978924,
          0.0003259734088471875,
          -0.019134343700742528,
          -0.014288840114295988,
          -0.009319276134229428,
          0.004162775720430061,
          -0.007209388823066232,
          0.0041990280444716395,
          0.009604103180802001,
          -0.0065418278825735065,
          -0.019296706839737072,
          -0.02146747163548035,
          0.010732300531409151,
          -0.019419616953636556,
          -0.0017599039946997203,
          -0.014068018003005119,
          -0.012619804761304115,
          0.006864095922541351,
          -0.003563474182515302,
          0.02050820824449386,
          -0.011162117893081363,
          -0.006615477010610932,
          -0.004087083117062851,
          -0.007195233351275001,
          -0.008256732012440647,
          -0.001797798840136275,
          -0.0015586248290221892,
          -0.011350669136927305,
          -0.010446586656144148,
          0.010532649843590569,
          -0.0020646415327390416,
          0.005809827568499266,
          -0.001577605525072811,
          -0.0077752649768722225,
          -0.0019086167697179158,
          0.007030357445562075,
          0.012777190386866822,
          0.025333195550189102,
          -0.012572089926528664,
          0.00751185514853256,
          -0.0035002906685117014,
          0.017234989175083915,
          -0.0063068089972358144,
          -0.01888461143820964,
          -0.011857333857460125,
          -0.007572589343445088,
          -0.005382430669785557,
          -0.003996048386760993,
          0.011233288582955376,
          -0.0031456705269129847,
          0.002834799983074931,
          0.0006966004300009854,
          0.012745238665500121,
          0.01892630264800605,
          -0.0018224244304073417,
          -0.014112270661154613,
          -0.003818543023707506,
          -0.004194183293836815,
          -0.00682518341954616,
          0.004628357425994396,
          -0.012828203025659934,
          0.014873837538291286,
          -0.008971354097370222,
          -0.004973825185775607,
          0.020471581868987933,
          -1.833076978815579e-05,
          -0.0061117702102782435,
          0.002760007928941476,
          0.007473349689871545,
          -0.006456896487380382,
          -0.008454848312882788,
          0.0015850157191133866,
          0.007307375364445041,
          -0.0020871330887178106,
          0.0010868440483091722,
          -0.009786636507350201,
          -0.009023007310150445,
          -0.007632779533288553,
          -0.00934744163709523,
          0.003969670036133553,
          -0.004541315179682982,
          0.009164813431963018,
          0.009486735582212759,
          0.012599028455131275,
          0.0065559204974227295,
          0.010375019022832815,
          -0.0006033828020228901,
          0.007995144916066009,
          -0.0019350364102561877,
          0.007030304581822915,
          0.008167371995659842,
          0.0024514926020258354,
          -0.005280834660781825,
          0.01378345996152037,
          -0.0020956193992925395,
          -0.019034988940055383,
          0.0038376171224845748,
          -0.00344188773154614,
          0.0010037427825213877,
          0.011665975025057654,
          0.0014269481000534947,
          0.0009032476982882903,
          -0.0027007291563049423,
          -0.014438673469591363,
          -0.008384748496177012,
          0.004741099483996665,
          -0.0026169595885082698,
          0.0033543487313214765,
          -0.002128848064970298,
          0.0034791919071257274,
          0.012302668828131125,
          -0.008739863664135334,
          -0.015459404434514514,
          -0.0010829915480353488,
          -0.005639816894143116,
          -0.0035019523023674865,
          -0.004868549467670558,
          -0.008936112132791572,
          0.011899202509860938,
          0.00937481212155089,
          0.0017267766173625796,
          -0.0026744463042424013,
          0.007710582669871789,
          0.001185507641058744,
          0.00040883842459196393,
          0.0014512517286093516,
          -0.003799229263192125,
          0.009924694740816519,
          -0.007786754682177538,
          0.0063635100361006,
          0.0015372603956477712,
          0.010833002403031375,
          -0.015048801117013184,
          -0.014869676787629174,
          0.008404573242948368,
          0.003496945927034666,
          -0.012531461493918157,
          0.008366056883605031,
          -0.013585002127915961,
          0.01171118224091136,
          -0.0012126491474356226,
          0.017433846416665105,
          0.004121738996579081,
          -0.009132983319615911,
          0.022709390298031363,
          -0.0041807337164208695,
          0.0019336088433635965,
          -0.01796804800804462,
          -0.008446007631996806,
          0.02760575229356292,
          0.013669031568908458,
          -0.00011275547747316154,
          0.003965658226659534,
          0.017716448406667782,
          -0.004941389209215187,
          -0.009861591260111182,
          -0.00756203657512715,
          0.009672811874924818,
          -0.006115923160886418,
          0.0027643020629338115,
          0.004455309976589134,
          0.012084110176543997,
          -0.009505974657895926,
          -0.00672758309113411,
          0.009504599558862202,
          0.007233279164702317,
          0.014697120557528802,
          0.010376891997799571,
          0.018514439403882775,
          0.004408681908781902,
          -0.0007041696922269761,
          0.0049217012066208555,
          0.0027624198992688234,
          -0.01207214863121357,
          -0.007697624898121104,
          -0.004319296996534407,
          0.01194350465715452,
          -0.010490013113988407,
          0.009755088001035073,
          0.005085479998379931,
          0.011811068446733667,
          0.0021634682073100845,
          -0.01077822816081633,
          0.0012905862270617245,
          -0.0037684655557316256,
          -0.005813369895887648,
          -0.008225493027038443,
          -0.00010829624986749526,
          -0.005439636620739255,
          0.0001361803703676333,
          0.0012140987470595326,
          -0.009662361384320228,
          0.008314586083814251,
          0.0006726750964805439,
          -0.008831601318268496,
          0.004601214532523707,
          -0.005821723061038392,
          0.006665929426658314,
          0.01488837619829341,
          -0.005156847642300803,
          0.003682870300454053,
          0.0018435408639344176,
          0.005691799891473768,
          -0.012040956339289238,
          0.007935821950910553,
          -0.00895145745296552,
          -0.0016419380965505695,
          -0.013077438858470757,
          -0.005560984907085925,
          0.012114855651174695,
          0.005109591196125199,
          0.006818733789471884,
          0.003845034720247631,
          -0.021457800722670766,
          0.02610818764479033,
          -0.010976930031587024,
          0.016547186605894146,
          -0.001811740661484634,
          0.005757289097507913,
          0.008647540379301337,
          0.006191951945827103,
          0.01038468301790313,
          -0.002375696211268301,
          -0.012985846403239623,
          -0.009750848548518985,
          0.009351708857982581,
          -0.004714569130290238,
          -0.0015907714487301745,
          0.009664480288249911,
          -0.02811851857251474,
          -0.009134997738747022,
          0.0030063510860724456,
          0.015850751588982134,
          0.0076022470792679485,
          -0.010633560912815445,
          0.014023364170954178,
          0.006493439536460016,
          -0.004096135897945832,
          -0.006261926780917672,
          0.001976509169421403,
          -0.005261970132873618,
          0.012918019749234604,
          -0.007097377001634326,
          -0.005567196684598715,
          0.008878844267553929,
          -0.0008101762231354121,
          0.012080284445826988,
          0.004570995411520245,
          -0.006352563837340526,
          0.00022764850394713974,
          0.003871701262076135,
          -0.004362154814520439,
          0.00034401328792753316,
          -0.013031853391208615,
          -0.01390508706890476,
          0.0029893079414052342,
          -0.007662357235249874,
          0.006918619871676958,
          -0.01050291081422785,
          -0.009630438054820332,
          -0.0022980519742182687,
          -0.002815324418522567,
          -0.001492802877842925,
          -0.007054138849925192,
          -0.014591891872801093,
          0.0019644104267282645,
          0.005923703943754888,
          0.00989150983695648,
          -0.01678030668567535,
          0.001008929065412411,
          0.007736940729367299,
          -0.027858219066673986,
          0.010347923203977054,
          0.010333498575682663,
          0.012528372641913617,
          0.0003952353098831938,
          -0.010595351716887446,
          0.014703309796910218,
          -0.004502600041660664,
          0.0021888640188313267,
          0.003263060799904121,
          0.00819601746053512,
          -0.00048296298355629265,
          -0.014538153194486161,
          0.0049359065794621505,
          0.009011262209870424,
          0.010588254297681466,
          -0.0036850103879212228,
          -0.006098159522983332,
          -0.016915884762222916,
          0.0015960194534164662,
          0.02016382583187266,
          -0.007868643177827778,
          -0.0012048781112496568,
          0.010849384592862712,
          0.0006285911174274777,
          0.00935892109669057,
          -0.0030593843881175304,
          -0.012190709890631764,
          -0.011204612039413244,
          -0.0007460712034506986,
          -0.0007214348109265542,
          -0.010367263449288793,
          -0.006285857706282001,
          -0.01427811888206348,
          0.0010945708717268218,
          -0.004006067292559769,
          -0.012696738298769031,
          -0.010304187154687628,
          -0.005139719061792307,
          0.0003391910460743693,
          0.0029376681851912673,
          0.002483957850330231,
          0.004445358784486637,
          0.008231276364641753,
          -0.005979917512018893,
          -0.010521442145142926,
          -0.023154633368205044,
          -0.011604886983218425,
          0.003364988723731367,
          -0.013151355578751987,
          0.00184123269297384,
          -0.0026522258444979115,
          -0.0033341671375366885,
          0.009987488254758089,
          0.006573759357850207,
          -0.006153389395023087,
          -0.004903749815072574,
          0.007634827091325988,
          -0.00819631377571591,
          0.005259577282843133,
          -0.010091397156949386,
          0.006647066376534782,
          0.006022238141991313,
          0.002509788836488452,
          -0.0020670483713878087,
          -0.01671127757121321,
          0.009276079865813384,
          0.005732484417687096,
          -0.010499678823136648,
          0.005852442747405246,
          0.003294974205392476,
          0.0032256564115979163,
          0.0021422533876827316,
          0.013524039832612274,
          -0.0015463987183717703,
          0.005126229076194731,
          -0.0033483993293196086,
          0.0164098930815946,
          0.0044613818268457615,
          -0.019038477771726525,
          0.01901249385908923,
          0.016228382459683225,
          0.0022592655541809705,
          -0.004541371528807491,
          -0.002798311261909251,
          0.0075338784079221136,
          -0.002067283715241964,
          0.006490347917677652,
          -0.00092807264160592,
          -0.00794754264911022,
          -0.0006562748696924789,
          0.0027035070780029495,
          -0.005361659045705909,
          -0.011389141742968024,
          0.006102610982765223,
          0.004485560519099173,
          -0.009679206598422602,
          0.013602995292370723,
          -0.0030750335392622998,
          -0.003785093796106137,
          -0.00758035024418522,
          -0.0001928221465242192,
          0.0092433987185187,
          0.011003078819256159,
          0.008061741411082518,
          0.004491945615305788,
          -0.003948395423673036,
          0.016319381774581247,
          -0.016589670018831337,
          0.005734271157985127,
          -0.007768567653882625,
          -0.005740658727370603,
          0.018120117049500936,
          -0.005852072067375325,
          -0.002198703825937793,
          -0.0004250317772993584,
          -0.010962656514853624,
          -0.006558518880634646,
          -0.014630831525110594,
          -0.00879111031320509,
          -0.008245630297756481,
          0.0021308572707177185,
          0.01961636177072072,
          -0.014911487584720806,
          0.00799237042757793,
          0.007188297526313482,
          -0.0007934493260608079,
          -0.012669562582356707,
          0.0029376394988850237,
          2.0746303735062967e-05,
          0.0013027739817786433,
          0.012987126604798463,
          0.01709819364525308,
          -0.0024114185082900115,
          0.009454479437745338,
          0.003187749847353802,
          0.008482103493722195,
          -0.006914731268276393,
          -0.008745158276974162,
          0.002161739720062384,
          -0.007047306340082683,
          0.011199457452799568,
          -0.010610748667999688,
          0.012023818077825286,
          -0.014749341588718297,
          -0.025234430023473888,
          0.0018053063591688511,
          -0.006727214653597388,
          -0.004323920534047871,
          0.0035230358063440127,
          -0.0011858668985987942,
          -0.016573067875824684,
          -0.005522956497111375,
          0.0039521556400727974,
          -0.005035565978794034,
          0.007373970985195984,
          0.0041089927406928635,
          0.004744656129003624,
          0.010348594583073497,
          -0.001882594056107278,
          -0.0036088415276336857,
          -0.0030939097506265906,
          0.0021724724943490933,
          -0.010738251218449915,
          -0.004401449970438078,
          -0.0018576118111418775,
          0.012954050052520706,
          -0.0056079320326343045,
          -0.004182308644809619,
          -0.004626141212197003,
          -0.01575973320665177,
          0.0006768130429908958,
          0.004796646181597421,
          0.0013857898768439541,
          -0.0038631893766098374,
          0.010650015785371156,
          0.007871540424343895,
          0.0030339288242336427,
          0.0033574934545804575,
          0.0006315979703811055,
          0.006031885858206496,
          0.00125657956460993,
          0.0034969606182055353,
          -0.0008467663738542941,
          -0.005595863371737795,
          0.010464151290299612,
          -0.017587273859059428,
          -0.0004331638266933487,
          0.0015177633783033026,
          0.007339552056577467,
          0.002423661121091333,
          0.00314278036544899,
          -0.002626866371483917,
          -0.01941075443503377,
          -0.005658772117901793,
          -0.009698276470771174,
          -0.004074941262101261,
          -0.006333456841625299,
          -0.010068698572025725,
          0.006689899459282242,
          -0.002766540089306217,
          0.012813940646294352,
          -0.010475973610409217,
          -0.0012980154762839056,
          0.010106637417911265,
          0.012234408292468925,
          -0.00011704061749269134,
          -0.001990896283072536,
          -0.006804246567055766,
          -0.006378393515317744,
          0.008789554478777427,
          -0.004720235002464503,
          -0.006372786430537207,
          -0.004885479789906506,
          -0.0154430803713155,
          -0.004849336915152858,
          0.014182022483432546,
          -0.01931122995875009,
          -0.006518785623304921,
          -0.002166476425900835,
          -0.0014787780009119938,
          -0.003289807141654255,
          0.0029294823836634627,
          0.005381000295672337,
          -0.008944628698717327,
          0.024699611095637404,
          -0.007643532503679885,
          0.012982466616692275,
          -0.00019577003503226157,
          0.003095437431513868,
          -0.0027546547373718372,
          -0.016919639657516864,
          0.013815992828905698,
          0.004036131435534873,
          -3.3991008695032074e-05,
          -0.006267479736754831,
          -0.011384912557691387,
          0.010044527821577824,
          -0.007332433438431363,
          -0.006710090488829096,
          0.003508667219960067,
          0.007226186376329452,
          -0.005573143644817169,
          0.0021418028646907365,
          -0.005389866096400754,
          0.002341213842758969,
          0.0036577326106271724,
          0.009210526627220508,
          -0.014112463829581645,
          -0.004946128777404031,
          -0.0033506269859799134,
          -0.0032550180002629743,
          0.0016081317858304565,
          -0.009414703363140596,
          0.009680850328322829,
          0.012079968317631995,
          -0.0020617155946496915,
          0.012616612693985863,
          0.0005655225369281611,
          0.00564500495030598,
          -0.007818940695867528,
          -0.00789234832616635,
          -0.010069173896803516,
          0.011315805500638751,
          0.01754071249550466
        ],
        [
          -0.008712531544561971,
          -0.010646888488301432,
          0.0012863117603264637,
          0.008822383872345912,
          0.009940132575198619,
          0.004665423431201559,
          -0.017869750216506077,
          0.001106030876979538,
          -0.0038239355690545896,
          -0.021304768625414795,
          0.012796767543235268,
          0.006455317251040135,
          0.0035765166307916083,
          0.0003539839178442346,
          0.024203763198595945,
          -0.002037637450442543,
          -0.009511732581103256,
          0.010337797742902307,
          0.014157135854424838,
          -0.008099607623179787,
          -0.005313799389084164,
          0.00625828134082762,
          0.011987424525321779,
          0.004669233413327365,
          0.01185962706519185,
          -0.0016475769570555726,
          -0.0026984743447165133,
          0.007266482347075098,
          -0.005269387868920235,
          -0.01045476036280054,
          0.003743826817926556,
          -0.001412990202612874,
          -0.0029383414389721725,
          0.006055766886268741,
          -0.006853822089855098,
          -5.70234559822696e-05,
          0.0010061149030100882,
          0.0038092727976005887,
          -0.010376353253645512,
          -0.006391216609003897,
          0.0007165222686379171,
          -0.014974553509114473,
          0.014178764402010236,
          -0.0003995849610049278,
          -0.020453638674771926,
          0.006153015348674266,
          0.008788039319998844,
          0.014612155307821765,
          -0.010492356937592713,
          0.003543522741922,
          -0.017592378651985922,
          -0.00810934397669819,
          -0.0001487226400525835,
          -0.000456663425794105,
          -7.4127303245477886e-06,
          -0.007927552905195995,
          0.0036297565684135537,
          -0.006493026031457789,
          0.009066051920179516,
          0.0058972294422612774,
          0.004097108613165367,
          -0.01057382086486251,
          0.0013080948495188837,
          -0.002637354072245829,
          0.0013475552489337966,
          -0.00454572902953582,
          0.001187736716831305,
          -0.0029773934139230677,
          -0.0006425461078792018,
          0.005896518576589342,
          0.007593847911419396,
          0.007637930599213272,
          0.00419130525329462,
          0.01044540238178301,
          0.010436982015359517,
          -0.011504830525825906,
          0.0055623573499166065,
          -0.006343394150090029,
          -0.0034118131545772122,
          -0.003341593257924669,
          0.025388704684070156,
          0.00040712478296726966,
          -0.004481748361983957,
          0.005955337856268656,
          0.003829025340222618,
          -0.008892440007249418,
          -0.004221010920713821,
          -0.015415257984555885,
          -0.010225582207629796,
          -0.004992561447818177,
          -0.004920656798444375,
          -0.012839372075939626,
          0.009738493820123283,
          0.00396522310376433,
          0.007242161330311327,
          -0.0008203564496795523,
          0.008397537510163712,
          0.0033613272973630585,
          -0.005751260137797187,
          0.0011288472071545167,
          0.006222875052165022,
          0.0325054095114742,
          0.008547479894708868,
          0.008479981327734346,
          -0.016256047687761864,
          -0.005248886133644314,
          0.002181272444816655,
          0.01809474198360301,
          0.00952753449958522,
          0.007361399812130127,
          0.011282257752189708,
          0.0022905945198591015,
          0.0016390977385928815,
          0.003928659229685558,
          -0.0020131366583787356,
          0.01212221707402567,
          0.0029502845254505044,
          -0.014296298128953382,
          -0.016408340700975202,
          0.0021147081831664745,
          0.0017261460999593854,
          -0.005942174967061123,
          -0.002576190743765249,
          -0.006942692104163294,
          -0.0031075390089486416,
          0.0019516955211378733,
          -0.024582261360657935,
          -0.0047084636187829845,
          -0.020321484588358335,
          0.010684901067004867,
          0.0018517844078324473,
          -0.012754600833968214,
          -0.007129547177167115,
          -0.0030660005409473548,
          -0.00038274536793498997,
          -0.00368662027771648,
          -0.00024857383548956304,
          -0.010489315257299698,
          0.0020261650970068057,
          -0.020211684278521446,
          0.01927420807116311,
          -0.010309132252008782,
          0.00977548657075806,
          0.006972609582402544,
          0.006841767078928541,
          0.017372987633506257,
          0.008235387110089995,
          0.0010390223723544818,
          0.0027008679998754533,
          0.0022589408556323407,
          -0.008758953007452672,
          0.002290121926548659,
          0.004712757384073277,
          0.006720364894192064,
          -0.015277944018501466,
          0.002042272018279263,
          0.012848168556329776,
          -0.0047257271052033095,
          0.012855169764903066,
          0.027276288781855295,
          0.0070636491879594214,
          -0.00571699970512692,
          0.0006756329626019414,
          -0.005979730964053904,
          -0.015378866581027655,
          -0.0010820484877793624,
          0.0027341771086915804,
          -0.007324009448690881,
          -0.012020146084550293,
          -0.013554992822605208,
          0.0013746671761827023,
          0.01002088226798428,
          0.012070164252900901,
          -0.012939274646183862,
          -0.023361344228054658,
          -0.004746445982738069,
          0.005309358665692861,
          -0.01548821902314213,
          -0.003348361628131606,
          0.011972754981819335,
          0.0017571431131617986,
          -0.018284034532843278,
          -0.0026494136263482343,
          -0.008000437644965712,
          -0.024305017742280076,
          0.0005390598972066295,
          0.004329805386785866,
          0.01710925027139371,
          -0.010994917422104874,
          0.01019231237882112,
          0.0035955382890987546,
          0.007949230704959353,
          0.01744028027825507,
          0.0021852634041868587,
          0.008127474662122212,
          -0.0011722598509535057,
          0.007498777313514475,
          0.004985379272613155,
          0.00364077178656338,
          -0.0013875760224087614,
          0.0021204960272898313,
          0.007509809409345853,
          -0.0019580452427716685,
          0.004902794532169032,
          0.002669110898040842,
          -0.0022536149649075342,
          0.001175717294807317,
          0.017262141626826648,
          -0.0028888546361661455,
          0.001032011387720187,
          0.0033056097867177696,
          -0.02264198448317858,
          0.0026970743227228205,
          -0.02682424970013984,
          0.010760138302952624,
          -0.005425190553523929,
          0.0009808860770687947,
          0.0016803575716157224,
          -0.016955814128058033,
          -0.004033161081956128,
          0.0061388044877236795,
          0.020987918072530132,
          -0.0019158563587775774,
          0.015495688001328866,
          -0.0011814599152369445,
          -0.0023093154672715077,
          0.018089594104835672,
          -0.006471774157784436,
          -0.009857175625469049,
          -0.009016009259991272,
          -0.004518860303986147,
          0.0062516613514198354,
          -0.0017821986479374327,
          0.01354118808419346,
          -0.009003533591353181,
          0.02407564530563794,
          -0.0016004763492598376,
          -0.01486365672703116,
          0.0010858345879484917,
          -0.008558089872748172,
          -0.02198849705479884,
          -3.559168243891879e-05,
          -0.002580100418235518,
          0.002445537976759578,
          0.013681055371350302,
          -0.0050446086511622724,
          -0.0012366443450713169,
          -0.001963427504401486,
          0.016656474314252472,
          -0.005521216980038423,
          -0.0021297580092072494,
          0.010314084967907708,
          -0.011821156483287692,
          0.013279619376175673,
          0.0079503724404721,
          0.00900655267370911,
          0.01056313714286235,
          0.0038384189468343567,
          0.0027708850289943888,
          0.011394355253386277,
          0.00592524537490586,
          0.0021972593602392547,
          -0.013178166472145276,
          -0.0018208885215705533,
          -0.001273312309921143,
          -0.006647097933461723,
          0.0029226546004122596,
          0.012125511865177092,
          0.008536714724090878,
          0.01257373071013259,
          -0.0013944809827834263,
          0.007156765130426106,
          0.010449023229046284,
          -0.00040247360356850706,
          0.0005013016546400039,
          -0.0037980029381986516,
          0.005880909913485685,
          0.020556502584945246,
          -0.0021876512120075284,
          0.00946202786207318,
          -0.02014837201030189,
          0.007585029589540964,
          -0.00825996591180102,
          -0.0027201022151865663,
          0.004431363005431609,
          -0.00039056586170729227,
          -0.01517393337065337,
          -0.007891736936930165,
          0.002371039735041875,
          0.018500215461591064,
          0.02791213948092176,
          0.009327432015547582,
          0.0018092266235677293,
          0.0006655775850335411,
          -0.0003202955253168552,
          -0.0052442088265294345,
          0.010303658019029983,
          -0.01762512825706149,
          -0.011984297368013506,
          0.0034070538816183033,
          -0.007011225023416331,
          0.015035003145085468,
          0.005802493159890164,
          -0.0150251296313211,
          0.006479012258623768,
          -0.012821800928564962,
          -0.003333016776731153,
          -0.02259228779726254,
          -0.01778593982252322,
          -0.0035664533835080663,
          0.005025622326791882,
          -0.0014315566894350213,
          0.007559262368003984,
          -0.008048890149064816,
          -0.009999362613352185,
          0.008367083921036899,
          0.004955122145112787,
          -0.017340858071940347,
          -0.0065214084782792645,
          0.010230236241256681,
          -0.011607908403311447,
          -0.008764334504539041,
          -0.014164695655266684,
          0.018146073028988633,
          -0.008859080401562183,
          -0.00044789809347883065,
          -0.010458400045669643,
          0.005502859321253498,
          -0.010404094048080258,
          -0.013563963438593047,
          -0.00040954500242272064,
          -0.012536359950466907,
          0.010822447457625551,
          0.014817339873277513,
          -0.0029687426089332843,
          -0.001132430699886818,
          -0.004912441391355249,
          -0.019881550902450616,
          0.0034736592917003505,
          -0.0088130904958504,
          0.009490078749007463,
          0.002604247233977396,
          0.019226759162883005,
          -0.011623548140291103,
          0.003697443103829892,
          -0.012224937795014275,
          0.003641905395950396,
          0.020254526318143954,
          0.0062116310623225425,
          -0.009738674230957811,
          0.015584637704226474,
          -0.01542942864274047,
          -0.0174183439734292,
          0.01051676772368706,
          -0.000914680268741151,
          -0.0055952401339730475,
          0.010354514189720635,
          0.005062157239274039,
          -0.014936649948801055,
          0.0028397773111794138,
          -0.014390230327523608,
          0.007124574831583126,
          -0.00868794082555751,
          -0.012316477826090673,
          -0.00328988327716883,
          0.008759505914919922,
          0.004841040251147424,
          -0.0041962324431619995,
          -0.019577235066275313,
          0.00575292872895273,
          0.004404436299596393,
          0.00843191747702731,
          0.0047695010338629365,
          0.010714637474179728,
          0.01441752759230087,
          0.001404090160946137,
          0.0009355573320199714,
          -0.0032540172045538818,
          -0.015802689007243166,
          -0.005465381122088548,
          -0.005373249492990792,
          -0.006273345778418039,
          0.003788547410383464,
          -0.005177533983485732,
          0.004338785649306588,
          0.02638845870273371,
          0.006210565256457979,
          0.010005230066195765,
          0.005353678846506721,
          0.01643646779928409,
          -0.002158173176643896,
          -0.01034253344310048,
          0.01011626342376476,
          -0.002195180803591729,
          -0.005814867958802634,
          -0.01220504532379405,
          -0.0025383758926408946,
          0.016398792269211974,
          0.008530126881275881,
          0.012404154517653301,
          -0.012037534908900733,
          0.0015268200066709814,
          -0.005290800301807579,
          -0.016574100006179128,
          0.007040752264657264,
          0.006492629139650679,
          -0.0034504117580309406,
          0.0001235667285705523,
          -0.0021568590203452347,
          0.00118532197424981,
          -0.0077016930005017175,
          0.012124202979789835,
          -0.001235167515042291,
          -0.006683168857587454,
          -0.011213827534067987,
          -0.017212450719316322,
          -0.004290137506555351,
          0.008421669123928062,
          0.025657990945085155,
          0.005339724714743904,
          -0.004469718902516248,
          -0.0024533546143708927,
          0.004338438295451377,
          0.011846250105650243,
          0.006711046741961958,
          0.007358883541116253,
          0.009119271239534906,
          -0.026324642859789395,
          -0.0112225707143813,
          -0.0059072275736107216,
          -0.006402529970247064,
          0.007858588646986997,
          0.018144554141620937,
          -0.00952579032887571,
          -0.0008838934534665704,
          0.00935281175859653,
          -0.016981918240933258,
          0.0024858462291674796,
          -0.015788168658453106,
          -0.022763316060767137,
          0.00041810931802700366,
          0.0034635592045544547,
          -0.0059774017636522805,
          0.008326558328913679,
          0.004501962150109148,
          -0.014053404387526445,
          -0.009024822548781036,
          0.018724105976962547,
          -0.011562707478771828,
          -0.007289422646032974,
          0.01425968104451437,
          0.007596998473474204,
          0.004280090948253627,
          -0.003362602039662045,
          -0.0015781576076210572,
          0.008644481832467165,
          0.022273054470182886,
          0.0023539710612716816,
          0.00041913667899750906,
          -0.002312599044607002,
          0.0030210805465787673,
          -0.010614757106878082,
          0.003105223305841415,
          0.0028813357940502865,
          0.0027432541805798,
          0.010759667150924832,
          -0.0048193461491703,
          0.0030750068169647293,
          -0.004106512790229558,
          -0.009715494931774005,
          0.0004785582612339423,
          -0.004367943392168941,
          0.005488669230442284,
          -0.0036936097828715007,
          -0.010550564522278292,
          0.005468118113059839,
          0.014882557353276716,
          -0.0009402089714846719,
          0.008489786551260693,
          0.006111075067894392,
          -0.01274980624887796,
          0.015361907134647409,
          -0.00935240949797013,
          0.010276081116672782,
          -0.013144973547590593,
          0.010545878431947452,
          0.002763144699342731,
          0.009277764859398163,
          0.00602328371402266,
          0.007810709768453803,
          -0.01830314449504395,
          0.00878806888416715,
          0.010339324304912077,
          0.008703859538468816,
          -0.005550233476293647,
          0.007933567872223815,
          -0.008295980291842626,
          0.01622556472242656,
          0.003135235635533487,
          0.01086640793836935,
          0.011273972018408653,
          -0.0034376729769325276,
          -0.022193822789363927,
          0.006848073104302216,
          -0.0019052864520832777,
          3.565200157350652e-05,
          0.0021963522687963918,
          -0.006184195089791578,
          -0.0106886788666044,
          -0.0022805600894242805,
          -0.0031129690249267717,
          -0.009840363598546729,
          0.01720747341835684,
          0.0028750654157014884,
          -0.008658083480718925,
          -0.02107361285323723,
          0.009119597158411511,
          -0.005171626370665728,
          0.014448570446183645,
          -0.008037292523778135,
          0.015475899673363396,
          -0.0018914402563313761,
          0.0024528069169221923,
          0.0019689297090085055,
          0.011868137434839608,
          0.008588194387170414,
          -0.02695508247658704,
          0.004219241038902025,
          0.0034066802346488273,
          -0.015962447636831845,
          0.002982874489760951,
          0.022060614429368797,
          0.01239511838332645,
          0.008126418818684769,
          0.005457535032817629,
          -0.004662432468939836,
          -0.0007215215852186631,
          -0.013683625191562462,
          -0.012696853385091664,
          -0.0075741630340041164,
          0.012719920475419672,
          0.011618390889276242,
          -0.006629011960260717,
          0.010793481641370558,
          -0.009928488479496286,
          -0.008207436930579579,
          0.006804139209431157,
          -0.007454043686736355,
          0.014588647900196847,
          -0.009762491303184417,
          -0.0025379016227239488,
          0.01487091459594444,
          -0.0015480920640035078,
          0.003268358024841437,
          0.010591265979279667,
          0.025213616064334043,
          0.011665130390333624,
          0.011513866826534767,
          0.0009961032222155673,
          0.005398489983226168,
          -0.0015807265953488522,
          0.002576380803774091,
          0.020101754069877062,
          0.015322781431766113,
          0.0015373790234845615,
          0.009673800554409504,
          0.009105841233094401,
          -0.02111106989569548,
          -0.01386173837102854,
          -0.018955318762520292,
          -0.014573496914970188,
          0.004244131516618687,
          0.015805487137168985,
          0.0018879174241994737,
          0.02038900411164375,
          0.003188222003535019,
          0.0056490284844669045,
          -0.006627346498433002,
          0.015950446122148302,
          -0.0043006831634926366,
          -0.02390127050336321,
          0.01959960584877597,
          0.007936789632989494,
          -0.010029729919417496,
          -0.00291970661829907,
          -0.0003221090222226482,
          -0.005150565239336369,
          -0.003836308181781788,
          -0.00933203011884062,
          0.009855797670291459,
          -0.00047866735895012744,
          -0.013812403979899406,
          0.012980334208018737,
          0.008376726358786597,
          0.013332567791583125,
          -0.008551617013756722,
          -0.00024937444267134377,
          -0.000821667691006891,
          0.0008351258636167834,
          -0.002920495288871686,
          0.008123282511483938,
          -0.005052737391575626,
          0.008788335860740583,
          -0.019962601492383245,
          0.0004304109887383294,
          -0.012698780993634981,
          0.006639345829547818,
          -0.004098212101129052,
          0.004809501891621639,
          0.01595393417532512,
          0.00728491776575356,
          -0.013196248528501368,
          -0.007517603627420559,
          -0.00678210633538504,
          -0.0009959032690670365,
          -0.0024775749992859263,
          -0.0071762789762466585,
          0.005998451384824883,
          0.007090185225812533,
          -0.0028550663753879307,
          -0.011499359715025562,
          -0.012724847506977208,
          0.018307533477005828,
          0.014825849565373804,
          -0.00635080094991721,
          0.0054491877136921395,
          -0.0069632704198142005,
          0.008924750988985828,
          -0.016222424385234482,
          -0.008578221332988752,
          -0.0024194612077551216,
          -0.0044574289440102565,
          0.013292942343091285,
          0.014757315855886867,
          -0.014015756797669976,
          0.007810565756136347,
          -0.008191179864516163,
          0.007014966677053087,
          -0.004258195935673833,
          0.01356196370300637,
          0.0015950075293290047,
          0.005596981135421889,
          0.0010910622190531212,
          0.008846580842016501,
          0.009981747267265719,
          -0.001631222741364794,
          0.0029424166040577,
          -0.007327660819683425,
          -0.004513536733882078,
          -0.006959806836708331,
          0.0030061465702878195,
          -0.015598215670768854,
          0.0007058085090979237,
          -0.011085898632585349,
          0.0017626577832279544,
          -0.008059980122477552,
          -0.0015010091141467573,
          -0.02435181445294835,
          0.006160960311418213,
          0.00642533130726843,
          0.013160060490881944,
          0.0013324971959415932,
          0.002158154684032058,
          -0.006828037096758412,
          0.010525254218518305,
          0.010970918029668365,
          0.0001359948035916148,
          -0.016344702632185387,
          0.002501891924469092,
          0.0026095931781848734,
          -0.014558284256725246,
          -0.003241792861505024,
          -0.009709990735941632,
          -0.00839590045607528,
          0.00678546701895456,
          -0.023831101050946494,
          -0.0008971091337631078,
          -0.017422873149808338,
          -0.01034566618631525,
          -0.0009512732043159694,
          -0.0015007481258356504,
          0.000701431745594288,
          -0.00966259279329032,
          0.0022014894420898396,
          -0.00561205101245806,
          -0.020041569745122344,
          0.00726538914901897,
          -0.005867573293014872,
          -0.00034994261704400455,
          0.009925177150204235,
          0.006917459308556598,
          0.014817398488656366,
          0.009132323402091387,
          -0.01239470928174431,
          0.001954254884046799,
          0.005104265216332445,
          0.006090620174681544,
          -0.008225469642168658,
          0.0050424471904747074,
          -0.003485898232162709,
          -0.005811123191243771,
          -0.007643165016203267,
          0.01551489941440841,
          -0.009418264027286346,
