{
  "input_shape": [
    28,
    28
  ],
  "preprocess": {
    "scale": 255.0
  },
  "layers": [
    {
      "type": "dense",
      "units": 128,
      "activation": "relu",
      "W": [
        [
          -0.07952119410037994,
          0.0377005934715271,
          0.07741249352693558,
          -0.03683951869606972,
          0.028461918234825134,
          0.005985051393508911,
          0.04704894870519638,
          -0.003051064908504486,
          -0.049277372658252716,
          0.06696256250143051,
          -0.006879717111587524,
          0.006513774394989014,
          -0.08919265866279602,
          -0.04626893252134323,
          0.07689671963453293,
          -0.07462390512228012,
          0.028837546706199646,
          0.02102775126695633,
          0.03549181669950485,
          0.05289208143949509,
          -0.006355106830596924,
          0.018332339823246002,
          -0.057386286556720734,
          0.05332914739847183,
          0.03541063517332077,
          -0.07164634764194489,
          -0.08013106882572174,
          0.007993966341018677,
          -0.0037861913442611694,
          -0.04577719792723656,
          0.05713876336812973,
          -0.027572140097618103,
          -0.027462491765618324,
          0.014834760688245296,
          0.040607184171676636,
          -0.021228572353720665,
          0.029799669981002808,
          -0.07278211414813995,
          0.03744032233953476,
          -0.10025518387556076,
          -0.04522072896361351,
          -0.08831560611724854,
          0.12445535510778427,
          0.11095265299081802,
          0.013443099334836006,
          -0.029011379927396774,
          0.04098860174417496,
          -0.07664218544960022,
          -0.022183183580636978,
          -0.07569914311170578,
          -0.06591351330280304,
          -0.019419405609369278,
          -0.06392748653888702,
          0.07686715573072433,
          -0.06571356952190399,
          -0.03855399414896965,
          -0.052331626415252686,
          0.0308544859290123,
          -0.08196406066417694,
          -0.07764893770217896,
          -0.0001166890433523804,
          -0.03927365317940712,
          -0.0024226647801697254,
          -0.07386619597673416,
          -0.015422733500599861,
          -0.03980015590786934,
          0.04714910313487053,
          -0.023730874061584473,
          -0.0582972951233387,
          0.007330643478780985,
          0.03550296649336815,
          0.11633018404245377,
          -0.024172142148017883,
          0.08613843470811844,
          -0.007376936264336109,
          -0.11808702349662781,
          -0.03537515923380852,
          -0.08771608769893646,
          -0.1083475723862648,
          -0.09272526949644089,
          0.056499846279621124,
          0.02858792431652546,
          -0.05634845793247223,
          0.015460081398487091,
          0.02452806383371353,
          -0.024728097021579742,
          -0.05053973197937012,
          -0.03384661301970482,
          0.019737014546990395,
          -0.03912040591239929,
          0.008956847712397575,
          -0.06851373612880707,
          0.028336580842733383,
          0.04694146662950516,
          0.005461844149976969,
          0.044346883893013,
          -0.042789556086063385,
          0.037829093635082245,
          -0.05781104788184166,
          0.011171444319188595,
          0.011370319873094559,
          -0.055298518389463425,
          0.05533972382545471,
          -0.06886052340269089,
          -0.06690224260091782,
          -0.04963323473930359,
          0.04903874918818474,
          -0.006494087167084217,
          0.02201925776898861,
          0.013811076991260052,
          0.04039433225989342,
          0.02261931449174881,
          0.06236165016889572,
          0.04014698415994644,
          0.07883459329605103,
          0.020701874047517776,
          0.02296973206102848,
          -0.008366541005671024,
          -0.09474273771047592,
          -0.12349767237901688,
          0.05901006609201431,
          0.04175971448421478,
          -0.07427743822336197,
          -0.032835546880960464,
          0.08048713207244873,
          -0.025346066802740097,
          0.06424959748983383,
          -0.007069517858326435,
          0.12105589359998703,
          0.08744785934686661,
          0.02691415697336197,
          -0.03378928080201149,
          -0.016202228143811226,
          -0.1119253858923912,
          -0.029506096616387367,
          -0.08602394163608551,
          -0.05345156416296959,
          0.030386408790946007,
          0.022543400526046753,
          0.006751020438969135,
          0.045696921646595,
          -0.05619978904724121,
          0.05404585972428322,
          -0.04801986366510391,
          0.03148188441991806,
          -0.045293014496564865,
          0.02202117070555687,
          -0.05753367021679878,
          0.011744151823222637,
          -0.06927076727151871,
          -0.03152792155742645,
          0.02508508414030075,
          0.04843159392476082,
          0.10769020020961761,
          -0.007732206489890814,
          0.013168392702937126,
          0.027278825640678406,
          -0.01209794357419014,
          -0.06815166026353836,
          -0.005710763856768608,
          -0.025065157562494278,
          -0.053448863327503204,
          -0.04022042080760002,
          -0.04269162565469742,
          0.01035252958536148,
          -0.07045815885066986,
          -0.021915240213274956,
          -0.08157370984554291,
          -0.03414967656135559,
          -0.11379852890968323,
          0.02522754669189453,
          -0.04639982804656029,
          -0.0510404147207737,
          -0.04120555520057678,
          -0.06728211790323257,
          -0.077111154794693,
          -0.08484723418951035,
          -0.03948448225855827,
          0.0014518395764753222,
          0.08953984081745148,
          -0.020179685205221176,
          0.05161144956946373,
          0.036069076508283615,
          0.07351416349411011,
          -0.00986398570239544,
          0.06328532099723816,
          0.04028337448835373,
          0.019023282453417778,
          -0.031973887234926224,
          -0.03869863972067833,
          -5.667257937602699e-05,
          -0.05836464837193489,
          -0.10349524766206741,
          -0.007254823110997677,
          0.019697001203894615,
          0.03712157905101776,
          0.043549202382564545,
          -0.038636621087789536,
          -0.0863112062215805,
          -0.10638279467821121,
          -0.1408040076494217,
          -0.10171901434659958,
          -0.1530267894268036,
          0.0066131968051195145,
          -0.04270945116877556,
          0.042429715394973755,
          0.03362492844462395,
          0.03850719705224037,
          0.04149339348077774,
          0.08798392117023468,
          0.06612976640462875,
          0.0059837279841303825,
          0.04693347588181496,
          -0.09358686953783035,
          -0.10226324200630188,
          -0.019048409536480904,
          -0.09129972010850906,
          -0.0629509687423706,
          -0.06772089749574661,
          -0.031770091503858566,
          -0.04325106739997864,
          -0.021393992006778717,
          -0.010785598307847977,
          -0.014930996112525463,
          0.07779914885759354,
          -0.030578453093767166,
          0.005852637812495232,
          -0.031306035816669464,
          0.006174782756716013,
          -0.1345198154449463,
          -0.061733268201351166,
          -0.05763864517211914,
          -0.06285881251096725,
          -0.05713018774986267,
          -0.004834963008761406,
          -0.02856915257871151,
          -0.06624699383974075,
          0.0014358519110828638,
          -0.03703209385275841,
          -0.02829502895474434,
          -0.08106812834739685,
          0.05039070174098015,
          0.06300604343414307,
          0.009129606187343597,
          -0.09602824598550797,
          -0.04614495858550072,
          -0.003890753025189042,
          -0.003933372441679239,
          -0.10649725049734116,
          -0.09263379126787186,
          0.04696134850382805,
          0.049146853387355804,
          0.08229589462280273,
          0.07809311151504517,
          0.027218196541070938,
          -0.020769169554114342,
          -0.039059773087501526,
          0.0149712935090065,
          0.0621187798678875,
          -0.0022050996776670218,
          -0.05927395075559616,
          -0.030139315873384476,
          0.07774718105792999,
          0.017502743750810623,
          0.06502173095941544,
          0.008487201295793056,
          0.03706059232354164,
          0.029168788343667984,
          0.05496111884713173,
          0.07774698734283447,
          -0.020496085286140442,
          0.03388845548033714,
          -0.05050153285264969,
          -0.035462986677885056,
          -0.0843941941857338,
          -0.10375117510557175,
          -0.09310634434223175,
          0.006964418571442366,
          0.03873259574174881,
          -0.03347161412239075,
          -0.0502610057592392,
          0.019443776458501816,
          0.04430758208036423,
          -0.0078082820400595665,
          0.05915945768356323,
          0.0594637393951416,
          -0.047795042395591736,
          -0.026613468304276466,
          0.005613262299448252,
          -0.04385580122470856,
          0.04171597957611084,
          -0.036737579852342606,
          0.05282962694764137,
          0.10153668373823166,
          0.04911656677722931,
          0.1583212912082672,
          0.0628606304526329,
          -0.020506635308265686,
          0.1045483946800232,
          -0.010172453708946705,
          0.03270226716995239,
          -0.07070911675691605,
          -0.11192966997623444,
          -0.07318362593650818,
          -0.07986006140708923,
          -0.06586015224456787,
          0.06852079182863235,
          0.07877438515424728,
          0.0390845462679863,
          0.030846836045384407,
          -0.017427075654268265,
          0.035837821662425995,
          0.003494634060189128,
          0.032807011157274246,
          0.07061751186847687,
          0.037939395755529404,
          0.06978140026330948,
          -0.04345660284161568,
          0.07632366567850113,
          0.02991211786866188,
          0.032934363931417465,
          0.04999794811010361,
          0.12031058967113495,
          0.1581367701292038,
          0.09701818227767944,
          0.09412800520658493,
          0.052220359444618225,
          0.08188248425722122,
          0.007025436032563448,
          -0.15420305728912354,
          -0.1854006052017212,
          -0.19360432028770447,
          -0.05527755990624428,
          0.038362614810466766,
          0.07638319581747055,
          0.006314517930150032,
          0.059934865683317184,
          -0.04400789737701416,
          -0.011828519403934479,
          -0.01127682812511921,
          0.03989972174167633,
          0.01109883189201355,
          0.05394222214818001,
          -0.03104284591972828,
          -0.05765504390001297,
          0.04774443805217743,
          0.023759812116622925,
          -0.024035023525357246,
          0.051748596131801605,
          -0.024764705449342728,
          0.15473273396492004,
          0.16256558895111084,
          0.13054269552230835,
          0.1323966681957245,
          0.12148080766201019,
          -0.09206312894821167,
          -0.15462318062782288,
          -0.09978244453668594,
          -0.14001421630382538,
          -0.03439795970916748,
          -0.07924146950244904,
          0.0032500808592885733,
          0.07947978377342224,
          0.10523425787687302,
          0.06264685094356537,
          -0.037876855581998825,
          0.11436175554990768,
          -0.02588432841002941,
          -0.037400830537080765,
          -0.01999807357788086,
          0.012680457904934883,
          -0.05338020250201225,
          -0.03997232764959335,
          -0.031488049775362015,
          -0.04384204000234604,
          -0.05860164389014244,
          0.016161136329174042,
          0.12545646727085114,
          0.12854449450969696,
          0.1573556512594223,
          0.1565915197134018,
          0.10404852032661438,
          -0.03194599226117134,
          -0.10033977031707764,
          -0.16332444548606873,
          -0.12878528237342834,
          -0.1504574567079544,
          -0.05983656272292137,
          0.007114947307854891,
          -0.03635599836707115,
          0.07595862448215485,
          0.1418696939945221,
          -0.10727735608816147,
          -0.04979662597179413,
          0.04608697444200516,
          0.04712884873151779,
          0.005657600238919258,
          -0.13550208508968353,
          -0.07608213275671005,
          -0.10624853521585464,
          -0.04577069729566574,
          -0.1149851381778717,
          -0.008500922471284866,
          -0.10231051594018936,
          -0.0011878346558660269,
          0.0925683081150055,
          0.04187458008527756,
          0.026819908991456032,
          0.14677603542804718,
          0.028667228296399117,
          -0.01527494378387928,
          -0.15952493250370026,
          -0.08957654982805252,
          -0.13452817499637604,
          -0.008820846676826477,
          0.015179266221821308,
          -0.006763898767530918,
          -0.0431944839656353,
          0.13977061212062836,
          -0.005188804119825363,
          -0.028122982010245323,
          -0.04527287557721138,
          0.08062027394771576,
          0.021864306181669235,
          -0.04112180322408676,
          -0.1064106822013855,
          -0.025413015857338905,
          -0.001870792475529015,
          0.01825466938316822,
          -0.032900575548410416,
          -0.04160342738032341,
          -0.03164612129330635,
          -0.06328622996807098,
          0.12024714052677155,
          0.06315203011035919,
          0.11961066722869873,
          0.017183538526296616,
          -0.1181357353925705,
          -0.12837877869606018,
          -0.20096451044082642,
          -0.2075749635696411,
          -0.17428544163703918,
          -0.06881274282932281,
          -0.012668762356042862,
          0.007837929762899876,
          0.03167673572897911,
          0.11185398697853088,
          0.11059385538101196,
          -0.055781036615371704,
          -0.09487313032150269,
          0.030094798654317856,
          -0.027928004041314125,
          -0.09054253250360489,
          -0.10895857214927673,
          -0.09625133872032166,
          -0.12085066735744476,
          0.03231912478804588,
          0.0851532444357872,
          -0.029704922810196877,
          0.027872208505868912,
          -0.001784994499757886,
          0.10459404438734055,
          0.043274350464344025,
          0.013638488948345184,
          -0.0281528290361166,
          -0.07560282200574875,
          -0.17688137292861938,
          -0.1624462753534317,
          -0.15075060725212097,
          0.030852939933538437,
          -0.07254467904567719,
          -0.016024349257349968,
          0.020037375390529633,
          0.1158285140991211,
          0.1444541960954666,
          0.12076461315155029,
          -0.05877918750047684,
          -0.06579567492008209,
          -0.02346907928586006,
          -0.059614524245262146,
          -0.16316688060760498,
          -0.19444873929023743,
          -0.13002033531665802,
          -0.035144925117492676,
          0.06418301165103912,
          0.13179539144039154,
          0.06835725903511047,
          -0.017422307282686234,
          0.06879214942455292,
          0.008985606953501701,
          0.06143089011311531,
          -0.07372777163982391,
          -0.04263712465763092,
          -0.13699176907539368,
          -0.08622360229492188,
          -0.023793233558535576,
          0.025266628712415695,
          0.003489685244858265,
          -0.03205950930714607,
          0.02347743511199951,
          -0.040271829813718796,
          0.04212970659136772,
          0.14950482547283173,
          0.11114519089460373,
          0.03461484611034393,
          0.030921688303351402,
          0.04813993722200394,
          0.054893963038921356,
          -0.14072684943675995,
          -0.14246046543121338,
          -0.03328092023730278,
          0.06735867261886597,
          0.10562428086996078,
          0.1350862979888916,
          0.013931361958384514,
          -0.04139634966850281,
          -0.015815187245607376,
          0.03391050174832344,
          -0.05229829251766205,
          -0.06180615723133087,
          -0.11247311532497406,
          -0.06041840463876724,
          -0.0303933285176754,
          -0.07145650684833527,
          -0.012540563941001892,
          -0.011816050857305527,
          -0.006345351692289114,
          -0.03472691401839256,
          -0.014682543464004993,
          0.11430974304676056,
          0.03888895735144615,
          0.12993742525577545,
          0.07921728491783142,
          -0.04576511308550835,
          -0.07320107519626617,
          -0.07025937736034393,
          -0.06618092954158783,
          -0.160654678940773,
          0.026682989671826363,
          0.053549326956272125,
          -0.030369097366929054,
          0.07224217802286148,
          0.07875571399927139,
          -0.14445342123508453,
          -0.11346601694822311,
          -0.08389151096343994,
          -0.02617853693664074,
          0.02970193326473236,
          -0.10645455867052078,
          0.04659447818994522,
          -0.07365811616182327,
          0.0848383754491806,
          0.0598476380109787,
          0.07425970584154129,
          -0.005558333359658718,
          0.09793397784233093,
          -0.014159333892166615,
          0.12368091195821762,
          0.12301917374134064,
          -0.0017448721919208765,
          -0.056552499532699585,
          0.02100300043821335,
          -0.15866148471832275,
          -0.10732927918434143,
          -0.0460178479552269,
          -0.0722031518816948,
          -0.0500214546918869,
          0.11207634955644608,
          0.03560422733426094,
          0.031177943572402,
          0.05866774171590805,
          -0.11053094267845154,
          -0.04033941775560379,
          -0.06901739537715912,
          -0.08478627353906631,
          -0.05776285380125046,
          0.03232530504465103,
          -0.00010671127529349178,
          -0.0602634958922863,
          -0.00022883400379214436,
          0.08531799167394638,
          0.09692148864269257,
          0.06318316608667374,
          -0.012272759340703487,
          0.008213408291339874,
          -0.010750523768365383,
          -0.0018429607152938843,
          -0.07659775018692017,
          0.016609668731689453,
          0.026282330974936485,
          -0.03172669932246208,
          0.038190875202417374,
          -0.03351490572094917,
          -0.05962231010198593,
          0.09058725088834763,
          0.07466933131217957,
          0.09656763076782227,
          0.013010201044380665,
          -0.025316834449768066,
          -0.07959754019975662,
          -0.0657971054315567,
          0.02581382356584072,
          0.047342874109745026,
          0.039292801171541214,
          0.009312281385064125,
          0.08200512081384659,
          -0.031009308993816376,
          -0.021340396255254745,
          -0.016439924016594887,
          0.06198180094361305,
          0.06404165923595428,
          0.05415524169802666,
          0.12534023821353912,
          -0.01211976446211338,
          -0.04287928342819214,
          -0.03346025571227074,
          -0.013981087133288383,
          0.016110528260469437,
          0.01694846898317337,
          -0.061035823076963425,
          -0.05257762223482132,
          0.04877675697207451,
          0.014638211578130722,
          0.07423693686723709,
          0.07156539708375931,
          0.005641018971800804,
          -0.04516349732875824,
          -0.0951017513871193,
          0.02176106534898281,
          -0.09738606959581375,
          -0.06902730464935303,
          0.03730344772338867,
          -0.05536111071705818,
          0.012238835915923119,
          -0.04230465367436409,
          -0.0017241730820387602,
          0.060546498745679855,
          0.06610317528247833,
          -0.012119844555854797,
          0.019615493714809418,
          0.0660378485918045,
          0.10379618406295776,
          -0.12782885134220123,
          -0.06301433593034744,
          0.07232440263032913,
          -0.03272987902164459,
          0.004598631989210844,
          -0.1208757683634758,
          -0.04208126291632652,
          -0.030046969652175903,
          0.011172397993505001,
          0.01883462443947792,
          0.007838108576834202,
          0.006105704233050346,
          -0.024067668244242668,
          -0.08084780722856522,
          -0.018458882346749306,
          0.04990536347031593,
          0.009445959702134132,
          0.05094587802886963,
          -0.042734600603580475,
          0.10498616844415665,
          0.012799368239939213,
          0.06382759660482407,
          0.027323860675096512,
          0.07741314172744751,
          0.04792751371860504,
          0.00931457243859768,
          0.04998481646180153,
          0.05330787971615791,
          0.02322309836745262,
          0.04100383073091507,
          0.04828726500272751,
          -0.06418776512145996,
          -0.07269308716058731,
          -0.1545296460390091,
          -0.03170553222298622,
          -0.011723394505679607,
          -0.15495318174362183,
          -0.0873817726969719,
          0.0011317281750962138,
          -0.028672317042946815,
          -0.09515272825956345,
          -0.1197252944111824,
          -0.05285019427537918,
          -0.10079742968082428,
          -0.0950642004609108,
          -0.07169963419437408,
          -0.03548938408493996,
          -0.08439652621746063,
          0.045402348041534424,
          0.04405464977025986,
          0.05382002145051956,
          -0.01519810687750578,
          -0.0725848376750946,
          0.033372946083545685,
          -0.0014534220099449158,
          0.10301659256219864,
          0.050076454877853394,
          -0.02238195389509201,
          -0.05357706919312477,
          0.029371239244937897,
          0.06405212730169296,
          0.050125282257795334,
          -0.056424565613269806,
          -0.09687748551368713,
          0.04334434121847153,
          -0.03024810180068016,
          -0.1276543289422989,
          -0.11409826576709747,
          -0.19340477883815765,
          -0.15943823754787445,
          -0.07462424039840698,
          0.009591958485543728,
          0.037606433033943176,
          -0.07046829909086227,
          0.0592433400452137,
          0.04989076778292656,
          0.0382702499628067,
          0.02759610302746296,
          -0.03746768459677696,
          -0.031124241650104523,
          -0.1189093068242073,
          -0.12207229435443878,
          -0.11465322971343994,
          0.09148400276899338,
          -0.043017417192459106,
          -0.007320128381252289,
          -0.044021204113960266,
          0.032150641083717346,
          -0.02314699813723564,
          0.01798192784190178,
          0.07521573454141617,
          0.042120642960071564,
          0.022578001022338867,
          -0.026873653754591942,
          0.06807258725166321,
          0.0843091607093811,
          0.05973907187581062,
          0.04662031680345535,
          0.08486080169677734,
          0.03869659826159477,
          0.1438075304031372,
          0.007623613346368074,
          0.10682319849729538,
          0.08434700220823288,
          0.09101694077253342,
          0.014354984275996685,
          0.08069063723087311,
          0.08344543725252151,
          0.07236351817846298,
          0.045921724289655685,
          -0.04005417600274086,
          0.02253427915275097,
          0.0792132094502449,
          -0.02948470041155815,
          0.06618178635835648,
          0.038490913808345795,
          -0.06210850924253464,
          0.014103032648563385,
          -0.025977713987231255,
          0.020048514008522034,
          -0.02480172924697399,
          -0.030072612687945366,
          0.05909562110900879,
          0.09495147317647934,
          0.11818826198577881,
          0.033091023564338684,
          0.13732321560382843,
          0.16837771236896515,
          0.08592682331800461,
          0.10242448002099991,
          0.08724991232156754,
          0.0864930972456932,
          0.11938390880823135,
          0.18334926664829254,
          0.09255074709653854,
          0.08523083478212357,
          0.018107952550053596,
          0.00027227640384808183,
          0.017529532313346863,
          -0.005063697695732117,
          0.04065308719873428,
          -0.04380132630467415
        ],
        [
          0.16592219471931458,
          0.04463820904493332,
          -0.1802898645401001,
          0.20688746869564056,
          0.5044203400611877,
          1.148833990097046,
          2.1433393955230713,
          1.7390282154083252,
          0.23311685025691986,
          0.8230795860290527,
          1.5804113149642944,
          1.856371283531189,
          0.2559700906276703,
          -0.9628912806510925,
          -1.3403409719467163,
          -0.38265928626060486,
          1.3381469249725342,
          1.459619164466858,
          0.3123055100440979,
          -0.3387642800807953,
          0.3882771134376526,
          1.3446946144104004,
          0.8327687978744507,
          0.09446483105421066,
          0.04404574632644653,
          0.1557643711566925,
          0.08538902550935745,
          0.18694889545440674,
          0.16131968796253204,
          0.020878706127405167,
          -0.15468773245811462,
          0.3563537299633026,
          0.483110249042511,
          0.4959392249584198,
          0.3379759192466736,
          -0.8926835060119629,
          0.530672550201416,
          1.5915544033050537,
          1.0141873359680176,
          0.07465153932571411,
          -0.23280011117458344,
          -0.292436808347702,
          -0.2981356382369995,
          -0.770716667175293,
          -0.688635528087616,
          -0.11359658092260361,
          0.9087120294570923,
          0.7935354709625244,
          -1.0048151016235352,
          -0.8756889700889587,
          0.1699400097131729,
          0.3423008918762207,
          0.47184860706329346,
          0.22570176422595978,
          0.1225980669260025,
          0.4779037535190582,
          0.15567784011363983,
          0.015551288612186909,
          -0.4323630928993225,
          0.25473177433013916,
          0.0363248847424984,
          -0.9993954300880432,
          -1.331845760345459,
          0.08669053763151169,
          1.4555761814117432,
          1.198533296585083,
          0.5528377890586853,
          0.28046852350234985,
          -0.8111059069633484,
          -0.8652040958404541,
          -0.8524202704429626,
          -1.2537896633148193,
          -0.5423322319984436,
          0.25272080302238464,
          0.36536869406700134,
          0.8240488767623901,
          0.6947024464607239,
          -0.7497275471687317,
          -1.332210659980774,
          0.2775574326515198,
          0.2652609050273895,
          0.014631235040724277,
          0.07059508562088013,
          0.14135244488716125,
          0.4061323404312134,
          0.04671837389469147,
          0.13015598058700562,
          -0.3623051047325134,
          -0.8827124834060669,
          -1.0469608306884766,
          -0.8263292908668518,
          0.9916590452194214,
          0.9577729105949402,
          0.37590575218200684,
          0.5673592686653137,
          0.7047146558761597,
          -0.029173867776989937,
          -0.2836206555366516,
          -0.25991174578666687,
          -0.42821693420410156,
          0.08293578028678894,
          0.22146114706993103,
          0.17314009368419647,
          0.14226335287094116,
          0.6550569534301758,
          0.021431468427181244,
          -1.1992865800857544,
          -0.5743448138237,
          0.02754676155745983,
          -0.23172251880168915,
          -0.2656453847885132,
          0.09198520332574844,
          0.2881675362586975,
          0.5314680933952332,
          0.08569428324699402,
          -0.42084836959838867,
          -1.1357600688934326,
          -1.5599174499511719,
          -0.3911500871181488,
          0.8414205312728882,
          0.576229989528656,
          0.06455310434103012,
          0.7038727402687073,
          0.8612074851989746,
          0.20463532209396362,
          0.07855181396007538,
          -0.1657712310552597,
          0.08356305956840515,
          0.2514895796775818,
          0.18638530373573303,
          -0.16534513235092163,
          -0.2272304743528366,
          0.37438297271728516,
          0.057000111788511276,
          -1.1688990592956543,
          -0.7387659549713135,
          -0.12177097052335739,
          -0.14485499262809753,
          0.12479366362094879,
          -0.48719826340675354,
          0.5209340453147888,
          0.9030792117118835,
          -0.13130389153957367,
          -0.3696150779724121,
          -0.8744605779647827,
          -1.4280953407287598,
          -0.054136306047439575,
          0.5628843307495117,
          0.11054135113954544,
          0.4900057017803192,
          0.7678293585777283,
          0.6516311168670654,
          0.43722039461135864,
          0.13450071215629578,
          -0.130331352353096,
          0.1551910936832428,
          0.1113557294011116,
          0.025893747806549072,
          -0.2597322165966034,
          -0.5184816718101501,
          -0.02530881017446518,
          0.15081651508808136,
          -0.6586470603942871,
          -0.6793171167373657,
          0.08937849849462509,
          0.07851546257734299,
          -0.28109994530677795,
          -0.28658437728881836,
          0.7765498757362366,
          0.8461772203445435,
          0.2643064856529236,
          -0.47060447931289673,
          -1.1009217500686646,
          -1.8988648653030396,
          -0.09919282793998718,
          -0.1022767648100853,
          -0.5715417861938477,
          0.5604513883590698,
          0.8505338430404663,
          0.6410424709320068,
          0.4839726388454437,
          0.17147816717624664,
          -0.20762021839618683,
          -0.02636875957250595,
          0.10928408056497574,
          0.07373610883951187,
          0.04944255203008652,
          -0.390468567609787,
          -0.26308685541152954,
          0.17468082904815674,
          -0.3956153094768524,
          -0.7360526919364929,
          0.5421134233474731,
          -0.022776121273636818,
          -0.6233667731285095,
          -0.42818111181259155,
          0.7161115407943726,
          0.5317622423171997,
          0.11442162096500397,
          -0.30630508065223694,
          -1.5558395385742188,
          -1.664160132408142,
          -0.12109389156103134,
          -0.5436347723007202,
          -1.0947428941726685,
          0.05986656993627548,
          0.5048666000366211,
          0.7022079825401306,
          0.5563866496086121,
          0.3644203841686249,
          0.09594441950321198,
          0.04560769721865654,
          -0.030544839799404144,
          -0.0864919126033783,
          -0.21987439692020416,
          -0.3932307958602905,
          -0.25794804096221924,
          -0.008442845195531845,
          -0.09024535119533539,
          -0.8075015544891357,
          0.062408506870269775,
          -0.46793702244758606,
          -0.8924219608306885,
          -0.8315734267234802,
          0.2322341948747635,
          0.07580509781837463,
          0.21367134153842926,
          -0.4423005282878876,
          -1.4100520610809326,
          -1.129554271697998,
          -0.11211388558149338,
          -0.6784483194351196,
          -1.5231807231903076,
          -0.7069818377494812,
          0.15821698307991028,
          0.7111987471580505,
          0.5590827465057373,
          0.5418402552604675,
          0.019345462322235107,
          -0.36230772733688354,
          -0.2536633014678955,
          -0.47130677103996277,
          -1.095884919166565,
          -0.950129508972168,
          -0.6171587705612183,
          -0.03521188348531723,
          -0.1331302970647812,
          -1.0802680253982544,
          -0.5684062242507935,
          -0.8584502339363098,
          -0.9953901767730713,
          -0.1383661925792694,
          0.29161807894706726,
          0.030087770894169807,
          0.17488078773021698,
          -0.43324005603790283,
          -1.4367560148239136,
          -0.8816568851470947,
          0.11742020398378372,
          -0.5376178622245789,
          -1.6194602251052856,
          -1.4857007265090942,
          -0.1038084551692009,
          0.5844050645828247,
          0.6673837304115295,
          0.4608604311943054,
          -0.36070188879966736,
          -0.1655929684638977,
          -0.11056726425886154,
          -0.4888230264186859,
          -1.7104426622390747,
          -1.536361575126648,
          -0.996135950088501,
          -0.5058160424232483,
          -0.40100154280662537,
          -1.2829841375350952,
          -1.0963504314422607,
          -0.9437859654426575,
          -0.8033731579780579,
          0.3763864040374756,
          0.24210959672927856,
          0.36221936345100403,
          -0.4034416079521179,
          -1.0951181650161743,
          -1.5196549892425537,
          -0.8280147314071655,
          0.060930732637643814,
          -0.32121217250823975,
          -1.6872628927230835,
          -1.9539424180984497,
          0.12809991836547852,
          1.0068819522857666,
          0.8092375993728638,
          0.21393685042858124,
          -0.3751799762248993,
          0.15340346097946167,
          -0.18742376565933228,
          -0.2843620181083679,
          -1.932000756263733,
          -1.8299680948257446,
          -1.1509698629379272,
          -0.764096736907959,
          -0.7417991161346436,
          -1.3545904159545898,
          -1.0682618618011475,
          -0.8546881675720215,
          -0.27634578943252563,
          0.5665419697761536,
          0.2110329121351242,
          0.18596802651882172,
          -0.04859147593379021,
          -0.9554423689842224,
          -1.3661818504333496,
          -0.7005823254585266,
          -0.17047835886478424,
          -0.3247798979282379,
          -1.6526494026184082,
          -2.0414350032806396,
          0.5993164777755737,
          1.1734386682510376,
          0.6060519814491272,
          -0.1236441507935524,
          -0.5501418709754944,
          -0.16478349268436432,
          -0.3352830410003662,
          -0.24326924979686737,
          -1.7363674640655518,
          -2.0756032466888428,
          -1.0769965648651123,
          -0.8141561150550842,
          -0.9461801052093506,
          -1.1384402513504028,
          -0.714307963848114,
          -0.2310880422592163,
          0.4660797715187073,
          1.0433523654937744,
          -0.009761925786733627,
          0.19942505657672882,
          0.7281832098960876,
          -0.5148921608924866,
          -1.0866857767105103,
          -0.518093466758728,
          -0.16934813559055328,
          -0.16887323558330536,
          -1.203346848487854,
          -1.0689973831176758,
          1.1288100481033325,
          0.744627833366394,
          0.1560719907283783,
          -0.23328764736652374,
          -0.5058621764183044,
          -0.02309688925743103,
          -0.2916838824748993,
          -0.22882159054279327,
          -1.2405171394348145,
          -1.6876771450042725,
          -0.8255776166915894,
          -0.5893189907073975,
          -0.7028654217720032,
          -0.7369425892829895,
          -0.4713532626628876,
          0.04549410566687584,
          0.6898764371871948,
          1.0718690156936646,
          -0.31473010778427124,
          0.8378089666366577,
          1.2121661901474,
          0.18895617127418518,
          -0.5125631093978882,
          -0.2805643677711487,
          0.4235835671424866,
          0.4088062345981598,
          -0.6118488907814026,
          -0.25914856791496277,
          0.7850251793861389,
          0.3584473729133606,
          0.1547475904226303,
          -0.19217123091220856,
          -0.4586420953273773,
          -0.0033415977377444506,
          -0.014135491102933884,
          -0.24200241267681122,
          -0.7075901031494141,
          -1.2458864450454712,
          -0.5363765954971313,
          -0.3696713447570801,
          -0.4728185832500458,
          -0.5379453897476196,
          -0.20307491719722748,
          0.2826341390609741,
          0.560385525226593,
          0.4902133047580719,
          0.9373473525047302,
          1.5513460636138916,
          1.2704535722732544,
          0.4890195429325104,
          -0.0464349240064621,
          -0.31303897500038147,
          0.3522486388683319,
          0.25854745507240295,
          -0.5445470213890076,
          -0.2722108066082001,
          0.5457594394683838,
          0.2479916661977768,
          0.2853967249393463,
          -0.27351704239845276,
          -0.4699563682079315,
          0.053672194480895996,
          0.08338969945907593,
          -0.30152782797813416,
          -0.5384950637817383,
          -1.2315598726272583,
          -0.7216387391090393,
          -0.40539488196372986,
          -0.7482587695121765,
          -0.48656678199768066,
          0.04200179874897003,
          0.43104860186576843,
          0.3941322863101959,
          -0.16431924700737,
          1.3951756954193115,
          0.7764632105827332,
          0.3981797397136688,
          -0.14234966039657593,
          -0.5629860758781433,
          -0.5180032253265381,
          -0.15415236353874207,
          -0.3420305848121643,
          -0.5770546793937683,
          -0.17162644863128662,
          0.46416813135147095,
          0.33746054768562317,
          0.39065977931022644,
          -0.1572147011756897,
          -0.5032690167427063,
          0.12157899886369705,
          0.053979404270648956,
          -0.2035052627325058,
          -0.3162047266960144,
          -0.8857271671295166,
          -0.5902790427207947,
          -0.39396795630455017,
          -0.6357389092445374,
          -0.5700469613075256,
          -0.31526243686676025,
          0.31996142864227295,
          0.062165047973394394,
          -1.097251296043396,
          1.8695952892303467,
          0.5490638613700867,
          -0.06770983338356018,
          -0.5351157188415527,
          -0.8045322895050049,
          -0.673020601272583,
          -0.266066312789917,
          -0.3109775185585022,
          -0.3378845155239105,
          -0.02382579632103443,
          0.4990125000476837,
          0.3550408184528351,
          0.4397042691707611,
          0.031631071120500565,
          -0.5299477577209473,
          0.028778351843357086,
          0.29166918992996216,
          0.11706326901912689,
          -0.1785125434398651,
          -0.47053927183151245,
          -0.628806471824646,
          -0.46474531292915344,
          -0.8707173466682434,
          -0.7295452356338501,
          -0.33581894636154175,
          0.2050076723098755,
          -0.0314413420855999,
          -0.6728370785713196,
          1.047916054725647,
          0.5031829476356506,
          -0.1030983254313469,
          -0.44827768206596375,
          -0.5504264831542969,
          -0.2802436947822571,
          -0.02270226739346981,
          0.14887361228466034,
          -0.23752306401729584,
          0.14307044446468353,
          0.5631324052810669,
          0.5856674909591675,
          0.4326685965061188,
          -0.06459805369377136,
          -0.42592403292655945,
          0.1279829889535904,
          0.359849750995636,
          0.20352481305599213,
          -0.16693486273288727,
          -0.3102276921272278,
          -0.5958137512207031,
          -0.4950598478317261,
          -0.8017916679382324,
          -0.6525949835777283,
          -0.4207375645637512,
          -0.11378813534975052,
          -0.17156894505023956,
          -0.25590354204177856,
          0.32744136452674866,
          -0.32514071464538574,
          -0.7119638323783875,
          -0.660175085067749,
          -0.49474191665649414,
          0.24105213582515717,
          0.2149832546710968,
          0.23631808161735535,
          -0.1785372644662857,
          0.036212317645549774,
          0.5246381163597107,
          0.5355188250541687,
          0.368977814912796,
          -0.019736452028155327,
          -0.41251206398010254,
          0.0908513218164444,
          0.49504777789115906,
          0.2886730134487152,
          -0.07811057567596436,
          -0.20651811361312866,
          -0.7267180681228638,
          -0.5105429887771606,
          -0.7513662576675415,
          -0.740028977394104,
          -0.5805521607398987,
          -0.3329213559627533,
          -0.20868173241615295,
          0.4632137417793274,
          0.4732203483581543,
          -0.010721595026552677,
          -0.4851039946079254,
          -0.5851828455924988,
          -0.490217924118042,
          -0.4008665382862091,
          -0.22517640888690948,
          -0.17454108595848083,
          -0.5007160902023315,
          -0.08366300165653229,
          0.2217186838388443,
          0.35102519392967224,
          0.18888846039772034,
          -0.3169447183609009,
          -0.5019792914390564,
          0.1922520399093628,
          0.4924165904521942,
          0.5103918313980103,
          0.04349207133054733,
          -0.2726109027862549,
          -0.949667751789093,
          -0.9380184412002563,
          -1.028277039527893,
          -1.2239408493041992,
          -0.9353709816932678,
          -0.8862080574035645,
          -0.848689079284668,
          0.3176872432231903,
          0.22824853658676147,
          0.27854034304618835,
          0.12844546139240265,
          -0.07271221280097961,
          -0.05186657980084419,
          -0.000257464504102245,
          -0.17481651902198792,
          -0.5568551421165466,
          -0.6298224329948425,
          -0.24118384718894958,
          0.27712681889533997,
          0.21891823410987854,
          -0.08660975843667984,
          -0.3620983064174652,
          -0.5865053534507751,
          0.12610580027103424,
          0.672264814376831,
          0.5187269449234009,
          -0.046519018709659576,
          -0.4934735894203186,
          -1.6198803186416626,
          -1.5762138366699219,
          -1.3449385166168213,
          -1.502583622932434,
          -1.2016507387161255,
          -0.9568322896957397,
          -0.9756680727005005,
          0.2525530755519867,
          0.20139430463314056,
          0.07169937342405319,
          -0.29270416498184204,
          -0.41967979073524475,
          -0.6858749985694885,
          -0.7636467218399048,
          -1.013443112373352,
          -1.0072683095932007,
          -0.638660192489624,
          -0.23829147219657898,
          0.2537838816642761,
          0.22161225974559784,
          -0.044169358909130096,
          -0.3708620071411133,
          -0.6880030035972595,
          -0.12048473209142685,
          0.3875468969345093,
          0.41570809483528137,
          -0.11518394947052002,
          -0.7958366274833679,
          -2.063305616378784,
          -2.1437268257141113,
          -1.9887654781341553,
          -1.7529820203781128,
          -1.219543218612671,
          -0.6062528491020203,
          -0.6309946775436401,
          -0.12005618959665298,
          -0.1657634973526001,
          -0.17701181769371033,
          -0.6902140378952026,
          -1.1481174230575562,
          -1.305660367012024,
          -1.1537213325500488,
          -1.228696584701538,
          -1.7409979104995728,
          -0.715269148349762,
          -0.20652319490909576,
          0.24303747713565826,
          0.3992483615875244,
          -0.025561580434441566,
          -0.33543169498443604,
          -0.5767331123352051,
          -0.026952853426337242,
          0.3699074387550354,
          0.36509189009666443,
          0.039667610079050064,
          -0.6488463878631592,
          -2.0975048542022705,
          -2.3670945167541504,
          -2.096421957015991,
          -2.197310447692871,
          -1.3597021102905273,
          -0.4425234794616699,
          -0.6244127154350281,
          -0.5926497578620911,
          -0.43933701515197754,
          -0.668985903263092,
          -0.9591532349586487,
          -1.2526941299438477,
          -1.1978886127471924,
          -1.475869059562683,
          -1.5424928665161133,
          -1.901857852935791,
          -0.5470144152641296,
          -0.015241788700222969,
          0.3723390996456146,
          0.5263705253601074,
          0.26410308480262756,
          -0.16456615924835205,
          -0.6116307973861694,
          0.01797868125140667,
          0.36206987500190735,
          0.40798112750053406,
          0.21041394770145416,
          -0.5125876069068909,
          -1.7635993957519531,
          -2.655639410018921,
          -2.267503499984741,
          -2.298537492752075,
          -1.2681915760040283,
          -0.4890950322151184,
          -0.8186123371124268,
          -0.8088468313217163,
          -0.09727925062179565,
          -0.25212153792381287,
          -0.6479001045227051,
          -1.1690601110458374,
          -1.2711824178695679,
          -1.6186734437942505,
          -1.7581580877304077,
          -1.4692966938018799,
          -0.34258729219436646,
          0.08481984585523605,
          0.7149366736412048,
          0.8177495002746582,
          0.4662826955318451,
          -0.007898461073637009,
          -0.3411838710308075,
          0.13624021410942078,
          0.5799461603164673,
          0.7512606978416443,
          0.4124170243740082,
          -0.26190677285194397,
          -1.5470099449157715,
          -2.500246047973633,
          -2.04428768157959,
          -2.3181874752044678,
          -1.2516331672668457,
          -0.39336785674095154,
          -1.0031189918518066,
          -1.0890231132507324,
          0.3347817659378052,
          0.36214110255241394,
          -0.09317083656787872,
          -0.7047734260559082,
          -1.000787377357483,
          -1.1650992631912231,
          -1.4640529155731201,
          -0.8130062818527222,
          -0.22924968600273132,
          -0.1661851555109024,
          0.9089751839637756,
          1.1668055057525635,
          0.8417377471923828,
          0.4885918200016022,
          -0.01269384566694498,
          0.41490501165390015,
          0.843163013458252,
          0.8650484085083008,
          0.3724521994590759,
          -0.1898563653230667,
          -0.8903108239173889,
          -1.9430568218231201,
          -1.3330564498901367,
          -2.0108323097229004,
          -0.9310519099235535,
          0.001308285049162805,
          -0.4209634065628052,
          -0.5753582119941711,
          -0.23632100224494934,
          -0.042311474680900574,
          -0.14481227099895477,
          -0.8747087717056274,
          -1.190079689025879,
          -1.7596546411514282,
          -1.441953420639038,
          -0.10757749527692795,
          0.46281763911247253,
          0.3465382754802704,
          1.087598443031311,
          1.318247675895691,
          0.9619219303131104,
          0.7163881063461304,
          0.2834644913673401,
          0.7826515436172485,
          1.128905177116394,
          1.1492668390274048,
          0.7803566455841064,
          0.5000202059745789,
          0.3014025390148163,
          -1.1894043684005737,
          -1.5449751615524292,
          -1.9474974870681763,
          -1.0063132047653198,
          0.12328584492206573,
          -0.46166762709617615,
          -0.8257498741149902,
          -0.1686878204345703,
          -0.5858769416809082,
          -0.448254257440567,
          -1.8706223964691162,
          -2.1486656665802,
          -3.308643341064453,
          -3.431975841522217,
          -1.1815519332885742,
          0.48746636509895325,
          1.461086630821228,
          1.8147181272506714,
          1.2209782600402832,
          0.475825697183609,
          0.006882782094180584,
          -0.3703562617301941,
          0.3563125729560852,
          1.276049256324768,
          1.5829955339431763,
          1.5394630432128906,
          1.0009617805480957,
          -0.6371123194694519,
          -3.23846435546875,
          -3.6138720512390137,
          -3.2220466136932373,
          -2.3234448432922363,
          -0.7380422353744507,
          -0.8074883222579956,
          -0.5641306638717651
        ],
        [
          0.36172521114349365,
          -0.396060049533844,
          -0.6397462487220764,
          -0.482951819896698,
          -0.33444303274154663,
          0.6437910795211792,
          0.46388790011405945,
          -1.0914126634597778,
          -1.8357747793197632,
          -1.9780585765838623,
          -2.860491991043091,
          -1.9846298694610596,
          1.0931909084320068,
          1.6645861864089966,
          1.8061542510986328,
          1.9680225849151611,
          -0.684506356716156,
          -2.9110023975372314,
          -2.564807653427124,
          -2.330179214477539,
          -1.7259461879730225,
          0.6171517968177795,
          1.6121697425842285,
          1.0209578275680542,
          0.5961655974388123,
          0.611232578754425,
          0.8405058979988098,
          -0.29222771525382996,
          -0.3763008713722229,
          -0.4457058012485504,
          -0.6053308844566345,
          -0.3276485800743103,
          0.2957104742527008,
          0.5766647458076477,
          0.3121923804283142,
          -0.9628627300262451,
          -1.111430048942566,
          -1.820225477218628,
          -2.0484211444854736,
          -0.8704758286476135,
          -0.07281636446714401,
          -0.23287524282932281,
          -0.35078755021095276,
          -0.18552838265895844,
          -0.8625597357749939,
          -2.0299391746520996,
          -2.259819507598877,
          -1.9144915342330933,
          -1.5612986087799072,
          -0.5849602222442627,
          1.164205551147461,
          1.5048646926879883,
          1.1430779695510864,
          0.980299711227417,
          0.6528300046920776,
          -0.4575378894805908,
          0.1936897188425064,
          0.1512105017900467,
          0.1289955973625183,
          -0.2266812026500702,
          -0.5474355816841125,
          -0.8815820217132568,
          -1.487448811531067,
          -1.5796632766723633,
          -0.4674929082393646,
          -0.35701218247413635,
          -0.2697100341320038,
          0.04646607115864754,
          -0.27658236026763916,
          0.03005755878984928,
          -0.04577033966779709,
          -0.07716591656208038,
          -0.17262277007102966,
          0.09194033592939377,
          -0.16444236040115356,
          -0.29831403493881226,
          -1.491981863975525,
          -2.1051218509674072,
          -1.5220482349395752,
          0.20308531820774078,
          0.919378936290741,
          1.3110637664794922,
          0.7974774241447449,
          0.16110455989837646,
          0.7991057634353638,
          0.3196394145488739,
          0.08569209277629852,
          -0.45796069502830505,
          -1.8397700786590576,
          -2.0492734909057617,
          -1.476915955543518,
          0.21826569736003876,
          0.6111551523208618,
          -0.20628471672534943,
          -0.693989098072052,
          -0.09277883172035217,
          0.04557657241821289,
          0.3626041114330292,
          0.3833867311477661,
          0.3016272783279419,
          0.2665072977542877,
          -0.30290815234184265,
          -0.3138342797756195,
          0.7183109521865845,
          0.5517253875732422,
          -0.9628446102142334,
          -2.156954050064087,
          -1.8269778490066528,
          0.35857805609703064,
          1.3840510845184326,
          0.9891387820243835,
          0.7051393389701843,
          0.8876209855079651,
          0.578338623046875,
          0.10936679691076279,
          -0.956281304359436,
          -2.4554049968719482,
          -1.6678481101989746,
          -0.5611335039138794,
          -0.06990206986665726,
          -0.12240232527256012,
          -0.9293363690376282,
          -0.5816407203674316,
          0.09794934839010239,
          0.1892164945602417,
          0.18331970274448395,
          0.3524099588394165,
          0.455903023481369,
          0.4836207926273346,
          -0.20850680768489838,
          -0.6287741661071777,
          -0.17244112491607666,
          0.009030108340084553,
          -0.19971062242984772,
          -1.204185128211975,
          -2.428529739379883,
          -0.13584458827972412,
          1.3518306016921997,
          1.4896520376205444,
          0.9431266784667969,
          0.6432797312736511,
          0.7387815117835999,
          -0.4360034465789795,
          -1.6749404668807983,
          -2.55121111869812,
          -1.6200145483016968,
          -0.8285243511199951,
          -0.4227584898471832,
          -0.5532451272010803,
          -0.6578201055526733,
          -0.2064458280801773,
          0.01140639092773199,
          -0.020700879395008087,
          0.001300498261116445,
          0.10316169261932373,
          -0.024683602154254913,
          0.14559586346149445,
          -0.3190571665763855,
          -0.593919575214386,
          -0.40734219551086426,
          -0.26279520988464355,
          -0.39319631457328796,
          -0.8286699652671814,
          -2.119019031524658,
          -0.6206888556480408,
          0.9575610160827637,
          1.746727466583252,
          1.1101335287094116,
          0.40625903010368347,
          -0.039936844259500504,
          -0.9485060572624207,
          -1.915135145187378,
          -2.244272232055664,
          -1.5382543802261353,
          -1.078132152557373,
          -0.8724269270896912,
          -0.8057978749275208,
          -0.5715128183364868,
          -0.28718820214271545,
          -0.17204426229000092,
          0.019238334149122238,
          -0.1470426619052887,
          -0.03699507936835289,
          -0.3506961762905121,
          -0.1696949005126953,
          -0.1764618307352066,
          -0.3639277219772339,
          -0.42232152819633484,
          -0.21275004744529724,
          -0.2899581789970398,
          -0.6949408054351807,
          -1.6360803842544556,
          -0.781400740146637,
          0.493958979845047,
          1.1183134317398071,
          1.1181952953338623,
          0.3291795551776886,
          -0.2762313187122345,
          -1.1364922523498535,
          -2.1083803176879883,
          -1.998183012008667,
          -1.4715813398361206,
          -1.2725380659103394,
          -1.1375830173492432,
          -1.1545803546905518,
          -0.8265742063522339,
          -0.48433876037597656,
          -0.122305728495121,
          -0.38464710116386414,
          -0.11109794676303864,
          -0.21484896540641785,
          -0.4236111342906952,
          -0.3453264832496643,
          -0.20832078158855438,
          -0.4013082683086395,
          -0.5566186308860779,
          -0.43988460302352905,
          -0.364378422498703,
          -0.6790194511413574,
          -1.0618654489517212,
          -1.052255630493164,
          0.25586363673210144,
          0.8300454616546631,
          1.0736265182495117,
          0.5453224182128906,
          -0.27572253346443176,
          -1.528477430343628,
          -2.2028286457061768,
          -1.9359524250030518,
          -1.143246054649353,
          -1.2597843408584595,
          -1.2722187042236328,
          -1.3795905113220215,
          -1.06163489818573,
          -0.9339524507522583,
          -0.42795103788375854,
          -0.5619360208511353,
          -0.28817567229270935,
          -0.1830771118402481,
          -0.6545485854148865,
          -0.48032140731811523,
          -0.5284232497215271,
          -0.6482914686203003,
          -0.6095929145812988,
          -0.4278106689453125,
          -0.6136584281921387,
          -0.5717014670372009,
          -0.814242959022522,
          -0.9287256002426147,
          0.2289332151412964,
          1.1168651580810547,
          1.3126953840255737,
          1.2412630319595337,
          -0.09527669847011566,
          -1.4825259447097778,
          -2.307950496673584,
          -1.7759863138198853,
          -1.1727745532989502,
          -1.468834400177002,
          -1.2136470079421997,
          -1.3037458658218384,
          -1.2881604433059692,
          -1.3106821775436401,
          -0.644705593585968,
          -0.6857120394706726,
          -0.4317224621772766,
          -0.06624758988618851,
          -0.5571120381355286,
          -0.5383316874504089,
          -0.7821666598320007,
          -0.9421676397323608,
          -0.3862820863723755,
          -0.03759670630097389,
          -0.8048325181007385,
          -0.7390844821929932,
          -0.40875571966171265,
          -0.4612404704093933,
          0.32950615882873535,
          1.264575481414795,
          1.9422881603240967,
          1.5295021533966064,
          0.0576140396296978,
          -1.2646933794021606,
          -1.7098177671432495,
          -1.2879621982574463,
          -1.112235188484192,
          -1.3475184440612793,
          -0.9703658223152161,
          -1.0393399000167847,
          -1.4052915573120117,
          -1.1323776245117188,
          -0.5864803194999695,
          -0.6698213219642639,
          -0.464860200881958,
          0.19708897173404694,
          -0.6332657933235168,
          -0.5566580891609192,
          -0.5494977831840515,
          -0.8047199845314026,
          -0.17626267671585083,
          0.3006440997123718,
          -0.7129165530204773,
          -0.5353800654411316,
          0.17176152765750885,
          0.08731044828891754,
          0.6908522844314575,
          1.3314976692199707,
          2.2484700679779053,
          1.1447607278823853,
          0.17255884408950806,
          -1.4552668333053589,
          -1.5597440004348755,
          -1.072165846824646,
          -0.6652452349662781,
          -1.1063746213912964,
          -0.3425160050392151,
          -0.6308849453926086,
          -0.9984071850776672,
          -0.6245988011360168,
          -0.35299161076545715,
          -0.5058838725090027,
          -0.19421759247779846,
          0.3569381535053253,
          -0.36645758152008057,
          -0.5225397944450378,
          -0.34578937292099,
          -0.48316094279289246,
          0.10343238711357117,
          0.6100146174430847,
          -0.09025149792432785,
          -0.04560462385416031,
          0.6398308873176575,
          0.28610602021217346,
          0.7471197247505188,
          1.3880183696746826,
          2.173335552215576,
          0.8656750917434692,
          0.1584429293870926,
          -1.3527864217758179,
          -1.490937352180481,
          -0.9539798498153687,
          -0.5093374848365784,
          -0.7569466233253479,
          0.1605861783027649,
          -0.22198298573493958,
          -0.7916319966316223,
          -0.4518979489803314,
          -0.25004005432128906,
          -0.6922687292098999,
          0.04197349026799202,
          0.4899269640445709,
          -0.35312172770500183,
          -0.42315495014190674,
          -0.3208918571472168,
          -0.08789002150297165,
          0.30298206210136414,
          0.9886342287063599,
          0.3185783326625824,
          0.29803821444511414,
          0.8331164121627808,
          0.5004634261131287,
          0.7122228741645813,
          0.9413459897041321,
          1.7960952520370483,
          1.2072992324829102,
          0.15972183644771576,
          -1.0861961841583252,
          -1.2288180589675903,
          -0.43414103984832764,
          -0.16430002450942993,
          -0.5029212832450867,
          0.49772658944129944,
          -0.13343524932861328,
          -0.4781818687915802,
          -0.3427145779132843,
          -0.3478647470474243,
          -0.47234687209129333,
          0.24073399603366852,
          0.804776132106781,
          -0.023920021951198578,
          -0.3479287922382355,
          -0.2348412573337555,
          0.21484601497650146,
          0.5561025738716125,
          1.0673842430114746,
          0.4406892955303192,
          0.2323523908853531,
          1.075994610786438,
          0.5990089178085327,
          0.6773362755775452,
          0.6243099570274353,
          1.2523809671401978,
          1.6496505737304688,
          0.5087758302688599,
          -0.8957681655883789,
          -0.6664209365844727,
          -0.033726923167705536,
          0.28870338201522827,
          -0.04233785346150398,
          0.7606890797615051,
          0.1533300280570984,
          -0.12174741923809052,
          -0.20812763273715973,
          -0.26981791853904724,
          -0.2487967610359192,
          0.23425649106502533,
          0.7890104055404663,
          -0.14175157248973846,
          -0.2645474374294281,
          0.06420876830816269,
          0.6636547446250916,
          0.8941587805747986,
          1.1871044635772705,
          0.5758402347564697,
          0.21427786350250244,
          1.0015603303909302,
          0.757208526134491,
          0.4352715313434601,
          0.4788229465484619,
          1.0080420970916748,
          1.6549667119979858,
          0.34130337834358215,
          -0.6091107130050659,
          -0.09376642853021622,
          0.4271031618118286,
          0.4474552273750305,
          0.08203579485416412,
          0.7620489597320557,
          0.2860560715198517,
          0.1343286633491516,
          -0.12608574330806732,
          -0.32852697372436523,
          -0.23413118720054626,
          0.5040290355682373,
          0.9033651351928711,
          -0.08584824949502945,
          -0.2737455666065216,
          0.0650942474603653,
          0.814388632774353,
          1.1259801387786865,
          1.0267250537872314,
          0.7797009348869324,
          0.5098916888237,
          1.1633334159851074,
          0.8880908489227295,
          0.5334180593490601,
          0.4866766929626465,
          1.0092639923095703,
          1.6398719549179077,
          0.11653796583414078,
          -0.6435626745223999,
          0.03881143778562546,
          0.5370751619338989,
          0.5184900164604187,
          0.3747232258319855,
          0.6796779036521912,
          0.30899903178215027,
          0.15398946404457092,
          -0.006571069825440645,
          -0.2218930572271347,
          -0.26336750388145447,
          0.6155998706817627,
          0.9498172998428345,
          0.0316326804459095,
          -0.01361139863729477,
          0.21287769079208374,
          0.5992063283920288,
          1.2723379135131836,
          0.8774628043174744,
          0.7301363348960876,
          0.43683645129203796,
          1.1852854490280151,
          0.8916919827461243,
          0.6234267950057983,
          0.29191121459007263,
          0.791679859161377,
          0.9482995867729187,
          0.05990203097462654,
          -0.27949392795562744,
          0.1611146479845047,
          0.6810236573219299,
          0.40532517433166504,
          0.4450930953025818,
          0.5212234854698181,
          0.5355643033981323,
          0.3268097937107086,
          -0.06500362604856491,
          -0.147238627076149,
          -0.0067292070016264915,
          0.7790248990058899,
          1.0638138055801392,
          0.24042165279388428,
          -0.01856176368892193,
          0.003677058732137084,
          0.5394864082336426,
          1.3021882772445679,
          0.7663556933403015,
          0.705833911895752,
          0.30570945143699646,
          1.0204282999038696,
          1.1626942157745361,
          0.8792325854301453,
          0.3554568588733673,
          0.5153412222862244,
          0.8157264590263367,
          -0.1003430187702179,
          -0.04344424977898598,
          0.4264477491378784,
          0.7870885729789734,
          0.4344961643218994,
          0.43768078088760376,
          0.46710988879203796,
          0.42184358835220337,
          0.147941455245018,
          -0.21906766295433044,
          -0.19918298721313477,
          -0.09388068318367004,
          0.7691348195075989,
          1.271557331085205,
          0.25026679039001465,
          -0.02458846941590309,
          0.07574150711297989,
          0.2781897783279419,
          1.0534366369247437,
          0.7514947652816772,
          0.6388181447982788,
          0.437835693359375,
          0.9807342290878296,
          1.1108547449111938,
          0.6888450980186462,
          0.21532492339611053,
          0.6041679978370667,
          0.6482203602790833,
          -0.04912620410323143,
          -0.10580029338598251,
          0.5067849159240723,
          0.8787705302238464,
          0.5538499355316162,
          0.3277013599872589,
          0.38846585154533386,
          0.3896233141422272,
          -0.10067672282457352,
          -0.1841510683298111,
          -0.19246508181095123,
          -0.19245685636997223,
          0.829831600189209,
          1.2007197141647339,
          0.22145402431488037,
          -0.06880524009466171,
          0.11400853842496872,
          -0.01953316479921341,
          0.6723333597183228,
          0.7469809055328369,
          0.5404151082038879,
          0.4864516258239746,
          1.0593050718307495,
          1.116957426071167,
          0.720603346824646,
          0.23923161625862122,
          0.43203821778297424,
          0.14497384428977966,
          -0.1180708035826683,
          0.15269282460212708,
          0.614970862865448,
          0.9451949596405029,
          0.5823391675949097,
          0.33608394861221313,
          0.4144430458545685,
          0.14456427097320557,
          -0.2318810671567917,
          -0.16355155408382416,
          -0.2292463183403015,
          -0.23978571593761444,
          0.5807002186775208,
          1.1341482400894165,
          0.07755493372678757,
          -0.26848751306533813,
          -0.12832346558570862,
          -0.2854881286621094,
          -0.02521470934152603,
          0.40537944436073303,
          0.4678894579410553,
          0.3876575529575348,
          1.0936099290847778,
          1.2542650699615479,
          0.6482543349266052,
          -0.07511892169713974,
          0.3014441430568695,
          0.4881328046321869,
          -0.19992755353450775,
          0.24452213943004608,
          0.7084820866584778,
          1.0639666318893433,
          0.5580546855926514,
          0.22617724537849426,
          0.2976827621459961,
          -0.004566810093820095,
          -0.3380001187324524,
          -0.2502460479736328,
          -0.37390097975730896,
          -0.5549807548522949,
          0.36748942732810974,
          0.9555832147598267,
          -0.1742023378610611,
          -0.48085880279541016,
          -0.48677998781204224,
          -0.5452333092689514,
          -0.33317330479621887,
          0.04786701500415802,
          0.24627740681171417,
          0.3537956178188324,
          1.0079904794692993,
          1.3887547254562378,
          0.8834278583526611,
          0.05257347598671913,
          -0.1420847326517105,
          0.19373193383216858,
          -0.49869662523269653,
          0.2911176085472107,
          0.9586838483810425,
          1.0975528955459595,
          0.47469091415405273,
          -0.15784715116024017,
          0.15711595118045807,
          -0.16507388651371002,
          -0.37736618518829346,
          -0.06653700768947601,
          -0.37949296832084656,
          -0.6171295642852783,
          0.2402055859565735,
          0.7821661829948425,
          -0.3106364905834198,
          -0.5845543146133423,
          -0.4943162202835083,
          -0.7271518111228943,
          -0.489488810300827,
          -0.24967257678508759,
          -0.24461567401885986,
          0.15668250620365143,
          1.0606824159622192,
          1.3605625629425049,
          0.907446026802063,
          -0.12308641523122787,
          -0.47270628809928894,
          0.050423651933670044,
          -0.24686886370182037,
          0.42452582716941833,
          1.0868477821350098,
          1.166069507598877,
          0.34791943430900574,
          -0.2868247628211975,
          0.00362236425280571,
          -0.301043838262558,
          -0.2598763406276703,
          -0.0344512052834034,
          -0.38738206028938293,
          -0.6541780233383179,
          0.08895546197891235,
          0.6738518476486206,
          -0.19327346980571747,
          -0.5611717700958252,
          -0.7356055974960327,
          -0.8035722374916077,
          -0.5337330102920532,
          -0.38523462414741516,
          -0.5916227102279663,
          -0.13830287754535675,
          0.8805093765258789,
          1.4946904182434082,
          1.0600289106369019,
          -0.25066491961479187,
          -0.5874060392379761,
          -0.4485592544078827,
          -0.25415122509002686,
          0.5523964762687683,
          1.1480185985565186,
          1.2180708646774292,
          0.2824210822582245,
          -0.5038975477218628,
          -0.07589609920978546,
          -0.2909086346626282,
          -0.17399023473262787,
          0.16958588361740112,
          -0.14225554466247559,
          -0.3293111026287079,
          0.3522898256778717,
          0.9496139287948608,
          -0.183722585439682,
          -0.48303547501564026,
          -0.34223127365112305,
          -0.3392878472805023,
          -0.4420764744281769,
          -0.392002671957016,
          -0.6188663244247437,
          -0.2865116000175476,
          0.7263981699943542,
          1.3869678974151611,
          1.016004204750061,
          -0.18655014038085938,
          -0.5985674858093262,
          -0.42365914583206177,
          0.002292795106768608,
          0.612461268901825,
          1.4045343399047852,
          1.3802151679992676,
          0.1480368971824646,
          -0.6193798780441284,
          -0.28013280034065247,
          -0.8884605765342712,
          -0.3216743469238281,
          0.3555380403995514,
          -0.03759783133864403,
          -0.3561673164367676,
          0.39442309737205505,
          0.6955933570861816,
          -0.3332741856575012,
          -0.6094223260879517,
          -0.4511851370334625,
          -0.4425603151321411,
          -0.6369653940200806,
          -0.7310875654220581,
          -0.6596960425376892,
          -0.48036202788352966,
          0.5124185681343079,
          1.2624144554138184,
          0.8106242418289185,
          -0.23751652240753174,
          -1.008987545967102,
          -0.8771588802337646,
          -0.05743915215134621,
          0.8541139364242554,
          1.5732654333114624,
          1.13548743724823,
          -0.39364534616470337,
          -0.9491446018218994,
          -0.8580948114395142,
          -1.1458091735839844,
          -0.3199706971645355,
          0.5359183549880981,
          0.3969464600086212,
          0.014703294262290001,
          0.524338960647583,
          0.6687416434288025,
          -0.22859816253185272,
          -0.2543703317642212,
          -0.15511080622673035,
          -0.2842464745044708,
          -0.745794415473938,
          -1.3004364967346191,
          -1.1873778104782104,
          -0.9777736067771912,
          0.05061500892043114,
          1.0813688039779663,
          0.6439065337181091,
          -0.18303132057189941,
          -0.7723096013069153,
          -0.32118311524391174,
          -0.5258419513702393,
          -0.37168920040130615,
          0.24173381924629211,
          0.29782429337501526,
          -0.5763418078422546,
          -1.4862979650497437,
          -1.8084392547607422,
          -1.7603994607925415,
          -0.6480811238288879,
          0.3125269412994385,
          0.31272631883621216,
          0.22907157242298126,
          1.5077850818634033,
          1.4976394176483154,
          0.21220380067825317,
          -0.32036447525024414,
          -0.43965038657188416,
          -1.014487385749817,
          -1.936936378479004,
          -2.995750665664673,
          -2.568419933319092,
          -1.2214250564575195,
          -0.08360562473535538,
          0.14681407809257507,
          -0.15512222051620483,
          -0.08615615963935852,
          -0.6013805866241455
        ],
        [
          -0.2638862729072571,
          -0.10966597497463226,
          -0.1353573352098465,
          -0.6315265893936157,
          0.17532497644424438,
          0.503211498260498,
          1.6202900409698486,
          1.0866011381149292,
          -0.1435021609067917,
          0.11007815599441528,
          2.488590717315674,
          3.8987607955932617,
          0.8319467902183533,
          1.2364070415496826,
          1.3588294982910156,
          0.6075153350830078,
          3.0870132446289062,
          3.712519884109497,
          1.1158376932144165,
          0.5785507559776306,
          1.5079715251922607,
          2.24298095703125,
          1.6874490976333618,
          0.6193721294403076,
          -0.4832629859447479,
          -0.29499801993370056,
          -0.049134012311697006,
          -0.28260791301727295,
          -0.33351629972457886,
          0.10910553485155106,
          -0.25409191846847534,
          -0.5128962993621826,
          -0.6337916851043701,
          -0.3017809987068176,
          -1.3684790134429932,
          -2.1752796173095703,
          -1.005637764930725,
          1.9302659034729004,
          3.2281582355499268,
          1.964321494102478,
          -0.2495141476392746,
          0.3906232714653015,
          0.9834807515144348,
          -0.09247440844774246,
          1.1007423400878906,
          3.319108486175537,
          2.7407357692718506,
          1.0770280361175537,
          -1.0577478408813477,
          -0.830262303352356,
          0.11040081083774567,
          0.4063975214958191,
          0.1433207094669342,
          0.27004536986351013,
          0.5928243398666382,
          0.6567221879959106,
          -0.2576311528682709,
          0.07547274231910706,
          -0.715786874294281,
          -0.7290617823600769,
          -0.9371764659881592,
          -2.0401370525360107,
          -1.4873062372207642,
          -0.8454571962356567,
          -0.5348963141441345,
          0.1520833671092987,
          0.0877024233341217,
          -0.3997816741466522,
          -0.6584230065345764,
          -1.335105299949646,
          -1.2706485986709595,
          -0.9310858845710754,
          -0.17099988460540771,
          -0.2212035357952118,
          0.39300069212913513,
          0.034951891750097275,
          -0.12781976163387299,
          -0.6116583347320557,
          -1.596497654914856,
          -0.9613582491874695,
          0.27065446972846985,
          0.8790518045425415,
          1.153454303741455,
          1.308243989944458,
          0.1003115102648735,
          -0.2814572751522064,
          -0.7847564220428467,
          -1.3528319597244263,
          -1.7416077852249146,
          -1.652660608291626,
          -1.1076021194458008,
          -2.4944307804107666,
          -2.659817695617676,
          -1.1523433923721313,
          0.5643994808197021,
          0.40030160546302795,
          -0.35952460765838623,
          -0.6021217107772827,
          -0.16239328682422638,
          -0.09597822278738022,
          0.16676534712314606,
          0.4388754963874817,
          -0.07411686331033707,
          -1.970514178276062,
          -2.3543624877929688,
          -1.684757113456726,
          -1.0700095891952515,
          -1.5160106420516968,
          -0.08535932004451752,
          0.6740252375602722,
          1.4907643795013428,
          0.5642315745353699,
          -0.08415470272302628,
          -0.5671075582504272,
          -0.9795185327529907,
          -1.7625185251235962,
          -2.1572632789611816,
          -1.3183242082595825,
          -2.4295473098754883,
          -1.7333831787109375,
          -1.0597566366195679,
          -0.03428236395120621,
          0.6867852210998535,
          0.43654564023017883,
          -0.2720293402671814,
          -0.016675464808940887,
          0.18516123294830322,
          0.13014550507068634,
          0.45771294832229614,
          0.7239622473716736,
          0.5366441011428833,
          -0.3631294369697571,
          -0.9440308809280396,
          -2.0104317665100098,
          -2.1059608459472656,
          -1.000131368637085,
          -0.5218570232391357,
          0.44768884778022766,
          0.9375389814376831,
          1.6152987480163574,
          -0.5532060265541077,
          -0.7239918112754822,
          -1.5658243894577026,
          -2.136098623275757,
          -2.016529083251953,
          -1.585949420928955,
          -1.6480780839920044,
          -0.22032493352890015,
          -0.3835187256336212,
          0.1251583844423294,
          0.36796289682388306,
          0.40016505122184753,
          0.559781551361084,
          0.39684614539146423,
          0.6492369174957275,
          0.8481563925743103,
          1.0169105529785156,
          1.044927954673767,
          0.8416494131088257,
          0.044515568763017654,
          -0.07583586871623993,
          -1.0072906017303467,
          -2.1411962509155273,
          -1.4539793729782104,
          -1.1814237833023071,
          0.052491869777441025,
          1.2690459489822388,
          2.0052661895751953,
          -0.9001883864402771,
          -1.5164079666137695,
          -1.4762933254241943,
          -2.201070547103882,
          -1.6485543251037598,
          -1.5006630420684814,
          -0.8103266358375549,
          -0.010709921829402447,
          -0.5469228029251099,
          -0.18744075298309326,
          0.02429688349366188,
          -0.06773092597723007,
          0.14405083656311035,
          0.16977737843990326,
          0.5375576615333557,
          0.8651103973388672,
          1.0218150615692139,
          1.0744123458862305,
          0.9078627228736877,
          0.25860610604286194,
          0.18360638618469238,
          -0.5383009910583496,
          -1.7640008926391602,
          -1.5828473567962646,
          -1.2298532724380493,
          0.14822918176651,
          1.1104090213775635,
          1.1419792175292969,
          -1.178494930267334,
          -1.9311093091964722,
          -1.7887848615646362,
          -2.0636391639709473,
          -1.6261863708496094,
          -1.5639852285385132,
          -0.6272873878479004,
          -0.3198431134223938,
          -0.9546030163764954,
          -0.44135355949401855,
          -0.06143980100750923,
          -0.236953467130661,
          -0.051613032817840576,
          -0.07265740633010864,
          0.063755564391613,
          0.6806939244270325,
          1.0832854509353638,
          1.239186406135559,
          1.2884713411331177,
          0.6082662343978882,
          0.30952557921409607,
          -0.00871337205171585,
          -1.3647112846374512,
          -1.5373146533966064,
          -0.8405209183692932,
          0.6241505742073059,
          0.30500438809394836,
          -0.44510123133659363,
          -1.6534910202026367,
          -2.0936079025268555,
          -2.1017582416534424,
          -2.4655063152313232,
          -1.3656200170516968,
          -1.4288270473480225,
          -0.5682370662689209,
          -0.6010098457336426,
          -1.298151969909668,
          -0.7386248707771301,
          -0.18624399602413177,
          -0.4286888837814331,
          -0.35856837034225464,
          -0.481434166431427,
          -0.5887607932090759,
          0.7453263998031616,
          1.3146029710769653,
          1.6790333986282349,
          1.043670415878296,
          0.2398528903722763,
          -0.05359484627842903,
          0.18171732127666473,
          -0.8598766922950745,
          -0.8563387393951416,
          0.03642230108380318,
          0.7904201745986938,
          -0.2913617789745331,
          -1.5960819721221924,
          -1.8833688497543335,
          -2.2081139087677,
          -2.232248544692993,
          -2.499497413635254,
          -1.7213451862335205,
          -1.2496122121810913,
          -0.37379327416419983,
          -0.72889244556427,
          -1.6778894662857056,
          -1.3594709634780884,
          -0.5322356820106506,
          -0.46034082770347595,
          -0.7005346417427063,
          -0.5644645690917969,
          -0.6323243975639343,
          0.8742826581001282,
          1.3913124799728394,
          1.840818166732788,
          0.9236500263214111,
          -0.5916056036949158,
          -0.8907278180122375,
          0.07147452235221863,
          -0.36581355333328247,
          -0.2982155680656433,
          0.35382571816444397,
          1.2560268640518188,
          -0.17994871735572815,
          -2.1116037368774414,
          -2.0828893184661865,
          -2.1270298957824707,
          -2.6310205459594727,
          -3.042297840118408,
          -1.9388729333877563,
          -1.4752119779586792,
          -0.09192968904972076,
          -0.6497514247894287,
          -1.60221266746521,
          -1.648020625114441,
          -0.7489174008369446,
          -0.5263951420783997,
          -0.1580694019794464,
          0.12951071560382843,
          0.4564908444881439,
          1.2267552614212036,
          1.171273946762085,
          1.337425708770752,
          0.5702675580978394,
          -0.5639363527297974,
          -0.8611618876457214,
          0.2625812292098999,
          -0.12922321259975433,
          -0.45899370312690735,
          0.09452024847269058,
          1.2949186563491821,
          0.34954822063446045,
          -2.5721707344055176,
          -2.496321439743042,
          -2.294041395187378,
          -2.5726840496063232,
          -2.8622798919677734,
          -1.8320409059524536,
          -1.7434340715408325,
          -0.23920057713985443,
          -0.7933198809623718,
          -1.5864523649215698,
          -1.626124382019043,
          -0.4790777862071991,
          0.21140220761299133,
          0.6983596682548523,
          0.45397287607192993,
          0.4437209367752075,
          1.2090489864349365,
          1.166442632675171,
          0.9340121746063232,
          0.4037196934223175,
          -0.3468433916568756,
          -0.2873294949531555,
          0.9018484354019165,
          0.32154858112335205,
          -0.28056591749191284,
          0.24786284565925598,
          1.0946587324142456,
          0.8544700145721436,
          -2.765592098236084,
          -2.5322887897491455,
          -2.6030497550964355,
          -2.463097095489502,
          -2.922379970550537,
          -1.7957414388656616,
          -1.8302210569381714,
          -0.5062031745910645,
          -0.7349435091018677,
          -1.418667197227478,
          -1.3952484130859375,
          0.11620590090751648,
          0.4711902439594269,
          0.9455808997154236,
          0.5943308472633362,
          0.6086373329162598,
          1.28877854347229,
          1.2637932300567627,
          1.1557433605194092,
          0.5023328065872192,
          0.24626342952251434,
          0.7285467982292175,
          1.9925884008407593,
          1.3049837350845337,
          0.19236579537391663,
          0.3206787109375,
          0.8580670356750488,
          1.0612577199935913,
          -1.372527003288269,
          -2.9594228267669678,
          -2.103041648864746,
          -1.549959659576416,
          -1.80559241771698,
          -1.5651049613952637,
          -2.2229788303375244,
          -0.5959365963935852,
          -0.3842516541481018,
          -0.9011155962944031,
          -1.0344047546386719,
          0.36840781569480896,
          0.9411711692810059,
          1.0338033437728882,
          0.8174248933792114,
          0.575792670249939,
          1.4215445518493652,
          1.2951606512069702,
          1.038362979888916,
          0.3833496570587158,
          0.13347101211547852,
          1.1245779991149902,
          2.3256266117095947,
          1.5828293561935425,
          0.3572900593280792,
          0.7083917856216431,
          1.0917497873306274,
          1.4233672618865967,
          0.07377813756465912,
          -1.9807771444320679,
          -0.3893073499202728,
          0.46570634841918945,
          -0.4153877794742584,
          -1.0734953880310059,
          -2.1361944675445557,
          -0.3165600001811981,
          -0.31650295853614807,
          -1.0085235834121704,
          -1.1045994758605957,
          0.5045917630195618,
          1.1848727464675903,
          1.2663949728012085,
          0.8995012640953064,
          0.3654201328754425,
          1.4442676305770874,
          1.3602114915847778,
          0.9887259602546692,
          0.2948508560657501,
          0.02060220018029213,
          0.8660538196563721,
          2.0694403648376465,
          1.4436417818069458,
          0.4901145398616791,
          0.9249420166015625,
          1.3954377174377441,
          1.7468724250793457,
          0.7864259481430054,
          -0.06475770473480225,
          0.8726324439048767,
          0.982921302318573,
          0.41033735871315,
          -0.8017213940620422,
          -1.9825619459152222,
          -0.408393919467926,
          -0.8717186450958252,
          -1.0651841163635254,
          -0.8904504776000977,
          0.6035963892936707,
          1.0191266536712646,
          1.222468376159668,
          0.8083987236022949,
          0.12949590384960175,
          1.4647356271743774,
          1.2318066358566284,
          0.9425461888313293,
          0.10495477169752121,
          -0.33253780007362366,
          0.511466920375824,
          1.548765778541565,
          1.2633973360061646,
          0.3168766498565674,
          0.7830266356468201,
          1.0162930488586426,
          1.2346792221069336,
          0.6739920377731323,
          1.5977025032043457,
          1.1694315671920776,
          0.9812037944793701,
          0.3729739487171173,
          -1.2924699783325195,
          -1.8034865856170654,
          -0.7508097887039185,
          -1.1487066745758057,
          -0.9460437893867493,
          -0.945289671421051,
          0.5197749733924866,
          0.7168757319450378,
          0.9822713136672974,
          0.4621727168560028,
          -0.08201519399881363,
          1.1492398977279663,
          1.1135541200637817,
          0.7311140298843384,
          0.07701180875301361,
          -0.4774401783943176,
          0.46511319279670715,
          1.3834956884384155,
          1.1384663581848145,
          0.1222338005900383,
          0.04472067952156067,
          0.19363804161548615,
          0.5213276743888855,
          0.69813472032547,
          1.250349521636963,
          1.3465595245361328,
          1.6899034976959229,
          0.620000422000885,
          -1.1556988954544067,
          -1.1546032428741455,
          -0.5104462504386902,
          -0.8851397633552551,
          -0.9317020773887634,
          -0.9426335692405701,
          0.48763877153396606,
          0.8669028282165527,
          1.0679025650024414,
          0.14023098349571228,
          -0.6838899254798889,
          0.662163257598877,
          0.9291055798530579,
          0.6047670841217041,
          0.02535303123295307,
          -0.66124027967453,
          0.4305601716041565,
          0.991313636302948,
          0.7875320315361023,
          -0.5669021010398865,
          -1.0073299407958984,
          -0.7532799243927002,
          -0.09130976349115372,
          0.3497464954853058,
          0.571463942527771,
          1.3078936338424683,
          1.6857187747955322,
          0.5463786721229553,
          -0.9471380114555359,
          -0.7253195643424988,
          -0.3125557601451874,
          -0.5178334712982178,
          -0.6958750486373901,
          -0.703671395778656,
          0.5609797239303589,
          0.8568795323371887,
          0.886410117149353,
          -0.2660379409790039,
          -1.2167046070098877,
          0.30234482884407043,
          0.8997897505760193,
          0.43940114974975586,
          0.27183011174201965,
          -0.4680957496166229,
          0.4368099272251129,
          1.0369939804077148,
          0.8964138031005859,
          -0.4172402620315552,
          -1.044373869895935,
          -0.8549139499664307,
          0.13797709345817566,
          1.0849850177764893,
          0.48203903436660767,
          0.7089375257492065,
          0.8672802448272705,
          -0.07141279429197311,
          -1.3205934762954712,
          -1.0837730169296265,
          -0.4469956159591675,
          -0.7297813296318054,
          -1.0562753677368164,
          -0.6449296474456787,
          0.350626677274704,
          0.660546600818634,
          0.843059241771698,
          -0.4700359106063843,
          -1.2672361135482788,
          0.23349714279174805,
          1.0644067525863647,
          0.7947785258293152,
          0.6085219979286194,
          -0.027440829202532768,
          0.39503589272499084,
          0.9628463387489319,
          1.1108556985855103,
          -0.07079742103815079,
          -0.987591564655304,
          -0.824770987033844,
          0.49305397272109985,
          2.2383065223693848,
          1.113477349281311,
          1.087949514389038,
          0.7514479756355286,
          0.009496904909610748,
          -1.3970686197280884,
          -0.5838754177093506,
          -0.5625910758972168,
          -1.0834574699401855,
          -1.3762551546096802,
          -0.7973024249076843,
          0.4246312379837036,
          0.8963137865066528,
          0.7781371474266052,
          -0.5583570599555969,
          -1.3039642572402954,
          0.3729219436645508,
          1.2675254344940186,
          1.1691378355026245,
          0.9813100099563599,
          -0.04679564759135246,
          -0.04827003553509712,
          0.4860037565231323,
          1.061684012413025,
          -0.15336564183235168,
          -0.9061621427536011,
          -0.6329394578933716,
          0.6748513579368591,
          1.9415783882141113,
          0.42749983072280884,
          0.6093776822090149,
          0.6551951169967651,
          -0.059733375906944275,
          -1.4527487754821777,
          -0.6510502099990845,
          -1.001521348953247,
          -1.720969796180725,
          -1.5094038248062134,
          -0.6021787524223328,
          0.34306150674819946,
          0.7907043695449829,
          0.61528080701828,
          -0.814666748046875,
          -1.4576325416564941,
          0.03382967412471771,
          1.1703044176101685,
          1.0729167461395264,
          0.5344102382659912,
          -0.4943448305130005,
          -0.7443638443946838,
          -0.12168438732624054,
          0.6305882930755615,
          -0.2215477079153061,
          -0.9260410666465759,
          -0.3468795120716095,
          0.7272887825965881,
          1.6028671264648438,
          0.23394250869750977,
          0.6970903873443604,
          0.27550366520881653,
          -0.42440545558929443,
          -1.5228062868118286,
          -0.5914435982704163,
          -0.9815678000450134,
          -1.711520791053772,
          -1.5113292932510376,
          -0.3593103289604187,
          0.46827974915504456,
          0.9444175958633423,
          0.6082378029823303,
          -0.7431882619857788,
          -1.3951172828674316,
          -0.049217186868190765,
          1.021538257598877,
          0.7761884331703186,
          0.2024780511856079,
          -0.8643277883529663,
          -1.2882577180862427,
          -0.18171566724777222,
          0.5709843039512634,
          -0.3500652313232422,
          -0.9486323595046997,
          -0.6225016713142395,
          0.45288220047950745,
          1.2086182832717896,
          0.03909892588853836,
          0.0900103822350502,
          -0.022245265543460846,
          -0.7941281199455261,
          -1.3505425453186035,
          -0.7776041030883789,
          -0.886044442653656,
          -1.725636601448059,
          -1.5033009052276611,
          -0.2279028445482254,
          0.25511783361434937,
          0.7228312492370605,
          0.5114246606826782,
          -0.7701993584632874,
          -1.3326964378356934,
          -0.2814292311668396,
          0.7740134000778198,
          0.2589133083820343,
          -0.04863915592432022,
          -0.9047664403915405,
          -1.6667221784591675,
          -0.5312127470970154,
          0.004455549642443657,
          -0.6439138650894165,
          -1.2921313047409058,
          -1.2050038576126099,
          -0.06443017721176147,
          0.7117087244987488,
          0.2991206645965576,
          -0.10884946584701538,
          -0.5786623358726501,
          -0.8680821061134338,
          -1.1551710367202759,
          -0.5623326897621155,
          -0.8495792150497437,
          -1.2822915315628052,
          -1.4611096382141113,
          -0.28852495551109314,
          0.1993803232908249,
          0.423543244600296,
          0.35111141204833984,
          -0.9826857447624207,
          -1.5399792194366455,
          -0.3520597517490387,
          0.44200095534324646,
          -0.02404804714024067,
          -0.33016303181648254,
          -0.9328973293304443,
          -1.5945862531661987,
          -0.6302533149719238,
          -0.23997195065021515,
          -0.6730247735977173,
          -1.0125927925109863,
          -1.1661839485168457,
          0.11951200664043427,
          0.7291114926338196,
          -1.0656903982162476,
          -0.6085529923439026,
          -1.0476914644241333,
          -1.1221802234649658,
          -1.5645157098770142,
          -0.41607287526130676,
          -0.6551569104194641,
          -1.1160895824432373,
          -0.8907095193862915,
          -0.5393866896629333,
          -0.35499107837677,
          0.2815805971622467,
          -0.1656852513551712,
          -1.5005674362182617,
          -1.849412202835083,
          -0.7270390391349792,
          -0.03887797147035599,
          -0.08887172490358353,
          -0.7140344381332397,
          -1.4111382961273193,
          -0.9446695446968079,
          -0.4684569835662842,
          -0.28552940487861633,
          -0.7058082222938538,
          -1.6317740678787231,
          -1.6100276708602905,
          -0.18481294810771942,
          0.538759171962738,
          -0.78452068567276,
          -0.9370205402374268,
          -1.6432952880859375,
          -1.6089897155761719,
          -1.6078517436981201,
          0.32316020131111145,
          -0.17291423678398132,
          -0.6225146651268005,
          0.2984066903591156,
          -0.050804127007722855,
          -0.908772349357605,
          -0.5071501731872559,
          -0.7445129752159119,
          -1.862252950668335,
          -2.229733943939209,
          -1.1250776052474976,
          -0.5980473756790161,
          -0.9326719045639038,
          -1.0132108926773071,
          -0.6427584886550903,
          -0.046630728989839554,
          0.08022313565015793,
          0.5820326209068298,
          -0.12376625090837479,
          -1.8376379013061523,
          -1.5006746053695679,
          -0.32776111364364624,
          0.3811480402946472,
          -0.42687758803367615,
          -0.08726128190755844,
          -0.030184537172317505,
          -0.2625676691532135,
          -0.3060305416584015,
          1.142688274383545,
          1.0209554433822632,
          0.40815845131874084,
          0.4114049971103668,
          1.6648982763290405,
          1.4266798496246338,
          0.45103392004966736,
          -0.8291259407997131,
          -3.015681743621826,
          -3.4828903675079346,
          -1.8109946250915527,
          -0.3098396360874176,
          0.8162201046943665,
          1.384679913520813,
          1.0526514053344727,
          0.5913144946098328,
          1.7794479131698608,
          1.3227440118789673,
          0.9211058616638184,
          -0.22744613885879517,
          -0.33847859501838684,
          0.13430453836917877,
          0.19531841576099396
        ],
        [
          -0.0979638397693634,
          0.5975466370582581,
          0.7811803817749023,
          -0.05458132550120354,
          -1.2444840669631958,
          -2.0738868713378906,
          -3.082908868789673,
          -2.4324538707733154,
          -0.36736804246902466,
          0.9002597332000732,
          1.2656614780426025,
          -0.9924412369728088,
          -2.137756824493408,
          -2.484768867492676,
          -2.4647014141082764,
          -2.3899736404418945,
          -1.583277940750122,
          0.9048737287521362,
          1.4539295434951782,
          0.7876131534576416,
          -0.5924197435379028,
          -1.8083927631378174,
          -1.158645510673523,
          -0.6033558249473572,
          0.2628776729106903,
          0.07276447862386703,
          -0.173943430185318,
          0.5948856472969055,
          0.060775164514780045,
          0.18705302476882935,
          0.41166019439697266,
          -0.34605512022972107,
          -1.4321409463882446,
          -2.0212414264678955,
          -1.4905977249145508,
          0.8204957246780396,
          1.4744683504104614,
          1.0443800687789917,
          -0.5957446694374084,
          -1.276914119720459,
          -0.8840880393981934,
          -1.0369099378585815,
          -1.3028463125228882,
          -0.8401635885238647,
          -0.8759154081344604,
          -0.7220170497894287,
          0.9101808667182922,
          1.8779747486114502,
          1.758172631263733,
          0.5336737036705017,
          -0.42471039295196533,
          -0.5046406388282776,
          -0.01623389683663845,
          -0.118563711643219,
          -0.44908607006073,
          0.43966925144195557,
          -0.3534668982028961,
          -0.23521868884563446,
          -0.29554131627082825,
          -0.20644529163837433,
          -0.7271777987480164,
          0.4128258526325226,
          2.095754384994507,
          2.1918201446533203,
          0.6934035420417786,
          -0.3112095892429352,
          -0.6299901604652405,
          -0.6050549149513245,
          -0.7392968535423279,
          -0.9296547174453735,
          -1.0883042812347412,
          -0.8693324327468872,
          -0.6998823881149292,
          -0.35832950472831726,
          -0.3481907248497009,
          0.47213810682296753,
          1.9491591453552246,
          2.328423023223877,
          2.0016963481903076,
          0.738482654094696,
          0.7501691579818726,
