{
  "input_shape": [
    28,
    28
  ],
  "preprocess": {
    "scale": 255.0
  },
  "layers": [
    {
      "type": "dense",
      "units": 128,
      "activation": "relu",
      "W": [
        [
          -0.07952119410037994,
          0.0377005934715271,
          0.07741249352693558,
          -0.03683951869606972,
          0.028461918234825134,
          0.005985051393508911,
          0.04704894870519638,
          -0.003051064908504486,
          -0.049277372658252716,
          0.06696256250143051,
          -0.006879717111587524,
          0.006513774394989014,
          -0.08919265866279602,
          -0.04626893252134323,
          0.07689671963453293,
          -0.07462390512228012,
          0.028837546706199646,
          0.02102775126695633,
          0.03549181669950485,
          0.05289208143949509,
          -0.006355106830596924,
          0.018332339823246002,
          -0.057386286556720734,
          0.05332914739847183,
          0.03541063517332077,
          -0.07164634764194489,
          -0.08013106882572174,
          0.007993966341018677,
          -0.0037861913442611694,
          -0.04577719792723656,
          0.05713876336812973,
          -0.027572140097618103,
          -0.027462491765618324,
          0.014834760688245296,
          0.040607184171676636,
          -0.021228572353720665,
          0.029799669981002808,
          -0.07278211414813995,
          0.03744032233953476,
          -0.10025518387556076,
          -0.04522072896361351,
          -0.08831560611724854,
          0.12445535510778427,
          0.11095265299081802,
          0.013443099334836006,
          -0.029011379927396774,
          0.04098860174417496,
          -0.07664218544960022,
          -0.022183183580636978,
          -0.07569914311170578,
          -0.06591351330280304,
          -0.019419405609369278,
          -0.06392748653888702,
          0.07686715573072433,
          -0.06571356952190399,
          -0.03855399414896965,
          -0.052331626415252686,
          0.0308544859290123,
          -0.08196406066417694,
          -0.07764893770217896,
          -0.0001166890433523804,
          -0.03927365317940712,
          -0.0024226647801697254,
          -0.07386619597673416,
          -0.015422733500599861,
          -0.03980015590786934,
          0.04714910313487053,
          -0.023730874061584473,
          -0.0582972951233387,
          0.007330643478780985,
          0.03550296649336815,
          0.11633018404245377,
          -0.024172142148017883,
          0.08613843470811844,
          -0.007376936264336109,
          -0.11808702349662781,
          -0.03537515923380852,
          -0.08771608769893646,
          -0.1083475723862648,
          -0.09272526949644089,
          0.056499846279621124,
          0.02858792431652546,
          -0.05634845793247223,
          0.015460081398487091,
          0.02452806383371353,
          -0.024728097021579742,
          -0.05053973197937012,
          -0.03384661301970482,
          0.019737014546990395,
          -0.03912040591239929,
          0.008956847712397575,
          -0.06851373612880707,
          0.028336580842733383,
          0.04694146662950516,
          0.005461844149976969,
          0.044346883893013,
          -0.042789556086063385,
          0.037829093635082245,
          -0.05781104788184166,
          0.011171444319188595,
          0.011370319873094559,
          -0.055298518389463425,
          0.05533972382545471,
          -0.06886052340269089,
          -0.06690224260091782,
          -0.04963323473930359,
          0.04903874918818474,
          -0.006494087167084217,
          0.02201925776898861,
          0.013811076991260052,
          0.04039433225989342,
          0.02261931449174881,
          0.06236165016889572,
          0.04014698415994644,
          0.07883459329605103,
          0.020701874047517776,
          0.02296973206102848,
          -0.008366541005671024,
          -0.09474273771047592,
          -0.12349767237901688,
          0.05901006609201431,
          0.04175971448421478,
          -0.07427743822336197,
          -0.032835546880960464,
          0.08048713207244873,
          -0.025346066802740097,
          0.06424959748983383,
          -0.007069517858326435,
          0.12105589359998703,
          0.08744785934686661,
          0.02691415697336197,
          -0.03378928080201149,
          -0.016202228143811226,
          -0.1119253858923912,
          -0.029506096616387367,
          -0.08602394163608551,
          -0.05345156416296959,
          0.030386408790946007,
          0.022543400526046753,
          0.006751020438969135,
          0.045696921646595,
          -0.05619978904724121,
          0.05404585972428322,
          -0.04801986366510391,
          0.03148188441991806,
          -0.045293014496564865,
          0.02202117070555687,
          -0.05753367021679878,
          0.011744151823222637,
          -0.06927076727151871,
          -0.03152792155742645,
          0.02508508414030075,
          0.04843159392476082,
          0.10769020020961761,
          -0.007732206489890814,
          0.013168392702937126,
          0.027278825640678406,
          -0.01209794357419014,
          -0.06815166026353836,
          -0.005710763856768608,
          -0.025065157562494278,
          -0.053448863327503204,
          -0.04022042080760002,
          -0.04269162565469742,
          0.01035252958536148,
          -0.07045815885066986,
          -0.021915240213274956,
          -0.08157370984554291,
          -0.03414967656135559,
          -0.11379852890968323,
          0.02522754669189453,
          -0.04639982804656029,
          -0.0510404147207737,
          -0.04120555520057678,
          -0.06728211790323257,
          -0.077111154794693,
          -0.08484723418951035,
          -0.03948448225855827,
          0.0014518395764753222,
          0.08953984081745148,
          -0.020179685205221176,
          0.05161144956946373,
          0.036069076508283615,
          0.07351416349411011,
          -0.00986398570239544,
          0.06328532099723816,
          0.04028337448835373,
          0.019023282453417778,
          -0.031973887234926224,
          -0.03869863972067833,
          -5.667257937602699e-05,
          -0.05836464837193489,
          -0.10349524766206741,
          -0.007254823110997677,
          0.019697001203894615,
          0.03712157905101776,
          0.043549202382564545,
          -0.038636621087789536,
          -0.0863112062215805,
          -0.10638279467821121,
          -0.1408040076494217,
          -0.10171901434659958,
          -0.1530267894268036,
          0.0066131968051195145,
          -0.04270945116877556,
          0.042429715394973755,
          0.03362492844462395,
          0.03850719705224037,
          0.04149339348077774,
          0.08798392117023468,
          0.06612976640462875,
          0.0059837279841303825,
          0.04693347588181496,
          -0.09358686953783035,
          -0.10226324200630188,
          -0.019048409536480904,
          -0.09129972010850906,
          -0.0629509687423706,
          -0.06772089749574661,
          -0.031770091503858566,
          -0.04325106739997864,
          -0.021393992006778717,
          -0.010785598307847977,
          -0.014930996112525463,
          0.07779914885759354,
          -0.030578453093767166,
          0.005852637812495232,
          -0.031306035816669464,
          0.006174782756716013,
          -0.1345198154449463,
          -0.061733268201351166,
          -0.05763864517211914,
          -0.06285881251096725,
          -0.05713018774986267,
          -0.004834963008761406,
          -0.02856915257871151,
          -0.06624699383974075,
          0.0014358519110828638,
          -0.03703209385275841,
          -0.02829502895474434,
          -0.08106812834739685,
          0.05039070174098015,
          0.06300604343414307,
          0.009129606187343597,
          -0.09602824598550797,
          -0.04614495858550072,
          -0.003890753025189042,
          -0.003933372441679239,
          -0.10649725049734116,
          -0.09263379126787186,
          0.04696134850382805,
          0.049146853387355804,
          0.08229589462280273,
          0.07809311151504517,
          0.027218196541070938,
          -0.020769169554114342,
          -0.039059773087501526,
          0.0149712935090065,
          0.0621187798678875,
          -0.0022050996776670218,
          -0.05927395075559616,
          -0.030139315873384476,
          0.07774718105792999,
          0.017502743750810623,
          0.06502173095941544,
          0.008487201295793056,
          0.03706059232354164,
          0.029168788343667984,
          0.05496111884713173,
          0.07774698734283447,
          -0.020496085286140442,
          0.03388845548033714,
          -0.05050153285264969,
          -0.035462986677885056,
          -0.0843941941857338,
          -0.10375117510557175,
          -0.09310634434223175,
          0.006964418571442366,
          0.03873259574174881,
          -0.03347161412239075,
          -0.0502610057592392,
          0.019443776458501816,
          0.04430758208036423,
          -0.0078082820400595665,
          0.05915945768356323,
          0.0594637393951416,
          -0.047795042395591736,
          -0.026613468304276466,
          0.005613262299448252,
          -0.04385580122470856,
          0.04171597957611084,
          -0.036737579852342606,
          0.05282962694764137,
          0.10153668373823166,
          0.04911656677722931,
          0.1583212912082672,
          0.0628606304526329,
          -0.020506635308265686,
          0.1045483946800232,
          -0.010172453708946705,
          0.03270226716995239,
          -0.07070911675691605,
          -0.11192966997623444,
          -0.07318362593650818,
          -0.07986006140708923,
          -0.06586015224456787,
          0.06852079182863235,
          0.07877438515424728,
          0.0390845462679863,
          0.030846836045384407,
          -0.017427075654268265,
          0.035837821662425995,
          0.003494634060189128,
          0.032807011157274246,
          0.07061751186847687,
          0.037939395755529404,
          0.06978140026330948,
          -0.04345660284161568,
          0.07632366567850113,
          0.02991211786866188,
          0.032934363931417465,
          0.04999794811010361,
          0.12031058967113495,
          0.1581367701292038,
          0.09701818227767944,
          0.09412800520658493,
          0.052220359444618225,
          0.08188248425722122,
          0.007025436032563448,
          -0.15420305728912354,
          -0.1854006052017212,
          -0.19360432028770447,
          -0.05527755990624428,
          0.038362614810466766,
          0.07638319581747055,
          0.006314517930150032,
          0.059934865683317184,
          -0.04400789737701416,
          -0.011828519403934479,
          -0.01127682812511921,
          0.03989972174167633,
          0.01109883189201355,
          0.05394222214818001,
          -0.03104284591972828,
          -0.05765504390001297,
          0.04774443805217743,
          0.023759812116622925,
          -0.024035023525357246,
          0.051748596131801605,
          -0.024764705449342728,
          0.15473273396492004,
          0.16256558895111084,
          0.13054269552230835,
          0.1323966681957245,
          0.12148080766201019,
          -0.09206312894821167,
          -0.15462318062782288,
          -0.09978244453668594,
          -0.14001421630382538,
          -0.03439795970916748,
          -0.07924146950244904,
          0.0032500808592885733,
          0.07947978377342224,
          0.10523425787687302,
          0.06264685094356537,
          -0.037876855581998825,
          0.11436175554990768,
          -0.02588432841002941,
          -0.037400830537080765,
          -0.01999807357788086,
          0.012680457904934883,
          -0.05338020250201225,
          -0.03997232764959335,
          -0.031488049775362015,
          -0.04384204000234604,
          -0.05860164389014244,
          0.016161136329174042,
          0.12545646727085114,
          0.12854449450969696,
          0.1573556512594223,
          0.1565915197134018,
          0.10404852032661438,
          -0.03194599226117134,
          -0.10033977031707764,
          -0.16332444548606873,
          -0.12878528237342834,
          -0.1504574567079544,
          -0.05983656272292137,
          0.007114947307854891,
          -0.03635599836707115,
          0.07595862448215485,
          0.1418696939945221,
          -0.10727735608816147,
          -0.04979662597179413,
          0.04608697444200516,
          0.04712884873151779,
          0.005657600238919258,
          -0.13550208508968353,
          -0.07608213275671005,
          -0.10624853521585464,
          -0.04577069729566574,
          -0.1149851381778717,
          -0.008500922471284866,
          -0.10231051594018936,
          -0.0011878346558660269,
          0.0925683081150055,
          0.04187458008527756,
          0.026819908991456032,
          0.14677603542804718,
          0.028667228296399117,
          -0.01527494378387928,
          -0.15952493250370026,
          -0.08957654982805252,
          -0.13452817499637604,
          -0.008820846676826477,
          0.015179266221821308,
          -0.006763898767530918,
          -0.0431944839656353,
          0.13977061212062836,
          -0.005188804119825363,
          -0.028122982010245323,
          -0.04527287557721138,
          0.08062027394771576,
          0.021864306181669235,
          -0.04112180322408676,
          -0.1064106822013855,
          -0.025413015857338905,
          -0.001870792475529015,
          0.01825466938316822,
          -0.032900575548410416,
          -0.04160342738032341,
          -0.03164612129330635,
          -0.06328622996807098,
          0.12024714052677155,
          0.06315203011035919,
          0.11961066722869873,
          0.017183538526296616,
          -0.1181357353925705,
          -0.12837877869606018,
          -0.20096451044082642,
          -0.2075749635696411,
          -0.17428544163703918,
          -0.06881274282932281,
          -0.012668762356042862,
          0.007837929762899876,
          0.03167673572897911,
          0.11185398697853088,
          0.11059385538101196,
          -0.055781036615371704,
          -0.09487313032150269,
          0.030094798654317856,
          -0.027928004041314125,
          -0.09054253250360489,
          -0.10895857214927673,
          -0.09625133872032166,
          -0.12085066735744476,
          0.03231912478804588,
          0.0851532444357872,
          -0.029704922810196877,
          0.027872208505868912,
          -0.001784994499757886,
          0.10459404438734055,
          0.043274350464344025,
          0.013638488948345184,
          -0.0281528290361166,
          -0.07560282200574875,
          -0.17688137292861938,
          -0.1624462753534317,
          -0.15075060725212097,
          0.030852939933538437,
          -0.07254467904567719,
          -0.016024349257349968,
          0.020037375390529633,
          0.1158285140991211,
          0.1444541960954666,
          0.12076461315155029,
          -0.05877918750047684,
          -0.06579567492008209,
          -0.02346907928586006,
          -0.059614524245262146,
          -0.16316688060760498,
          -0.19444873929023743,
          -0.13002033531665802,
          -0.035144925117492676,
          0.06418301165103912,
          0.13179539144039154,
          0.06835725903511047,
          -0.017422307282686234,
          0.06879214942455292,
          0.008985606953501701,
          0.06143089011311531,
          -0.07372777163982391,
          -0.04263712465763092,
          -0.13699176907539368,
          -0.08622360229492188,
          -0.023793233558535576,
          0.025266628712415695,
          0.003489685244858265,
          -0.03205950930714607,
          0.02347743511199951,
          -0.040271829813718796,
          0.04212970659136772,
          0.14950482547283173,
          0.11114519089460373,
          0.03461484611034393,
          0.030921688303351402,
          0.04813993722200394,
          0.054893963038921356,
          -0.14072684943675995,
          -0.14246046543121338,
          -0.03328092023730278,
          0.06735867261886597,
          0.10562428086996078,
          0.1350862979888916,
          0.013931361958384514,
          -0.04139634966850281,
          -0.015815187245607376,
          0.03391050174832344,
          -0.05229829251766205,
          -0.06180615723133087,
          -0.11247311532497406,
          -0.06041840463876724,
          -0.0303933285176754,
          -0.07145650684833527,
          -0.012540563941001892,
          -0.011816050857305527,
          -0.006345351692289114,
          -0.03472691401839256,
          -0.014682543464004993,
          0.11430974304676056,
          0.03888895735144615,
          0.12993742525577545,
          0.07921728491783142,
          -0.04576511308550835,
          -0.07320107519626617,
          -0.07025937736034393,
          -0.06618092954158783,
          -0.160654678940773,
          0.026682989671826363,
          0.053549326956272125,
          -0.030369097366929054,
          0.07224217802286148,
          0.07875571399927139,
          -0.14445342123508453,
          -0.11346601694822311,
          -0.08389151096343994,
          -0.02617853693664074,
          0.02970193326473236,
          -0.10645455867052078,
          0.04659447818994522,
          -0.07365811616182327,
          0.0848383754491806,
          0.0598476380109787,
          0.07425970584154129,
          -0.005558333359658718,
          0.09793397784233093,
          -0.014159333892166615,
          0.12368091195821762,
          0.12301917374134064,
          -0.0017448721919208765,
          -0.056552499532699585,
          0.02100300043821335,
          -0.15866148471832275,
          -0.10732927918434143,
          -0.0460178479552269,
          -0.0722031518816948,
          -0.0500214546918869,
          0.11207634955644608,
          0.03560422733426094,
          0.031177943572402,
          0.05866774171590805,
          -0.11053094267845154,
          -0.04033941775560379,
          -0.06901739537715912,
          -0.08478627353906631,
          -0.05776285380125046,
          0.03232530504465103,
          -0.00010671127529349178,
          -0.0602634958922863,
          -0.00022883400379214436,
          0.08531799167394638,
          0.09692148864269257,
          0.06318316608667374,
          -0.012272759340703487,
          0.008213408291339874,
          -0.010750523768365383,
          -0.0018429607152938843,
          -0.07659775018692017,
          0.016609668731689453,
          0.026282330974936485,
          -0.03172669932246208,
          0.038190875202417374,
          -0.03351490572094917,
          -0.05962231010198593,
          0.09058725088834763,
          0.07466933131217957,
          0.09656763076782227,
          0.013010201044380665,
          -0.025316834449768066,
          -0.07959754019975662,
          -0.0657971054315567,
          0.02581382356584072,
          0.047342874109745026,
          0.039292801171541214,
          0.009312281385064125,
          0.08200512081384659,
          -0.031009308993816376,
          -0.021340396255254745,
          -0.016439924016594887,
          0.06198180094361305,
          0.06404165923595428,
          0.05415524169802666,
          0.12534023821353912,
          -0.01211976446211338,
          -0.04287928342819214,
          -0.03346025571227074,
          -0.013981087133288383,
          0.016110528260469437,
          0.01694846898317337,
          -0.061035823076963425,
          -0.05257762223482132,
          0.04877675697207451,
          0.014638211578130722,
          0.07423693686723709,
          0.07156539708375931,
          0.005641018971800804,
          -0.04516349732875824,
          -0.0951017513871193,
          0.02176106534898281,
          -0.09738606959581375,
          -0.06902730464935303,
          0.03730344772338867,
          -0.05536111071705818,
          0.012238835915923119,
          -0.04230465367436409,
          -0.0017241730820387602,
          0.060546498745679855,
          0.06610317528247833,
          -0.012119844555854797,
          0.019615493714809418,
          0.0660378485918045,
          0.10379618406295776,
          -0.12782885134220123,
          -0.06301433593034744,
          0.07232440263032913,
          -0.03272987902164459,
          0.004598631989210844,
          -0.1208757683634758,
          -0.04208126291632652,
          -0.030046969652175903,
          0.011172397993505001,
          0.01883462443947792,
          0.007838108576834202,
          0.006105704233050346,
          -0.024067668244242668,
          -0.08084780722856522,
          -0.018458882346749306,
          0.04990536347031593,
          0.009445959702134132,
          0.05094587802886963,
          -0.042734600603580475,
          0.10498616844415665,
          0.012799368239939213,
          0.06382759660482407,
          0.027323860675096512,
          0.07741314172744751,
          0.04792751371860504,
          0.00931457243859768,
          0.04998481646180153,
          0.05330787971615791,
          0.02322309836745262,
          0.04100383073091507,
          0.04828726500272751,
          -0.06418776512145996,
          -0.07269308716058731,
          -0.1545296460390091,
          -0.03170553222298622,
          -0.011723394505679607,
          -0.15495318174362183,
          -0.0873817726969719,
          0.0011317281750962138,
          -0.028672317042946815,
          -0.09515272825956345,
          -0.1197252944111824,
          -0.05285019427537918,
          -0.10079742968082428,
          -0.0950642004609108,
          -0.07169963419437408,
          -0.03548938408493996,
          -0.08439652621746063,
          0.045402348041534424,
          0.04405464977025986,
          0.05382002145051956,
          -0.01519810687750578,
          -0.0725848376750946,
          0.033372946083545685,
          -0.0014534220099449158,
          0.10301659256219864,
          0.050076454877853394,
          -0.02238195389509201,
          -0.05357706919312477,
          0.029371239244937897,
          0.06405212730169296,
          0.050125282257795334,
          -0.056424565613269806,
          -0.09687748551368713,
          0.04334434121847153,
          -0.03024810180068016,
          -0.1276543289422989,
          -0.11409826576709747,
          -0.19340477883815765,
          -0.15943823754787445,
          -0.07462424039840698,
          0.009591958485543728,
          0.037606433033943176,
          -0.07046829909086227,
          0.0592433400452137,
          0.04989076778292656,
          0.0382702499628067,
          0.02759610302746296,
          -0.03746768459677696,
          -0.031124241650104523,
          -0.1189093068242073,
          -0.12207229435443878,
          -0.11465322971343994,
          0.09148400276899338,
          -0.043017417192459106,
          -0.007320128381252289,
          -0.044021204113960266,
          0.032150641083717346,
          -0.02314699813723564,
          0.01798192784190178,
          0.07521573454141617,
          0.042120642960071564,
          0.022578001022338867,
          -0.026873653754591942,
          0.06807258725166321,
          0.0843091607093811,
          0.05973907187581062,
          0.04662031680345535,
          0.08486080169677734,
          0.03869659826159477,
          0.1438075304031372,
          0.007623613346368074,
          0.10682319849729538,
          0.08434700220823288,
          0.09101694077253342,
          0.014354984275996685,
          0.08069063723087311,
          0.08344543725252151,
          0.07236351817846298,
          0.045921724289655685,
          -0.04005417600274086,
          0.02253427915275097,
          0.0792132094502449,
          -0.02948470041155815,
          0.06618178635835648,
          0.038490913808345795,
          -0.06210850924253464,
          0.014103032648563385,
          -0.025977713987231255,
          0.020048514008522034,
          -0.02480172924697399,
          -0.030072612687945366,
          0.05909562110900879,
          0.09495147317647934,
          0.11818826198577881,
          0.033091023564338684,
          0.13732321560382843,
          0.16837771236896515,
          0.08592682331800461,
          0.10242448002099991,
          0.08724991232156754,
          0.0864930972456932,
          0.11938390880823135,
          0.18334926664829254,
          0.09255074709653854,
          0.08523083478212357,
          0.018107952550053596,
          0.00027227640384808183,
          0.017529532313346863,
          -0.005063697695732117,
          0.04065308719873428,
          -0.04380132630467415
        ],
        [
          0.1742510050535202,
          0.10039657354354858,
          -0.4104694128036499,
          0.03217688202857971,
          0.32061225175857544,
          0.9733715653419495,
          1.856873869895935,
          1.6025675535202026,
          0.3974668085575104,
          0.9878889322280884,
          1.5591230392456055,
          1.8734848499298096,
          0.487592488527298,
          -0.9678023457527161,
          -1.3673895597457886,
          -0.2724601924419403,
          1.45689058303833,
          1.5074158906936646,
          0.4746682047843933,
          -0.012516595423221588,
          0.56898432970047,
          1.2019119262695312,
          0.5524951815605164,
          -0.1842886358499527,
          -0.23561738431453705,
          -0.06809402257204056,
          -0.20339758694171906,
          0.2017890214920044,
          0.28796255588531494,
          -0.270428329706192,
          -0.34161314368247986,
          0.1482095569372177,
          0.13918349146842957,
          0.06041913107037544,
          -0.0033254895824939013,
          -0.6702507734298706,
          0.7253260612487793,
          1.5447343587875366,
          0.9562219977378845,
          0.2683669626712799,
          0.11418997496366501,
          0.0480872206389904,
          0.03720147907733917,
          -0.37160396575927734,
          -0.38138118386268616,
          -0.08685938268899918,
          0.9068771004676819,
          0.9464486241340637,
          -0.7436824440956116,
          -0.8360711932182312,
          -0.2593385577201843,
          -0.02333844266831875,
          0.21719546616077423,
          -0.042451947927474976,
          -0.08524629473686218,
          0.4110429584980011,
          0.32422810792922974,
          -0.3003172278404236,
          -0.664223313331604,
          0.24112318456172943,
          -0.21164432168006897,
          -1.1293177604675293,
          -1.299891710281372,
          0.25765442848205566,
          1.6473522186279297,
          1.3500317335128784,
          0.6809368133544922,
          0.44848906993865967,
          -0.5182374119758606,
          -0.3693808317184448,
          -0.322945237159729,
          -0.839789628982544,
          -0.33547651767730713,
          0.3933633863925934,
          0.4725778102874756,
          0.9743801951408386,
          0.7505022287368774,
          -0.743960440158844,
          -1.3996227979660034,
          -0.01609133742749691,
          0.16770987212657928,
          -0.21743683516979218,
          -0.3053652048110962,
          0.04714157432317734,
          -0.12441324442625046,
          -0.40198904275894165,
          0.053694020956754684,
          -0.4529920220375061,
          -0.9554173946380615,
          -0.9342522621154785,
          -0.5595110654830933,
          1.1908972263336182,
          1.24489164352417,
          0.6766648292541504,
          0.6126319766044617,
          0.6732169389724731,
          0.09641533344984055,
          -0.07166852802038193,
          -0.053361572325229645,
          -0.2569546699523926,
          0.16575424373149872,
          0.2566271126270294,
          0.3270614445209503,
          0.3895937204360962,
          0.8013437986373901,
          0.12905606627464294,
          -1.1649090051651,
          -0.5281715393066406,
          -0.011237584985792637,
          -0.416007936000824,
          -0.5512871742248535,
          -0.15735816955566406,
          -0.1454172432422638,
          -0.1261337250471115,
          -0.08026496320962906,
          -0.24129870533943176,
          -0.9606387615203857,
          -1.051358699798584,
          0.009710348211228848,
          0.8480821847915649,
          0.6945916414260864,
          0.2784961760044098,
          0.715773344039917,
          0.8296722173690796,
          0.27457332611083984,
          0.2353987693786621,
          -0.05532485246658325,
          0.21452170610427856,
          0.28252917528152466,
          0.18571683764457703,
          -0.06167732924222946,
          -0.11532729864120483,
          0.34707915782928467,
          0.16462227702140808,
          -0.8930829763412476,
          -0.6357496380805969,
          0.03560993820428848,
          -0.20569105446338654,
          -0.24119143187999725,
          -0.5525146722793579,
          0.12600895762443542,
          0.24135719239711761,
          -0.21874232590198517,
          -0.19104571640491486,
          -0.38006189465522766,
          -0.7870907783508301,
          0.2202530950307846,
          0.4206671118736267,
          0.1697932481765747,
          0.6370377540588379,
          0.79768306016922,
          0.5987077951431274,
          0.36513444781303406,
          0.2478950470685959,
          -0.03187543526291847,
          0.19245551526546478,
          0.11298375576734543,
          0.08939915150403976,
          -0.15175467729568481,
          -0.4152893126010895,
          -0.15824295580387115,
          0.12802214920520782,
          -0.4197607636451721,
          -0.45187509059906006,
          0.05163879320025444,
          -0.01845199055969715,
          -0.3799598515033722,
          -0.1285763829946518,
          0.40504810214042664,
          0.6468250751495361,
          0.3624145984649658,
          -0.16007789969444275,
          -0.5213332772254944,
          -1.0704193115234375,
          0.07513447105884552,
          -0.1713540405035019,
          -0.37729910016059875,
          0.7551742792129517,
          0.931481122970581,
          0.661646842956543,
          0.4095347225666046,
          0.2635616362094879,
          -0.132629856467247,
          0.039305396378040314,
          0.15780498087406158,
          0.10235974192619324,
          0.09016335755586624,
          -0.2999574542045593,
          -0.41250893473625183,
          0.0847826823592186,
          -0.21058809757232666,
          -0.6023709177970886,
          0.40215376019477844,
          0.030716121196746826,
          -0.5645745396614075,
          -0.3998887240886688,
          0.8618409633636475,
          0.7510179877281189,
          0.3235405683517456,
          0.07188938558101654,
          -0.8410221934318542,
          -0.8529133200645447,
          0.059604451060295105,
          -0.46967893838882446,
          -0.8151901364326477,
          0.30922386050224304,
          0.5801072716712952,
          0.7477080225944519,
          0.5416058301925659,
          0.4189475476741791,
          0.08521512150764465,
          0.0714498981833458,
          0.0469636432826519,
          -0.06554684042930603,
          -0.23485730588436127,
          -0.34971877932548523,
          -0.35658714175224304,
          -0.10207340866327286,
          0.062381941825151443,
          -0.6075403094291687,
          0.14256204664707184,
          -0.25686049461364746,
          -0.7851104736328125,
          -0.3055834174156189,
          0.6218804121017456,
          0.3484577238559723,
          0.6820579171180725,
          0.1611742228269577,
          -0.5344445109367371,
          -0.37584882974624634,
          0.06112733855843544,
          -0.5009461641311646,
          -1.210548758506775,
          -0.3905388414859772,
          0.26979321241378784,
          0.704296886920929,
          0.5302774310112,
          0.5251269340515137,
          0.037078097462654114,
          -0.2551238536834717,
          -0.0656171664595604,
          -0.3212279677391052,
          -0.9725744724273682,
          -0.8406529426574707,
          -0.6697268486022949,
          -0.14073573052883148,
          0.03932255133986473,
          -0.838557779788971,
          -0.3586985468864441,
          -0.6948742866516113,
          -0.8603570461273193,
          0.20169697701931,
          0.413788378238678,
          0.1608244776725769,
          0.5352574586868286,
          0.34674689173698425,
          -0.5134795904159546,
          -0.20971082150936127,
          0.23138068616390228,
          -0.33400559425354004,
          -1.3025985956192017,
          -1.1311036348342896,
          0.03499109670519829,
          0.5324081182479858,
          0.6060078144073486,
          0.47521471977233887,
          -0.15446972846984863,
          -0.0020530633628368378,
          0.0233672633767128,
          -0.3740003705024719,
          -1.4865233898162842,
          -1.3965777158737183,
          -0.9808565974235535,
          -0.45499172806739807,
          -0.03791506960988045,
          -0.8069742918014526,
          -0.639951765537262,
          -0.558746337890625,
          -0.5910316705703735,
          0.4227043390274048,
          0.25927358865737915,
          0.6727867722511292,
          0.04581776633858681,
          -0.45119115710258484,
          -0.6040380001068115,
          -0.23693011701107025,
          0.10141246765851974,
          -0.20941323041915894,
          -1.4402228593826294,
          -1.5843589305877686,
          0.2364848405122757,
          0.9649515748023987,
          0.7688849568367004,
          0.33475661277770996,
          -0.16606365144252777,
          0.28471678495407104,
          -0.12986788153648376,
          -0.16058839857578278,
          -1.7317782640457153,
          -1.702932596206665,
          -1.119994044303894,
          -0.7859920263290405,
          -0.5838770270347595,
          -1.1261627674102783,
          -1.053293228149414,
          -0.7282804250717163,
          -0.12530815601348877,
          0.35409507155418396,
          0.45327138900756836,
          0.571082592010498,
          0.4100834131240845,
          -0.4793698191642761,
          -0.7212553024291992,
          -0.36009687185287476,
          -0.3155679702758789,
          -0.49661800265312195,
          -1.54828941822052,
          -1.761349081993103,
          0.5520532131195068,
          1.0829452276229858,
          0.6144415140151978,
          0.029085716232657433,
          -0.46464425325393677,
          -0.10703089833259583,
          -0.29183220863342285,
          -0.17991362512111664,
          -1.573393702507019,
          -2.031813621520996,
          -1.1406757831573486,
          -1.0062404870986938,
          -1.0293371677398682,
          -1.2604690790176392,
          -0.9792747497558594,
          -0.3043937385082245,
          0.5516998767852783,
          0.9580470323562622,
          0.5359575152397156,
          0.5279838442802429,
          0.7339286804199219,
          -0.3039607107639313,
          -0.7272087931632996,
          -0.5305694937705994,
          -0.6382203698158264,
          -0.5797433257102966,
          -1.1941733360290527,
          -0.8894484639167786,
          1.032433271408081,
          0.7057186961174011,
          0.26719993352890015,
          -0.11777684837579727,
          -0.44106143712997437,
          0.002855865517631173,
          -0.2591380476951599,
          -0.1816914826631546,
          -1.1219884157180786,
          -1.6579394340515137,
          -0.9481969475746155,
          -0.9235774874687195,
          -0.91999751329422,
          -0.9090569615364075,
          -0.7972968220710754,
          -0.11667442321777344,
          0.9074788093566895,
          1.285405158996582,
          -0.23363152146339417,
          0.7526997327804565,
          1.0490665435791016,
          -0.03000672161579132,
          -0.6476405262947083,
          -0.7239643335342407,
          -0.271541029214859,
          -0.15448470413684845,
          -0.710092306137085,
          -0.16600345075130463,
          0.7634329199790955,
          0.4365108907222748,
          0.26128771901130676,
          -0.12584616243839264,
          -0.4361189305782318,
          0.018691113218665123,
          -0.04577547311782837,
          -0.20124465227127075,
          -0.6537212133407593,
          -1.1948727369308472,
          -0.730324923992157,
          -0.7390915155410767,
          -0.7674195766448975,
          -0.8100815415382385,
          -0.5470373034477234,
          0.17649471759796143,
          0.9471026659011841,
          0.991680920124054,
          0.4173927307128906,
          1.3040111064910889,
          1.268528699874878,
          0.36138615012168884,
          -0.41577818989753723,
          -0.9969715476036072,
          -0.3420175313949585,
          -0.2994016408920288,
          -0.6321296095848083,
          -0.14337283372879028,
          0.5845834016799927,
          0.2951273024082184,
          0.25707826018333435,
          -0.26036494970321655,
          -0.46172860264778137,
          0.021005257964134216,
          0.06211775168776512,
          -0.3131403923034668,
          -0.6031476259231567,
          -1.2434724569320679,
          -0.9843420386314392,
          -0.7834298610687256,
          -1.2027709484100342,
          -0.8560242056846619,
          -0.29332977533340454,
          0.4210541844367981,
          0.6874399781227112,
          0.49630722403526306,
          1.1791967153549194,
          1.0626050233840942,
          0.9039732813835144,
          0.0763339102268219,
          -0.7271705865859985,
          -1.0498648881912231,
          -0.7229092717170715,
          -0.7673413753509521,
          -0.7656525373458862,
          -0.1519068479537964,
          0.4540557563304901,
          0.3385838568210602,
          0.3862243592739105,
          -0.16633787751197815,
          -0.5266953110694885,
          0.11781889945268631,
          0.052321191877126694,
          -0.23040898144245148,
          -0.43608877062797546,
          -1.0041595697402954,
          -0.9030091762542725,
          -0.8665032386779785,
          -1.1764417886734009,
          -0.8802273869514465,
          -0.571118175983429,
          0.21119321882724762,
          0.18188905715942383,
          -0.713951826095581,
          2.511563301086426,
          1.149493932723999,
          0.3765259087085724,
          -0.39888617396354675,
          -0.9379210472106934,
          -1.1308319568634033,
          -0.7951560020446777,
          -0.775261640548706,
          -0.5238819122314453,
          -0.030331239104270935,
          0.48197412490844727,
          0.3630003333091736,
          0.4141033887863159,
          0.009911634027957916,
          -0.5706905722618103,
          0.010919018648564816,
          0.2637617290019989,
          0.10268062353134155,
          -0.25947386026382446,
          -0.535529613494873,
          -0.8951535820960999,
          -0.7535646557807922,
          -1.196786642074585,
          -0.8588936924934387,
          -0.4919939637184143,
          0.02274009771645069,
          0.02389819547533989,
          -0.34684082865715027,
          1.8245712518692017,
          0.9217641353607178,
          0.2651289403438568,
          -0.26197683811187744,
          -0.5787259936332703,
          -0.7163267731666565,
          -0.4990186095237732,
          -0.23433688282966614,
          -0.3510605990886688,
          0.14975225925445557,
          0.5577102303504944,
          0.568313479423523,
          0.40031698346138,
          -0.07101248949766159,
          -0.46007582545280457,
          0.10808360576629639,
          0.3569110035896301,
          0.24195115268230438,
          -0.21679365634918213,
          -0.3193277418613434,
          -0.800491452217102,
          -0.6790012717247009,
          -1.0267009735107422,
          -0.8304235935211182,
          -0.664429247379303,
          -0.4514220654964447,
          -0.23693950474262238,
          -0.14384950697422028,
          0.5517215132713318,
          0.040276557207107544,
          -0.24544838070869446,
          -0.4018494486808777,
          -0.4357258677482605,
          -0.08564772456884384,
          -0.15872390568256378,
          -0.07261881977319717,
          -0.19534264504909515,
          0.0926525816321373,
          0.540920078754425,
          0.5451503992080688,
          0.3562999665737152,
          -0.040379855781793594,
          -0.48756781220436096,
          0.016402412205934525,
          0.4532991051673889,
          0.24744583666324615,
          -0.0866752490401268,
          -0.14422489702701569,
          -0.82767653465271,
          -0.7035331130027771,
          -1.0555510520935059,
          -0.9513081908226013,
          -0.923646867275238,
          -0.7211458683013916,
          -0.2902084290981293,
          0.6730591654777527,
          0.4615238904953003,
          -0.1636400818824768,
          -0.4368707537651062,
          -0.5145184397697449,
          -0.42108601331710815,
          -0.546442985534668,
          -0.36982202529907227,
          -0.3239929974079132,
          -0.3446754813194275,
          -0.009524993598461151,
          0.27980542182922363,
          0.4284898638725281,
          0.22713583707809448,
          -0.32960808277130127,
          -0.5763406157493591,
          0.1581634283065796,
          0.46021708846092224,
          0.4919368028640747,
          0.015127264894545078,
          -0.1591443568468094,
          -0.9182062745094299,
          -0.9804069995880127,
          -1.1128422021865845,
          -1.1255146265029907,
          -0.8075432777404785,
          -0.8048346638679504,
          -0.45937013626098633,
          0.9411296844482422,
          0.2217187136411667,
          0.06874174624681473,
          -0.13138726353645325,
          -0.4374498426914215,
          -0.3827996850013733,
          -0.33788102865219116,
          -0.4238935708999634,
          -0.7179431319236755,
          -0.46942293643951416,
          -0.19133609533309937,
          0.389848530292511,
          0.34196946024894714,
          0.010804143734276295,
          -0.3764345645904541,
          -0.6449543833732605,
          0.06710026413202286,
          0.6087952852249146,
          0.513472318649292,
          -0.031066812574863434,
          -0.27109795808792114,
          -1.4200913906097412,
          -1.4583063125610352,
          -1.2599114179611206,
          -1.2969114780426025,
          -0.9885989427566528,
          -0.841354250907898,
          -0.7502758502960205,
          0.2927305996417999,
          0.02063632756471634,
          -0.263266921043396,
          -0.7938603758811951,
          -1.0151106119155884,
          -1.1380574703216553,
          -1.218693733215332,
          -1.3582369089126587,
          -1.1509826183319092,
          -0.6163073182106018,
          -0.3248344361782074,
          0.21816465258598328,
          0.1773231327533722,
          -0.11265470087528229,
          -0.47893765568733215,
          -0.8794344663619995,
          -0.33194029331207275,
          0.19288645684719086,
          0.33210551738739014,
          -0.10127764195203781,
          -0.6580180525779724,
          -1.925248622894287,
          -2.1947174072265625,
          -2.1755642890930176,
          -1.9278717041015625,
          -1.505105972290039,
          -0.9634293913841248,
          -0.7569839358329773,
          -0.11783647537231445,
          -0.4130641222000122,
          -0.45383909344673157,
          -1.0624593496322632,
          -1.6395924091339111,
          -1.685895562171936,
          -1.5060573816299438,
          -1.4641326665878296,
          -1.7534090280532837,
          -0.6514028906822205,
          -0.3058765232563019,
          0.1906006783246994,
          0.3529345989227295,
          -0.09696245193481445,
          -0.4512823820114136,
          -0.6940895915031433,
          -0.13734915852546692,
          0.2381829470396042,
          0.388363242149353,
          0.12874597311019897,
          -0.4933006167411804,
          -1.8908863067626953,
          -2.330623149871826,
          -2.2902305126190186,
          -2.4358203411102295,
          -1.817028284072876,
          -1.004639983177185,
          -0.837416410446167,
          -0.48132357001304626,
          -0.5691803097724915,
          -1.1098977327346802,
          -1.4659634828567505,
          -1.8153547048568726,
          -1.5219964981079102,
          -1.6633585691452026,
          -1.5721899271011353,
          -1.816985011100769,
          -0.4011719226837158,
          -0.0844680666923523,
          0.3242506682872772,
          0.45139819383621216,
          0.1970478892326355,
          -0.2445044368505478,
          -0.7286057472229004,
          -0.12012738734483719,
          0.26872923970222473,
          0.4391527771949768,
          0.26980912685394287,
          -0.3200659453868866,
          -1.4921742677688599,
          -2.516481876373291,
          -2.3324804306030273,
          -2.4025487899780273,
          -1.7102713584899902,
          -1.2465410232543945,
          -1.1994138956069946,
          -0.8424829840660095,
          -0.3480091989040375,
          -0.908618688583374,
          -1.3443022966384888,
          -1.9159681797027588,
          -1.6512466669082642,
          -1.767682433128357,
          -1.731683611869812,
          -1.3949037790298462,
          -0.19346894323825836,
          -0.002501700073480606,
          0.6315844655036926,
          0.6875858306884766,
          0.3374500274658203,
          -0.11893486976623535,
          -0.48462381958961487,
          0.0339047908782959,
          0.5093439817428589,
          0.7223671078681946,
          0.4399246275424957,
          -0.08353281766176224,
          -1.253180742263794,
          -2.4007108211517334,
          -2.0615782737731934,
          -2.387768268585205,
          -1.6924954652786255,
          -1.1019679307937622,
          -1.3796225786209106,
          -1.140804409980774,
          -0.1094663068652153,
          -0.37193095684051514,
          -0.8585825562477112,
          -1.5383169651031494,
          -1.486430287361145,
          -1.46123206615448,
          -1.514296054840088,
          -0.7515995502471924,
          -0.1642557978630066,
          -0.2551939785480499,
          0.7776166200637817,
          0.9374951124191284,
          0.6483088135719299,
          0.3471905589103699,
          -0.11942053586244583,
          0.37360185384750366,
          0.7323074340820312,
          0.7796915173530579,
          0.3914243280887604,
          0.03702465072274208,
          -0.6133129596710205,
          -1.9287817478179932,
          -1.4216556549072266,
          -2.208207845687866,
          -1.3883925676345825,
          -0.7057924866676331,
          -0.8391993641853333,
          -0.7673397660255432,
          -0.49536213278770447,
          -0.501316249370575,
          -0.8280385732650757,
          -1.6844066381454468,
          -1.6579350233078003,
          -2.0016744136810303,
          -1.5563215017318726,
          -0.03974141553044319,
          0.6148930788040161,
          0.33870166540145874,
          1.0513001680374146,
          1.1921745538711548,
          0.8487426042556763,
          0.7245703935623169,
          0.42042645812034607,
          0.8462437987327576,
          1.0783041715621948,
          1.1373323202133179,
          0.8090747594833374,
          0.7255372405052185,
          0.5461243987083435,
          -1.269010305404663,
          -1.683354139328003,
          -2.2267558574676514,
          -1.4967297315597534,
          -0.6821541786193848,
          -0.784605085849762,
          -0.9646157026290894,
          -0.2410021424293518,
          -0.7587961554527283,
          -0.8320168852806091,
          -2.2055742740631104,
          -2.3703207969665527,
          -3.2415614128112793,
          -3.262000560760498,
          -0.9776405692100525,
          0.8503373265266418,
          1.500664472579956,
          1.6553528308868408,
          1.0823310613632202,
          0.48310375213623047,
          0.2547925114631653,
          -0.018790358677506447,
          0.5486640930175781,
          1.2748290300369263,
          1.5056403875350952,
          1.4688748121261597,
          1.2532362937927246,
          -0.2651114761829376,
          -3.1883740425109863,
          -3.535850763320923,
          -3.327511787414551,
          -2.6315150260925293,
          -1.3061350584030151,
          -1.123452067375183,
          -0.6839780211448669
        ],
        [
          0.3765787184238434,
          -0.3987106680870056,
          -0.6753668785095215,
          -0.45323964953422546,
          -0.2880503535270691,
          0.6914463043212891,
          0.4455602467060089,
          -1.128510594367981,
          -1.9233587980270386,
          -2.0555636882781982,
          -2.9029006958007812,
          -1.973862886428833,
          1.1098960638046265,
          1.6710079908370972,
          1.811501145362854,
          1.964656949043274,
          -0.6234543323516846,
          -2.9104247093200684,
          -2.6211392879486084,
          -2.4079554080963135,
          -1.7036511898040771,
          0.6425141096115112,
          1.6641465425491333,
          1.0657528638839722,
          0.6441130638122559,
          0.6966286897659302,
          0.8938949704170227,
          -0.3463345170021057,
          -0.3879053294658661,
          -0.4307050406932831,
          -0.6009946465492249,
          -0.26461005210876465,
          0.3416423499584198,
          0.5900363922119141,
          0.2233876734972,
          -1.0955133438110352,
          -1.2037478685379028,
          -1.8519484996795654,
          -2.057530164718628,
          -0.8738788962364197,
          -0.08874469250440598,
          -0.23517514765262604,
          -0.3521597385406494,
          -0.19750019907951355,
          -0.8546427488327026,
          -2.019986391067505,
          -2.290863037109375,
          -1.9643633365631104,
          -1.6183934211730957,
          -0.581280529499054,
          1.2045079469680786,
          1.5611294507980347,
          1.2123838663101196,
          1.056229591369629,
          0.7497918009757996,
          -0.45769068598747253,
          0.2168647199869156,
          0.11874137073755264,
          0.17403914034366608,
          -0.17151667177677155,
          -0.47291845083236694,
          -0.9403802752494812,
          -1.6025283336639404,
          -1.6628179550170898,
          -0.4981452226638794,
          -0.37661388516426086,
          -0.2779161036014557,
          0.04196010157465935,
          -0.2892983555793762,
          0.01125769130885601,
          -0.07367745041847229,
          -0.08875846862792969,
          -0.1679815948009491,
          0.09029094129800797,
          -0.17728929221630096,
          -0.31010702252388,
          -1.535461187362671,
          -2.165781259536743,
          -1.5470131635665894,
          0.2662126421928406,
          1.001478910446167,
          1.367202877998352,
          0.8478297591209412,
          0.2092777043581009,
          0.7702261209487915,
          0.31617674231529236,
          0.14220866560935974,
          -0.41795939207077026,
          -1.8297423124313354,
          -2.1235644817352295,
          -1.5327101945877075,
          0.16432149708271027,
          0.565645694732666,
          -0.226840078830719,
          -0.6907041072845459,
          -0.0780276283621788,
          0.05707315355539322,
          0.37151747941970825,
          0.3797845244407654,
          0.307360976934433,
          0.28440043330192566,
          -0.29665085673332214,
          -0.3165329098701477,
          0.6932406425476074,
          0.5148686766624451,
          -0.9767264127731323,
          -2.1806445121765137,
          -1.7689820528030396,
          0.42374783754348755,
          1.4703562259674072,
          1.065353274345398,
          0.7794327139854431,
          0.8727194666862488,
          0.6130580902099609,
          0.13697735965251923,
          -0.903190553188324,
          -2.4625601768493652,
          -1.6919904947280884,
          -0.6243626475334167,
          -0.12675337493419647,
          -0.160783588886261,
          -0.9381376504898071,
          -0.5729907751083374,
          0.11268072575330734,
          0.20473279058933258,
          0.18366308510303497,
          0.3470452129840851,
          0.4648965299129486,
          0.5014914870262146,
          -0.19469060003757477,
          -0.6246765851974487,
          -0.17817308008670807,
          -0.01546183880418539,
          -0.22183960676193237,
          -1.1927438974380493,
          -2.371129035949707,
          -0.06541702896356583,
          1.4306747913360596,
          1.5597189664840698,
          1.0121361017227173,
          0.6686683893203735,
          0.7909886837005615,
          -0.4043583869934082,
          -1.656040072441101,
          -2.5583994388580322,
          -1.622190237045288,
          -0.8703010678291321,
          -0.4636456072330475,
          -0.5875040292739868,
          -0.6675581932067871,
          -0.19899152219295502,
          0.02892400696873665,
          -0.0016126875998452306,
          0.013627725653350353,
          0.10884126275777817,
          -0.010720128193497658,
          0.16649073362350464,
          -0.2942993938922882,
          -0.5877715945243835,
          -0.407662034034729,
          -0.2745791971683502,
          -0.4173014163970947,
          -0.8361968994140625,
          -2.0472285747528076,
          -0.5644940137863159,
          1.0458194017410278,
          1.8388416767120361,
          1.1830837726593018,
          0.4704873561859131,
          0.03600022569298744,
          -0.9129870533943176,
          -1.9071680307388306,
          -2.2338919639587402,
          -1.5450167655944824,
          -1.099079966545105,
          -0.9040225744247437,
          -0.819841206073761,
          -0.5720533132553101,
          -0.26814448833465576,
          -0.1424969732761383,
          0.042518775910139084,
          -0.12472386658191681,
          -0.022911610081791878,
          -0.3302888870239258,
          -0.13219229876995087,
          -0.16119876503944397,
          -0.3601227402687073,
          -0.42231443524360657,
          -0.22242476046085358,
          -0.313111811876297,
          -0.6972261071205139,
          -1.5535037517547607,
          -0.7141753435134888,
          0.5771092176437378,
          1.2517781257629395,
          1.214888572692871,
          0.37865009903907776,
          -0.22980996966362,
          -1.0797224044799805,
          -2.094388484954834,
          -1.9943420886993408,
          -1.483298420906067,
          -1.280295491218567,
          -1.1663459539413452,
          -1.1743240356445312,
          -0.8235411643981934,
          -0.4675038754940033,
          -0.08770111948251724,
          -0.36102020740509033,
          -0.09938912838697433,
          -0.208445742726326,
          -0.4042637050151825,
          -0.31139054894447327,
          -0.19015948474407196,
          -0.4071313738822937,
          -0.563059389591217,
          -0.4461783766746521,
          -0.3706434369087219,
          -0.6673821210861206,
          -1.008643388748169,
          -0.9680279493331909,
          0.3325139582157135,
          0.9249558448791504,
          1.1703004837036133,
          0.575799286365509,
          -0.2345457524061203,
          -1.470777153968811,
          -2.1869192123413086,
          -1.9200938940048218,
          -1.149899959564209,
          -1.2716944217681885,
          -1.2950546741485596,
          -1.3990676403045654,
          -1.0523912906646729,
          -0.9136148691177368,
          -0.4067993462085724,
          -0.5451624989509583,
          -0.2723236680030823,
          -0.1651822030544281,
          -0.6278882026672363,
          -0.45651718974113464,
          -0.5153346061706543,
          -0.650547981262207,
          -0.6137372851371765,
          -0.4448605179786682,
          -0.6218448877334595,
          -0.5601659417152405,
          -0.7682391405105591,
          -0.8362714648246765,
          0.3009767532348633,
          1.1829235553741455,
          1.3614126443862915,
          1.3056572675704956,
          -0.06178922951221466,
          -1.467230200767517,
          -2.3005106449127197,
          -1.7764118909835815,
          -1.1654070615768433,
          -1.4690357446670532,
          -1.2185600996017456,
          -1.3187503814697266,
          -1.2855377197265625,
          -1.3023756742477417,
          -0.6253313422203064,
          -0.675066351890564,
          -0.41371795535087585,
          -0.042284052819013596,
          -0.5290451049804688,
          -0.5239006876945496,
          -0.7824345231056213,
          -0.9530470371246338,
          -0.38493165373802185,
          -0.0559467151761055,
          -0.8000392317771912,
          -0.7112199664115906,
          -0.37752965092658997,
          -0.4156543016433716,
          0.3685232102870941,
          1.3135735988616943,
          1.997426152229309,
          1.5977087020874023,
          0.09940923005342484,
          -1.249498963356018,
          -1.730903148651123,
          -1.31232750415802,
          -1.1099579334259033,
          -1.345454454421997,
          -0.9740492105484009,
          -1.0422853231430054,
          -1.4002777338027954,
          -1.120753288269043,
          -0.5686880946159363,
          -0.6635482907295227,
          -0.45215335488319397,
          0.20515397191047668,
          -0.6236928701400757,
          -0.5508174300193787,
          -0.553723156452179,
          -0.8171825408935547,
          -0.18220172822475433,
          0.27474379539489746,
          -0.708169162273407,
          -0.5253086090087891,
          0.1704494059085846,
          0.08751191198825836,
          0.6933736205101013,
          1.3519850969314575,
          2.3451130390167236,
          1.2356735467910767,
          0.20351502299308777,
          -1.4098737239837646,
          -1.5659505128860474,
          -1.0681121349334717,
          -0.6662142872810364,
          -1.1093568801879883,
          -0.35744988918304443,
          -0.6311569809913635,
          -1.0088642835617065,
          -0.6195191144943237,
          -0.3377244174480438,
          -0.4971524775028229,
          -0.18471591174602509,
          0.35946109890937805,
          -0.35697171092033386,
          -0.5189902186393738,
          -0.3570130169391632,
          -0.5035905241966248,
          0.0865958034992218,
          0.5762277245521545,
          -0.1004830077290535,
          -0.03966613858938217,
          0.6432639360427856,
          0.29141801595687866,
          0.771521806716919,
          1.401694893836975,
          2.2586560249328613,
          0.9409061074256897,
          0.1993250548839569,
          -1.3159666061401367,
          -1.4862455129623413,
          -0.9367265105247498,
          -0.5061488151550293,
          -0.7619510293006897,
          0.14887256920337677,
          -0.22223646938800812,
          -0.801986813545227,
          -0.4330928921699524,
          -0.23355063796043396,
          -0.6678865551948547,
          0.043422333896160126,
          0.4799664318561554,
          -0.3467949330806732,
          -0.4130871891975403,
          -0.32150134444236755,
          -0.10393732041120529,
          0.28039225935935974,
          0.975521445274353,
          0.33218762278556824,
          0.313020259141922,
          0.8488665223121643,
          0.515862226486206,
          0.7447682619094849,
          0.9514926671981812,
          1.8800485134124756,
          1.2343757152557373,
          0.20795580744743347,
          -1.0778191089630127,
          -1.2051738500595093,
          -0.4169422388076782,
          -0.17457497119903564,
          -0.5068885087966919,
          0.49883216619491577,
          -0.12662187218666077,
          -0.47203099727630615,
          -0.3279121518135071,
          -0.33128121495246887,
          -0.45949023962020874,
          0.23363864421844482,
          0.7947869300842285,
          -0.028477244079113007,
          -0.3525320589542389,
          -0.23877573013305664,
          0.19736656546592712,
          0.5328570604324341,
          1.0627387762069702,
          0.4618648588657379,
          0.2497793436050415,
          1.0758239030838013,
          0.5856612920761108,
          0.7072765231132507,
          0.6279860734939575,
          1.2992000579833984,
          1.6920727491378784,
          0.5248194932937622,
          -0.9112332463264465,
          -0.6544538736343384,
          -0.018502503633499146,
          0.28944313526153564,
          -0.03850152716040611,
          0.7515572905540466,
          0.14955809712409973,
          -0.10557664185762405,
          -0.1917712688446045,
          -0.25706595182418823,
          -0.24115538597106934,
          0.22325412929058075,
          0.767602264881134,
          -0.15061743557453156,
          -0.2656511962413788,
          0.05659361928701401,
          0.6486102342605591,
          0.8740065097808838,
          1.1889079809188843,
          0.6049962043762207,
          0.24012212455272675,
          1.0108410120010376,
          0.7529749274253845,
          0.4601123034954071,
          0.4672558009624481,
          1.041939377784729,
          1.710033893585205,
          0.37268394231796265,
          -0.5923374891281128,
          -0.07913697510957718,
          0.45208486914634705,
          0.46009743213653564,
          0.10674411803483963,
          0.778617262840271,
          0.28164756298065186,
          0.14693808555603027,
          -0.10834401845932007,
          -0.32227763533592224,
          -0.2275393307209015,
          0.48789849877357483,
          0.8809516429901123,
          -0.09142530709505081,
          -0.2667941153049469,
          0.05893567204475403,
          0.8043151497840881,
          1.1056832075119019,
          1.0401759147644043,
          0.8132226467132568,
          0.5436834692955017,
          1.1773933172225952,
          0.8937966227531433,
          0.5680367350578308,
          0.49895143508911133,
          1.1176718473434448,
          1.6825330257415771,
          0.15148048102855682,
          -0.6018545031547546,
          0.07163982093334198,
          0.5741646885871887,
          0.5504699945449829,
          0.41926711797714233,
          0.7157269716262817,
          0.3089034855365753,
          0.16874217987060547,
          0.002982162870466709,
          -0.22024855017662048,
          -0.2665965259075165,
          0.6007768511772156,
          0.9296443462371826,
          0.02465895004570484,
          -0.019773900508880615,
          0.1939525604248047,
          0.5806885361671448,
          1.2505213022232056,
          0.9003638029098511,
          0.7710604667663574,
          0.4845369756221771,
          1.2097156047821045,
          0.9108971953392029,
          0.6697958111763,
          0.3131985068321228,
          0.9132224321365356,
          0.9877412915229797,
          0.07522472739219666,
          -0.24340137839317322,
          0.17927630245685577,
          0.7137033343315125,
          0.4396398961544037,
          0.496086061000824,
          0.550527036190033,
          0.5364965200424194,
          0.33330389857292175,
          -0.05358817055821419,
          -0.14188812673091888,
          -0.015876874327659607,
          0.7485311031341553,
          1.0348658561706543,
          0.22512054443359375,
          -0.023085108026862144,
          -0.008455178700387478,
          0.5197411179542542,
          1.2817986011505127,
          0.7856217622756958,
          0.7503714561462402,
          0.365275114774704,
          1.061254620552063,
          1.1894357204437256,
          0.9305381178855896,
          0.36561256647109985,
          0.5636414885520935,
          0.8528881072998047,
          -0.07981149107217789,
          -0.036718860268592834,
          0.43492117524147034,
          0.8015719056129456,
          0.4586184024810791,
          0.48229101300239563,
          0.488798588514328,
          0.4158989489078522,
          0.1526249647140503,
          -0.20224681496620178,
          -0.1901809573173523,
          -0.09268449991941452,
          0.7390030026435852,
          1.2417255640029907,
          0.2399815171957016,
          -0.01901755854487419,
          0.07637067139148712,
          0.2698165774345398,
          1.0384736061096191,
          0.7586479187011719,
          0.6747888922691345,
          0.4861324429512024,
          1.0109916925430298,
          1.1231938600540161,
          0.7237286567687988,
          0.21376197040081024,
          0.5797471404075623,
          0.6414756774902344,
          -0.049196530133485794,
          -0.11340899020433426,
          0.5193802714347839,
          0.8941692113876343,
          0.5840094685554504,
          0.3686580955982208,
          0.4059106111526489,
          0.3897289037704468,
          -0.09293612092733383,
          -0.16737821698188782,
          -0.1807727962732315,
          -0.17826825380325317,
          0.8117204308509827,
          1.1821807622909546,
          0.2090371996164322,
          -0.0650898888707161,
          0.1151275560259819,
          -0.022206947207450867,
          0.6582618951797485,
          0.7515206336975098,
          0.5731240510940552,
          0.5297930836677551,
          1.0829863548278809,
          1.1224669218063354,
          0.7462723255157471,
          0.2350587099790573,
          0.3876952826976776,
          0.14908213913440704,
          -0.12838216125965118,
          0.1221621111035347,
          0.599461019039154,
          0.9597857594490051,
          0.606379508972168,
          0.36204299330711365,
          0.4268018901348114,
          0.1530413031578064,
          -0.22257214784622192,
          -0.14269883930683136,
          -0.21416200697422028,
          -0.22752124071121216,
          0.5564051270484924,
          1.1031280755996704,
          0.05864854156970978,
          -0.27525416016578674,
          -0.13301494717597961,
          -0.28683194518089294,
          -0.03443535789847374,
          0.3981335163116455,
          0.4947439432144165,
          0.42649394273757935,
          1.1216309070587158,
          1.2566580772399902,
          0.6786845922470093,
          -0.04971817508339882,
          0.2858531177043915,
          0.4846194088459015,
          -0.21371325850486755,
          0.21623380482196808,
          0.7048184871673584,
          1.0766751766204834,
          0.5676661729812622,
          0.2283749133348465,
          0.3028528392314911,
          0.014074320904910564,
          -0.32661041617393494,
          -0.22830671072006226,
          -0.3614778220653534,
          -0.545597493648529,
          0.35362210869789124,
          0.9274755120277405,
          -0.18960750102996826,
          -0.4907783567905426,
          -0.49185410141944885,
          -0.547937273979187,
          -0.3427164554595947,
          0.04345988482236862,
          0.24963214993476868,
          0.37251919507980347,
          1.029367208480835,
          1.385737657546997,
          0.8942596316337585,
          0.060935329645872116,
          -0.16554376482963562,
          0.1923564225435257,
          -0.525955319404602,
          0.2521265149116516,
          0.9618911147117615,
          1.1033048629760742,
          0.4905904531478882,
          -0.15268954634666443,
          0.15273341536521912,
          -0.1371230185031891,
          -0.36679592728614807,
          -0.051092322915792465,
          -0.36805978417396545,
          -0.6136219501495361,
          0.23054343461990356,
          0.7618240118026733,
          -0.3241311013698578,
          -0.5924216508865356,
          -0.5050511956214905,
          -0.7267014384269714,
          -0.5028862953186035,
          -0.25898438692092896,
          -0.24682578444480896,
          0.1604938954114914,
          1.07114577293396,
          1.345780849456787,
          0.9024642109870911,
          -0.12311755120754242,
          -0.49101394414901733,
          0.04977620393037796,
          -0.26341238617897034,
          0.39201733469963074,
          1.0880826711654663,
          1.1540757417678833,
          0.34934139251708984,
          -0.291152685880661,
          -0.005007014609873295,
          -0.2611137330532074,
          -0.24084539711475372,
          -0.010631066747009754,
          -0.3743339776992798,
          -0.645503044128418,
          0.08298702538013458,
          0.6657478213310242,
          -0.18968188762664795,
          -0.5480778813362122,
          -0.7310790419578552,
          -0.7862059473991394,
          -0.5273820161819458,
          -0.39671576023101807,
          -0.5971067547798157,
          -0.14991341531276703,
          0.8779017925262451,
          1.4743555784225464,
          1.056317687034607,
          -0.24344144761562347,
          -0.5618325471878052,
          -0.4606797993183136,
          -0.273144394159317,
          0.511993408203125,
          1.146570086479187,
          1.2121649980545044,
          0.2718023955821991,
          -0.5128251910209656,
          -0.0741325169801712,
          -0.25378480553627014,
          -0.15886026620864868,
          0.1931420862674713,
          -0.1364569365978241,
          -0.32622143626213074,
          0.34309741854667664,
          0.9402337670326233,
          -0.18120475113391876,
          -0.4787236452102661,
          -0.33906298875808716,
          -0.32927650213241577,
          -0.44371846318244934,
          -0.40135636925697327,
          -0.6183679699897766,
          -0.3077869713306427,
          0.723344624042511,
          1.3681530952453613,
          0.9953077435493469,
          -0.1849883794784546,
          -0.6015441417694092,
          -0.42477771639823914,
          0.013589687645435333,
          0.593311607837677,
          1.3928160667419434,
          1.357670783996582,
          0.13791556656360626,
          -0.6285500526428223,
          -0.2672666907310486,
          -0.8672090172767639,
          -0.31756579875946045,
          0.3737999200820923,
          -0.029041022062301636,
          -0.34809190034866333,
          0.3918437957763672,
          0.6928449869155884,
          -0.33098840713500977,
          -0.6054237484931946,
          -0.4451825022697449,
          -0.4453217387199402,
          -0.6589776277542114,
          -0.7335628867149353,
          -0.6581072807312012,
          -0.5031158328056335,
          0.4903129041194916,
          1.233968734741211,
          0.7797048091888428,
          -0.22878725826740265,
          -1.0032398700714111,
          -0.8755341172218323,
          -0.02629741281270981,
          0.8288450837135315,
          1.5496325492858887,
          1.1307039260864258,
          -0.3823200762271881,
          -0.9226540327072144,
          -0.7893335819244385,
          -1.081690788269043,
          -0.32104629278182983,
          0.544497549533844,
          0.41042202711105347,
          0.014735614880919456,
          0.515816867351532,
          0.662250816822052,
          -0.2401583045721054,
          -0.26825380325317383,
          -0.1786898821592331,
          -0.32177087664604187,
          -0.7555720210075378,
          -1.2559391260147095,
          -1.1828272342681885,
          -0.985755980014801,
          0.02656533010303974,
          1.0409834384918213,
          0.5880966186523438,
          -0.17029011249542236,
          -0.7321993708610535,
          -0.3494079113006592,
          -0.5259600281715393,
          -0.33673200011253357,
          0.23976019024848938,
          0.30412206053733826,
          -0.5724344849586487,
          -1.4322012662887573,
          -1.6780089139938354,
          -1.611923098564148,
          -0.5292769074440002,
          0.3763432204723358,
          0.33803001046180725,
          0.2236449420452118,
          1.480345606803894,
          1.472457766532898,
          0.19529688358306885,
          -0.34778672456741333,
          -0.4533461928367615,
          -1.0066847801208496,
          -1.8948391675949097,
          -2.9215762615203857,
          -2.512877941131592,
          -1.2448127269744873,
          -0.12658141553401947,
          0.1100064069032669,
          -0.1841762512922287,
          -0.07316119968891144,
          -0.6175550818443298
        ],
        [
          -0.24683111906051636,
          -0.03196551650762558,
          -0.18738321959972382,
          -0.689161479473114,
          0.15749739110469818,
          0.5168400406837463,
          1.6978561878204346,
          1.2076495885849,
          -0.009374354965984821,
          0.17201343178749084,
          2.5395820140838623,
          3.9601492881774902,
          0.905448317527771,
          1.2598838806152344,
          1.3662101030349731,
          0.6283290982246399,
          3.161862850189209,
          3.7877421379089355,
          1.1862913370132446,
          0.7347609996795654,
          1.6433182954788208,
          2.2744638919830322,
          1.6261869668960571,
          0.5730240345001221,
          -0.5251544713973999,
          -0.32769376039505005,
          -0.05221836268901825,
          -0.2845204472541809,
          -0.3228125274181366,
          0.12949101626873016,
          -0.3151809871196747,
          -0.6027218699455261,
          -0.730239987373352,
          -0.25303953886032104,
          -1.2585015296936035,
          -2.05753231048584,
          -0.9152769446372986,
          1.9998058080673218,
          3.2847495079040527,
          2.0878942012786865,
          -0.1673479676246643,
          0.46627581119537354,
          1.0617018938064575,
          -0.008327797055244446,
          1.1854068040847778,
          3.3692965507507324,
          2.7898330688476562,
          1.1899842023849487,
          -0.9316273331642151,
          -0.7502268552780151,
          0.059826772660017014,
          0.31746432185173035,
          0.06143761798739433,
          0.19359344244003296,
          0.5580820441246033,
          0.6773462295532227,
          -0.20869868993759155,
          0.07164963334798813,
          -0.8616724610328674,
          -0.8420384526252747,
          -0.9713871479034424,
          -1.9830166101455688,
          -1.3891326189041138,
          -0.7669864892959595,
          -0.44759199023246765,
          0.23083025217056274,
          0.1483931690454483,
          -0.34265848994255066,
          -0.601962685585022,
          -1.221896767616272,
          -1.1415597200393677,
          -0.8552516102790833,
          -0.10777660459280014,
          -0.1673014760017395,
          0.450735867023468,
          0.11786109209060669,
          -0.029206538572907448,
          -0.532075822353363,
          -1.5499560832977295,
          -1.0328835248947144,
          0.2051246613264084,
          0.7920056581497192,
          1.0713750123977661,
          1.242290735244751,
          0.06132401525974274,
          -0.3368974030017853,
          -0.913199782371521,
          -1.4489980936050415,
          -1.6882555484771729,
          -1.5661346912384033,
          -1.032143473625183,
          -2.4274988174438477,
          -2.611905097961426,
          -1.0900622606277466,
          0.6233944892883301,
          0.4118861258029938,
          -0.32489013671875,
          -0.5361880660057068,
          -0.09202412515878677,
          -0.06235633045434952,
          0.20146405696868896,
          0.47540032863616943,
          -0.004573376849293709,
          -1.901826024055481,
          -2.2818236351013184,
          -1.610103726387024,
          -0.9656876921653748,
          -1.5495647192001343,
          -0.15901286900043488,
          0.6106414794921875,
          1.4393985271453857,
          0.51414954662323,
          -0.16960500180721283,
          -0.7024651169776917,
          -1.177232265472412,
          -1.8218411207199097,
          -2.0870394706726074,
          -1.236389398574829,
          -2.391552448272705,
          -1.7000617980957031,
          -1.0429441928863525,
          0.01998959109187126,
          0.7279106974601746,
          0.4563864469528198,
          -0.2289792001247406,
          0.03083009272813797,
          0.2578994929790497,
          0.1807217299938202,
          0.4946348965167999,
          0.7626010179519653,
          0.6007747054100037,
          -0.3022627830505371,
          -0.9106921553611755,
          -1.9801045656204224,
          -2.0284626483917236,
          -0.9744063019752502,
          -0.5846642851829529,
          0.3921322524547577,
          0.8532735109329224,
          1.5792722702026367,
          -0.6185532808303833,
          -0.911367654800415,
          -1.6497814655303955,
          -2.1731481552124023,
          -1.8643773794174194,
          -1.5296128988265991,
          -1.6294482946395874,
          -0.22525463998317719,
          -0.4019048810005188,
          0.15086758136749268,
          0.39475002884864807,
          0.4004184603691101,
          0.5668030977249146,
          0.4363482892513275,
          0.7091177105903625,
          0.8898195624351501,
          1.0520288944244385,
          1.0724176168441772,
          0.8912202715873718,
          0.09520918130874634,
          -0.08784783631563187,
          -1.0016207695007324,
          -2.083643913269043,
          -1.3882335424423218,
          -1.229864478111267,
          0.004445750266313553,
          1.1923035383224487,
          1.9171186685562134,
          -1.0372265577316284,
          -1.6302884817123413,
          -1.486087441444397,
          -2.244243860244751,
          -1.512992262840271,
          -1.461708664894104,
          -0.8155933618545532,
          -0.04207409918308258,
          -0.566264808177948,
          -0.16303688287734985,
          0.03302016481757164,
          -0.0948106124997139,
          0.13128559291362762,
          0.2026614546775818,
          0.5942414402961731,
          0.9108649492263794,
          1.0430690050125122,
          1.094753623008728,
          0.9388142824172974,
          0.30718669295310974,
          0.1564483642578125,
          -0.5366587042808533,
          -1.701509714126587,
          -1.4958362579345703,
          -1.309162974357605,
          0.0749308317899704,
          1.0483930110931396,
          1.0583219528198242,
          -1.2590153217315674,
          -1.9605026245117188,
          -1.8287442922592163,
          -2.049351215362549,
          -1.481144905090332,
          -1.5309549570083618,
          -0.6414555311203003,
          -0.34355026483535767,
          -0.962550163269043,
          -0.42127344012260437,
          -0.06504154950380325,
          -0.28262656927108765,
          -0.08200360834598541,
          -0.07212074100971222,
          0.09973487257957458,
          0.7049254775047302,
          1.09059476852417,
          1.24807608127594,
          1.3098393678665161,
          0.6517623662948608,
          0.30182743072509766,
          0.018858110532164574,
          -1.3033981323242188,
          -1.4109588861465454,
          -0.8969644904136658,
          0.5850684642791748,
          0.2577376663684845,
          -0.5289310216903687,
          -1.766492247581482,
          -2.1286399364471436,
          -2.128479480743408,
          -2.433185577392578,
          -1.226300597190857,
          -1.4137710332870483,
          -0.5833573341369629,
          -0.6173779964447021,
          -1.2994716167449951,
          -0.7036901116371155,
          -0.17498822510242462,
          -0.4768505394458771,
          -0.3828155994415283,
          -0.4778122007846832,
          -0.5553218722343445,
          0.767750084400177,
          1.3190748691558838,
          1.687525987625122,
          1.0823664665222168,
          0.2881847321987152,
          -0.028727935627102852,
          0.2238018959760666,
          -0.7856242656707764,
          -0.7237421870231628,
          0.03988339379429817,
          0.7564591765403748,
          -0.36979272961616516,
          -1.7299909591674805,
          -2.0768239498138428,
          -2.2761337757110596,
          -2.259531259536743,
          -2.528790235519409,
          -1.6037667989730835,
          -1.2588716745376587,
          -0.40747401118278503,
          -0.7555515170097351,
          -1.690343976020813,
          -1.320252537727356,
          -0.5166323781013489,
          -0.5085136294364929,
          -0.7166730761528015,
          -0.5586209297180176,
          -0.6050877571105957,
          0.9076740741729736,
          1.418979287147522,
          1.857288122177124,
          0.9749400615692139,
          -0.5436722040176392,
          -0.83733069896698,
          0.11211495101451874,
          -0.30883777141571045,
          -0.21834762394428253,
          0.3517643213272095,
          1.234979510307312,
          -0.27927327156066895,
          -2.217012405395508,
          -2.249551773071289,
          -2.194793462753296,
          -2.6735222339630127,
          -3.0562126636505127,
          -1.8658781051635742,
          -1.4879395961761475,
          -0.13409177958965302,
          -0.7017016410827637,
          -1.6189671754837036,
          -1.6359285116195679,
          -0.7569023966789246,
          -0.5817141532897949,
          -0.17118245363235474,
          0.1256481409072876,
          0.4400772154331207,
          1.2617156505584717,
          1.2056769132614136,
          1.362915277481079,
          0.6269965171813965,
          -0.5241274833679199,
          -0.8283219933509827,
          0.282897025346756,
          -0.08705703169107437,
          -0.3859241306781769,
          0.10319036990404129,
          1.2875065803527832,
          0.27574583888053894,
          -2.675976037979126,
          -2.6042821407318115,
          -2.3749728202819824,
          -2.5963809490203857,
          -2.842656373977661,
          -1.7881964445114136,
          -1.744930624961853,
          -0.2909013032913208,
          -0.8641953468322754,
          -1.6169123649597168,
          -1.6026283502578735,
          -0.4838414192199707,
          0.17777249217033386,
          0.6997065544128418,
          0.4558824896812439,
          0.4349367022514343,
          1.2512202262878418,
          1.1975139379501343,
          0.9646487832069397,
          0.45958957076072693,
          -0.3168088495731354,
          -0.27239376306533813,
          0.8850798606872559,
          0.3334166705608368,
          -0.21700596809387207,
          0.2600093185901642,
          1.0942223072052002,
          0.8022180795669556,
          -2.834850311279297,
          -2.6697194576263428,
          -2.6606767177581787,
          -2.476309061050415,
          -2.8775460720062256,
          -1.782217264175415,
          -1.8242665529251099,
          -0.5729045271873474,
          -0.8218463063240051,
          -1.4392845630645752,
          -1.3619273900985718,
          0.08901622891426086,
          0.43001502752304077,
          0.9366148114204407,
          0.5842939615249634,
          0.5795474648475647,
          1.3114341497421265,
          1.2779947519302368,
          1.1742924451828003,
          0.5391086339950562,
          0.27539771795272827,
          0.6807557940483093,
          1.9258307218551636,
          1.3012545108795166,
          0.2287246435880661,
          0.33243685960769653,
          0.8438361287117004,
          1.0333889722824097,
          -1.4700270891189575,
          -3.0925121307373047,
          -2.170642852783203,
          -1.5714365243911743,
          -1.8425908088684082,
          -1.6034661531448364,
          -2.218583822250366,
          -0.6564150452613831,
          -0.45712810754776,
          -0.8980029821395874,
          -0.9936160445213318,
          0.3414381444454193,
          0.9045233726501465,
          1.035685420036316,
          0.8004507422447205,
          0.541169285774231,
          1.4490892887115479,
          1.3137928247451782,
          1.065872073173523,
          0.41422224044799805,
          0.14945055544376373,
          1.07295560836792,
          2.282957077026367,
          1.5946787595748901,
          0.39712491631507874,
          0.7198216319084167,
          1.0808017253875732,
          1.4216618537902832,
          -0.007616264279931784,
          -2.090251922607422,
          -0.45366278290748596,
          0.4857936501502991,
          -0.4210280776023865,
          -1.0911788940429688,
          -2.1308939456939697,
          -0.3747634291648865,
          -0.3916698098182678,
          -1.0179941654205322,
          -1.0887945890426636,
          0.4586860239505768,
          1.1686002016067505,
          1.2642666101455688,
          0.8848199844360352,
          0.3266320526599884,
          1.464980125427246,
          1.376807689666748,
          1.0016542673110962,
          0.30960559844970703,
          0.026704197749495506,
          0.8068327903747559,
          2.018571376800537,
          1.4454617500305176,
          0.5360696911811829,
          0.9419375658035278,
          1.3872675895690918,
          1.7601674795150757,
          0.7595369815826416,
          -0.10965250432491302,
          0.8806068301200867,
          1.0306370258331299,
          0.43920132517814636,
          -0.7755953073501587,
          -1.969675898551941,
          -0.468671590089798,
          -0.9276852011680603,
          -1.084119439125061,
          -0.8841580152511597,
          0.5562806129455566,
          1.029793381690979,
          1.2255734205245972,
          0.780128538608551,
          0.08902151882648468,
          1.4834799766540527,
          1.2528427839279175,
          0.9539284706115723,
          0.11157099902629852,
          -0.3312491178512573,
          0.4564901292324066,
          1.5011518001556396,
          1.2743414640426636,
          0.3672840893268585,
          0.804613471031189,
          0.9941474795341492,
          1.248132348060608,
          0.6823515892028809,
          1.5830408334732056,
          1.183862328529358,
          1.0065633058547974,
          0.39169085025787354,
          -1.2584861516952515,
          -1.7734733819961548,
          -0.7999474406242371,
          -1.1993788480758667,
          -0.9610369205474854,
          -0.9437426328659058,
          0.4972149729728699,
          0.7325305342674255,
          0.9901259541511536,
          0.4148234724998474,
          -0.1452590376138687,
          1.1740407943725586,
          1.1337921619415283,
          0.7327114343643188,
          0.07517993450164795,
          -0.4745495319366455,
          0.40513062477111816,
          1.3166906833648682,
          1.1469241380691528,
          0.16053275763988495,
          0.05379613861441612,
          0.16998949646949768,
          0.5382809042930603,
          0.7127920389175415,
          1.2559409141540527,
          1.3856596946716309,
          1.7104287147521973,
          0.6164986491203308,
          -1.1368986368179321,
          -1.1262513399124146,
          -0.5611386895179749,
          -0.9553434252738953,
          -0.9402202367782593,
          -0.9519850015640259,
          0.4689716398715973,
          0.8761425018310547,
          1.0585793256759644,
          0.0775737464427948,
          -0.7520894408226013,
          0.6552387475967407,
          0.9356033802032471,
          0.6032158732414246,
          0.00250614108517766,
          -0.6560364961624146,
          0.36404404044151306,
          0.8962522745132446,
          0.7665355801582336,
          -0.5462459921836853,
          -1.0276967287063599,
          -0.819136381149292,
          -0.11685533821582794,
          0.3497297763824463,
          0.5458377599716187,
          1.3238308429718018,
          1.7125623226165771,
          0.5222235918045044,
          -0.9325968623161316,
          -0.7025851011276245,
          -0.3546079099178314,
          -0.5742392539978027,
          -0.6771842837333679,
          -0.7000771164894104,
          0.5323182940483093,
          0.8443851470947266,
          0.849660336971283,
          -0.3299276828765869,
          -1.2720410823822021,
          0.2750774323940277,
          0.8855429887771606,
          0.4198230504989624,
          0.24972142279148102,
          -0.44968312978744507,
          0.37969768047332764,
          0.9298368096351624,
          0.8519976735115051,
          -0.40877050161361694,
          -1.0634894371032715,
          -0.9030262231826782,
          0.12889136373996735,
          1.1037973165512085,
          0.47959938645362854,
          0.696221113204956,
          0.8462256193161011,
          -0.11899083852767944,
          -1.2750293016433716,
          -1.0479661226272583,
          -0.48786380887031555,
          -0.7758623361587524,
          -1.0285804271697998,
          -0.6337636113166809,
          0.3211055397987366,
          0.644176721572876,
          0.8085479736328125,
          -0.5257768034934998,
          -1.3188564777374268,
          0.20055606961250305,
          1.0397013425827026,
          0.7703936696052551,
          0.5870263576507568,
          -0.009838943369686604,
          0.3698349893093109,
          0.8510305285453796,
          1.0609149932861328,
          -0.05332309007644653,
          -0.9928513169288635,
          -0.8611778020858765,
          0.48346182703971863,
          2.248812198638916,
          1.1008236408233643,
          1.0638192892074585,
          0.6978863477706909,
          -0.08009262382984161,
          -1.3607544898986816,
          -0.5750598311424255,
          -0.5969820022583008,
          -1.1371381282806396,
          -1.331215739250183,
          -0.7933342456817627,
          0.39702028036117554,
          0.8861545324325562,
          0.7512223720550537,
          -0.6083160042762756,
          -1.3664504289627075,
          0.34576544165611267,
          1.2545149326324463,
          1.1647547483444214,
          0.9832240343093872,
          -0.003613921580836177,
          -0.03800911828875542,
          0.40726447105407715,
          1.04800283908844,
          -0.1207704097032547,
          -0.9360988140106201,
          -0.6884700655937195,
          0.6478036642074585,
          1.887123465538025,
          0.41662389039993286,
          0.5697621703147888,
          0.5876379609107971,
          -0.15777111053466797,
          -1.4300484657287598,
          -0.6423946619033813,
          -1.0127525329589844,
          -1.7671053409576416,
          -1.4397050142288208,
          -0.5891212224960327,
          0.33254843950271606,
          0.7922216653823853,
          0.6082409620285034,
          -0.8828068971633911,
          -1.5225692987442017,
          0.007608603220432997,
          1.173485517501831,
          1.0664595365524292,
          0.5431629419326782,
          -0.4471163749694824,
          -0.7010543942451477,
          -0.1769675463438034,
          0.6335680484771729,
          -0.17299774289131165,
          -0.9491197466850281,
          -0.4111155569553375,
          0.7014015913009644,
          1.5614374876022339,
          0.2189197540283203,
          0.6669456958770752,
          0.20110592246055603,
          -0.5233807563781738,
          -1.4960672855377197,
          -0.577549397945404,
          -0.9874234795570374,
          -1.7352219820022583,
          -1.425676941871643,
          -0.33872801065444946,
          0.4696823060512543,
          0.9600080847740173,
          0.6163128614425659,
          -0.7976027727127075,
          -1.4434473514556885,
          -0.06261501461267471,
          1.045567274093628,
          0.7986039519309998,
          0.21816208958625793,
          -0.8095949292182922,
          -1.242201566696167,
          -0.21896488964557648,
          0.5884016156196594,
          -0.28919169306755066,
          -0.9802111983299255,
          -0.6916677355766296,
          0.42668625712394714,
          1.1662261486053467,
          0.010176088660955429,
          0.04530278593301773,
          -0.11205733567476273,
          -0.8871254324913025,
          -1.3112884759902954,
          -0.7467780113220215,
          -0.8760757446289062,
          -1.7508682012557983,
          -1.4104640483856201,
          -0.2159203737974167,
          0.25689300894737244,
          0.7443285584449768,
          0.5133181810379028,
          -0.8223276138305664,
          -1.3881983757019043,
          -0.32414063811302185,
          0.8050240278244019,
          0.28524351119995117,
          -0.06215915456414223,
          -0.8773787617683411,
          -1.6239912509918213,
          -0.5381121635437012,
          0.04564912989735603,
          -0.5644380450248718,
          -1.3107149600982666,
          -1.2819831371307373,
          -0.0845784991979599,
          0.7062533497810364,
          0.2668916583061218,
          -0.15115396678447723,
          -0.6626366376876831,
          -0.9568229913711548,
          -1.1130104064941406,
          -0.5324303507804871,
          -0.8186748027801514,
          -1.3053306341171265,
          -1.3691015243530273,
          -0.26801615953445435,
          0.20238500833511353,
          0.4548299312591553,
          0.3616798222064972,
          -1.0150221586227417,
          -1.5917843580245972,
          -0.39003250002861023,
          0.47673383355140686,
          0.00536519568413496,
          -0.31831982731819153,
          -0.884469211101532,
          -1.5452150106430054,
          -0.6307668685913086,
          -0.20018886029720306,
          -0.5893263816833496,
          -1.0057975053787231,
          -1.2406020164489746,
          0.07910504937171936,
          0.7016258835792542,
          -1.0722109079360962,
          -0.6364007592201233,
          -1.1008009910583496,
          -1.1842210292816162,
          -1.5182901620864868,
          -0.38122978806495667,
          -0.6261745691299438,
          -1.0947786569595337,
          -0.7808182239532471,
          -0.5102156400680542,
          -0.3484291434288025,
          0.3018038868904114,
          -0.1551147848367691,
          -1.5282762050628662,
          -1.8907848596572876,
          -0.7577821016311646,
          -0.01399831473827362,
          -0.05257357284426689,
          -0.6988669037818909,
          -1.3605797290802002,
          -0.8550301194190979,
          -0.4508328139781952,
          -0.25967949628829956,
          -0.6249961853027344,
          -1.6152265071868896,
          -1.6442890167236328,
          -0.26056668162345886,
          0.5555571913719177,
          -0.7832215428352356,
          -0.9731616377830505,
          -1.7460986375808716,
          -1.6969540119171143,
          -1.550740361213684,
          0.3496062457561493,
          -0.165196493268013,
          -0.5946394801139832,
          0.36735257506370544,
          -0.04262562841176987,
          -0.9411471486091614,
          -0.5324645638465881,
          -0.7831071615219116,
          -1.9405767917633057,
          -2.307997941970825,
          -1.1989763975143433,
          -0.6172632575035095,
          -0.9295508861541748,
          -1.030002236366272,
          -0.5965489745140076,
          0.024360088631510735,
          0.10618214309215546,
          0.602293074131012,
          -0.02795649878680706,
          -1.79209566116333,
          -1.5271519422531128,
          -0.39412108063697815,
          0.36664947867393494,
          -0.41021326184272766,
          -0.08336131274700165,
          -0.06646502017974854,
          -0.26250705122947693,
          -0.2674729824066162,
          1.1872950792312622,
          1.0550731420516968,
          0.39005446434020996,
          0.48134833574295044,
          1.7044785022735596,
          1.4194988012313843,
          0.47053495049476624,
          -0.83684903383255,
          -3.0846660137176514,
          -3.528231143951416,
          -1.8748831748962402,
          -0.3024980425834656,
          0.8531481623649597,
          1.4139293432235718,
          1.1643645763397217,
          0.6822431683540344,
          1.7905408143997192,
          1.3709990978240967,
          1.0109539031982422,
          -0.1728641390800476,
          -0.3508606255054474,
          0.1402527391910553,
          0.21292650699615479
        ],
        [
          -0.02558792568743229,
          0.6471449136734009,
          0.8334757685661316,
          -0.017312414944171906,
          -1.249946117401123,
          -2.107795000076294,
          -3.0963616371154785,
          -2.4350154399871826,
          -0.42480456829071045,
          0.9040135145187378,
          1.3044283390045166,
          -0.9714882373809814,
          -2.1953630447387695,
          -2.5707733631134033,
          -2.556997537612915,
          -2.465775966644287,
          -1.6148457527160645,
          0.9697678089141846,
          1.4393367767333984,
          0.7071520686149597,
          -0.6261250972747803,
          -1.7514790296554565,
          -1.1533679962158203,
          -0.6047437191009521,
          0.24412842094898224,
          0.07161065936088562,
          -0.15937937796115875,
          0.5903534889221191,
          0.09291615337133408,
          0.18084101378917694,
          0.42354995012283325,
          -0.345915287733078,
          -1.4053566455841064,
          -2.0238630771636963,
          -1.4718908071517944,
          0.8179645538330078,
          1.5147730112075806,
          1.115387201309204,
          -0.569642961025238,
          -1.2976654767990112,
          -0.9044657349586487,
          -1.068019151687622,
          -1.3290427923202515,
          -0.8651992678642273,
          -0.9072577357292175,
          -0.7164633274078369,
          0.977171778678894,
          1.9367200136184692,
          1.7712857723236084,
          0.5271134376525879,
          -0.4243582487106323,
          -0.5252238512039185,
          -0.04933746159076691,
          -0.16551993787288666,
          -0.46675312519073486,
          0.45228686928749084,
          -0.3094792664051056,
          -0.22397874295711517,
          -0.32733359932899475,
          -0.2287721335887909,
          -0.6912604570388794,
          0.41654908657073975,
          2.1258437633514404,
          2.2434370517730713,
          0.7628746628761292,
          -0.28759655356407166,
          -0.6414116621017456,
          -0.6260614991188049,
          -0.7707478404045105,
          -0.9589857459068298,
          -1.109449863433838,
          -0.8981249332427979,
          -0.7267339825630188,
          -0.363193154335022,
          -0.3290470540523529,
          0.5255268216133118,
          2.0082285404205322,
          2.3677313327789307,
          2.00007700920105,
          0.7295354604721069,
          0.7218376994132996,
          -0.14920859038829803,
