{
  "input_shape": [
    28,
    28
  ],
  "preprocess": {
    "scale": 255.0
  },
  "layers": [
    {
      "type": "dense",
      "units": 128,
      "activation": "relu",
      "W": [
        [
          -0.003101696395945642,
          0.01678721377009356,
          0.0005530752223673581,
          0.013028049348692589,
          -0.010682884312089382,
          0.001581800666817197,
          0.019554889331239757,
          -0.008926922515667565,
          0.00019906314331383682,
          -0.006164568766835772,
          -0.009835048420058352,
          0.000244483402072769,
          0.0004665190456073877,
          -0.0004749348024027721,
          -0.005736139330558321,
          0.008574826163693962,
          0.017771939153305837,
          -0.003087294393929475,
          0.003909321897325211,
          -0.0062625565413849515,
          0.006347534190519916,
          0.001036090593422532,
          -0.00617734959180732,
          -0.0030215706667376047,
          -0.007816125918356594,
          -0.009220066379416672,
          -0.004005689991313779,
          -0.012910823280354098,
          0.014462842360847208,
          -0.00468783105880845,
          -0.009307908190152248,
          0.0014302307971302206,
          -0.002321127569563943,
          -0.0011634048615885822,
          -0.0030807561997692723,
          0.006089357018531155,
          0.00039455491191333475,
          -0.007288550761237821,
          0.003709160638553159,
          0.007310942475775442,
          0.007022440231787097,
          -0.0075013400564702005,
          -0.005582747467514123,
          -0.0034532233450867873,
          -0.0027072378783151506,
          0.010614735303695498,
          0.00978979505857927,
          0.014137710972509564,
          -0.0013540794394174104,
          -0.005594821734827524,
          -0.006691137948797482,
          0.006281974183112434,
          -0.00838208360761359,
          0.0034951479958892223,
          0.007059585529793232,
          0.010213879352381248,
          0.0156982942675341,
          -0.007943544310047691,
          0.008150493244920322,
          -0.0057967426137076426,
          -0.005207831550303488,
          -0.010772469817277237,
          0.002981129942005979,
          0.010674273822545408,
          -0.003328169096020281,
          -0.00947935407638572,
          0.009677083006788836,
          -0.0058467843583273026,
          -0.012337804154240207,
          0.009231568652983033,
          -0.009392042889537077,
          -0.0017183490889252269,
          -0.022896745983740245,
          0.013679816632311182,
          -0.010592902590529845,
          0.004339137142212166,
          -0.0008714327144957281,
          0.015364658572375144,
          -0.02200842545546925,
          -0.0003832120533586558,
          -0.00033922878204259855,
          -0.007560949964381294,
          -0.002676099705338396,
          0.004799725597676948,
          0.0002337022540244244,
          0.002892626752317838,
          0.009243601883513416,
          -0.015021897135623734,
          0.007043359208382636,
          0.00580557702373735,
          4.698165857199586e-06,
          0.005554787835715192,
          -0.007772128706215437,
          -0.003686263152665705,
          0.014498331085990943,
          0.010184437844676946,
          -0.005470889535615007,
          0.007674652776509996,
          -0.004745420099468641,
          -0.0043072170919177125,
          5.423342049454383e-05,
          0.0024420162776949595,
          -0.014206302403578544,
          0.005045923419551785,
          -0.008960144428237065,
          -0.011008638628637385,
          0.006243582275385624,
          -0.016138198519547654,
          -0.012876691824994744,
          0.002745179916882378,
          -0.008006286862036487,
          0.00706040237170276,
          -0.005931338650784579,
          -0.009607348395868484,
          0.007525329363286046,
          0.008157126529965813,
          -0.00548768832119213,
          0.002020253981529469,
          0.00675972318828123,
          -0.0007210166835695191,
          0.021727946671786055,
          -0.005234033337323068,
          -0.008259984176410048,
          0.009836947661581628,
          -0.016776613683951804,
          0.005305396329807418,
          -0.008835126667387463,
          -0.01604179432872718,
          -0.003383590454128853,
          -0.007205839456456301,
          0.0018693071679498471,
          0.0015823877946524443,
          -0.007596778886628012,
          0.0036771641221669217,
          0.009073928823098215,
          0.0076287793871027436,
          -0.0025331071007214253,
          -0.0024799162342966376,
          0.0018252848652157245,
          -0.016828303926514673,
          0.0007563047234832338,
          -0.012419444767341484,
          0.008809786849300692,
          0.03633702635744081,
          0.007781356337846259,
          -0.00910315067594193,
          0.017586622959434847,
          0.003157895168338134,
          -0.006065816161944547,
          0.003971790996848624,
          -0.0023905876287963618,
          0.009553021855917493,
          0.010781996353849528,
          -0.0031504570331366555,
          0.0022443107327122,
          0.009628448840955005,
          0.011631588211910831,
          -0.014940145305813118,
          0.00938696100548509,
          0.0007065148930476079,
          0.002117508858028237,
          -0.0048663246780475625,
          0.0019207651149834993,
          0.006620760048524644,
          -0.002407557152546109,
          -0.02184270152619499,
          0.0038354632416545717,
          -0.0021645958451007087,
          0.011068829873970634,
          -0.00864210304735963,
          -0.021280314183846676,
          0.002038964838037503,
          -0.013605060241426077,
          0.0022063435693405746,
          0.017383729899948294,
          0.013216761192305675,
          -0.013097666348273331,
          0.0030348891702914422,
          0.0037841079972498327,
          -0.0038764649020867873,
          -0.002839546881814126,
          0.009135783894117662,
          -0.008766662692962265,
          -0.005453527882307275,
          -0.010666450201273216,
          0.013323888273126461,
          0.021439319493316438,
          0.005642135332859761,
          0.0027950627644292647,
          0.004081098182427114,
          0.005301703048413102,
          0.0020972450872018245,
          0.0015904054454895606,
          0.0041683479174197645,
          0.003096090857183108,
          0.008182563194333022,
          -0.01236212757275569,
          -0.0037496110779425868,
          -0.007294636305598579,
          -0.006331527923282323,
          0.011623698033179926,
          -0.020217710693943697,
          0.0015222771206442793,
          -0.008511831956654987,
          0.006822117310116841,
          -0.0233066548126256,
          0.021041475851072296,
          0.01313553825362771,
          0.0005206972700176802,
          0.008167534817008344,
          0.00534435090521872,
          -0.008629086806967716,
          -0.001247837148833412,
          -0.007217058894630106,
          0.003309184460948042,
          -0.01956359487823396,
          0.003232993708982883,
          0.017068331147074345,
          -0.006801867811682758,
          0.001012695201937085,
          0.0003841927721615603,
          0.004324804345648986,
          0.010428834650227632,
          -0.009394425928482905,
          -0.00801049131216278,
          0.004261476254132034,
          0.010687285416303998,
          -0.005567081404898422,
          -0.0011822911511410298,
          -0.019709655600994875,
          -0.004807779632735076,
          -0.010817009546045427,
          -0.015468746741472503,
          0.0019990072894135484,
          -0.004049663137230438,
          0.0041507014531125515,
          0.014030207235935805,
          0.005672334983497204,
          -0.005356567077255342,
          -0.003778368346358703,
          -0.017427843576408406,
          0.003996417343383023,
          0.008779021077203382,
          0.00046709620625096093,
          0.0005681833615062775,
          -0.009374224728223196,
          0.006612178913994856,
          -0.0033970667147138612,
          0.01824521473592309,
          0.007784110884921907,
          -0.00964089164235622,
          -0.0068546551777842095,
          0.005602278966147032,
          -0.021455878442292506,
          -0.009592511513499104,
          0.0044084203539724335,
          0.004221163539927454,
          0.004269306579560506,
          0.002495363039554176,
          0.007503520014705837,
          -0.011189915552740749,
          0.004129870949149843,
          0.00724885499660023,
          0.005778479845034223,
          0.007645640408442167,
          0.007780981152397131,
          0.010527475160182377,
          -0.006435504936396333,
          0.015718876085365038,
          -0.007058561894334733,
          -0.01958725181947309,
          -0.0067518721822387145,
          0.01810769990784416,
          -0.0009160469403529567,
          -0.0026001410109012884,
          -0.008869548018911084,
          0.0009094037233744453,
          -0.0020851759653391262,
          0.010274251605536825,
          0.008540576256946134,
          -0.0015616500866620416,
          0.0038474733522798526,
          -0.011146080293750135,
          -0.024431358114677754,
          -0.0030361705530222295,
          -0.014889062356021507,
          -0.008731883422354243,
          -0.003382107397265712,
          -0.006756818276737254,
          -0.013104618267718603,
          -0.0025630570549379727,
          0.035456253354683234,
          -0.007482570921908756,
          -0.011853312649626215,
          0.010652498127273825,
          -0.01270520721861031,
          -0.021489715221681034,
          -0.007944382204501972,
          0.008427955695776947,
          0.0025799131756179456,
          -0.007817541338854837,
          0.001526621033702156,
          -0.0032522321657070486,
          0.010736940541165186,
          -0.006598690000358543,
          -0.00015923836478418457,
          -0.0006305753039909607,
          -0.019999547997223272,
          -0.007659771226569706,
          0.008460411033748973,
          -0.0052008056477653485,
          -0.00797229165770845,
          0.009138935928138506,
          -0.008667054162246026,
          0.014152620488311868,
          0.008783747386638565,
          0.002655217226531739,
          0.00167270114516108,
          -0.0033917257284590296,
          -0.00622929319513073,
          0.01293551193756413,
          0.027893625949514222,
          -0.015453276888818365,
          -0.011102672763647452,
          -0.006821911663715678,
          0.007966502399940137,
          0.005101935259459174,
          1.798729701513111e-05,
          0.002906872263024547,
          0.006015784681015996,
          0.003898593133180125,
          -0.016424240830232462,
          0.01251691320680792,
          -0.004719884732795257,
          -0.021555247246621775,
          -0.0023320302591884716,
          0.0025933403411048566,
          -0.0063196791474482965,
          0.016352379236532,
          -0.01593269389568972,
          -0.012434342952877786,
          -0.0025078878852926863,
          -0.007028040697155007,
          0.008455701176905178,
          -0.0069001824181954274,
          -0.020487047513059856,
          0.003002428212248888,
          0.015726891714451928,
          -0.008218834957124046,
          -0.0030763666212214316,
          0.0050341875893691055,
          0.0015873511487005474,
          0.020563791134225958,
          0.01162731875397978,
          -0.014707827924087775,
          -0.004567920787725679,
          0.0017159891806780778,
          -0.0012979075993738492,
          -0.01158746920503974,
          0.008077855247303261,
          0.012609012588698907,
          0.0024480555585417326,
          -0.010766811429228956,
          0.015174120462453014,
          -0.0005914426211844055,
          0.003448166366701198,
          -0.0029136137122211,
          0.0011624771939298924,
          -0.005460420573998746,
          -0.015017366262896308,
          -0.003887480791677504,
          -0.003623262902741098,
          -0.003980750046689083,
          -0.0011696694135158868,
          0.008388387082769722,
          -0.00440912227229277,
          0.0028685145590636174,
          0.011606810033742225,
          -0.014826792787952165,
          -0.005166207935050068,
          -0.006541515603529336,
          0.009561817427946574,
          -0.007208777534846976,
          0.0075916270673176646,
          -0.00462002367455101,
          0.006017528034794218,
          0.015991944781071774,
          0.012889838769693681,
          -0.007795064676675559,
          -0.007924374672172926,
          -0.0020272119821055905,
          0.014242238620789558,
          -0.011850033837058134,
          -0.01391811438429483,
          0.007720908236308426,
          0.003939223861969591,
          -0.00048706208495605973,
          -0.014262440872868034,
          0.007876865735812451,
          0.001833250501503718,
          -0.003245868368571827,
          -0.007970421480451,
          0.011238284030236852,
          0.0004110389935049607,
          0.0036302410677456144,
          0.005329893366915009,
          0.010477643158042584,
          0.012434414190113735,
          0.004470926822078285,
          0.010033784676829045,
          0.0017668945823611246,
          -0.006141589318328053,
          -0.007253611581203729,
          0.0032185090450922373,
          -0.008162796593387703,
          -0.013034865191401315,
          -0.005721458110754046,
          0.020099377515810393,
          0.007949838890598646,
          -0.00459089633037088,
          0.0022429228038537453,
          0.005485369980146318,
          -0.029342016505778667,
          -0.003796098172751424,
          0.004874637789943953,
          0.008876064662992181,
          0.005878523394017985,
          -0.0023632534692183895,
          -0.009160920037406813,
          -0.0027721455825785468,
          0.003572294380280532,
          0.010281567565158025,
          -0.0018083678254559637,
          -0.012402011586672397,
          0.01209602864411919,
          -0.016775310000104068,
          0.013237205004410184,
          0.0007499319247578697,
          -0.009717161493026242,
          0.0010767538524944222,
          -0.0013344609157365892,
          0.004775710455057171,
          -0.0004039082833404517,
          -0.0003021222133481819,
          -0.008406395484364343,
          -0.007920521980000626,
          -0.00316632101721109,
          0.0151177186646129,
          0.00012662347389722802,
          -0.003122009704553638,
          0.00992634590716987,
          0.003131733631657245,
          0.005057396364229001,
          0.0005195949537972853,
          0.004159517898214585,
          -0.006228467107542221,
          0.0029312247478796463,
          0.008413008162390816,
          -0.0008040644938895148,
          -0.005816994453934006,
          0.004384206571464754,
          -0.005870106000814228,
          -0.006250099449353001,
          -0.008013571969991057,
          -0.008592555447271524,
          0.005193863509868077,
          -0.01537810433847165,
          -0.010930805276775108,
          0.0051339196895642605,
          -0.006913020315190821,
          -0.014785114306466467,
          -0.008018407350754951,
          -0.01084427970583139,
          -0.000994745384499242,
          0.003001323272687981,
          -0.0019568341101638136,
          0.015756985360835328,
          0.0023511296780926666,
          -6.779292295982592e-05,
          0.01593670617584697,
          0.0038784339326060615,
          0.002963506791865637,
          0.009155890560393516,
          -0.011797031474414412,
          0.013258129624918848,
          0.017921673856719774,
          -0.00030769203065686857,
          0.0070367644200917566,
          -0.0023070498488929,
          0.01114730171353901,
          0.0020783975380027266,
          -0.006801649652179482,
          -0.004655528197878393,
          0.011486058002171718,
          -0.006925910787807658,
          0.003211941567936148,
          -0.014624334235092852,
          0.018536000082538168,
          0.01395909929311847,
          -0.009509909135865057,
          0.008953034022493733,
          0.005604767189796855,
          0.002590978833946112,
          -0.014450988993295655,
          0.006356374792256837,
          -0.011170444806505706,
          -0.0032205361779925456,
          0.014884581983639717,
          -0.006723640354090223,
          0.004293002281557933,
          -0.001983451461627501,
          0.0016954853055802153,
          0.006358349433017983,
          -0.007431170969609471,
          -0.0003347288784693299,
          0.003275374631371056,
          -0.004205917438560259,
          0.0035052887435133807,
          -0.00376342033224081,
          0.0019048113668515274,
          0.008644415252931872,
          0.004644960627426165,
          -0.01273842965216933,
          -0.0019282132600715964,
          -0.001395944691272908,
          0.0026403811485117483,
          -0.0077314377916704626,
          -0.0035555678203007092,
          0.0019186096706528609,
          0.012202480360294504,
          -0.0034820555904970223,
          0.005354816042389589,
          -0.005967285887047262,
          0.0031835157263685227,
          -0.016827073572372703,
          -0.0031088454091765115,
          0.0004636648943395753,
          -0.0054422671389654335,
          0.010385656490744407,
          -0.008147452032390139,
          -0.003956224075108064,
          -0.01366432651287236,
          -0.009228414755054887,
          -0.008709653843408589,
          -0.007408501205549481,
          -0.011665975134053912,
          -0.005611440927743686,
          -0.019689863746519938,
          -0.010867560905022092,
          -0.014035469212736419,
          -0.009987768941679766,
          0.014259854582081911,
          0.0039955271821809305,
          0.0060211583116465284,
          0.013626625928065688,
          0.0025703063068365016,
          -0.0012460711539254857,
          0.01131015860170833,
          -0.0004608690305870013,
          -0.005473746420257909,
          -0.019614747990431978,
          -0.011645498488643548,
          -0.006978994866177071,
          -0.009955081230379427,
          0.019087109092328938,
          -0.0025408520415684667,
          -0.010829317298006427,
          0.010931486681177478,
          0.002214968429031506,
          -0.0037268670388663806,
          -0.004286342572971736,
          -0.008899118443395249,
          -0.013670250967028324,
          -0.008244875876987814,
          -0.007110244502125748,
          0.005420990712556706,
          -0.008915063507371646,
          -0.0014585799130363104,
          -0.006967059893136069,
          0.005389306894245944,
          0.005704890563156813,
          0.0027186011294783046,
          0.012624338723015199,
          -0.018142231062466627,
          -0.0106152135616052,
          0.0006480983681687705,
          -0.00047360286913787554,
          -0.01286142875966735,
          -0.005869141462068472,
          -0.005734974496967407,
          -0.008177965317533628,
          -0.014877745978307122,
          0.010511060944984957,
          -0.011537462706639664,
          -0.0043721298970092574,
          0.021562210141549083,
          0.0008891654035101055,
          -0.004118689956859424,
          0.0036052038436969296,
          -0.003471594105897489,
          -0.020252283389009588,
          0.012021204880059918,
          0.004908410109952416,
          0.005274848270825626,
          -0.004788050930407157,
          0.008225077926994635,
          -0.005701124244612833,
          -0.004004080731973287,
          0.006487563640054196,
          0.0021999765513010206,
          -0.006525656155784175,
          -0.008312242228093476,
          -0.008686109855303395,
          0.0024971526000495065,
          0.0004127242108768744,
          -0.007033247714321328,
          -0.013451810121333108,
          0.00018090390778204834,
          -0.013348353197674077,
          -0.005540706131162096,
          -0.007683349964021234,
          -0.0011691981201465318,
          -0.018178665479872177,
          -0.008437690407093013,
          -0.00751752854451328,
          0.00578614255353263,
          -0.015555499558185438,
          0.021816575910602265,
          -0.006301281507680021,
          -0.004048132833591034,
          0.01324501406681905,
          0.0020806719080985036,
          0.0014203895279745636,
          -0.00544600877131629,
          0.009517693177306653,
          0.02424091982495344,
          -0.013128315169700162,
          0.004946224671061349,
          -0.01686819375070704,
          0.02943353045974031,
          -0.0001796193051391476,
          -0.005845031431137662,
          -0.0056078275517246765,
          -0.001824863185574926,
          0.001171943432162696,
          -0.008215048831912807,
          0.001241847711678613,
          0.004369810714666955,
          0.01716176365779933,
          -0.009929229209392642,
          -0.004806383056568151,
          0.002545232699688798,
          -0.019700336955867287,
          0.01712803017017945,
          0.006546480118315056,
          1.0613325449944998e-05,
          0.011757461570972056,
          0.009973850286408079,
          -0.0013989652745655943,
          0.010437980762619448,
          -0.000781157215236093,
          -0.006547133189506485,
          -0.001963453910668834,
          0.012956557505945765,
          -0.006161925373790466,
          0.001802317760149875,
          0.009453748861854088,
          0.0030807663091282135,
          0.003974923184862493,
          0.0015856715312275432,
          -0.007861996616586046,
          0.00562343705043533,
          -0.0077402855085357885,
          -0.00627081955175475,
          -0.0010615365962244256,
          -0.00655907965514039,
          -0.002574371433695129,
          0.014345562524835292,
          0.0023308690714052872,
          0.006557130931774708,
          0.004114911037338893,
          0.024803347331930573,
          -0.0003706897360042792,
          -0.012370576490219602,
          -0.01602361400279289,
          0.022202408989670987,
          0.011412108201768752,
          0.007058001075159151,
          0.021447197270990377,
          -0.017383184969178327,
          0.020688213462003086,
          0.0069443913480199465,
          0.007512644282374395,
          0.005234666348184213,
          0.0023708360902784317,
          0.0072350508588890985,
          -0.0008845111929696906,
          -0.00418228288685594,
          -0.010020061365720579,
          0.010171694161974325,
          0.01913425281813632,
          0.011624176921499578,
          0.007621534686778571,
          0.0020180285620608426,
          0.002691718195060717,
          0.01158117425332497,
          -0.003643714318435564,
          -0.004267113064214818,
          -0.009811576505721493,
          -0.0011872391269760428,
          0.001470014368186315,
          0.017168010303354544,
          0.00513095613807115,
          -0.009066234238041357,
          0.006127232815633427,
          -0.0024142091971938334,
          0.02177392844958193,
          -0.016459470996029048,
          -8.28471427744818e-05,
          0.007365018786784937,
          -0.0029955034289943622,
          0.0025476804083925425,
          0.0055790707096036165,
          0.0039016999534903962,
          -0.005114794495889523,
          0.001186892068648443,
          -0.015419160635359686,
          -0.007751105227998021,
          0.006464968055767215,
          -0.003417060506116658,
          0.005353024513192996,
          0.007759410766793674,
          -0.0021290403833206842,
          0.00497985901977238,
          -0.007671790495282065,
          -0.005418615134942415,
          0.005927085738171566,
          0.0043561072898342145,
          -0.0020044894383172292,
          -0.013323151651698013,
          0.01576593964420072,
          -0.010543344782876976,
          0.008908985531233269,
          0.01907499416197664,
          -0.005246886309783935,
          -0.0104564884251138,
          -0.0024770274271622146,
          -0.0033248665773706106,
          -0.00028990665395631,
          -0.007163750980620895,
          -0.0008103006647494135,
          -0.019671369276902998,
          0.01784371512085532,
          -0.0009249901591583283,
          0.004014938237117481,
          -0.008321366102938568,
          0.004625763239341355,
          -0.009664572763998213,
          0.0004685195031464652,
          0.005280496923672446,
          0.013135937017656339,
          -0.017926453374442736,
          -7.034204816326523e-05,
          0.004672760077307398,
          -0.026816443634057507,
          0.0005285158461771519,
          -0.005352189454949965,
          0.005642336109508312,
          0.017540375910134045,
          -0.0029953678441698925,
          -0.016159673855449485,
          0.014749492867339935,
          0.01974341990350222,
          0.002324252151239591,
          0.019281926386811518,
          -0.010157508777970716,
          0.0038058116511366807,
          -0.006194753919605011,
          -0.005049027665325804,
          0.008514082118009808,
          0.013835141146528932,
          0.005374892850673448,
          -0.016980540527531778,
          -0.0024111966195272615
        ],
        [
          -0.0019899686719807262,
          0.004871659905931496,
          0.0068169924139584795,
          0.009240920353576959,
          0.009077799025241516,
          0.002151862968077345,
          0.01656017772045811,
          -0.010811303166081206,
          -0.005399135091634365,
          0.016535113725268266,
          0.012341811384769488,
          0.009723577572860532,
          0.016059919335963985,
          0.016115574898216516,
          0.003623102407953575,
          0.0030518858117628473,
          -0.007814331961722031,
          -0.007331303050275639,
          -0.006009035275801499,
          0.009206756299073788,
          0.0015302351893128154,
          -0.00046127285701272255,
          0.009463285636512558,
          0.007246809384028368,
          0.009104884388265844,
          0.00034467782231908565,
          0.0031469138405497967,
          0.003094265956157665,
          -0.0014528939633162768,
          0.015459502558214143,
          -0.010951265534621732,
          -0.002125451547692315,
          0.0021411723627988506,
          0.0074719420985860955,
          -0.015260088961080814,
          -9.625048526301881e-05,
          0.006202521919225316,
          -0.025988461195413794,
          0.01484281381200655,
          0.0008312542761521017,
          0.0024196442670146863,
          -0.013979222843801242,
          -0.011552109490130252,
          0.010179327474684023,
          0.0008067343666438003,
          -0.007737668298038718,
          0.0009648128056307679,
          -0.0011770791668259957,
          0.00232755176855105,
          0.003936701007126448,
          0.01647466348770846,
          0.0045665948586017845,
          0.004905221983360081,
          0.0023049174189253806,
          0.011667564103987588,
          -0.0025222329461222458,
          -0.0004288615458684598,
          -0.013019159399544043,
          -0.0014631985404608366,
          -0.007352580454428271,
          -0.01758672528960208,
          -0.0016726328498194146,
          -0.011637556589570962,
          0.0076653775320697825,
          0.006489114617136924,
          0.006267793439391407,
          0.0035314574749922252,
          0.008292186527805593,
          0.0016287556837042002,
          0.006477043465044351,
          0.02152582135198528,
          0.002343565451461056,
          -0.011877961880215365,
          -0.0014860576633016246,
          -0.004585550961503651,
          0.005506231795868878,
          -0.008228330929296264,
          -0.0009159865699311856,
          0.001967247913066884,
          0.00525170215471531,
          0.021359018867963923,
          0.014376369598397377,
          0.015544327654252448,
          0.010372922930643883,
          0.01227106078227273,
          0.0013708789958283482,
          0.008222957912296313,
          -0.01474844735520597,
          0.006317644621976339,
          -0.003936834743639061,
          0.0276849427671534,
          -0.0065760779380961655,
          -0.0023327875489050705,
          -0.000247877142662113,
          -0.0003090014953593632,
          -0.008670390426940199,
          -0.005305586710193344,
          -0.00157073486812498,
          -0.01290609819684865,
          0.0059809258453889114,
          0.0056960649771807485,
          -0.0012403913076188212,
          -0.00411183441322525,
          -0.006614260017192024,
          -0.004191434195999745,
          -0.013031897636409558,
          0.019556912423558413,
          0.008301155790728052,
          -0.005435191054391192,
          0.008489539802630877,
          -0.0006302079586507259,
          0.010348564491014097,
          0.023269741754662863,
          0.02165690401153235,
          -0.005437663893273996,
          0.018635965090798,
          0.0041868682538583,
          -0.015822535222707504,
          0.017717635663128985,
          0.00013568235563979884,
          -0.014547412720013466,
          -0.0025500614856845826,
          0.0032132048586837408,
          -0.007525588893676508,
          -0.013857561785852247,
          0.008493646674582042,
          0.011294382437488716,
          -0.002737603177776009,
          -0.008126300918749097,
          0.02291818801867062,
          -0.0023784725833204436,
          -0.01615255912181245,
          -0.015881756612502403,
          0.006298591016778563,
          -0.012662316548075576,
          0.004202011987456655,
          0.009406521982156925,
          -0.004559655938407469,
          0.0013424116994961008,
          0.0010165179291988494,
          0.005175460344012344,
          0.009347729671395653,
          0.01223506151526393,
          -0.003047259521689803,
          -0.011759856250990797,
          0.0011076708257268953,
          -0.009242180620005687,
          0.0009631046381727901,
          -0.00458659875532132,
          -0.0006898497992415441,
          0.004865539140541597,
          -0.0070258551861155216,
          0.009469821923557468,
          -0.012271950983668619,
          -0.004846621658312576,
          -0.0070248023988635205,
          -0.005797289697734186,
          0.004547668667740381,
          0.017744912921590122,
          -0.010931973741143254,
          0.006871570165611165,
          -0.0015480202564515902,
          0.007976193701576505,
          0.00198673597886122,
          0.012024751749157165,
          -0.005408704170860398,
          -0.01775781034219993,
          -0.006490033220513941,
          -0.013654659439432653,
          -0.0008140676350557307,
          -0.015255998337764401,
          0.0028068783636179613,
          0.0055755936798968,
          -0.0011256912428899944,
          -0.005777026981640805,
          -0.00440628650276493,
          -0.011242145927660372,
          -0.000530004809212728,
          -0.025807456929253143,
          0.010137391821056533,
          -0.009105524388073355,
          -0.008613801056297318,
          0.012296038036607192,
          -0.004809750156477683,
          -0.0034973763596011023,
          0.006871132514962577,
          0.0026603401487159724,
          0.006444616081233577,
          0.007343034024104303,
          -0.007667431901748618,
          -0.004512079360104181,
          -0.012581926302949143,
          -0.0076103006643478055,
          -0.013579602383010017,
          -0.0005210141140318379,
          0.0022562007751694506,
          0.0020647493654126652,
          0.0037403051983527537,
          0.009396598352572203,
          -0.011869167190147963,
          -0.005603234584944046,
          0.01097843905864265,
          -0.002855138501641129,
          0.008278390757158171,
          0.011862581096903422,
          -0.010851292178251594,
          -0.0018551016585515163,
          0.007126633835867146,
          -0.005233937459137544,
          0.01118055871460181,
          -0.004080529531844233,
          0.011231720778417262,
          -0.003516321580198666,
          -0.006584386526814985,
          0.001702233196657652,
          -0.012269061271490059,
          0.008418325016115908,
          0.0006498276575039508,
          0.014166532573187847,
          0.0006371253828958414,
          -0.001415117142987625,
          -2.7796028849335623e-05,
          0.0004715163805320339,
          0.00785460330105521,
          -0.0030665177212853756,
          0.011170127165570766,
          0.007668377623859035,
          0.0038463727363309487,
          0.0047848997140529795,
          0.007256981829274262,
          -0.006728190943637561,
          -0.007713168696925767,
          0.006693590879202128,
          0.004975059452527726,
          -0.0024726826549661247,
          0.0043111835960102825,
          -0.002340446573554003,
          -0.007134353089931275,
          0.0027728142366657367,
          0.020550474605189353,
          -0.011548040266953453,
          -0.0013909544093058974,
          -0.01333073440364986,
          -0.00842133413071746,
          0.008704419927265714,
          0.00048478194566057143,
          -0.001401172673701513,
          -0.007784810861184883,
          0.0013450825574185974,
          -0.012488700032680823,
          -0.0016480570889289574,
          0.017311946725139252,
          -0.015006476285275188,
          0.0033354174674361517,
          -0.0028629654861486377,
          0.012556408199508927,
          -0.014378988751449204,
          -0.016789860531433675,
          0.0007905443777319888,
          -0.007779890885184194,
          -0.016061690574697026,
          -0.0024307447291632,
          0.0046717113440506155,
          0.0010559816414713078,
          -0.008830770147654326,
          -0.003144596818165757,
          0.0024959131107107715,
          0.0018548754326855026,
          0.008691017192598877,
          -0.003923197298083297,
          -0.0032793569423985973,
          -0.015455366695412049,
          -0.013442594238048219,
          0.013941169778570078,
          0.009130758357787205,
          0.00445592746564807,
          0.0033623025087304716,
          0.0016132104725103385,
          0.0059968884490228715,
          -0.003479747782068606,
          -0.0017253668904991448,
          0.001665854783729616,
          0.0005446850034707844,
          0.004164876543077853,
          -0.0020223734289592605,
          0.002123983510535676,
          -0.0019306031958768832,
          -0.014564185298285943,
          0.006231561853184392,
          0.013330388797688006,
          0.011531673962575713,
          0.0021700414838196637,
          -0.005232306706286589,
          0.005443491602286451,
          -0.014515042529584956,
          -0.013764827994738198,
          -0.0010850926789070065,
          0.017178627926587992,
          -0.021160103107263347,
          -0.0015337444278715664,
          -0.005087790498674975,
          0.0007728391239521525,
          -0.005503244934847808,
          -0.0065423778256365455,
          -0.01944854248830839,
          0.0017160735277031555,
          -0.005351764923782221,
          -0.010539421509026719,
          -0.013239246109609876,
          0.009136005997445141,
          0.009904855223312891,
          -0.002185646231072011,
          -0.0076549604992062195,
          -0.01252679940003827,
          -0.0011453732890932692,
          -0.013959682551183177,
          -0.010880275730655609,
          0.006804751151289838,
          -0.0028569815456552634,
          0.0005891158768553377,
          0.002600329963673454,
          -0.01270536660377316,
          0.014342024387627245,
          -0.02136535945409588,
          -0.0035398871070548192,
          0.008303392554973098,
          -0.002314392501784792,
          -0.011401697103353954,
          0.001580664819253108,
          -0.006210783983661587,
          0.01653413750186978,
          -0.007450536851210161,
          -0.020532480966843743,
          0.010655767392623116,
          0.007042052025125223,
          -0.00045614773834021363,
          0.01916710421319408,
          -0.004922457692389686,
          -0.0051899586418901805,
          0.010349566573832281,
          -0.00880457201313334,
          0.017712906718525927,
          0.01658044648066619,
          -0.00017490397525764888,
          -0.007851509166001748,
          0.0028623944255266147,
          -0.01968059727831129,
          -0.007007677381681556,
          -0.005521680569611652,
          -0.009100715111455444,
          0.014994420934332899,
          0.003611012618169764,
          0.012139372944460037,
          0.01103968358829109,
          -0.005491790424243775,
          -0.00985174792460142,
          -0.0035490653954751068,
          0.006762588259284287,
          -0.008099977470163677,
          -0.0009761043041162854,
          0.015587631200425238,
          0.0041473152999537575,
          -0.00064466664868063,
          -0.0028664669942515364,
          -0.004677761410637159,
          0.0006652825915323232,
          -0.013332061903992193,
          0.02067662497456095,
          0.008425040306396432,
          -0.023916655921759646,
          0.0030510411510629287,
          0.00816846829387954,
          -0.009932365667170323,
          -0.009332452346245374,
          -0.002872589165024161,
          0.006541489400666351,
          0.02342197502998469,
          0.003508391273671477,
          -0.007749735794142726,
          -0.0072964672792272135,
          0.006443124712758227,
          -0.0034865518079656324,
          -0.011668207116583881,
          0.011749296150146183,
          0.003483892263957563,
          -0.012270064787319207,
          -0.008475605177117988,
          -0.0017970759997886976,
          -0.003542346013818392,
          0.015500944770960232,
          -0.0087040638056204,
          0.0033128073974005912,
          -0.0006848590457922654,
          0.0018405332217359982,
          0.00392804527382369,
          -0.0011013104449575592,
          -0.0034015283228949773,
          0.011662313653370391,
          -0.0021830811519177244,
          -0.020622114248017676,
          -0.007197640722099651,
          0.012354493902725954,
          -0.0194453413264763,
          0.008962290024541703,
          -0.002966375351764299,
          -0.006496100904475097,
          -0.0020662960174782554,
          -0.00656615780247398,
          0.003744677843391836,
          -0.0011464828110431568,
          -0.0023142270791459895,
          -0.0031463620335171016,
          0.001685588676400572,
          -0.001737058605423489,
          -0.002342189441599168,
          0.005835454159789112,
          0.012261527856011258,
          -0.010389339012418803,
          0.006172385810926276,
          -0.008278250602994834,
          -0.012383633327753052,
          -0.013215300521306591,
          -0.008323324418381876,
          0.01323911704762869,
          0.005698429347617092,
          -0.00837114182700161,
          -0.004206055521989369,
          0.0005988596864900758,
          -0.0006165946524867747,
          -0.022636022949223854,
          -0.011204931502702416,
          -0.0015651045954416041,
          0.012100201722322894,
          -0.014358731378404283,
          0.006099935688254988,
          -0.010425800248755406,
          -0.004455200888936695,
          -0.01645767165296806,
          0.008760191689673586,
          -0.005139255954102174,
          0.0020524009915061318,
          -0.0017669790597725286,
          -0.018298357403816877,
          0.0003609430811917794,
          0.010659612243424718,
          0.0012487492027738088,
          0.003987980629944706,
          0.007104574309403188,
          -0.010639103913451005,
          0.005986690573093594,
          0.003936201092193463,
          0.009932286556064618,
          0.0006829412592674461,
          0.005996902405336309,
          -0.018102201289886346,
          -0.0009689798503561952,
          -0.0007564485855319192,
          -0.008722938119626586,
          -0.013189000274156419,
          -0.022220206834389265,
          0.014528810850327332,
          0.012073143915745505,
          0.01724797353842206,
          -0.0028747701262986586,
          0.0005002549900642844,
          -0.010402391480306607,
          -0.007178116071100255,
          0.011893523002400215,
          0.008151828203195181,
          0.006205848807450765,
          -0.0110392196881604,
          -0.009281447486381914,
          0.0034152123306473237,
          -0.005920339342818076,
          0.017114102838596032,
          -0.001063392362530593,
          -0.01834268999144537,
          -0.01385443378642459,
          -0.015148966733423844,
          0.010901855334143642,
          0.012206535129043503,
          -0.0016609632095147204,
          0.02434134096711252,
          0.008797976168272742,
          -0.0015592463604196252,
          -0.0026585029547109462,
          -0.004083253523540576,
          -0.00843900767543002,
          0.017680542841834433,
          -0.014737971304030813,
          0.007689459473345805,
          0.01116135421723277,
          0.0018706637977602574,
          0.006953567846509245,
          0.0012970876953766327,
          0.006463185233021755,
          0.013885679858908234,
          0.008870033541120308,
          -0.012885588910113002,
          -0.008083893141853158,
          -0.006922359301137471,
          -0.010222531320579603,
          0.014837524462051008,
          -0.00891920829502058,
          -0.0007863871787678932,
          0.007700966532322635,
          0.0046961833903865135,
          -0.022355668979139157,
          -0.0022810998688186234,
          -0.005507268635932656,
          0.0005873275480911393,
          -0.004482142150528638,
          -0.010289059219825775,
          0.009672111911247902,
          0.0012277005863101558,
          0.009998349628530273,
          -0.016150353606578956,
          -0.005316779821187208,
          0.006209420846109095,
          -0.0068760388943923355,
          0.00495071233546011,
          0.0026283222033455966,
          0.006076268556553239,
          0.00017956062219685195,
          -0.01776816042439292,
          -0.006225088503656627,
          0.010875360934491915,
          0.007953936491282988,
          0.016413688450649572,
          0.00596228957350133,
          -0.004985128736810586,
          0.003812317478644258,
          0.0048677152233711635,
          -0.009149289630471416,
          0.010423783692300837,
          -0.004045823460952632,
          -0.01585632027913795,
          -0.007180483350419949,
          -0.010264800925754863,
          -0.02159894068366361,
          -0.019434808016039706,
          -0.0074330906678156715,
          -0.007052478575399719,
          -0.003523159492754845,
          -0.0054292083967057,
          0.00858836790498769,
          0.005271164033297367,
          -0.003458078606651243,
          0.0019469910647264067,
          -0.011842647801873092,
          -0.008617263511721585,
          -0.010031969363048577,
          -0.0036581370919471796,
          0.007903856724900956,
          0.002663231777400052,
          0.002003282250104822,
          -0.0012751494876670699,
          0.002463245067306446,
          -0.0022104379086938736,
          0.010006510290277786,
          0.00764550726266889,
          -0.004271245140420849,
          -0.00816163001058782,
          -0.01408207829058372,
          -9.857070847581862e-05,
          0.01046551668471859,
          0.0008763417294664093,
          0.008011580911857007,
          -0.017268174194029026,
          -0.004293526664493233,
          0.01401103099914878,
          0.002714143829431349,
          0.017923159292394762,
          0.008487432115266211,
          -0.018995928486160135,
          -0.0028950634343375635,
          0.0012419140512077759,
          -0.0015681667446548505,
          -0.0016576222215726646,
          9.992561691622446e-05,
          -0.002000722987933728,
          -0.0034813189628687164,
          -0.005100571561322194,
          -0.0021860314201363382,
          -0.006411034678463984,
          -0.009773758523972697,
          0.022610592208512074,
          -0.00902430145780309,
          -0.0001131442854150886,
          -0.007109735441326613,
          -0.00512281716229711,
          0.008191719849594084,
          -0.01771126797044275,
          -0.005600689708693281,
          -0.0002609864280101884,
          0.010550534147072547,
          0.003786418405091957,
          0.001345765364759611,
          -0.008793132152642694,
          -0.009249143628251742,
          -0.004847153416357894,
          -0.010326546010683186,
          -0.0031791864810074085,
          -0.005403909012470987,
          -9.26442731231538e-05,
          -0.0004927459714285047,
          -0.004533349315918909,
          -0.008085507106913211,
          -0.00656688950171839,
          -0.01504904089765925,
          -0.00019719994282722437,
          -0.003128002995833426,
          0.019643837861782386,
          -0.006006465442807407,
          -0.01599148794114117,
          -0.001033037126582824,
          -0.014607909817765202,
          -0.012798243523811877,
          -0.009590544230361535,
          -0.004464076123547857,
          0.010356273286446309,
          -0.006386158674193712,
          0.008644702295471221,
          -0.020109083954411817,
          0.0006242687166702647,
          -0.012234536616157919,
          0.015714171036770842,
          0.00017841015031165887,
          -0.01183056491520877,
          0.00819012630269889,
          0.0006987385098556784,
          0.018350601442274378,
          -0.006852601143921911,
          -0.007640469121281371,
          -0.00896417909410929,
          -0.006781437190777165,
          -0.016774303102888206,
          -0.0003350660891233386,
          0.0038675051314885868,
          0.014616936415548055,
          -0.00020302560731355398,
          0.0019202421232624837,
          -0.0002140014190842624,
          0.004755481837557452,
          -0.007938880855513976,
          0.008253828094078623,
          0.00277022167407193,
          -0.007541577751169623,
          0.010946625978072182,
          -0.006946659157915512,
          -0.00043594398824775164,
          -0.009654589715817436,
          -0.008060886242679208,
          -0.0017593989681271818,
          0.010651198552740711,
          0.0015782264818706383,
          -0.009919074825190246,
          -0.009393987969972257,
          -9.854502771032191e-05,
          0.016789216945017657,
          0.0027530627750597552,
          -0.021474616321840393,
          0.008780073664681894,
          -0.01782716986225063,
          -0.004605299307673581,
          -0.003382900968750256,
          0.011769787985599333,
          0.01657235916512419,
          0.002045524749084291,
          0.02087256383049331,
          -0.010485552789537134,
          0.01413929081462671,
          0.008053382762965074,
          0.0061093426210217195,
          0.00379408754351458,
          -0.008310725860163633,
          -0.0036754605195443695,
          0.008505982270123459,
          -0.0005558309336992462,
          -0.0020488624222702,
          0.009417200329956923,
          -0.0027159248070940346,
          -0.003377578118199862,
          0.003081825933868023,
          0.01163490656366035,
          -0.0018485583864442743,
          -0.014935537054749776,
          0.004259304575684526,
          -0.019265302064848652,
          -0.007681295551296659,
          -0.007575401905840635,
          -0.023820849164517537,
          0.0004906288821998952,
          0.004774957173919469,
          -0.002650395233512507,
          -0.002069305731018538,
          -0.02567731109201977,
          0.004246107496316602,
          0.025069996026927544,
          0.007012767626840566,
          0.007577854534854168,
          0.002361106417056313,
          0.010999522823274089,
          -0.00639835960010572,
          0.013213034512421656,
          -0.009772259580835586,
          -0.008089837736168221,
          0.02737622092897396,
          -0.003413017365006168,
          -0.00534763438146607,
          -0.006131066698364002,
          0.0017499236370762217,
          -0.00539155805034596,
          0.008386021826966657,
          -0.009382629020813384,
          0.0025447235508754165,
          0.010979042257176486,
          0.012196666461604076,
          0.015959350767567486,
          -0.007676589991336821,
          -0.004194429641932222,
          -0.01925741302208715,
          -0.007295808609258063,
          -0.003068878484871634,
          0.013029526593420923,
          0.005165028438613414,
          -0.026213136627565383,
          0.003346552418101716,
          -0.008663470102122834,
          -0.006497030459570721,
          0.010849849669352256,
          -0.011722227998232857,
          -0.0020371230861566643,
          -0.01755724276606632,
          0.012308177162457365,
          -0.0006734529108356974,
          0.012790354210838652,
          -0.008658430538662873,
          -0.001079255551678089,
          -0.011607547565612521,
          0.008417184570836008,
          -0.018725986190303193,
          0.0034671923796567726,
          0.007959076193892618,
          0.009313466845855425,
          -0.014041869980784006,
          -0.0042418844162132145,
          0.01525182094862443,
          -0.0008582686460412116,
          -0.0029183882740280187,
          0.016490126483451634,
          -0.015509788974063042,
          -0.0030404988604582532,
          -0.006742105181611038,
          -0.009741700550401805,
          0.004145416624688972,
          -0.013920035027171804,
          0.014033601052139019,
          -0.0151580261087505,
          -0.0010091006229485068,
          -0.017364715416994272,
          0.00012595353048707296,
          0.0044805491110739585,
          -0.0014104316722369043,
          -0.0040017787280832474,
          0.007212356025947175,
          -0.01929973950039073,
          0.009713921174135973,
          -0.017950948913881694,
          -0.00504318957881344,
          0.011496693749165784,
          0.01294028658441721,
          -0.007535867763566984,
          0.006841359443160595,
          0.00024251570518891532,
          -0.001021688626331144,
          0.001435850380190925,
          0.010926529252863365,
          0.010905593181017496,
          0.00423283433773784,
          0.0006722744252666374,
          0.008593039620737281,
          -0.0020462771600196737,
          0.0027466527625167225
        ],
        [
          -0.003341024910518389,
          0.02308516874566155,
          -0.014911288944976597,
          -0.018306988258394545,
          0.013090251037429907,
          -7.995027689007365e-05,
          -0.0008618442993899286,
          -0.013355816367507711,
          -0.006114768635127146,
          0.0003499913381243284,
          0.023594308566230668,
          0.016490535945574016,
          0.0009433465261804546,
          0.0030921738100230384,
          -0.0001004465125900225,
          -0.01437139019282019,
          -0.005074651713085238,
          -0.026489947772656168,
          0.011341766958509936,
          -0.011822563042623238,
          -0.008428233906548527,
          -0.0008485141009504539,
          0.008595142316290024,
          -0.00650056792327207,
          0.009747210614519275,
          -0.013004499137838866,
          -0.0007305900808532107,
          -0.007791207815987339,
          -0.014344376614569257,
          0.008503604114832733,
          0.0031565187307766142,
          -0.009206293444974915,
          -0.013143817384164853,
          -7.330070429241022e-05,
          0.006573861136710808,
          -0.03302177753414645,
          -0.008343796956185066,
          0.0013565941470225983,
          0.006124392827384073,
          0.007809743843086935,
          0.0007838443611992398,
          -0.01318850001688916,
          -0.0055589388729372,
          0.01172851819013013,
          -0.00955251877666406,
          0.004348725840337073,
          -0.003037322721854135,
          -0.011497218189553734,
          -0.003538624672587607,
          0.0029602778929912615,
          -0.0010637597577944974,
          -0.00466092259636789,
          0.006776086342837316,
          0.003010600239734081,
          0.0033639029022633007,
          0.003725549165136333,
          0.009231386366038367,
          -0.0031573349407991677,
          0.030581182235308313,
          0.004340956200685273,
          0.005609744407705325,
          -0.0027665433191120083,
          -0.008884198793705275,
          -0.014296374960653398,
          0.00793374410167291,
          -0.0004922643718138618,
          0.0047156840391550485,
          -0.00030943883300793085,
          -0.015546108938075832,
          -0.0084823203319272,
          -0.008726037867241581,
          0.010531930740644258,
          0.009729288281741563,
          -0.00376192831848981,
          -0.008982972831888578,
          -0.0003534694330087507,
          -0.00487445130602041,
          0.009384765264174208,
          -0.008930979465286485,
          0.011028541380312179,
          -0.009717970976574966,
          -0.014690662723677892,
          0.004601599463471466,
          0.009949497002477596,
          -0.007325001717935431,
          0.006705515887079517,
          -0.0014129812982344534,
          -0.026633713106830596,
          0.0033088449652760032,
          -0.0009993622529507649,
          -0.007337796155439414,
          -0.0064013863263180275,
          0.004050703662285579,
          0.007885306630639126,
          0.0025423419380897496,
          -0.007068887689174728,
          0.0062051986159929046,
          0.018191722706178075,
          -0.014293147533863921,
          0.0065938668943333134,
          0.005173135487431028,
          -0.010445640181100392,
          -0.0018974727349865298,
          0.014862537269819372,
          -0.001442697379873795,
          -0.011173925138625885,
          -0.017388960765508752,
          -0.0005833401854382317,
          0.011089970014745135,
          -0.001920317218585462,
          -0.006551268654462125,
          0.007333244644313278,
          9.10317674261353e-06,
          -0.0142127009521175,
          0.007427040945723651,
          -0.009575960292636018,
          0.0016402921726884187,
          0.0003343715150949355,
          -0.008263236940370051,
          0.0018206453005826658,
          -0.0037841091837662083,
          0.0014342823804286927,
          -0.0027575108394394397,
          0.00020818111811271093,
          -0.0067489671289612235,
          -0.0064056144624109615,
          -0.008033133762316068,
          0.0036067348168059986,
          0.004563754414832836,
          0.0016628423574062473,
          0.0030445462660383445,
          -0.002078700901452758,
          0.008459872457846055,
          -0.0005571977644579026,
          0.008741826315716293,
          -0.003695307765268607,
          -0.006297165207001406,
          0.006761392230852436,
          0.01052753690363778,
          0.005351016812690194,
          -0.007433526528862885,
          -0.001095261368223384,
          0.0023055449384065457,
          0.008722224856159805,
          0.004917269892465751,
          0.009141716239754781,
          -0.008416109010610424,
          -0.009752488079884006,
          -0.0056966052144090465,
          -0.008382781329957713,
          -0.007504689860435464,
          0.004699165333082348,
          0.006513399176046518,
          0.012067992830472652,
          -0.011027122638092354,
          -0.00849247017577238,
          -0.006274324070257725,
          0.0010362845773383136,
          0.015934957440130754,
          0.0008314758599031364,
          0.007503655401157743,
          -0.0047834218547864,
          0.014099593199276839,
          0.00961518370480896,
          -0.004284359261965978,
          0.009846606986029518,
          0.004548205895993945,
          0.015061780243983332,
          0.011530885545789711,
          0.0009648577214436566,
          0.015698799912747603,
          -0.018656045579803503,
          0.0015909525137620846,
          0.0028657708476592303,
          -0.0010512293317910919,
          0.0008750450851252726,
          -0.01835702212764589,
          0.0011105199021951386,
          -0.001076116497987848,
          -0.0007123629856332304,
          0.0010577492077166936,
          0.0009189296708978609,
          0.003548311226842165,
          -0.0021914537761156946,
          0.006594343621275018,
          0.0161121732589303,
          -0.008991512809172928,
          0.00943161279782912,
          0.007713961895124173,
          -0.017596202491723147,
          0.010437864197486912,
          0.007360848455699487,
          -0.0030081591088768856,
          -0.008151882048873953,
          0.01992431561764815,
          0.020587147920196457,
          -0.00938454617807983,
          0.015118320648999022,
          0.004824196068115251,
          0.003965092569156436,
          -0.002624987176960764,
          -0.01245353573051402,
          -0.009673540559704145,
          0.011029754641500158,
          0.022963157900334766,
          -0.006709291824534266,
          0.00396280868198696,
          0.01287711914802118,
          0.004904618605343654,
          0.019368336447306955,
          -0.018308911794918174,
          -0.0009322529906890163,
          0.0025707532463448528,
          0.01678629717310515,
          -0.008144136892487542,
          -0.0004247408718345417,
          0.0027590578029389762,
          -0.0016299525704051871,
          -0.006219812693991308,
          -0.003187639777500293,
          -0.006751545156954735,
          0.012302989769849632,
          -5.17940567515335e-05,
          0.0026542268093646243,
          -0.0002794523285737134,
          0.00615997469687294,
          -0.0003958039109469187,
          -0.020389742574754725,
          0.0005929445551522175,
          -0.00681155673933158,
          -0.0032198107299007423,
          0.011395197108931924,
          -0.014326127462584106,
          -0.006055310427853308,
          -0.0033301635752121484,
          -0.00867765760994476,
          -0.013400330963612681,
          0.00834811720934043,
          -0.008711181406744137,
          -0.0025612233432309238,
          -0.02414721882752151,
          0.00023261811107914502,
          -0.01156894265716215,
          0.005478116084967292,
          -0.00029527949461951664,
          0.006373363617945807,
          0.011031938038186874,
          -0.0053073345187654285,
          0.015769538928039645,
          0.0012012707288678534,
          0.001719670352368046,
          0.006331846651808085,
          -0.013846394560930137,
          -0.01062959446423214,
          0.0015541233937256583,
          -0.004207636549896942,
          -0.021957370114532387,
          0.002495484950687917,
          0.000676044558832727,
          0.006563799761082403,
          0.01485664514676458,
          -0.004810841110824455,
          -0.010352698382002675,
          0.006318507515599862,
          -0.016229084179518294,
          0.0025864708087386047,
          -0.01167516880694137,
          -0.013759512969592741,
          0.0024158786078325536,
          0.001152146029294977,
          0.01244344804083213,
          -0.006213349846263812,
          -0.015719833812771505,
          0.010025692274673788,
          0.012604509955477445,
          0.017217721627477676,
          -0.023971032752844398,
          -0.011623686069251715,
          0.014442225022589683,
          -0.010275774975749271,
          0.007605170340561151,
          -0.016158014537501313,
          -0.0004330644129669658,
          0.013766949317361585,
          -0.005399417482193063,
          0.00724974125188796,
          -0.005632212036510633,
          0.0121328587427373,
          0.01213084774103012,
          -0.028203887225220502,
          0.011182374100837804,
          -0.0028151728465984163,
          -0.0019038012723243947,
          -0.015298913428566391,
          0.011234122123329651,
          -0.00857959970665825,
          0.019360887608529182,
          -0.009128650360108114,
          -0.0245446610221421,
          0.003952715017609447,
          0.004871597692121191,
          0.014941535045496286,
          0.008359796344702741,
          -0.00576279149873083,
          -0.006985687521992037,
          -0.004511196038963672,
          -0.0051339378597414775,
          0.009847110793378992,
          -0.01148405797319975,
          -0.001054092655159743,
          -0.0090525720474825,
          0.00627805169249877,
          -0.009869553224617444,
          0.001584322304019798,
          0.007660839114666191,
          -0.0023429499745369663,
          -0.012401671672540986,
          0.016323293531545848,
          0.015640062320122324,
          -0.007620195865786065,
          -0.0034773863440252144,
          0.009276148958061075,
          -0.011693725748522493,
          0.015031734808583448,
          -0.005854455916367733,
          -0.0012362864686632426,
          0.0015172897523259296,
          0.005663098289941449,
          -0.01218458549220842,
          -0.004486827030598454,
          -0.005766355655824325,
          -0.0030829635464678378,
          -0.006454695806274521,
          0.006979179635538885,
          0.00019088714084186984,
          -0.0011468421499500365,
          0.004006065698547416,
          0.006722716593459781,
          0.018615046451325654,
          0.004972978715557307,
          -0.021638451031446966,
          0.010364698505892474,
          -0.016530588154697674,
          0.012291440515052595,
          -0.003203419937366156,
          0.01582601817468156,
          -0.0039641793800125865,
          -0.005537271068414206,
          0.01018491822756873,
          -0.005272668934570541,
          -0.007720016994456045,
          -0.012509807751113813,
          -0.010892393626489989,
          -0.004843012031805059,
          -0.01764657307280111,
          -0.006841720513321102,
          -0.007050076430337639,
          -0.010195424708375953,
          0.00969929091709971,
          -0.003671749610893288,
          -0.011447202943934403,
          -0.0032788818664813858,
          0.008140715064408612,
          -0.020768222227139945,
          -0.011870356538343728,
          0.010425890314112837,
          -0.0177952598070852,
          0.00040208779162185945,
          0.00020835634533500325,
          0.019523598099150465,
          0.005491444687187262,
          0.00021355270090736493,
          0.0003094630814901893,
          -0.006532835812974269,
          -0.0005509578371817468,
          0.003753990885663083,
          0.009468121770531938,
          0.014686012197504402,
          -0.02223753527157651,
          0.014010706919051387,
          -0.008541701842877657,
          0.01300458678845902,
          0.003078589742213061,
          0.021136149366584797,
          -0.00023135263035549574,
          -0.008914485010993517,
          -0.01640657697240085,
          0.015764105500878454,
          -0.012775402057333319,
          -0.01209323614645905,
          0.006256337452354,
          -0.006343360652172082,
          0.009096012454169994,
          -0.01022355656352827,
          -0.014660433561053945,
          -0.004790474518223329,
          -0.003196477528976479,
          0.01444126873506511,
          0.007210508326423056,
          -0.003592839074049301,
          0.008988335477867024,
          0.00997656203998362,
          0.0034636577536610613,
          -0.01375869647604344,
          -0.008132955161460365,
          0.002585757876955555,
          -0.003196647055723886,
          0.0011549329784015343,
          -0.0030887699292272384,
          -0.011023054461514945,
          -0.008866029566315164,
          -0.0045938251225461175,
          -0.012178518086048182,
          0.019493957290522727,
          -0.0006537034503236961,
          0.0008884907281943845,
          -0.018518506150047246,
          0.013974667833882458,
          0.008994166362616757,
          -0.006734658354462707,
          0.0006572905242561216,
          -0.007377584975854732,
          -0.0021983936413221016,
          0.005366624658419092,
          -0.0006039745144008342,
          0.011899401700514683,
          0.012308967784987293,
          0.013425859343883786,
          -0.011907931262055955,
          -0.007260823708413902,
          0.006533190999422568,
          0.0068440037259288105,
          0.003151774886360237,
          -0.008442719055725042,
          -0.013988599978538612,
          -0.007198493628618898,
          0.010782531633934946,
          0.0011942098575693561,
          0.0029373984375145397,
          -0.004615838848756166,
          0.011951352322803508,
          0.0009371240914835067,
          0.009193531788877446,
          0.0016373326280444056,
          0.015983752898879038,
          0.02690980807851429,
          -0.004154111318018234,
          0.00539768693175209,
          -0.0031841004123978433,
          0.001007221749717979,
          -0.008585393903374804,
          -0.013427583227076465,
          -0.009084490749949683,
          0.005973251986810289,
          0.014909072129163039,
          -0.008657921421304953,
          0.012996154326760129,
          -0.008506346035806297,
          -0.0029441970155255717,
          -0.0007070784851187838,
          0.006948522744024668,
          -0.002643758169725712,
          -0.00035604181980727326,
          -0.0029778511533357396,
          -0.0022594631882330444,
          0.0040224281252612785,
          -0.0012351862255233004,
          -0.005693190761866453,
          -0.004687463536673671,
          -0.005188962459575186,
          -0.0048571956313664425,
          -0.010174954965992853,
          0.008896144662435107,
          0.006991999689040519,
          0.0006808567887835494,
          0.014390737830203861,
          -0.0012728089830251078,
          -0.01717705083260133,
          0.009982650601969525,
          0.011108635109602699,
          -0.00882621962164791,
          -0.011528005057586506,
          -0.0022919062574398106,
          -0.009244070417450663,
          -0.014591873175335102,
          -0.0015505560728206421,
          0.002904749708069295,
          -0.006813879019203233,
          -0.01609244491787783,
          0.001649522363386701,
          0.002680572585315791,
          0.006134627786751099,
          -0.019400626670905904,
          0.002164167888583514,
          -0.0110784388611823,
          -0.011318395814959567,
          -0.013082162593801473,
          -0.019958082975424295,
          0.002596610764425457,
          -4.7473779099290485e-05,
          -0.006548808603956333,
          0.0005954818398557906,
          -0.014513468597536073,
          -0.0014273999883340222,
          -0.0020368819028479548,
          0.008092461477670388,
          0.004450697355347142,
          0.008911956961156603,
          -0.0019670000271752967,
          0.016063037442289204,
          0.0010781593908683813,
          -0.003033426170678398,
          0.0005079685435263897,
          -0.009327134092752435,
          0.0011554140900317301,
          0.011876020285278772,
          0.0021266383917747074,
          0.01307422588946624,
          -0.012746625755063115,
          0.020078281121151363,
          0.0027330941953241715,
          -0.009750716790658937,
          0.007268757683412988,
          0.0167701585838385,
          0.005300358993087939,
          -0.007934677215222985,
          0.00893931561940809,
          0.003922802707171692,
          -0.002481452351022865,
          -0.0032911016353696053,
          0.0023397774534375973,
          0.004447037993367347,
          -0.008588622028060246,
          0.00576713583285391,
          -3.674938196675275e-05,
          0.016594578885067938,
          -0.0153947351153729,
          -0.007277405976649255,
          -0.000867744733607645,
          0.001852506466096557,
          0.014986444516966617,
          -0.01218604675826666,
          -0.02036717044504913,
          0.0015241329903203688,
          -0.016170585088535635,
          0.007945420173906773,
          0.010816711073505582,
          0.009625393289117832,
          -0.0032447326546142675,
          0.00042271364719762553,
          0.007722283406001978,
          0.009770935228516294,
          0.007895074686307074,
          0.019602776326977274,
          0.002524511039862331,
          0.017545467043281856,
          0.007480899132227484,
          0.00720849677968632,
          0.0018251679022466378,
          -0.013144691923390297,
          -0.016296090407179886,
          0.01029422693395862,
          -0.0051645050702713025,
          0.00980603834792775,
          -0.004719710341686617,
          0.006113308558824353,
          -0.0002423814932341982,
          0.012635186332234068,
          -0.014089260888822881,
          -0.005310435656178405,
          -0.0080164925704396,
          0.005897231732918742,
          0.03171064333215045,
          -0.006106818148181732,
          0.003062790663025235,
          -0.017389633397949404,
          0.0024088866125428687,
          0.006790035335826239,
          0.009597793414009667,
          0.005566193426534975,
          -0.002764103520235677,
          -0.007951199725029305,
          -0.005409258569286768,
          0.001240911805013712,
          0.006664324594659948,
          0.0036169691037702136,
          -0.006480472155379734,
          0.0017242547039826575,
          0.0011744495759520826,
          -0.007416120060319034,
          0.006241563073397991,
          0.0034194703826212437,
          0.01530089808899844,
          -0.0019596242708710683,
          -0.009854924680387334,
          -0.003970371939948576,
          -0.007806329353076751,
          0.0008263030858044647,
          0.001593979926777369,
          -0.0016548199937000596,
          -0.010279987573903995,
          0.021121677220567108,
          -0.0023553750969931685,
          -0.012696701841679958,
          0.019631198595013867,
          0.01934277728536937,
          -0.00988775198442781,
          0.004980108759183131,
          0.016169711536496198,
          0.003927242732270277,
          -0.011543910897974203,
          -0.017772612839215135,
          -0.0045725230352456365,
          0.006665538780590952,
          0.0045960159333298,
          0.006865854282490609,
          -0.011020902389585923,
          0.006688337600197266,
          0.0041570119175996,
          0.005799591617757735,
          -0.015661398226674682,
          0.004013690246715125,
          -0.006794421728504333,
          0.00032044067969606616,
          0.005394807327541621,
          -0.014829979969276241,
          0.0009662609208298772,
          0.014095484241471183,
          0.005042370348268674,
          0.00999402116043755,
          0.00914358603446902,
          0.0035302520556485485,
          -0.0020548209737058826,
          0.005373577563101979,
          0.013223580124500641,
          0.002743581088726544,
          0.006023040992563053,
          -0.0017827810198471697,
          -0.01651870911980268,
          -0.005426733740178723,
          0.007109363212504869,
          0.021476769293200255,
          -0.012424659747140505,
          -0.0006065861748366192,
          0.001134011310853175,
          0.023333029005612804,
          0.00014836863973184634,
          -0.0015613253244469855,
          0.005254823830759104,
          0.000604600072516962,
          0.0038086535143093676,
          -0.009643719715117427,
          0.014412489617740276,
          -0.0231160649416946,
          -0.0006292784231979336,
          0.00567171279938196,
          0.010691779025372446,
          0.002430634835072142,
          -0.009676688794061502,
          0.001397098471649674,
          0.003279803012944403,
          0.0026168369832315513,
          -0.005592790485745377,
          -0.003929824266623698,
          0.0069564864158227924,
          0.006064053974799787,
          -0.0025003387952049734,
          -0.013232210534262283,
          0.017646593196827026,
          0.008394209299835333,
          0.004525928379467177,
          -0.0015595497541837327,
          -0.004890945604660383,
          -0.006560389332000046,
          -0.00906205230671513,
          0.012597421043888677,
          -0.008607004746742516,
          0.002095481352880873,
          -0.0032882038137183036,
          -0.0018453040834724263,
          0.014493401785687473,
          -0.0008625577880769057,
          -0.006425263499789807,
          -0.006436842955144405,
          -0.003658593863657343,
          -0.0052633796948727074,
          0.005671191638657348,
          0.0037925045078929386,
          0.006401302330063125,
          -0.00648679109328671,
          -0.002729484644341769,
          -1.2291199810668418e-05,
          0.014139395283673743,
          0.0033865066950309955,
          0.008615605648894843,
          0.015468098968922601,
          0.007289651569688363,
          0.002305148184276488,
          0.0022516171610881368,
          0.0007452293663436651,
          -0.019696410563470323,
          0.0010357950494295138,
          -0.0014653839599385887,
          -0.0027548559108154687,
          0.005324613444149983,
          0.008446945748728963,
          -0.005838885838613352,
          0.0035086168703088467,
          0.00047430309252748624,
          0.013770494742411227,
          0.007163651318204595,
          0.016335456400768004,
          -0.009352229586476605,
          0.0001603385961944109,
          0.02070888053827189,
          0.01575785748989008,
          0.00922925434460417,
          0.006704785378272085,
          -0.0033062099367709725,
          -0.013002917642562761,
          -0.007591502272699707,
          -0.008949305047938573,
          -0.023051700512941694,
          -0.00904473248241115,
          -0.011195324535231891,
          -0.00793795685082404,
          0.0027523145412175426,
          0.01494700714942695,
          0.0010006574861082212,
          0.020868155346453216,
          0.0008937736947288744,
          -0.004344227782913037,
          0.010009064150704922,
          0.0009662672661460326,
          0.010145168406606547,
          -0.007112520097724992,
          -0.009421157574468554,
          -0.004258198650334015,
          0.008446159851342538,
          0.006012308204564248,
          -0.013421245255260101,
          -0.007366212309911896,
          0.0010798714769859547,
          0.01126306762345766,
          0.004190148864532909,
          -0.006594764774816704,
          0.006796515146705593,
          -0.0005432135266588179,
          -0.004522200278932057,
          0.013665486151085409,
          0.0001460772579286015,
          -0.004140139962851497,
          -0.015235412317292736,
          -0.009033642334394621,
          -0.0004219537520927406,
          -0.003032902725283348,
          0.01816053994848654,
          -0.008496190768795979,
          0.004091108026536298,
          -0.0031706787404442377,
          0.01566650437833714,
          0.0054467983547097434,
          -0.008338780127577713,
          0.017584754316984284,
          -0.025565419543677654,
          -0.003018996219083436,
          0.016748442112892132,
          0.007809138884974939,
          -2.623510320881864e-05,
          -0.0011872968544284007,
          0.0023402443732450126,
          0.005112665138314082,
          -0.006124373624532827,
          0.010613960421362817,
          0.00010774342712629172,
          -0.0027147070739593666,
          0.017510849751326652,
          0.0022701235600135635,
          -0.010002112076937892,
          -0.00161896979092477,
          -0.01442470347424949,
          0.0012206333562805257,
          -0.0018503584455822934,
          -0.007045038366766344
        ],
        [
          0.0005680816663886839,
          0.0027513210043513033,
          -0.009512401951283592,
          -0.016488439968190848,
          0.012726076898133976,
          0.002466979792079687,
          0.0001554692034175528,
          -0.010569857523372661,
          0.002101478404643218,
          0.0005862009830982753,
          0.004932825931423579,
          -0.012995525029214368,
          0.003619446856173888,
          -0.0035610401014852596,
          -0.01016507205552071,
          0.0002705018503919852,
          0.002317713820760069,
          0.016027471161198122,
          -0.016742494559375824,
          -0.0010638699107492337,
          -0.001069035910403995,
          0.0023004510263893137,
          0.0011852199025841272,
          0.005175968958551076,
          0.018825584174179233,
          0.0016342031176547983,
          -0.0010424136772619844,
          0.025252029497344904,
          0.007928889668692778,
          -0.017456327020226595,
          0.011567830297901009,
          -0.006807072470191542,
          -0.004256395387450982,
          0.018533403433893918,
          -5.460597106401948e-05,
          0.01440689901450296,
          -0.004620398384631991,
          0.00981818442138391,
          0.008929905405673701,
          0.0010305803080167732,
          0.01940424979586479,
          -0.011843380827413763,
          -0.02457216649389136,
          0.000982074958771452,
          -0.001404425832867522,
          -0.0003995626497499258,
          -0.008027762155030376,
          -0.004114376856698182,
          -0.003957788808644839,
          0.0033215684006113696,
          0.0011525677670516526,
          0.007415061226596541,
          0.0020348356017159323,
          -0.0017106897778366489,
          0.02510117446487769,
          0.014791864202341439,
          0.003258378092734135,
          -0.011292178880563221,
          0.003165120828440615,
          -0.000193722932706728,
          -0.004036574266369286,
          0.004511241860252779,
          -0.00562867519619081,
          -0.005390766320782416,
          0.004760053572396664,
          0.008331563472171915,
          0.006156678675617298,
          -0.009459327366637267,
          -0.007788876818148716,
          -0.009874213819856327,
          0.006753073734238566,
          0.013400041612509291,
          -0.005164477565611363,
          0.0036999339827586313,
          -0.011916556415857163,
          0.0033900030434476274,
          0.009448742793222175,
          0.002248161989884378,
          0.0017625029901301166,
          -0.013810993650317996,
          0.003705694474670742,
          -0.012023363379819813,
          -0.0016915055895181715,
          0.027979082650843333,
          0.01818440200695389,
          0.012982378248922679,
          0.0028680831742613085,
          0.009272354246733998,
          -0.007614611831206681,
          0.003978076754403735,
          -0.0025006605264030098,
          -0.007792185033691945,
          -0.015083481005716133,
          -0.009013385402287686,
          -0.008022370943377061,
          0.0036949075628595947,
          0.008587715574964318,
          -0.011461097534407518,
          -0.012372124882941277,
          -0.0261189936483087,
          -0.0026213897432067917,
          0.0011687252822537072,
          -0.004506455106275658,
          0.0035759983473427777,
          -0.007555934027340592,
          0.003001460621696789,
          0.004973265203552392,
          -0.0012963202296538319,
          -0.0011603790511392495,
          -0.010059764582719491,
          -0.0014798332025543716,
          0.005584942256336139,
          -0.014267109704124632,
          0.010376623146444624,
          -0.02280553706066024,
          -0.002157450245700037,
          0.017226276703208393,
          -0.00859632750687205,
          -0.002580500135150456,
          0.00015534877538567947,
          -0.00390723588987758,
          0.007190322155238843,
          -0.006203088553113204,
          -0.008981472072318517,
          -0.014820966788300772,
          0.008278723663442103,
          -0.005488348892268839,
          0.0052022228724610455,
          -0.02736010978536214,
          -0.003895414050287423,
          -0.023808530177596876,
          0.0025627041360951797,
          0.007063583208598121,
          -0.004280728922967164,
          0.002362105542404361,
          0.006124164734684601,
          0.005533009007643881,
          0.01787751792539373,
          -0.0030965355376752785,
          -0.00040880885395014235,
          -0.0035673941542598013,
          -0.00565330378953724,
          -0.008965215546286896,
          0.01016860862183494,
          -0.0026818601788315428,
          0.013725410150989393,
          0.008970950952552473,
          0.005768923494587293,
          0.009190067692558288,
          0.002784666930838625,
          -0.0006379051045806147,
          -0.003546741706764063,
          -0.0024640658275860497,
          0.003346779486523783,
          -0.014707473288834927,
          0.011779775730022824,
          -0.011614218492310072,
          -0.0101968148395832,
          -0.005511664820575174,
          0.009379494797836006,
          0.011197086982214636,
          -0.012175638354372945,
          0.015985497011238536,
          7.729721188139245e-05,
          0.011521355523001533,
          -0.008570425141218892,
          -0.0022428652804828766,
          -0.01069506042244298,
          0.0032298824761727834,
          -0.0005601804548520312,
          0.003619439046637344,
          0.004048450012627216,
          0.010228255402113277,
          -0.0058756944347786435,
          -0.00476824739206398,
          0.014028742375660794,
          -0.00362336920104613,
          0.0018417765802409415,
          0.013722544011710677,
          0.003282316264744597,
          0.003960433092330848,
          0.009239311648541169,
          -0.0032774197167915876,
          0.010348086066595819,
          -0.008339789900329643,
          0.008652348952172102,
          -0.0006437957079622156,
          -0.0010183404613370972,
          0.014273410049379286,
          0.0017247202315133561,
          0.008055145375392354,
          0.003942616499106646,
          -0.0019244497244527688,
          0.0012875825277604152,
          0.026106698821603595,
          0.006238282530147642,
          0.00877624927585901,
          0.014310707662996169,
          0.009564658222081175,
          -0.005960282921266482,
          -0.019266395927373618,
          -0.00784570288238865,
          -0.01614343761434322,
          0.022796635314301518,
          0.0009478360031798951,
          -0.007875366323602941,
          -0.0027914332561192645,
          -0.014324163439476867,
          0.0067337116440655854,
          -0.007476458370781824,
          -0.005783045817261615,
          0.007668542471327671,
          0.001444787367651172,
          -0.006158886247687444,
          0.00421311769436487,
          0.0023656651319675552,
          0.0102468438358494,
          0.008863937720680745,
          -0.010157896834537083,
          0.0069640173254587835,
          -0.0037296356934492965,
          -0.011858936516110571,
          0.008015730453079515,
          -0.0011247798801355556,
          -0.0027188270633604406,
          0.012233229391121576,
          0.006149433681836426,
          -0.0020385457664069797,
          -0.016424865616969632,
          -0.011624385144680298,
          -0.008628967280233912,
          0.0028450593782581783,
          0.004595150627084661,
          -0.0012229745699875217,
          0.009708889647777018,
          -0.024298340939671394,
          0.008923639449250403,
          0.0109881532995973,
          0.0016724445299890558,
          -0.021603704300283157,
          -0.011710621142770423,
          -0.022517446917316036,
          -0.007753033609179377,
          -0.0052893435931041675,
          -0.009835762873358725,
          0.0008205860941010975,
          0.00026124903030725,
          -0.0010204014374549898,
          -0.012070737264717668,
          0.0016381852494872483,
          0.00604924024605236,
          -0.016872073512156565,
          -0.0048037686107266706,
          -6.9435660887027e-05,
          0.010512577429138456,
          0.007063917270443855,
          -0.009770915767914851,
          0.0014028151261227442,
          0.009495506154467585,
          -0.00421949524347625,
          0.009604678830610421,
          -0.004350590541231339,
          -0.0035262717864816273,
          0.003956551425225291,
          0.0012082606421448365,
          0.006324606344755099,
          0.012471254007066852,
          0.009116675416640825,
          0.005980843410297919,
          -0.006325457992485156,
          -0.011068157908666727,
          -0.0038576244815539907,
          0.0030861486367984477,
          -0.011667826979066718,
          -0.0035247758606486886,
          -0.015125555177669414,
          -0.01448621878100239,
          -0.003275161437211452,
          -0.014305630951082402,
          0.02992966656774711,
          -0.011045081086971642,
          0.014267622470821403,
          0.017664146420876933,
          -0.001658052589607506,
          -0.022283777033977683,
          0.004804851650983896,
          -0.020876164090764454,
          -0.020477895381943417,
          -0.00037166015180052555,
          -0.004039565573428263,
          0.00553233637707446,
          0.014934984531352351,
          -0.00734132197327419,
          0.002253016915890545,
          -0.0036100006793413544,
          0.003314890345684755,
          -0.008406963135018297,
          0.0011787413631583873,
          -0.012221487354265693,
          -0.01595721432247538,
          0.01733539536607962,
          0.004181197592746266,
          -0.015209896238616181,
          0.008665146377523593,
          -0.003657605266572234,
          0.00019584063004735106,
          0.005413442207746504,
          0.0069266906239981085,
          0.0018658857969701826,
          -0.007074647044630034,
          -0.002650227336490483,
          -0.012375928488113886,
          0.011278854407451602,
          -0.010602682625947905,
          0.02543806933207697,
          -0.012843388807409628,
          -0.008722096192732459,
          -0.005955507876279402,
          -0.0018114736551762313,
          0.012652975609867875,
          -0.007141898750236476,
          0.01385783007887878,
          0.01134376118006435,
          -0.0069989186462474755,
          0.0006452430249731002,
          0.016793669985200863,
          -0.013792248194851767,
          -0.007894665757802465,
          -0.009076274258887103,
          -0.00010740491354673173,
          0.0014887163269570972,
          -0.004849892696375854,
          0.008028686878056317,
          0.0140973411084091,
          -0.015617806054552347,
          0.003579548376989991,
          -0.00496765239321272,
          -0.012941059214740137,
          -0.00728115988525504,
          -0.005971144668044064,
          -0.0006305035994689916,
          0.013801384568392036,
          -0.024956005067583373,
          -0.00518767833938372,
          0.00748082771866021,
          -0.010989535399546715,
          0.019287008799597372,
          -0.00370474806456726,
          -0.005341523390697445,
          -0.0034446428814810005,
          0.003915873487172101,
          0.00894130405258813,
          -3.0005462489914548e-05,
          -0.006224511339917788,
          0.002664536285085357,
          -0.004174269942416263,
          0.0007019010087658971,
          -0.0003875447959458328,
          0.004612991259643897,
          0.005175447241123248,
          0.004027593084215616,
          -0.004502028865721046,
          -0.005419060265777278,
          0.00915920223469974,
          -0.029326907680997077,
          -0.002331465978115768,
          -0.007650393080023739,
          -0.004107760157287943,
          0.01416332924245644,
          -0.001335409129143925,
          -0.009789237605689477,
          -0.002621080493099735,
          -0.0030621389445953384,
          0.008272039774199968,
          0.0020858945787965116,
          0.003934542814090116,
          0.005785659673775009,
          0.0008190952695928148,
          -0.008941282099042668,
          -0.0023525724248299675,
          -0.00308031933702842,
          0.02257455074898405,
          0.01076713980156088,
          -0.00459201191333062,
          -0.03222860802608883,
          0.017730530928444833,
          0.004647276135438193,
          -0.014663399078419497,
          -0.005423377527794699,
          0.00028218638561492077,
          -0.012235134114325348,
          -0.007775630254834096,
          0.003446682412541693,
          -0.01893127118439867,
          -0.008013462781081752,
          0.006374896926131544,
          0.0032223405696879944,
          -0.005648959422830926,
          0.0013946974480526972,
          -0.012450828613292136,
          -0.002876410901544351,
          -0.0023996720361448157,
          0.014931545224628796,
          -0.01952341308163248,
          -0.007089575200488175,
          0.0019677341924060733,
          0.020206116972317806,
          -0.00997601083358317,
          0.0032762133433630663,
          0.00820245574231567,
          -0.005603377425543136,
          0.0022087506196578183,
          0.0057563891487642,
          0.008917913240167998,
          -0.02650237891607135,
          0.015773575121004437,
          0.011429904076991317,
          0.012617713509027313,
          0.004733382211459213,
          -0.0019987788329496447,
          0.003918625922042157,
          -0.0010760410699055135,
          0.0011313387553513788,
          0.011499337075511437,
          -0.008573269016591807,
          -0.012386241750121017,
          0.0021433509068763865,
          0.0011410846228497604,
          0.0009268892112669333,
          -0.009672988816747132,
          -0.019892082809444944,
          0.002399216751715491,
          -0.003142692075859738,
          0.007713643123044117,
          0.018280374623165913,
          -0.014210205161974951,
          -0.00032351741543577866,
          0.00044734907388045,
          0.0011511790372335149,
          -0.00569931612589137,
          -0.016390688386773482,
          0.019701673876811092,
          -0.0036284204520003467,
          0.013154117576920482,
          0.001823807097067681,
          -0.002226258706225642,
          0.02252162454541844,
          -0.02556166134330002,
          0.004397882994465794,
          -0.01164711259959997,
          -0.0002704832235187288,
          0.015768237521086442,
          0.009176767577546856,
          0.004333893696016089,
          -0.009909298802934776,
          -0.0129564195504375,
          -0.005814461933355921,
          -0.00870563710694357,
          -0.009908704731504483,
          0.006452014997775242,
          0.01028493548025264,
          -0.007392403707387505,
          -0.02259014346000529,
          -0.020008348646571358,
          0.005743066752629711,
          0.019419650842320554,
          0.019716152931044388,
          -0.010774228580742166,
          0.0018226669566270657,
          0.005357315621442362,
          0.015584941545370483,
          -0.009290640859971049,
          0.0003129552598308323,
          -0.006512274673702823,
          0.007845428708105999,
          0.0010601124932701031,
          0.01058389223114292,
          0.007561954368778096,
          -0.0029970288737957342,
          0.00750249185371126,
          -0.003749635385205152,
          -0.010368206589923393,
          0.011492635822062443,
          -0.001192419518187027,
          -0.02321871630639356,
          -0.02049940076430398,
          -0.009065218434299745,
          0.0005404241379004786,
          -0.00844715884180999,
          -0.002234900745233874,
          -0.002618279050691874,
          0.0004236124403648404,
          0.019467942058483227,
          -0.019461136374190623,
          -0.005071814436521569,
          -0.0001446478007038848,
          0.013398619228680572,
          -0.0055871317041646384,
          -0.004168586033946018,
          -0.0074721241195317405,
          -0.00296646273574456,
          0.007662770733397636,
          0.007050272605730461,
          -0.013825348994326947,
          0.011213227551798058,
          0.01370425124893342,
          0.002344418329357494,
          -0.011409152210931266,
          0.005262203999040002,
          0.001903794102305567,
          -0.001864814595193941,
          0.012741786327658728,
          0.005932707385303347,
          -0.003528799477592687,
          0.002234828077457756,
          -0.0037176341515366123,
          0.002328660020271743,
          -0.002852115804325701,
          -0.002959943932839964,
          -0.008176214521132368,
          -0.0009205481564240352,
          0.004356109076893101,
          -0.0016894739510710177,
          -0.02381500370580769,
          -0.014892037784894563,
          -0.009872440835093185,
          -0.002989373730061041,
          0.0020164116528062583,
          -0.012622044984458404,
          0.007551235958530405,
          -0.006436066892249781,
          -0.011692804274350366,
          -0.01308082355678586,
          0.014091554628370974,
          0.007983865689297756,
          -0.016729117705200202,
          0.001761132409256444,
          -0.003199717956999818,
          -0.0038213023336216936,
          -0.006449096649671632,
          0.005937698376376219,
          -0.00028564018837153705,
          0.00030751452181035046,
          0.0008119135717734495,
          -0.005121237460983866,
          0.0070198650022713265,
          0.002110405046687271,
          -0.00906949540584418,
          0.0010936518024386509,
          -0.013974518757636669,
          -0.0033520058742154196,
          -0.012654257295394147,
          0.010063794266079512,
          -0.0016350620550241808,
          -0.00615593521923776,
          0.007852014743593405,
          0.005018797736151735,
          -0.0030668138814910367,
          -0.009840821095432925,
          0.0012791505583926524,
          -0.01079746086955116,
          -0.010742184193623657,
          0.0009374739706443627,
          0.008173545933027736,
          -0.006434393667437414,
          -0.004320446722680943,
          -0.005332244645693295,
          0.006651463259077362,
          -0.005961667603741692,
          0.0030765966738061407,
          -0.010257226550775723,
          -0.008178696070636822,
          0.0026233214376677224,
          -0.002690899891169498,
          -0.004526015095424965,
          -0.010009516623402315,
          0.010370756892959557,
          0.002790789309715967,
          -0.0009474386959338511,
          0.004197777487151181,
          0.0002391830367630613,
          -0.004931763484615469,
          0.02273747823944882,
          -0.011270343625113402,
          -0.017982944162288985,
          0.010147680047436823,
          -0.003358156000485445,
          -0.007740010993729847,
          0.005238118688761061,
          0.00023294615914895144,
          -0.004099539491584494,
          0.009837663970583922,
          -0.002567951841161042,
          0.006751484223914416,
          -0.007711831065481861,
          -0.005654025974189683,
          0.01970459413785378,
          -0.0005407050075096373,
          0.010240680131779683,
          -0.015860973965859077,
          -0.014167727209604504,
          -0.011519085792375242,
          0.004192593617539742,
          0.0037104539223940616,
          0.0008921640933092119,
          -0.009440903684974657,
          0.002838929326933883,
          -0.015118610810407041,
          -0.008182957209384422,
          0.0019558659342605,
          0.003945499145626289,
          -0.011470759326659063,
          -0.002987879775757798,
          -0.017789122274272724,
          0.004794997040056758,
          -0.010462567049455114,
          0.0057950038242585225,
          0.010321971341357306,
          0.0031628487116856225,
          0.008073499921036228,
          0.007161536343564555,
          0.007275393907400295,
          -0.010322069872039184,
          0.01418998598412877,
          -0.005529478396743356,
          0.00926836269482612,
          0.002723392064230473,
          -0.004794809220369641,
          -0.02543755119478582,
          -0.01992857027678065,
          0.00679798960915751,
          0.006533536853900374,
          0.004354487895222383,
          0.008526631909089654,
          0.007523354975192746,
          0.0067689390962428235,
          0.013036660234520957,
          0.0005803500232047047,
          -0.0005832548414179823,
          0.0060793708934793,
          -0.015694858911580907,
          0.00966091037173344,
          -0.011545352445438972,
          0.0021695705577356446,
          0.0009481996857601704,
          0.008167216214136748,
          0.0033758213199960477,
          0.0033576214203865917,
          -0.025073668886427508,
          -0.009494840663618663,
          -0.007389942885421786,
          0.012215485162535757,
          -0.0024880099336722448,
          0.0029909545746299817,
          0.005595538642650808,
          -0.027675485973860235,
          -0.005281330893754108,
          -0.006359476871376711,
          0.012044372473040209,
          0.007548809836880286,
          0.006622454102666835,
          0.0140994024682326,
          0.001764388117080793,
          0.0020934083758936063,
          0.0007996561132858705,
          0.0027629443106048242,
          -0.003685563359258283,
          0.001888918028077468,
          0.018877335240809947,
          -0.021276391403434278,
          0.001150561261097167,
          0.004667406771597906,
          0.0005006855355830494,
          0.0007169393272145023,
          -0.008663748281327741,
          -0.00151188993243971,
          -0.000274427777893634,
          0.0010077982587685282,
          0.005354177014798393,
          0.004157334378879115,
          -0.013120307739314458,
          -0.014025231477639009,
          0.0018435520623866662,
          0.0017605064709942362,
          0.004408043374919717,
          0.0028615255905948705,
          -0.005140642105087923,
          -0.004636207993882233,
          0.005309548123984315,
          -0.0011451369436595077,
          0.014862153597113435,
          -0.00911152691581756,
          -0.00012196019733675565,
          -0.0008468868040863352,
          -0.0018233845224682379,
          0.000717037654847755,
          0.0030062685532096177,
          -0.012129606762384417,
          0.017234849986623682,
          0.0026040101641938806,
          0.0035123723970302213,
          0.015862684487595823,
          0.013967869964270015,
          0.0013141696687688793,
