{
  "input_shape": [
    28,
    28
  ],
  "preprocess": {
    "scale": 255.0
  },
  "layers": [
    {
      "type": "dense",
      "units": 128,
      "activation": "relu",
      "W": [
        [
          -0.0003428936470299959,
          -0.0023244554176926613,
          0.0022001329343765974,
          0.005573350470513105,
          -0.007815799675881863,
          0.02111620083451271,
          -0.012385238893330097,
          -0.012137296609580517,
          0.00879994872957468,
          -0.00805484876036644,
          -0.0022329080384224653,
          -0.010793428868055344,
          0.0016119814245030284,
          0.0024866678286343813,
          0.007095785811543465,
          0.0010087109403684735,
          -0.012601206079125404,
          0.004246373660862446,
          -0.02240840345621109,
          0.005549391731619835,
          -0.007500289008021355,
          0.018032176420092583,
          -0.007967782206833363,
          0.01377120241522789,
          -0.011880922131240368,
          -0.029962273314595222,
          -0.0026624100282788277,
          0.010213005356490612,
          0.0044869412668049335,
          -0.009132424369454384,
          0.00015948757936712354,
          0.021826639771461487,
          -0.009223676286637783,
          0.0048566279001533985,
          0.0032575305085629225,
          -0.006033855956047773,
          0.0049239895306527615,
          -0.01932772435247898,
          0.011877544224262238,
          -3.3472548238933086e-05,
          -0.0042589157819747925,
          -0.008675800636410713,
          0.007517999038100243,
          -0.00707041984423995,
          0.013919170014560223,
          0.0037764774169772863,
          -0.005926371552050114,
          -0.004498475696891546,
          -0.012752671726047993,
          0.006392079871147871,
          -0.0076360804960131645,
          0.0031003914773464203,
          0.015262733213603497,
          0.0073688137345016,
          0.010959570296108723,
          -0.007496757432818413,
          -0.009139570407569408,
          -0.00021620803454425186,
          -0.0060081337578594685,
          0.00847888458520174,
          -7.405773794744164e-05,
          0.00040959171019494534,
          0.01624307967722416,
          -0.000763801799621433,
          0.010188028216362,
          0.0027384753338992596,
          0.017148874700069427,
          -0.014662036672234535,
          -0.0016026170924305916,
          0.005582903046160936,
          0.005181438755244017,
          -0.008289911784231663,
          -0.003973143640905619,
          -0.004416226875036955,
          0.0073230694979429245,
          0.0015575094148516655,
          -0.02340080589056015,
          -0.008661651983857155,
          0.0025376309640705585,
          0.0052736857905983925,
          0.00532037066295743,
          -0.006897242274135351,
          0.0135498633608222,
          0.008415804244577885,
          -0.0073693483136594296,
          0.006822782102972269,
          0.0008611539960838854,
          0.0004962454549968243,
          -0.000549265940207988,
          -0.00652626296505332,
          0.0037482089828699827,
          -0.008589837700128555,
          -0.0010258490219712257,
          0.0014898112276569009,
          -0.007009499706327915,
          -0.005344587843865156,
          0.004364832304418087,
          -0.0025157597847282887,
          -0.0024767236318439245,
          -0.016532912850379944,
          0.001966755371540785,
          -0.0038536288775503635,
          0.0012437545228749514,
          0.006742087192833424,
          0.005583126097917557,
          -0.006001487374305725,
          0.001393991056829691,
          -0.001657925546169281,
          -0.0031984325032681227,
          -0.014599891379475594,
          -0.013100520707666874,
          -0.006716434378176928,
          -0.00044818062451668084,
          0.012563207186758518,
          -0.0070108044892549515,
          0.007580633275210857,
          0.0028296017553657293,
          -0.00695630582049489,
          0.007647133897989988,
          -6.286465941229835e-05,
          0.011618783697485924,
          0.009408888407051563,
          0.0075613148510456085,
          -0.006523470859974623,
          -0.004636844154447317,
          -0.0077863093465566635,
          -0.0009085669880732894,
          -0.008034384809434414,
          -0.009859295561909676,
          -0.010052217170596123,
          -0.0005290278932079673,
          0.014982050284743309,
          -0.00821337103843689,
          -0.00551268644630909,
          -0.004974584560841322,
          -0.01414690725505352,
          0.0019962640944868326,
          -0.006241378374397755,
          -0.004352106712758541,
          -0.007293961476534605,
          0.005214795935899019,
          0.014390944503247738,
          0.0041086324490606785,
          -0.016525201499462128,
          -0.008958905935287476,
          0.015753621235489845,
          -0.009716794826090336,
          -0.0034186909906566143,
          -0.006010006181895733,
          0.005118407774716616,
          -0.012355662882328033,
          -0.012467049062252045,
          -0.007716288324445486,
          -0.013942522928118706,
          -0.01852714829146862,
          -0.005957785993814468,
          -0.01947576366364956,
          -0.003486471250653267,
          -0.01149563305079937,
          -0.005098461639136076,
          0.0035231662914156914,
          0.0007908295374363661,
          -0.002925639972090721,
          -0.0021970972884446383,
          -0.013182115741074085,
          3.375533196958713e-05,
          0.015941305086016655,
          0.00271714199334383,
          -0.00022803476895205677,
          0.0027905895840376616,
          0.01531519740819931,
          -0.001863893587142229,
          0.007179939653724432,
          0.0011064807185903192,
          -0.0056893909350037575,
          -0.01062181405723095,
          -0.017834438011050224,
          0.009846249595284462,
          -0.008819082751870155,
          0.006084699183702469,
          0.005310627166181803,
          -0.018265215680003166,
          0.0026043420657515526,
          -0.01672181859612465,
          0.005764666013419628,
          0.0005387264536693692,
          -0.018324462696909904,
          -0.00952858105301857,
          0.007226706948131323,
          -0.011357501149177551,
          0.0014133340446278453,
          -0.008058099076151848,
          -0.0025649694725871086,
          -0.01376250758767128,
          -0.005288759712129831,
          -0.00869643222540617,
          0.0030704683158546686,
          -0.003831169568002224,
          0.002423550933599472,
          -0.027009490877389908,
          -0.012375466525554657,
          -0.012326564639806747,
          -0.010271452367305756,
          -0.00042701148777268827,
          -0.01891065016388893,
          -0.0035597984679043293,
          -0.019752660766243935,
          -0.02773205190896988,
          -0.016571136191487312,
          0.002163002034649253,
          -0.022352516651153564,
          -0.001394449733197689,
          -0.007570625748485327,
          -0.00598147651180625,
          -0.010207871906459332,
          -0.01808292604982853,
          -0.007586283143609762,
          -0.0018596757436171174,
          0.0015533759724348783,
          -0.01030596811324358,
          -0.006188931874930859,
          0.005781982094049454,
          0.011643507517874241,
          0.00304625672288239,
          -0.018799621611833572,
          -0.01330763939768076,
          0.01062170509248972,
          0.018787207081913948,
          0.004718973767012358,
          -0.009516047313809395,
          0.0037376941181719303,
          0.001492994837462902,
          -0.0028880047611892223,
          0.004495456349104643,
          -0.0063190460205078125,
          -0.013124248012900352,
          -0.00598134845495224,
          -0.0066992794163525105,
          -0.014588922262191772,
          -0.01424181554466486,
          -0.009317203424870968,
          -0.011355315335094929,
          -0.008706332184374332,
          -0.011207067407667637,
          0.003914128057658672,
          0.01671729050576687,
          0.01662406139075756,
          0.013621155172586441,
          -0.0008016352658160031,
          0.028469471260905266,
          0.020900877192616463,
          -0.0005527823814190924,
          0.007057166192680597,
          -0.007575539406388998,
          -0.008584102615714073,
          -0.016215695068240166,
          0.0048972791992127895,
          0.006825362332165241,
          -0.015945598483085632,
          -0.0014332389691844583,
          -0.00462611299008131,
          -0.013754189945757389,
          -0.0036181414034217596,
          -0.006771695334464312,
          -0.032229311764240265,
          -0.008633427321910858,
          -0.009613612666726112,
          -0.005047798156738281,
          -0.008041857741773129,
          0.007467052899301052,
          -0.014206563122570515,
          0.001871967688202858,
          -0.011800688691437244,
          -0.01509141456335783,
          -0.004096846096217632,
          0.0062178028747439384,
          0.011764060705900192,
          0.0025597386993467808,
          -0.0028888380620628595,
          -0.0036284364759922028,
          0.009377267211675644,
          0.007132958620786667,
          0.008891674689948559,
          -0.003152938326820731,
          -0.03264136612415314,
          0.012593529187142849,
          -0.003797834971919656,
          0.009723611176013947,
          -0.013220747001469135,
          -0.007613842375576496,
          0.01579749397933483,
          -0.00034402403980493546,
          -0.0038957512006163597,
          -0.005590993445366621,
          0.013201494701206684,
          -0.01189574133604765,
          -0.0026538665406405926,
          -0.013364194892346859,
          -0.012654408812522888,
          -0.015083028003573418,
          -0.010944614186882973,
          0.008147296495735645,
          0.014966387301683426,
          0.004302251152694225,
          -0.013929951004683971,
          0.011770917102694511,
          -0.021943196654319763,
          0.014143725857138634,
          0.013705004006624222,
          -0.00012018100824207067,
          0.0016625511925667524,
          -0.00581356743350625,
          0.007475933991372585,
          0.0019804751500487328,
          -0.01733030192553997,
          -0.008391482755541801,
          -0.008787491358816624,
          -0.0076350378803908825,
          0.009748953394591808,
          -0.0053860838524997234,
          -0.00573772843927145,
          0.0010591974714770913,
          -0.004708551336079836,
          -0.01153942383825779,
          -0.004619221668690443,
          -0.007364308461546898,
          -0.0029947201255708933,
          -0.016721604391932487,
          -0.015562457032501698,
          -0.009522772394120693,
          -0.012571791186928749,
          -0.005132885649800301,
          -0.00018909199570771307,
          -0.01010853424668312,
          0.01167711429297924,
          0.005938106216490269,
          0.0022224290296435356,
          -0.0022024870850145817,
          -0.011628933250904083,
          0.013848335482180119,
          -0.0022644922137260437,
          -0.0031280522234737873,
          0.009420737624168396,
          -0.005926205310970545,
          -0.0004434867005329579,
          -0.0006796594825573266,
          0.026190271601080894,
          0.008758548647165298,
          -0.007556299678981304,
          -0.00019790850637946278,
          -0.002760709961876273,
          -0.015513144433498383,
          0.004687797743827105,
          0.006747395731508732,
          -0.002224771538749337,
          0.01551043801009655,
          0.005779125262051821,
          -0.011083097197115421,
          -0.00377662293612957,
          0.0028547297697514296,
          0.011779898777604103,
          0.022693268954753876,
          0.004214215558022261,
          0.009331028908491135,
          -0.011620553210377693,
          0.004090717062354088,
          0.00695409718900919,
          0.004007786512374878,
          -0.0007784668123349547,
          -0.0029001643415540457,
          -0.005173794459551573,
          -0.010420195758342743,
          0.012816588394343853,
          -0.019536998122930527,
          -0.007654270157217979,
          0.007531540468335152,
          -0.006996867712587118,
          -0.014017765410244465,
          0.001874071080237627,
          -0.0070556942373514175,
          -0.01897888258099556,
          -0.015997298061847687,
          0.006433865521103144,
          0.012445452623069286,
          -0.0036931822542101145,
          0.004248935729265213,
          0.006269323173910379,
          -0.00577832106500864,
          0.005587535910308361,
          0.009205415844917297,
          0.021167675033211708,
          -0.0018462156876921654,
          0.006840717513114214,
          0.020872002467513084,
          -0.00527060404419899,
          0.024517010897397995,
          -0.02912655472755432,
          -0.0010224225698038936,
          -0.0010338110150769353,
          -0.005673832260072231,
          -0.009012799710035324,
          -0.01734754629433155,
          0.011527183465659618,
          0.011074197478592396,
          -0.002122326986864209,
          -0.003267359221354127,
          0.0007905276725068688,
          0.018009401857852936,
          0.010803659446537495,
          0.008624231442809105,
          -0.008338435553014278,
          -0.008905832655727863,
          -0.023981725797057152,
          -0.004793903790414333,
          -0.01256797555834055,
          -0.013471645303070545,
          0.0047888378612697124,
          0.01723223179578781,
          -0.002702329307794571,
          0.019957706332206726,
          0.0017649325309321284,
          -0.009437903761863708,
          0.004770996980369091,
          -0.006231349427253008,
          0.014690212905406952,
          -0.005080759059637785,
          -0.009675993584096432,
          0.0028431208338588476,
          0.010568431578576565,
          -0.004257632419466972,
          0.0004997661453671753,
          -0.0009594482835382223,
          -0.0005731019773520529,
          -0.011283228173851967,
          -0.009432239457964897,
          -0.0174481812864542,
          -0.009805817157030106,
          -0.020107638090848923,
          -0.008952599950134754,
          -0.00033847783925011754,
          -0.01935582235455513,
          -0.0037149868439882994,
          0.004723436199128628,
          -0.009100668132305145,
          0.003408712102100253,
          -0.007995753549039364,
          0.0038324808701872826,
          -0.003125076415017247,
          0.0007583939004689455,
          -0.009533991105854511,
          -0.006849834695458412,
          0.013839995488524437,
          0.0062029059045016766,
          -0.02097957208752632,
          0.010693017393350601,
          -0.0007499585044570267,
          -0.009256330318748951,
          0.020042892545461655,
          -0.012632871977984905,
          0.000902967294678092,
          -0.0034391270019114017,
          -0.006104085128754377,
          0.0005508683389052749,
          -0.0124566201120615,
          -0.002878403291106224,
          -0.017307285219430923,
          -0.01777558960020542,
          -0.006582977715879679,
          0.004098478704690933,
          -0.01507982425391674,
          -0.012686224654316902,
          0.017545590177178383,
          0.0006418425473384559,
          0.002979294629767537,
          -0.010858061723411083,
          -0.005356935318559408,
          0.005212913732975721,
          -0.009495621547102928,
          -0.01580694317817688,
          0.005772988311946392,
          0.0021001112181693316,
          0.0055443039163947105,
          -0.0034905639477074146,
          -0.0004402595805004239,
          0.002532440470531583,
          0.0017939601093530655,
          0.00697348965331912,
          -0.00694781169295311,
          -0.007995644584298134,
          -0.00255744275636971,
          -0.029617728665471077,
          -0.009837772697210312,
          -0.021543074399232864,
          -0.025647731497883797,
          0.007032828871160746,
          -0.013878900557756424,
          -0.017954235896468163,
          -0.013913593254983425,
          -0.014380265958607197,
          -0.015306235291063786,
          -0.0027488875202834606,
          -0.03467793017625809,
          -0.0015891162911430001,
          -0.011041748337447643,
          0.005695849657058716,
          -0.0014524288708344102,
          0.004791739396750927,
          -0.0072524044662714005,
          -0.00017812808800954372,
          -0.0011416350025683641,
          0.017598411068320274,
          -0.01319858618080616,
          -0.006080818362534046,
          -0.0015115661080926657,
          0.005767282098531723,
          -0.00041719325236044824,
          0.0027485450264066458,
          -0.0333392433822155,
          -0.005193234421312809,
          0.010029805824160576,
          -0.016597691923379898,
          -0.01575423777103424,
          -0.006214027293026447,
          -0.032229311764240265,
          0.0028090544510632753,
          -0.011496002785861492,
          0.0005731430719606578,
          0.02032199501991272,
          0.007220711093395948,
          -0.01821654662489891,
          -0.0018375404179096222,
          0.005400592461228371,
          0.015064111910760403,
          -0.0003579635813366622,
          -0.0005492634954862297,
          -0.017065703868865967,
          -0.010836048983037472,
          0.010483278892934322,
          0.011029739864170551,
          0.00037479077582247555,
          -0.005099110305309296,
          -0.005605172365903854,
          -0.001312471111305058,
          0.001779677695594728,
          0.0009057826828211546,
          0.0027592128608375788,
          -0.0098452502861619,
          0.004515694919973612,
          -0.0008515549707226455,
          -0.021633869037032127,
          -0.00488167954608798,
          -0.006493798457086086,
          -0.004059557802975178,
          -0.013756376691162586,
          -0.0005676162545569241,
          0.010081091895699501,
          -0.011902518570423126,
          -0.02554210275411606,
          0.0040640635415911674,
          0.0038250163197517395,
          -0.008653565309941769,
          0.008641373366117477,
          0.0005135058308951557,
          0.010289518162608147,
          0.009162858128547668,
          -0.0016382832545787096,
          0.0021446433383971453,
          0.009538782760500908,
          -0.01555734034627676,
          0.0048691160045564175,
          0.007100576534867287,
          -0.001423679175786674,
          -0.024295974522829056,
          0.012641211971640587,
          -0.018479177728295326,
          -0.014591112732887268,
          -0.005509627051651478,
          -0.02087804302573204,
          0.0005998804117552936,
          -0.00894212070852518,
          0.0018681383226066828,
          -0.004596838727593422,
          0.02951885759830475,
          -0.012259275652468204,
          -0.011153187602758408,
          -0.0051300618797540665,
          -0.0012874770909547806,
          0.022186346352100372,
          0.00593682611361146,
          -0.009373617358505726,
          -0.008886497467756271,
          0.0030526560731232166,
          0.013800553046166897,
          0.002296560676768422,
          -0.009573882445693016,
          -0.015964949503540993,
          -0.009776530787348747,
          0.012689179740846157,
          -0.00929306074976921,
          -0.00047692417865619063,
          -0.013389638625085354,
          -0.014492487534880638,
          -0.0046060471795499325,
          -0.002681347541511059,
          -0.017791328951716423,
          -0.007870901376008987,
          -0.002360780257731676,
          -0.007384137716144323,
          0.011387511156499386,
          0.003965943120419979,
          -0.013350147753953934,
          -0.009338895790278912,
          0.008775021880865097,
          -0.012750539928674698,
          0.009111020714044571,
          -0.0021577938459813595,
          -0.007830596528947353,
          -0.015319349244236946,
          -0.002892701653763652,
          -0.01209329441189766,
          0.0013473478611558676,
          -0.011055258102715015,
          0.00701725110411644,
          -0.009959251619875431,
          -0.005703827831894159,
          0.022679440677165985,
          -0.011564165353775024,
          -0.005872211419045925,
          -0.014954708516597748,
          -0.00034509992110542953,
          -0.0022098335903137922,
          -0.005985425319522619,
          0.0024214163422584534,
          -0.022290987893939018,
          0.004598146770149469,
          -0.0020846885163336992,
          0.0024881174322217703,
          -0.00014077975356485695,
          -0.007305703591555357,
          -0.01020484883338213,
          0.005936980713158846,
          0.006241787690669298,
          0.004071793518960476,
          -0.010258419439196587,
          0.0036675899755209684,
          -0.010044042952358723,
          0.012685473076999187,
          -0.007722710259258747,
          0.03656487166881561,
          0.002699984470382333,
          0.017875365912914276,
          -0.020746203139424324,
          0.0021682744845747948,
          -0.0013505651149898767,
          0.003640123177319765,
          0.019487889483571053,
          0.005561601370573044,
          0.006195737514644861,
          -0.01611355133354664,
          4.139589873375371e-05,
          -0.018766487017273903,
          -0.0029522923287004232,
          -0.011986794881522655,
          -0.007156500592827797,
          -0.003461114363744855,
          0.0023831557482481003,
          -0.004609365947544575,
          0.003188741859048605,
          -0.00437770364806056,
          -0.002593780867755413,
          0.0003886696358677,
          0.024181921035051346,
          0.004606619011610746,
          -0.0059261443093419075,
          0.002551096025854349,
          0.015239576809108257,
          -0.017179543152451515,
          0.0011193857062608004,
          0.00428537093102932,
          -0.009415319189429283,
          0.006448038853704929,
          -0.011076795868575573,
          -0.019625501707196236,
          -0.0066329254768788815,
          -0.009630660526454449,
          -0.018006404861807823,
          -0.00753343990072608,
          0.006958714686334133,
          0.0033889897167682648,
          -0.015305766835808754,
          -0.008448394015431404,
          -0.0003276054630987346,
          0.010577051900327206,
          0.014259576797485352,
          0.0013837780570611358,
          0.008473040536046028,
          -0.005552415736019611,
          0.0010276595130562782,
          -0.013886304572224617,
          -0.008488290011882782,
          -0.0037890018429607153,
          -0.016896681860089302,
          -0.005669446662068367,
          -0.001243454054929316,
          0.025834348052740097,
          0.010922522284090519,
          -0.003880220465362072,
          -0.013783255591988564,
          0.006148883141577244,
          0.004103570710867643,
          -0.013246294111013412,
          0.003896992187947035,
          0.0017428882420063019,
          -0.001610353123396635,
          -0.007800917141139507,
          0.0079819206148386,
          0.011005467735230923,
          0.005316296126693487,
          -0.006662479601800442,
          -0.0086003877222538,
          -0.0020988599862903357,
          -0.014573697000741959,
          -0.0031310708727687597,
          -0.018326664343476295,
          0.0064191981218755245,
          0.004677024204283953,
          -0.02492753602564335,
          0.007841203361749649,
          0.016130490228533745,
          0.0002752714208327234,
          0.005374164320528507,
          0.008108025416731834,
          -0.004834067076444626,
          0.007060183212161064,
          0.021115349605679512,
          -0.017841484397649765,
          0.0012148608220741153,
          -0.005285137332975864,
          0.01877111941576004,
          0.003841075813397765,
          -0.019882937893271446,
          -0.0025988828856498003,
          -0.004603968933224678,
          0.004682495258748531,
          -0.00773337809368968,
          0.0014744357904419303,
          0.007170170079916716,
          0.02111811190843582,
          -0.0282011479139328,
          0.016870630905032158,
          -0.003306817729026079,
          0.0042411088943481445,
          0.005479428917169571,
          0.007050986401736736,
          0.008645931258797646,
          -0.003109475364908576,
          -0.006638735067099333,
          -0.01646449975669384,
          0.00998131837695837,
          -0.004504275508224964,
          0.007553525269031525,
          -0.018148893490433693,
          -0.005507548339664936,
          0.014769797213375568,
          -0.0034519273322075605,
          0.008136285468935966,
          -0.007577213458716869,
          0.006503676064312458,
          0.0048216055147349834,
          0.0036471716593950987,
          0.0006860829889774323,
          -0.004456869792193174,
          0.01029486395418644,
          -0.00894232839345932,
          0.018621843308210373,
          0.0020821532234549522,
          0.00478279497474432,
          0.014705740846693516,
          0.00960062351077795,
          -0.002648188266903162,
          -0.009364739060401917,
          -0.0058008343912661076,
          -0.0021212820429354906,
          0.009841899387538433
        ],
        [
          -0.012190137058496475,
          0.013122618198394775,
          0.012646143324673176,
          -0.0012018970446661115,
          -0.01625354215502739,
          0.0033549636136740446,
          0.00762462243437767,
          -0.008148427121341228,
          0.003255366114899516,
          0.008596153929829597,
          0.011347278952598572,
          0.0020588517654687166,
          0.019011469557881355,
          0.032160501927137375,
          0.004647558555006981,
          0.010972468182444572,
          0.0007982782553881407,
          -0.012397145852446556,
          -0.006777383852750063,
          -0.012691057287156582,
          -0.010034308768808842,
          0.004474066663533449,
          -0.003743740264326334,
          -0.011015227064490318,
          0.0065294429659843445,
          -0.003413283033296466,
          0.0023290282115340233,
          0.005278188735246658,
          -0.016841061413288116,
          0.01864086650311947,
          -0.0005658097215928137,
          -0.002938874065876007,
          -0.009324264712631702,
          -0.008590073324739933,
          -0.001833467511460185,
          0.080415278673172,
          0.05284452065825462,
          0.04813027381896973,
          0.030942268669605255,
          -0.034078024327754974,
          -0.016032153740525246,
          0.017092213034629822,
          0.061414606869220734,
          0.10946149379014969,
          0.07432299852371216,
          0.007175058126449585,
          -0.034394506365060806,
          -0.0249149389564991,
          -0.007199055980890989,
          -0.007451392710208893,
          -0.001393967540934682,
          -0.008250577375292778,
          -0.000946330837905407,
          -0.010902679525315762,
          0.004946920555084944,
          -0.0008340999484062195,
          -0.0033627531956881285,
          0.00046653192839585245,
          -0.0072870622389018536,
          -0.0028910371474921703,
          -0.023921582847833633,
          0.04998775199055672,
          0.056707218289375305,
          0.03718370944261551,
          0.040889620780944824,
          0.08464794605970383,
          0.08853232115507126,
          0.12204211950302124,
          0.19492197036743164,
          0.06038644537329674,
          0.02510106936097145,
          0.029130958020687103,
          0.011417750269174576,
          -0.03413093090057373,
          -0.11509057879447937,
          -0.16836152970790863,
          -0.13932104408740997,
          -0.0855318084359169,
          -0.05756843090057373,
          -0.031209267675876617,
          -0.020790431648492813,
          -0.006054014433175325,
          0.010643077082931995,
          0.004501891788095236,
          -0.0007418287568725646,
          0.00036472047213464975,
          0.16979187726974487,
          0.17668311297893524,
          0.12029539048671722,
          0.07251249998807907,
          0.10069382935762405,
          0.1282408982515335,
          0.15098321437835693,
          0.16344134509563446,
          0.1479376256465912,
          0.21587172150611877,
          0.23183032870292664,
          0.12249685823917389,
          -0.005896315909922123,
          -0.05631450191140175,
          -0.08588389307260513,
          -0.1135043129324913,
          -0.13365235924720764,
          -0.1452050507068634,
          -0.1794160157442093,
          -0.13878414034843445,
          -0.05221225693821907,
          -0.06626654416322708,
          -0.0614355243742466,
          -0.04059644043445587,
          -0.02773650921881199,
          -0.008223139680922031,
          -0.01860051043331623,
          0.04119982570409775,
          0.19994422793388367,
          0.18904606997966766,
          0.22291749715805054,
          0.2771752178668976,
          0.07472297549247742,
          0.095629021525383,
          0.23673538863658905,
          0.19305644929409027,
          0.2028275728225708,
          0.18757818639278412,
          0.21477024257183075,
          0.1611894816160202,
          0.08149716258049011,
          0.014687045477330685,
          -0.013430948369204998,
          -0.06105637177824974,
          -0.0537002868950367,
          -0.04227151721715927,
          -0.018217578530311584,
          -0.0018901233561336994,
          -0.06722283363342285,
          -0.1593228131532669,
          -0.08536656200885773,
          -0.08262808620929718,
          -0.006278153043240309,
          -0.007419658824801445,
          -0.002029322786256671,
          0.006378368474543095,
          0.21336136758327484,
          0.15605928003787994,
          0.2850070595741272,
          0.22697483003139496,
          0.13346880674362183,
          0.11155077815055847,
          0.13146169483661652,
          0.14943206310272217,
          0.18832120299339294,
          0.16069388389587402,
          0.11120016127824783,
          0.05890083312988281,
          0.031021447852253914,
          0.06306011229753494,
          0.06288617104291916,
          -0.03337658941745758,
          -0.06655295193195343,
          -0.008870278485119343,
          -0.029364004731178284,
          -0.006130743306130171,
          -0.10990438610315323,
          -0.22432124614715576,
          -0.17401406168937683,
          -0.1374087929725647,
          -0.0007002437487244606,
          -0.0031424330081790686,
          0.02018856815993786,
          0.0630798190832138,
          0.09741706401109695,
          0.26750266551971436,
          0.2716040313243866,
          0.14348118007183075,
          0.1290920078754425,
          0.11659038811922073,
          0.12558431923389435,
          0.13696832954883575,
          0.1727670282125473,
          0.12435171753168106,
          0.1272309273481369,
          0.10783327370882034,
          0.03576875478029251,
          0.016854187473654747,
          -0.026963671669363976,
          -0.01254939753562212,
          -0.0012310596648603678,
          -0.04674653708934784,
          -0.04532812535762787,
          -0.061447154730558395,
          -0.15053726732730865,
          -0.19547516107559204,
          -0.2146688550710678,
          -0.09692934900522232,
          -0.010665711015462875,
          -0.04480331391096115,
          -0.029290800914168358,
          0.0899738073348999,
          0.05128754675388336,
          0.26857441663742065,
          0.2914997935295105,
          0.15168264508247375,
          0.04193032905459404,
          0.087447889149189,
          0.019694043323397636,
          0.034176427870988846,
          -0.017771776765584946,
          -0.020504143089056015,
          0.014703240245580673,
          0.05795871838927269,
          0.026254508644342422,
          0.0031257392838597298,
          0.02269606478512287,
          -0.0028544773813337088,
          -0.01005853246897459,
          0.0028440644964575768,
          -0.060191113501787186,
          -0.08324181288480759,
          -0.1615590900182724,
          -0.23794056475162506,
          -0.22856557369232178,
          -0.10676342248916626,
          -0.007484075613319874,
          -0.054697711020708084,
          -0.02122466266155243,
          0.07556907832622528,
          -0.08247286081314087,
          0.15998436510562897,
          0.26582881808280945,
          0.07729317247867584,
          0.017853451892733574,
          -0.007468067575246096,
          -0.15530310571193695,
          -0.20181575417518616,
          -0.21700429916381836,
          -0.265286386013031,
          -0.11981189996004105,
          -0.013146613724529743,
          0.024467159062623978,
          0.03960409760475159,
          0.07008687406778336,
          0.11962787806987762,
          0.07245845347642899,
          0.07980445772409439,
          -0.0661524087190628,
          -0.16685931384563446,
          -0.21760228276252747,
          -0.31847497820854187,
          -0.32680657505989075,
          -0.12949688732624054,
          -0.024573206901550293,
          -0.008182190358638763,
          -0.030662210658192635,
          0.09494762867689133,
          0.007586851250380278,
          0.12181093543767929,
          0.09284868836402893,
          -0.09121996909379959,
          -0.14619852602481842,
          -0.20664870738983154,
          -0.31907710433006287,
          -0.3722842335700989,
          -0.40922799706459045,
          -0.41562697291374207,
          -0.28643733263015747,
          -0.13614796102046967,
          0.04245031252503395,
          0.14455486834049225,
          0.1501455157995224,
          0.142996683716774,
          0.08024128526449203,
          0.02405012957751751,
          -0.12576302886009216,
          -0.21446135640144348,
          -0.2522262930870056,
          -0.26597532629966736,
          -0.2428610920906067,
          -0.1313246339559555,
          0.07122036814689636,
          0.018289528787136078,
          -0.0012830148916691542,
          0.043816808611154556,
          0.03639068454504013,
          0.08375970274209976,
          -0.03847038745880127,
          -0.09000524878501892,
          -0.2652733623981476,
          -0.37722018361091614,
          -0.4440784156322479,
          -0.4509251117706299,
          -0.2747524380683899,
          -0.20247548818588257,
          -0.15339906513690948,
          -0.0574130117893219,
          0.11948561668395996,
          0.12736500799655914,
          0.14884443581104279,
          0.10002122074365616,
          0.061286650598049164,
          -0.009989327751100063,
          -0.1846010386943817,
          -0.29169631004333496,
          -0.2668558955192566,
          -0.2043916881084442,
          -0.137425035238266,
          0.013624507933855057,
          0.07696601003408432,
          0.05807557702064514,
          -0.015029512345790863,
          0.08674819767475128,
          0.011040315963327885,
          0.025089235976338387,
          -0.0680081769824028,
          -0.13439947366714478,
          -0.2987760305404663,
          -0.35062119364738464,
          -0.321406751871109,
          -0.17004163563251495,
          -0.028465569019317627,
          0.0650237500667572,
          -0.021607646718621254,
          0.032998811453580856,
          0.1112489402294159,
          0.10190865397453308,
          0.03061785362660885,
          -0.0073710717260837555,
          -0.0033403735142201185,
          -0.048056986182928085,
          -0.08469656854867935,
          -0.2204662263393402,
          -0.24741417169570923,
          -0.17931143939495087,
          -0.06789468973875046,
          0.09959506243467331,
          0.06427109241485596,
          0.09747570008039474,
          0.008594188839197159,
          -0.028933405876159668,
          -0.0405450277030468,
          -0.0423857718706131,
          -0.12299611419439316,
          -0.14676780998706818,
          -0.269281804561615,
          -0.2368776649236679,
          -0.09718625247478485,
          0.1099330484867096,
          0.12474872916936874,
          0.09390123188495636,
          0.008086543530225754,
          0.046048853546381,
          0.12768499553203583,
          0.05056270584464073,
          -0.027159182354807854,
          -0.03918822109699249,
          -0.08914490044116974,
          -0.1266295462846756,
          -0.14724121987819672,
          -0.16128984093666077,
          -0.19477282464504242,
          -0.17108678817749023,
          -0.0643247440457344,
          0.043641407042741776,
          0.06404352933168411,
          0.06508179008960724,
          0.04849264398217201,
          0.0031151871662586927,
          -0.017719579860568047,
          0.007465823087841272,
          -0.11939550936222076,
          -0.17525933682918549,
          -0.16216818988323212,
          -0.11776567995548248,
          0.019867869094014168,
          0.07098422944545746,
          0.07270979881286621,
          -0.034483835101127625,
          -0.04676215723156929,
          0.08246935158967972,
          0.10026177763938904,
          0.03524547442793846,
          -0.029298005625605583,
          -0.08456497639417648,
          -0.06791304051876068,
          -0.087567538022995,
          -0.1119413748383522,
          -0.132950559258461,
          -0.1875096708536148,
          -0.147431880235672,
          -0.059467971324920654,
          0.07809004187583923,
          0.15050676465034485,
          0.01786751113831997,
          -0.017550621181726456,
          -0.0168923307210207,
          -0.004222583957016468,
          0.07897624373435974,
          -0.08744319528341293,
          -0.13771450519561768,
          -0.16344106197357178,
          -0.08429082483053207,
          0.021480564028024673,
          0.0032329775858670473,
          -0.03833669424057007,
          -0.08028005808591843,
          -0.04582260921597481,
          0.09702321141958237,
          0.15037883818149567,
          0.045527003705501556,
          -0.09575718641281128,
          -0.11342461407184601,
          -0.07798425108194351,
          -0.07690536975860596,
          -0.034533947706222534,
          -0.017134614288806915,
          -0.12511847913265228,
          -0.12285587191581726,
          -0.010943878442049026,
          0.04633112624287605,
          0.16584095358848572,
          0.06288416683673859,
          -0.005169099662452936,
          0.010232544504106045,
          0.12608231604099274,
          0.13333462178707123,
          -0.042403604835271835,
          -0.11952967941761017,
          -0.031885914504528046,
          -0.0651322528719902,
          -0.04417898505926132,
          -0.11369423568248749,
          -0.1262252777814865,
          -0.11761856079101562,
          -0.03471154719591141,
          0.13397224247455597,
          0.13378040492534637,
          -0.027486074715852737,
          -0.13940897583961487,
          -0.1349523663520813,
          -0.0919693112373352,
          -0.07531443238258362,
          -0.0431300513446331,
          -0.017009204253554344,
          -0.0894036814570427,
          -0.014216787181794643,
          0.10505861043930054,
          0.1297699511051178,
          0.11574775725603104,
          0.08138762414455414,
          -0.01085312943905592,
          0.05738901346921921,
          0.2145833820104599,
          0.21689200401306152,
          -0.007054809480905533,
          -0.0195140577852726,
          -0.023903990164399147,
          -0.03318319469690323,
          -0.04217971861362457,
          -0.06915335357189178,
          -0.09301061183214188,
          -0.133192777633667,
          -0.06410444527864456,
          0.06080910935997963,
          0.08121446520090103,
          -0.1077355444431305,
          -0.14758676290512085,
          -0.10284824669361115,
          -0.03496861085295677,
          -0.034673627465963364,
          -0.07336948812007904,
          0.07043113559484482,
          -0.00033466698369011283,
          0.0025793486274778843,
          0.12501244246959686,
          0.17681542038917542,
          0.21215495467185974,
          0.10118045657873154,
          -0.015001648105680943,
          0.10870672762393951,
          0.1957164853811264,
          0.1132146343588829,
          0.05442190170288086,
          0.009179956279695034,
          -0.06533044576644897,
          -0.02870480902493,
          0.012814771384000778,
          -0.03207244724035263,
          -0.05918747931718826,
          -0.12862132489681244,
          -0.08641873300075531,
          -0.011211739853024483,
          -0.006682227365672588,
          -0.14824455976486206,
          -0.10656993836164474,
          -0.07739340513944626,
          -0.03193409740924835,
          0.027461325749754906,
          -0.0268112700432539,
          0.0837090015411377,
          0.01129967626184225,
          -0.054685622453689575,
          -0.02979307249188423,
          0.1566781997680664,
          0.18874476850032806,
          0.17008033394813538,
          0.10616935789585114,
          0.10282250493764877,
          0.16339580714702606,
          0.11033898591995239,
          0.08292204886674881,
          0.11217230558395386,
          0.03414756432175636,
          0.014817262999713421,
          0.010985953733325005,
          0.003039782866835594,
          -0.02000885084271431,
          -0.05777066573500633,
          -0.07246150821447372,
          -0.015204119496047497,
          -0.05404705926775932,
          -0.08780211955308914,
          0.03305124118924141,
          0.04923251271247864,
          0.046546291559934616,
          0.05995006486773491,
          0.06658675521612167,
          0.09974575787782669,
          -0.016102083027362823,
          -0.050494011491537094,
          -0.10643462091684341,
          0.10154947638511658,
          0.0808657556772232,
          0.1497490555047989,
          0.048916470259428024,
          0.07168161123991013,
          -0.03422155976295471,
          0.09324599802494049,
          0.01882181502878666,
          0.011224362999200821,
          -0.007991724647581577,
          -0.0018765954300761223,
          -0.07639168202877045,
          -0.013808906078338623,
          0.011488369666039944,
          -0.06926184892654419,
          -0.04005729407072067,
          0.04279005154967308,
          -0.0014182324521243572,
          0.013205163180828094,
          0.06618756800889969,
          0.07913234829902649,
          0.10608204454183578,
          0.06544670462608337,
          0.07556579262018204,
          0.029825223609805107,
          -0.011110866442322731,
          0.004078589845448732,
          -0.005528826732188463,
          0.1342221200466156,
          0.14452235400676727,
          0.1025455966591835,
          0.001777207013219595,
          0.03149223327636719,
          0.012245801277458668,
          0.10289230942726135,
          0.06236798316240311,
          -0.06769488006830215,
          -0.03814705088734627,
          0.01916239969432354,
          -0.014834017492830753,
          0.047731637954711914,
          0.06161070615053177,
          -0.04970955476164818,
          0.017169110476970673,
          -0.004706414882093668,
          -0.013470291160047054,
          -0.011827006936073303,
          0.04394891485571861,
          0.02797309122979641,
          0.09243844449520111,
          0.05680304393172264,
          0.10919566452503204,
          0.0022402149625122547,
          -0.0038644366431981325,
          0.00999919231981039,
          0.005087694153189659,
          0.04284098371863365,
          0.13192252814769745,
          0.043873488903045654,
          0.07584075629711151,
          0.05627308785915375,
          0.2057158201932907,
          0.11642158776521683,
          0.06659530103206635,
          -0.02562180534005165,
          -0.037456195801496506,
          -0.021226264536380768,
          -0.047231048345565796,
          0.002922298153862357,
          0.03523314371705055,
          -0.04820949584245682,
          -0.0357283391058445,
          -0.016994554549455643,
          -0.01948261260986328,
          -0.019575489684939384,
          -0.0195974912494421,
          0.02559858374297619,
          0.0786777064204216,
          0.07488102465867996,
          -0.006509959232062101,
          -0.0883101299405098,
          -0.028877120465040207,
          -0.018247805535793304,
          -0.04274153336882591,
          0.034092724323272705,
          0.09028640389442444,
          0.006082282401621342,
          0.06392993777990341,
          0.06884445250034332,
          0.1446102112531662,
          0.11602010577917099,
          0.05650803819298744,
          0.04285253956913948,
          0.036102719604969025,
          -0.003217758145183325,
          0.05663938447833061,
          0.06964927166700363,
          0.04560381919145584,
          -0.0343279205262661,
          -0.06748355180025101,
          -0.06287550926208496,
          -0.04108806326985359,
          0.02225700207054615,
          0.04944775998592377,
          0.02931267023086548,
          0.03537600859999657,
          -0.03554194048047066,
          0.03147692605853081,
          0.025632834061980247,
          -0.014802972786128521,
          0.019747653976082802,
          0.11671454459428787,
          0.09660714119672775,
          0.12280186265707016,
          -0.009836462326347828,
          -0.004347527399659157,
          0.010151511058211327,
          0.14442916214466095,
          0.13741786777973175,
          0.08326411247253418,
          0.104537732899189,
          0.09850189834833145,
          0.09808053821325302,
          0.08575344830751419,
          0.14980198442935944,
          0.062442146241664886,
          0.016414567828178406,
          -0.015178294852375984,
          0.013277718797326088,
          -0.02402315102517605,
          0.10281993448734283,
          0.05876417085528374,
          0.012249528430402279,
          0.008569606579840183,
          -0.009734071791172028,
          0.03667503595352173,
          0.023828499019145966,
          -0.013574122451245785,
          0.06122061237692833,
          0.12812185287475586,
          0.059453632682561874,
          0.1725102663040161,
          -0.014830752275884151,
          -0.029460512101650238,
          0.014333019033074379,
          0.0667106956243515,
          0.043201837688684464,
          0.008462243713438511,
          0.03218219429254532,
          0.03861617296934128,
          -0.022576848044991493,
          0.02098526433110237,
          0.04019584134221077,
          -0.0001075580803444609,
          -0.026232954114675522,
          0.01415903028100729,
          -0.015931295230984688,
          0.023415761068463326,
          0.07178739458322525,
          0.008383349515497684,
          -0.054168011993169785,
          -0.10438144207000732,
          -0.07269211858510971,
          -0.09228966385126114,
          -0.0976954773068428,
          -0.06684474647045135,
          -0.044139642268419266,
          -0.008389204740524292,
          0.026559263467788696,
          0.06334546208381653,
          0.011180753819644451,
          -0.007330259308218956,
          0.0024257563054561615,
          0.08127794414758682,
          -0.053118348121643066,
          -0.09059695154428482,
          -0.17655156552791595,
          -0.13130241632461548,
          -0.21658794581890106,
          -0.11072743684053421,
          -0.11434198915958405,
          -0.21067383885383606,
          -0.23674418032169342,
          -0.06055554375052452,
          -0.10269362479448318,
          -0.10446695983409882,
          -0.17610177397727966,
          -0.2055588811635971,
          -0.13341276347637177,
          0.023956408724188805,
          -0.01990787871181965,
          -0.10242634266614914,
          -0.1472550630569458,
          -0.14542485773563385,
          -0.08357328176498413,
          0.01991654746234417,
          -0.00403592549264431,
          0.0014525419101119041,
          0.009811250492930412,
          -0.0007911555003374815,
          0.0008629311923868954,
          0.006617803126573563,
          -0.0025781807489693165,
          -0.019994284957647324,
          -0.05426329746842384,
          -0.04464428499341011,
          -0.01565893180668354,
          -0.01576790027320385,
          -0.07754737138748169,
          -0.15363246202468872,
          -0.1684265434741974,
          -0.18275272846221924,
          -0.11189857125282288,
          -0.14082592725753784,
          -0.11068844795227051,
          -0.052997589111328125,
          -0.00686331931501627,
          -0.03191821277141571,
          -0.03313183784484863,
          -0.05580761656165123,
          -0.04593176394701004,
          -0.02689776010811329,
          0.034069787710905075,
          0.004790670704096556,
          0.01940755546092987,
          0.010980385355651379,
          0.005016557406634092,
          -0.012098842300474644,
          0.01036421675235033,
          -0.010970758274197578,
          -6.517167639685795e-05,
          -0.02368370071053505,
          -0.010546247474849224,
          -0.003480147570371628,
          0.01696515828371048,
          -0.01811721920967102,
          0.010640528984367847,
          0.0010973182506859303,
          0.014429139904677868,
          0.0017039092490449548,
          0.04454142972826958,
          0.03395981341600418,
          0.07609859108924866,
          0.06851773709058762,
          -0.01924576424062252,
          -0.04037235304713249,
          -0.014197534881532192,
          0.01538784522563219,
          -0.01408226415514946,
          -0.009670690633356571,
          -0.00537336990237236,
          -0.0004537376225925982,
          -0.0021829670295119286,
          -0.01238810271024704,
          -0.006276997737586498
        ],
        [
          0.00413290923461318,
          -0.0058155180886387825,
          0.012425725348293781,
          0.009873504750430584,
          -0.017542392015457153,
          0.0072668250650167465,
          -0.0003513094561640173,
          -0.0023677737917751074,
          0.005932657513767481,
          -0.004065250512212515,
          0.012146334163844585,
          0.0025926155503839254,
          -0.024003231897950172,
          -0.024350613355636597,
          -0.0025155728217214346,
          -0.01334319170564413,
          0.006741888355463743,
          0.018152693286538124,
          0.007025181781500578,
          0.01030336506664753,
          0.00701564084738493,
          0.013779301196336746,
          0.0010646568844094872,
          0.0027135959826409817,
          -0.00020039088849443942,
          0.019821759313344955,
          -0.0057360404171049595,
          -0.004478794988244772,
          -0.005504526663571596,
          0.0037631767336279154,
          -0.006906535010784864,
          0.00987945031374693,
          0.004642876796424389,
          0.05441189184784889,
          0.05638544633984566,
          0.07012496143579483,
          0.08909885585308075,
          0.18814080953598022,
          0.19861598312854767,
          0.1857636719942093,
          0.11182866990566254,
          0.14253917336463928,
          0.14416633546352386,
          0.10780566185712814,
          0.009383311495184898,
          0.10390584170818329,
          0.16428104043006897,
          0.05516311526298523,
          0.008219213224947453,
          0.026030609384179115,
          -0.013633965514600277,
          -0.007188118994235992,
          -0.0006110713584348559,
          0.014370734803378582,
          -0.0012449838686734438,
          -0.008530493825674057,
          0.01226434949785471,
          0.007419525645673275,
          0.07229077070951462,
          -0.0350339449942112,
          -0.03390635922551155,
          0.15020333230495453,
          0.18390928208827972,
          0.25322532653808594,
          0.17307652533054352,
          0.11374396085739136,
          0.13957186043262482,
          0.17386232316493988,
          0.10136765241622925,
          0.15219607949256897,
          0.18899336457252502,
          0.17701759934425354,
          0.17744742333889008,
          0.13996689021587372,
          0.2510859966278076,
          0.2681671679019928,
          0.21444609761238098,
          0.1373239904642105,
          0.14051085710525513,
          0.056878332048654556,
          0.012867414392530918,
          0.003938483074307442,
          -0.0006485567428171635,
          -0.014179236255586147,
          0.001792156952433288,
          0.007962853647768497,
          0.031030459329485893,
          -0.04886539652943611,
          0.014653044752776623,
          0.024967994540929794,
          0.045986346900463104,
          0.06133079528808594,
          0.09848827123641968,
          0.1711544692516327,
          0.14040757715702057,
          0.10746511071920395,
          0.06712772697210312,
          0.13594552874565125,
          0.09230530261993408,
          0.07121393829584122,
          -0.0023219743743538857,
          -0.06860817223787308,
          0.0580945648252964,
          0.17244543135166168,
          0.14210842549800873,
          0.002318361774086952,
          -0.0016823762562125921,
          -0.07376877963542938,
          0.018178710713982582,
          -0.022480392828583717,
          -0.022390224039554596,
          0.019214700907468796,
          -0.01701420545578003,
          -0.0012185259256511927,
          -0.03401653468608856,
          -0.04085039347410202,
          -0.03939502313733101,
          -0.08223702013492584,
          -0.09932461380958557,
          -0.017114078626036644,
          -0.05079791694879532,
          0.001967452000826597,
          0.02488846331834793,
          0.10999945551156998,
          0.08369328081607819,
          0.025916913524270058,
          0.03417554870247841,
          0.04762507975101471,
          0.02557179145514965,
          0.0334264375269413,
          0.033302512019872665,
          0.04375935718417168,
          0.022768938913941383,
          0.137385293841362,
          0.0834607407450676,
          0.13224948942661285,
          0.19688300788402557,
          0.04305792972445488,
          0.0007925400277599692,
          -0.01388061698526144,
          0.0006075809360481799,
          0.001949195982888341,
          0.034224048256874084,
          -0.12696941196918488,
          -0.1565084308385849,
          -0.12512251734733582,
          -0.055727507919073105,
          -0.042042866349220276,
          -0.029267460107803345,
          -0.005135471001267433,
          0.07101590186357498,
          0.015387393534183502,
          0.006367648020386696,
          0.019934603944420815,
          -0.0008787809056229889,
          -0.029722733423113823,
          -0.032307542860507965,
          0.017313288524746895,
          0.0353022962808609,
          0.028879491612315178,
          0.04987788945436478,
          0.15263594686985016,
          0.19646784663200378,
          0.1763102263212204,
          0.13930734992027283,
          0.1550120711326599,
          0.08050175756216049,
          0.02367948368191719,
          0.00976625457406044,
          -0.01834738999605179,
          -0.012765173800289631,
          -0.2034948617219925,
          -0.08252233266830444,
          0.017619755119085312,
          -0.14646761119365692,
          -0.02025369182229042,
          0.01296576950699091,
          -0.008267274126410484,
          -0.01128394901752472,
          0.009138083085417747,
          0.048708975315093994,
          0.0729869157075882,
          0.11177781969308853,
          0.03312124311923981,
          0.011530518531799316,
          0.03452460095286369,
          -0.004566204268485308,
          0.0653558075428009,
          0.06428132206201553,
          0.013337756507098675,
          0.07480750232934952,
          0.14181789755821228,
          0.18838979303836823,
          0.27047890424728394,
          0.11385726928710938,
          0.11979743838310242,
          -0.002042926847934723,
          -0.057775676250457764,
          0.009767381474375725,
          -0.21333642303943634,
          -0.20157796144485474,
          -0.01902356557548046,
          -0.060806386172771454,
          0.02688540145754814,
          0.05727217346429825,
          0.053570520132780075,
          0.07425843924283981,
          0.06731446832418442,
          0.08002553135156631,
          0.07971631735563278,
          0.10235661268234253,
          0.03804768994450569,
          0.05536295473575592,
          0.04494854062795639,
          0.013522936031222343,
          0.054840363562107086,
          0.03179933875799179,
          0.003650698810815811,
          -0.025425389409065247,
          -0.06195835396647453,
          0.07774355262517929,
          0.2535874545574188,
          0.15164463222026825,
          0.0933077484369278,
          0.013221698813140392,
          -0.02976510114967823,
          -0.0563727468252182,
          -0.20400285720825195,
          -0.24083450436592102,
          -0.03360825031995773,
          0.05476272851228714,
          -0.021201176568865776,
          0.042260829359292984,
          0.11635678261518478,
          0.06929627060890198,
          0.07951309531927109,
          0.021415123715996742,
          -0.06959356367588043,
          -0.0836770236492157,
          0.008876355364918709,
          -0.009335572831332684,
          -0.06488707661628723,
          -0.08030426502227783,
          -0.16062413156032562,
          -0.15988874435424805,
          -0.13927431404590607,
          -0.2730214595794678,
          -0.30679064989089966,
          -0.1246953085064888,
          0.06590002775192261,
          -0.05237507447600365,
          -0.04089859873056412,
          -0.009319276548922062,
          -0.04107281565666199,
          -0.07231071591377258,
          -0.17206084728240967,
          -0.23682299256324768,
          -0.08428001403808594,
          0.006601974833756685,
          -0.01425926387310028,
          0.1186865046620369,
          0.10355829447507858,
          0.13953591883182526,
          0.08136218041181564,
          -0.11008769273757935,
          -0.28964105248451233,
          -0.3489322066307068,
          -0.23531155288219452,
          -0.2251109629869461,
          -0.19974151253700256,
          -0.23483319580554962,
          -0.2950877547264099,
          -0.29382413625717163,
          -0.3059541881084442,
          -0.4267936944961548,
          -0.40728989243507385,
          -0.1924668252468109,
          -0.006246801465749741,
          0.0168550256639719,
          -0.0036036174278706312,
          -0.01466354914009571,
          -0.05390463396906853,
          -0.10543721169233322,
          -0.1720857322216034,
          -0.10064291954040527,
          0.03869090601801872,
          0.03508463501930237,
          0.038925688713788986,
          0.12274309992790222,
          0.21901623904705048,
          0.1971515566110611,
          0.05003425106406212,
          -0.0734013244509697,
          -0.29107069969177246,
          -0.34360021352767944,
          -0.24263176321983337,
          -0.16678546369075775,
          -0.17100462317466736,
          -0.21375024318695068,
          -0.230617955327034,
          -0.22531156241893768,
          -0.2303929626941681,
          -0.3576473593711853,
          -0.30761322379112244,
          -0.16442425549030304,
          -0.03214487433433533,
          0.015221851877868176,
          0.02924196794629097,
          -0.026103457435965538,
          -0.0449451208114624,
          -0.14729315042495728,
          -0.2163553237915039,
          -0.06315348297357559,
          0.03200855106115341,
          0.10619883984327316,
          0.06347167491912842,
          0.11513315141201019,
          0.12839986383914948,
          0.151102676987648,
          0.12494059652090073,
          0.03570307791233063,
          -0.14065486192703247,
          -0.13431888818740845,
          -0.08071844279766083,
          -0.05308029055595398,
          -0.06570836901664734,
          -0.09070821106433868,
          -0.041568975895643234,
          -0.07804344594478607,
          -0.0896233320236206,
          -0.18927979469299316,
          -0.05885319411754608,
          -0.1439451277256012,
          -0.2214035838842392,
          -0.06415659189224243,
          -0.011086895130574703,
          -0.012225685641169548,
          -0.071820929646492,
          -0.1179199293255806,
          -0.16287001967430115,
          -0.09931085258722305,
          0.07479409128427505,
          0.10097474604845047,
          0.06923305243253708,
          0.0758805125951767,
          0.027968019247055054,
          0.09065740555524826,
          0.15473103523254395,
          0.011725109070539474,
          -0.11144629865884781,
          -0.1710481494665146,
          -0.08361451327800751,
          -0.06972406804561615,
          -0.05505945533514023,
          0.02306683361530304,
          0.0727749913930893,
          0.04128843545913696,
          0.021227216348052025,
          -0.030423080548644066,
          0.085184246301651,
          -0.019898904487490654,
          -0.25406524538993835,
          -0.17650452256202698,
          -0.10717497766017914,
          -0.004868549294769764,
          -0.04061716049909592,
          -0.06686136871576309,
          -0.15047818422317505,
          -0.034963857382535934,
          0.11079493910074234,
          0.10737773776054382,
          0.12212579697370529,
          0.05193307623267174,
          0.03178750351071358,
          0.051211223006248474,
          0.047199297696352005,
          -0.08327184617519379,
          -0.17402146756649017,
          -0.18490803241729736,
          -0.12441950291395187,
          -0.18958745896816254,
          -0.10680253058671951,
          0.009425916709005833,
          0.04466874524950981,
          0.0391194149851799,
          0.07153243571519852,
          0.09661541134119034,
          0.12265734374523163,
          0.07095430791378021,
          -0.19520148634910583,
          -0.23156119883060455,
          -0.07894748449325562,
          0.0820489451289177,
          -0.021040763705968857,
          -0.07877295464277267,
          -0.18284016847610474,
          -0.026015769690275192,
          0.1111680343747139,
          0.11608090251684189,
          0.11776817589998245,
          0.06867978721857071,
          0.08450456708669662,
          0.013853694312274456,
          -0.064720019698143,
          -0.1472344994544983,
          -0.14071834087371826,
          -0.13329969346523285,
          -0.10547329485416412,
          -0.12222268432378769,
          -0.06318629533052444,
          -0.01851794309914112,
          0.011741440743207932,
          0.04792988672852516,
          0.00929099228233099,
          0.098903127014637,
          0.12825098633766174,
          0.11980428546667099,
          -0.15304550528526306,
          -0.23355333507061005,
          -0.09104207903146744,
          0.039011627435684204,
          0.0029983622953295708,
          -0.05634605139493942,
          -0.19934216141700745,
          -0.05677734315395355,
          0.013669008389115334,
          0.03600013628602028,
          0.11204563081264496,
          0.10999206453561783,
          0.04256571829319,
          0.02225618250668049,
          -0.06963202357292175,
          -0.0812125951051712,
          -0.08715762197971344,
          -0.09185028076171875,
          -0.11320068687200546,
          -0.13325069844722748,
          -0.09764712303876877,
          -0.004553855862468481,
          -0.0233764685690403,
          -0.02047419548034668,
          -0.006963611114770174,
          0.00010568524157861248,
          0.07413271814584732,
          0.0707840844988823,
          -0.049263231456279755,
          -0.123650923371315,
          -0.10940034687519073,
          -0.019314194098114967,
          -0.003811861854046583,
          -0.06130771338939667,
          -0.20537474751472473,
          -0.16723185777664185,
          -0.05691303685307503,
          -0.03997211530804634,
          0.015423683449625969,
          0.10489396750926971,
          0.020792974159121513,
          -0.015050996094942093,
          0.024608813226222992,
          -0.02086784690618515,
          -0.08080808073282242,
          -0.05346911773085594,
          -0.11707533150911331,
          -0.10680089890956879,
          -0.10241950303316116,
          -0.021268228068947792,
          0.021005352959036827,
          0.011038500815629959,
          0.03552892059087753,
          0.017828119918704033,
          0.007669673766940832,
          0.014972659759223461,
          -0.16390657424926758,
          -0.27056872844696045,
          -0.11728034168481827,
          0.009664480574429035,
          -0.04984205961227417,
          -0.04336045682430267,
          -0.1421462595462799,
          -0.16716136038303375,
          -0.07954001426696777,
          -0.049895744770765305,
          -0.007043876219540834,
          -0.01730320230126381,
          -0.0015240875072777271,
          0.017659401521086693,
          0.04075022041797638,
          0.00719879986718297,
          -0.03444356843829155,
          -0.13473688066005707,
          -0.1727805733680725,
          -0.11060404032468796,
          -0.06357572972774506,
          0.04724690690636635,
          0.06937286257743835,
          0.028286661952733994,
          0.05042864382266998,
          0.03308107703924179,
          0.008693004958331585,
          0.04540253058075905,
          -0.19461403787136078,
          -0.2080884426832199,
          -0.09147566556930542,
          0.0026177235413342714,
          -0.009704768657684326,
          -0.0625646635890007,
          -0.0438823439180851,
          -0.1484714150428772,
          -0.1489507555961609,
          -0.04392895847558975,
          -0.05685292184352875,
          -0.044404659420251846,
          0.019964246079325676,
          0.025510365143418312,
          0.017193567007780075,
          -0.05789504200220108,
          -0.11828561127185822,
          -0.16196274757385254,
          -0.20872768759727478,
          -0.09482751041650772,
          -0.033259544521570206,
          0.0829860121011734,
          0.09050719439983368,
          0.04603235051035881,
          -0.0012362714624032378,
          -0.013013515621423721,
          0.010322476737201214,
          0.062040768563747406,
          -0.1598847359418869,
          -0.14080174267292023,
          -0.0831717699766159,
          0.004935906734317541,
          -0.01502207200974226,
          -0.05939680337905884,
          -0.006410257890820503,
          -0.02204960025846958,
          -0.10322102159261703,
          -0.030160600319504738,
          -0.0450485423207283,
          -0.06501553952693939,
          -0.023113084957003593,
          0.03143002465367317,
          0.014723685570061207,
          -0.0016334325773641467,
          -0.1265961229801178,
          -0.1255054920911789,
          -0.05896369367837906,
          -0.012882781215012074,
          0.05104153975844383,
          0.14538373053073883,
          0.05630059540271759,
          0.0005855531780980527,
          -0.029569482430815697,
          0.049245622009038925,
          0.045419562608003616,
          0.12656114995479584,
          -0.09192951768636703,
          -0.09044112265110016,
          -0.02472558058798313,
          0.002483957912772894,
          -0.005110417492687702,
          -0.01305394247174263,
          0.004048619884997606,
          0.08246971666812897,
          0.03548845276236534,
          -0.04409667104482651,
          -0.05988546833395958,
          -0.07619745284318924,
          -0.054328400641679764,
          -0.02644472010433674,
          -0.006289927288889885,
          0.06198718026280403,
          -0.017803646624088287,
          -0.03263558819890022,
          0.04023159295320511,
          0.05146435275673866,
          0.07332193851470947,
          0.1100211888551712,
          0.01564171351492405,
          -0.04541809856891632,
          -0.016711855307221413,
          0.0846092700958252,
          0.0950833112001419,
          0.055194053798913956,
          0.06241897493600845,
          0.02085670828819275,
          0.057610731571912766,
          -0.010218512266874313,
          -0.006314481142908335,
          -0.06886786967515945,
          -0.005121216643601656,
          0.20112459361553192,
          0.15618249773979187,
          0.061987921595573425,
          0.03661162778735161,
          0.03503462299704552,
          -0.016388531774282455,
          -0.03755560517311096,
          -0.0222453810274601,
          0.02953449636697769,
          -0.00014890939928591251,
          0.030752183869481087,
          0.06273125112056732,
          0.00864210445433855,
          0.02174384333193302,
          0.017423512414097786,
          -0.07190930098295212,
          -0.02342839352786541,
          0.0777529627084732,
          0.11063291132450104,
          0.08345410972833633,
          0.03544674441218376,
          0.05473780632019043,
          0.08344002068042755,
          0.04860810935497284,
          -0.002467636251822114,
          -0.01406031008809805,
          -0.10237377882003784,
          -0.02423580177128315,
          0.1404152512550354,
          0.1016128659248352,
          0.05680425837635994,
          0.061698947101831436,
          0.07673321664333344,
          -0.042222872376441956,
          -0.01653706468641758,
          -0.040296029299497604,
          -0.021823715418577194,
          0.02770663984119892,
          0.051814429461956024,
          0.0676778182387352,
          0.08052264899015427,
          0.08645495027303696,
          0.05498094856739044,
          -0.006490812636911869,
          -0.0183317381888628,
          0.009563133120536804,
          0.05295712500810623,
          0.04091411083936691,
          -0.016258541494607925,
          0.05283825099468231,
          0.08119845390319824,
          0.0664026141166687,
          0.007188297342509031,
          -0.0007934493478387594,
          -0.04182242602109909,
          -0.003617404494434595,
          0.02764136530458927,
          0.08054336160421371,
          0.041447144001722336,
          0.00509863393381238,
          0.04830888286232948,
          0.04127667844295502,
          0.047933124005794525,
          0.05513079836964607,
          0.04059457406401634,
          0.047188952565193176,
          0.07368790358304977,
          0.07995416224002838,
          0.11397112160921097,
          0.10379815846681595,
          0.06053098663687706,
          -0.016580335795879364,
          -0.015351773239672184,
          -0.009923256933689117,
          -0.01838933676481247,
          -0.03690984845161438,
          -0.037441886961460114,
          0.02254130132496357,
          0.11164494603872299,
          -0.005522956606000662,
          0.0039521558210253716,
          -0.0050355661660432816,
          -0.003485926426947117,
          0.03318234160542488,
          -0.006264434661716223,
          0.02016676403582096,
          -0.004268874414265156,
          -0.0261762086302042,
          -0.009375417605042458,
          -0.030805526301264763,
          0.00722980173304677,
          0.04769469052553177,
          0.030292460694909096,
          0.011706649325788021,
          -0.047470368444919586,
          0.021900074556469917,
          0.02831222116947174,
          0.01689479500055313,
          0.12322843074798584,
          0.08519173413515091,
          0.1771000176668167,
          0.09839382767677307,
          0.016333244740962982,
          0.015722256153821945,
          0.0443282388150692,
          -0.04211120679974556,
          0.0006315979990176857,
          0.006031885743141174,
          0.0012565795332193375,
          0.0034969605039805174,
          0.04894346743822098,
          0.059695545583963394,
          0.04897942394018173,
          -0.024509930983185768,
          0.010392635129392147,
          -0.015458520501852036,
          -0.0010801199823617935,
          0.00423012301325798,
          0.015992330387234688,
          -0.08113183826208115,
          -0.13523119688034058,
          -0.018688488751649857,
          -0.04780574515461922,
          -0.015769485384225845,
          0.0036167779471725225,
          0.04744303971529007,
          0.18478643894195557,
          0.1607557237148285,
          0.21267513930797577,
          0.1436750888824463,
          0.2156618982553482,
          0.23184238374233246,
          0.15754662454128265,
          0.02505985088646412,
          -0.0019908961839973927,
          -0.0068042464554309845,
          -0.006378393620252609,
          0.008789554238319397,
          -0.004720234777778387,
          0.002686938038095832,
          0.014545151963829994,
          -0.017890870571136475,
          -0.02675171196460724,
          -0.11067187041044235,
          -0.11511389911174774,
          -0.04745658487081528,
          -0.009016902185976505,
          -0.04731164127588272,
          -0.00987539067864418,
          -0.008796808309853077,
          -0.10512643307447433,
          -0.14861612021923065,
          -0.16481992602348328,
          -0.09313303977251053,
          -0.02010483294725418,
          -0.0455150231719017,
          0.16395752131938934,
          0.006976195145398378,
          -0.07472734898328781,
          0.08155659586191177,
          0.08488750457763672,
          -3.399100751266815e-05,
          -0.006267479620873928,
          -0.011384912766516209,
          0.010044528171420097,
          -0.007332433480769396,
          -0.006710090674459934,
          0.003508667228743434,
          0.012019584886729717,
          -0.0003604151715990156,
          -0.0284037534147501,
          -0.06624486297369003,
          -0.11683234572410583,
          -0.09600900113582611,
          -0.10348278284072876,
          -0.15507365763187408,
          -0.14268605411052704,
          -0.13836181163787842,
          -0.12018746882677078,
          -0.13543099164962769,
          -0.1634247899055481,
          -0.19649618864059448,
          -0.07614456862211227,
          -0.0063134473748505116,
          -0.027964476495981216,
          -0.12704843282699585,
          -0.12614868581295013,
          -0.04487922042608261,
          -0.007892347872257233,
          -0.010069173760712147,
          0.011315805837512016,
          0.017540711909532547
        ],
        [
          -0.008712531998753548,
          -0.010646888054907322,
          0.001286311773583293,
          0.008822384290397167,
          0.00994013249874115,
          0.004665423650294542,
          -0.017869750037789345,
          0.0011060308897867799,
          -0.0038239355199038982,
          -0.021304769441485405,
          0.012796767987310886,
          0.006455317139625549,
          0.0035765166394412518,
          0.0003539839235600084,
          0.024203762412071228,
          -0.0020376374013721943,
          -0.009511732496321201,
          0.010337797924876213,
          0.014157135970890522,
          -0.008099607191979885,
          -0.005313799250870943,
          0.006258281413465738,
          0.011987424455583096,
          0.004669233225286007,
          0.011859627440571785,
          -0.0016475769225507975,
          -0.002698474330827594,
          0.007266482338309288,
          -0.005269387736916542,
          -0.010454759933054447,
          0.0037438268773257732,
          -0.0014129901537671685,
          -0.002938341349363327,
          0.006055766716599464,
          -0.006853822153061628,
          -5.702345515601337e-05,
          0.0010061148786917329,
          0.003809272777289152,
          -0.010376352816820145,
          -0.0063912165351212025,
          0.0007165222777985036,
          -0.014974553138017654,
          0.014178764075040817,
          -0.00039958496927283704,
          -0.020453639328479767,
          0.006153015419840813,
          0.008788038976490498,
          0.01461215503513813,
          -0.0104923564940691,
          0.003543522674590349,
          -0.017592377960681915,
          -0.00810934416949749,
          -0.00014872264000587165,
          -0.00045666343066841364,
          -7.412730155920144e-06,
          -0.007927552796900272,
          0.00362975662574172,
          -0.006493025925010443,
          0.009066051803529263,
          0.005897229537367821,
          0.004097108729183674,
          -0.010573821142315865,
          0.0013080948265269399,
          -0.0026373539585620165,
          0.0013475551968440413,
          -0.010551170445978642,
          -0.004817716311663389,
          -0.008982830680906773,
          -0.006647772621363401,
          -0.00010776925773825496,
          0.0015948028303682804,
          0.0016328876372426748,
          -0.0018141590990126133,
          0.004439983982592821,
          0.016442401334643364,
          -0.011504830792546272,
          0.005562357138842344,
          -0.006343394052237272,
          -0.003411813173443079,
          -0.003341593313962221,
          0.025388704612851143,
          0.0004071247822139412,
          -0.004481748212128878,
          0.005955338012427092,
          0.0038290254306048155,
          -0.008892440237104893,
          -0.0042210109531879425,
          -0.015415257774293423,
          -0.01022558193653822,
          -0.004992561414837837,
          -0.0049206567928195,
          -0.018841193988919258,
          0.0037331024650484324,
          -0.002040223218500614,
          0.0012367013841867447,
          -0.006825798191130161,
          0.002392444759607315,
          -0.0026430804282426834,
          -0.011755736544728279,
          -0.004876518622040749,
          0.00021740795637015253,
          0.02650006301701069,
          0.014552884735167027,
          0.008479981683194637,
          -0.016256047412753105,
          -0.005248886067420244,
          0.0021812724880874157,
          0.01809474267065525,
          0.009527534246444702,
          0.007361399941146374,
          0.011282257735729218,
          0.0022905946243554354,
          0.0016390976961702108,
          0.00392865901812911,
          -0.0020131366327404976,
          0.012122216634452343,
          0.002950284630060196,
          -0.014296297915279865,
          -0.016408341005444527,
          -0.0038898149505257607,
          -0.004279304761439562,
          -0.011947624385356903,
          -0.008581642061471939,
          -0.012948096729815006,
          -0.009112627245485783,
          -0.004052941221743822,
          -0.030587587505578995,
          -0.010713924653828144,
          -0.026326864957809448,
          0.016684312373399734,
          0.010258047841489315,
          -0.005404101684689522,
          -0.00042427133303135633,
          -0.0030660005286335945,
          -0.006349501200020313,
          -0.009691820479929447,
          -0.0062517826445400715,
          -0.010489314794540405,
          0.002026165137067437,
          -0.020211683586239815,
          0.019274208694696426,
          -0.010309131816029549,
          0.009775486774742603,
          0.006972609553486109,
          0.006841767113655806,
          0.017372988164424896,
          0.0082353875041008,
          -0.004965500440448523,
          -0.0037350906059145927,
          -0.0047140722163021564,
          -0.015172307379543781,
          -0.0047142901457846165,
          -0.0012913302052766085,
          0.0007156477659009397,
          -0.021384168416261673,
          -0.004624249879270792,
          0.004401857499033213,
          -0.005294340196996927,
          0.018109455704689026,
          0.0341893807053566,
          0.01123978290706873,
          -0.011722291819751263,
          -0.0053297728300094604,
          -0.01198514923453331,
          -0.021383315324783325,
          -0.0010820485185831785,
          0.0027341770473867655,
          -0.007324009668081999,
          -0.01202014647424221,
          -0.013554993085563183,
          0.0013746671611443162,
          0.01002088189125061,
          0.01207016408443451,
          -0.012939274311065674,
          -0.023361343890428543,
          -0.00248862081207335,
          -0.0005610030493699014,
          -0.022116797044873238,
          -0.010338934138417244,
          0.009037881158292294,
          0.004607812967151403,
          -0.024464624002575874,
          -0.009339667856693268,
          -0.016047006472945213,
          -0.0288775023072958,
          -0.002673100447282195,
          0.010531822219491005,
          0.020097028464078903,
          -0.010247979313135147,
          0.004186962731182575,
          -0.0024098483845591545,
          0.0019438606686890125,
          0.011435829102993011,
          0.0021852634381502867,
          0.00812747422605753,
          -0.0011722597992047668,
          0.007498777471482754,
          -0.0003595830057747662,
          -0.0017053798073902726,
          -0.005858680699020624,
          0.0022896372247487307,
          0.0018031876534223557,
          -0.0075164479203522205,
          -0.002069476991891861,
          -0.00570839736610651,
          -0.010980562306940556,
          -0.006064176559448242,
          0.007857261225581169,
          -0.011321038007736206,
          -0.007215406280010939,
          -0.005084938369691372,
          -0.031121499836444855,
          -0.005438600201159716,
          -0.03547145426273346,
          0.009157180786132812,
          -0.004228607285767794,
          -0.0012848366750404239,
          -0.004325008951127529,
          -0.02296116016805172,
          -0.010038439184427261,
          0.00013351145025808364,
          0.014982631430029869,
          -0.0019158563809469342,
          0.01549568772315979,
          -0.0011814598692581058,
          -0.007654471788555384,
          0.012743418104946613,
          -0.010985558852553368,
          -0.014058960601687431,
          -0.016606217250227928,
          -0.010806485079228878,
          -0.002638353267684579,
          -0.010333250276744366,
          0.005831427406519651,
          -0.015625178813934326,
          0.015409089624881744,
          -0.009869500994682312,
          -0.023345623165369034,
          -0.007513078860938549,
          -0.01708737574517727,
          -0.030476752668619156,
          -0.008024346083402634,
          -0.009366517886519432,
          -0.0033590688835829496,
          0.0070280637592077255,
          -0.0110500268638134,
          -0.007242008578032255,
          -0.007968813180923462,
          0.010651333257555962,
          -0.011525897309184074,
          -0.002129758009687066,
          0.010314084589481354,
          -0.011821156367659569,
          0.013279619626700878,
          0.00260670087300241,
          0.004634323995560408,
          0.00728793628513813,
          0.001101775444112718,
          0.007157767657190561,
          0.00915658101439476,
          0.00010345653572585434,
          -0.00470567075535655,
          -0.021176813170313835,
          -0.009534038603305817,
          -0.007943193428218365,
          -0.014243797399103642,
          -0.005287461914122105,
          0.003542858874425292,
          0.0004068835114594549,
          0.004229745827615261,
          -0.00870638806372881,
          -0.0013106351252645254,
          0.002499958500266075,
          -0.006407923996448517,
          -0.005504127126187086,
          -0.009803270921111107,
          0.005880909971892834,
          0.020556502044200897,
          -0.002187651116400957,
          0.009462027810513973,
          -0.020148372277617455,
          0.00758502958342433,
          -0.008259966038167477,
          0.0028178654611110687,
          0.008534450083971024,
          0.005749993491917849,
          -0.013477063737809658,
          -0.01108525414019823,
          -0.00508168013766408,
          0.011288044974207878,
          0.021124890074133873,
          0.00564410537481308,
          -0.0029228271450847387,
          -0.003214939497411251,
          -0.00630740262567997,
          -0.013048727065324783,
          0.002516375621780753,
          -0.018303124234080315,
          -0.020257264375686646,
          -0.004998304415494204,
          -0.015482986345887184,
          0.009029573760926723,
          -0.0004040239145979285,
          -0.021761883050203323,
          0.0004736277915071696,
          -0.01882576011121273,
          -0.003333016764372587,
          -0.02259228751063347,
          -0.017785940319299698,
          -0.003566453466191888,
          0.005025622434914112,
          0.004077864345163107,
          0.014669807627797127,
          -0.001616960158571601,
          -0.010698040015995502,
          0.0014776604948565364,
          -0.002881786087527871,
          -0.024526674300432205,
          -0.010262631811201572,
          0.006029441952705383,
          -0.01713566668331623,
          -0.01237398013472557,
          -0.021528923884034157,
          0.009794997982680798,
          -0.017895450815558434,
          0.00583276990801096,
          -0.005064722150564194,
          -0.0034865268971771,
          -0.018418552353978157,
          -0.02204347401857376,
          -0.00833271536976099,
          -0.019136199727654457,
          0.004817012697458267,
          0.008811941370368004,
          -0.0029687425121665,
          -0.0011324307415634394,
          -0.004912441596388817,
          -0.01988155022263527,
          0.0034736592788249254,
          -0.00881309062242508,
          0.016158534213900566,
          0.009088479913771152,
          0.014462877064943314,
          -0.019220417365431786,
          -0.0041952552273869514,
          -0.018306000158190727,
          -0.0005320931668393314,
          0.015709444880485535,
          0.00025861451285891235,
          -0.01556217297911644,
          0.01717524416744709,
          -0.022681890055537224,
          -0.02450910024344921,
          0.008553579449653625,
          0.0009352521738037467,
          -0.013253280892968178,
          0.001810760935768485,
          -0.0034145256504416466,
          -0.0233538169413805,
          -0.003165596630424261,
          -0.020395660772919655,
          0.0011191407684236765,
          -0.008687940426170826,
          -0.012316477485001087,
          -0.0032898832578212023,
          0.008759506046772003,
          0.004841040354222059,
          -0.00419623265042901,
          -0.019577234983444214,
          0.012911277823150158,
          -0.001690611126832664,
          0.0003103089111391455,
          -0.003672652645036578,
          0.003591177985072136,
          0.007100238464772701,
          -0.007080357056111097,
          0.002318969229236245,
          -0.005640737246721983,
          -0.021306848153471947,
          -0.013783496804535389,
          -0.01248860452324152,
          -0.010638578794896603,
          0.001984108705073595,
          -0.011002875864505768,
          -0.002622741274535656,
          0.01907948963344097,
          -0.001693409401923418,
          0.003999804612249136,
          -0.0006517567089758813,
          0.010431032627820969,
          -0.0021581731270998716,
          -0.010342533700168133,
          0.010116263292729855,
          -0.0021951808594167233,
          -0.005814868025481701,
          -0.01220504567027092,
          -0.0025383757892996073,
          0.020141253247857094,
          0.0039960602298378944,
          0.005205491092056036,
          -0.020213201642036438,
          -0.005372493527829647,
          -0.011986201629042625,
          -0.025211581960320473,
          0.004188283812254667,
          -0.002380798803642392,
          -0.012292467057704926,
          -0.008564474992454052,
          -0.010294657200574875,
          -0.005441180430352688,
          -0.01109926775097847,
          0.005485209170728922,
          -0.007668968755751848,
          -0.013268264941871166,
          -0.017362557351589203,
          -0.02321789599955082,
          -0.010295574553310871,
          0.0024162575136870146,
          0.02565799094736576,
          0.0053397249430418015,
          -0.004469718784093857,
          -0.0024533546529710293,
          0.004338438156992197,
          0.011846249923110008,
          0.012695526704192162,
          0.004610448144376278,
          0.004344478249549866,
          -0.03175479546189308,
          -0.017407525330781937,
          -0.011551283299922943,
          -0.010925550945103168,
          0.014645885676145554,
          0.023315411061048508,
          -0.011899896897375584,
          -0.0034075933508574963,
          0.0037036314606666565,
          -0.024873897433280945,
          -0.004912068136036396,
          -0.0178736113011837,
          -0.0296768955886364,
          -0.006016588304191828,
          -0.0028333605732768774,
          -0.012007135897874832,
          0.0023211026564240456,
          -0.0015034766402095556,
          -0.020058710128068924,
          -0.009024822153151035,
          0.01872410625219345,
          -0.011562707833945751,
          -0.0072894226759672165,
          0.014259681105613708,
          0.007596998475492001,
          0.010271255858242512,
          0.004382687620818615,
          -0.007256614975631237,
          0.002778825582936406,
          0.017141038551926613,
          -0.001313990680500865,
          0.001473494921810925,
          0.0034195478074252605,
          0.0031268566381186247,
          -0.012162286788225174,
          0.0005301306955516338,
          -0.002244302537292242,
          -0.0010168504668399692,
          0.007179809734225273,
          -0.010492982342839241,
          -0.004120638594031334,
          -0.01043064147233963,
          -0.015734095126390457,
          -0.00552294310182333,
          -0.009989716112613678,
          0.00011117395479232073,
          -0.009698723442852497,
          -0.010550564154982567,
          0.005468118004500866,
          0.014882557094097137,
          -0.0009402089635841548,
          0.008489786647260189,
          0.006111075170338154,
          -0.006750436034053564,
          0.009357581846415997,
          -0.016193052753806114,
          0.0036625522188842297,
          -0.019545454531908035,
          0.005794033408164978,
          0.003427332267165184,
          0.008106664754450321,
          0.004067143891006708,
          0.004162465687841177,
          -0.02198808081448078,
          0.0036556064151227474,
          0.0007326544728130102,
          -0.0011426411801949143,
          -0.008135784417390823,
          0.002247951691970229,
          -0.01378696970641613,
          0.01089179702103138,
          -0.0012551220133900642,
          0.007662593852728605,
          0.013223044574260712,
          0.0021206061355769634,
          -0.022193823009729385,
          0.006848073098808527,
          -0.0019052864518016577,
          3.565200313460082e-05,
          0.002196352230384946,
          -0.006184195168316364,
          -0.016692863777279854,
          -0.0082858232781291,
          -0.009217826649546623,
          -0.016182025894522667,
          0.010904430411756039,
          -0.0028820603620260954,
          -0.013126191683113575,
          -0.025523191317915916,
          0.004055042751133442,
          -0.010775823146104813,
          0.009012347087264061,
          -0.01385333389043808,
          0.007390343584120274,
          -0.009539840742945671,
          -0.003144818125292659,
          -0.003570026019588113,
          0.0067257205955684185,
          0.004133038688451052,
          -0.0248342864215374,
          0.0038821185007691383,
          0.00730928173288703,
          -0.010403788648545742,
          0.0029828744009137154,
          0.022060614079236984,
          0.012395118363201618,
          0.00812641903758049,
          0.005457534920424223,
          -0.004662432242184877,
          -0.006726845167577267,
          -0.019688986241817474,
          -0.01870225928723812,
          -0.01373335812240839,
          0.006337238010019064,
          0.005612094420939684,
          -0.012324832379817963,
          0.00527970353141427,
          -0.015613528899848461,
          -0.01391574740409851,
          0.001129852025769651,
          -0.01432470791041851,
          0.007048395927995443,
          -0.01676197722554207,
          -0.008754669688642025,
          0.00955882016569376,
          -0.005636534653604031,
          0.011145755648612976,
          0.019045120105147362,
          0.02624579519033432,
          0.015567731112241745,
          0.017072558403015137,
          0.0009961032774299383,
          0.005398490000516176,
          -0.0015807265881448984,
          0.0025763807352632284,
          0.020101753994822502,
          0.015322781167924404,
          -0.004467057529836893,
          0.003668433055281639,
          0.003100417787209153,
          -0.02711649052798748,
          -0.019867192953824997,
          -0.025047270581126213,
          -0.02096281573176384,
          -0.0020492193289101124,
          0.00965550635010004,
          -0.004238946363329887,
          0.013704567216336727,
          -0.00461307680234313,
          -0.002117717871442437,
          -0.01404207106679678,
          0.010190080851316452,
          -0.008671094663441181,
          -0.016215424984693527,
          0.02807605266571045,
          0.016409164294600487,
          -0.007739490829408169,
          0.0002092176437145099,
          0.005235982593148947,
          -0.0051505654118955135,
          -0.003836308140307665,
          -0.009332030080258846,
          0.00985579751431942,
          -0.0004786673525813967,
          -0.013812404125928879,
          0.018974071368575096,
          0.0023714625276625156,
          0.007327189203351736,
          -0.014556998386979103,
          -0.006254794541746378,
          -0.006827117875218391,
          -0.005170326679944992,
          -0.008925951085984707,
          0.0021178319584578276,
          -0.011058204807341099,
          0.0009929818334057927,
          -0.028501074761152267,
          -0.00861502718180418,
          -0.02157638408243656,
          -0.00022316515969578177,
          0.004031382966786623,
          0.011922839097678661,
          0.022411955520510674,
          0.013364280574023724,
          -0.006911015138030052,
          -0.0015123572666198015,
          -0.0007769838557578623,
          -0.0009959032759070396,
          -0.0024775750935077667,
          -0.007176279090344906,
          0.005998451262712479,
          0.0070901853032410145,
          -0.002855066442862153,
          -0.0055280569940805435,
          -0.0067316642962396145,
          0.012302341870963573,
          0.008820680901408195,
          -0.012355934828519821,
          -0.0005558037664741278,
          -0.012968389317393303,
          0.0029196012765169144,
          -0.02222757413983345,
          -0.015006533823907375,
          -0.009579760953783989,
          -0.009448426775634289,
          0.008368435315787792,
          0.01392168179154396,
          -0.018442025408148766,
          0.01446237601339817,
          -0.005857772659510374,
          0.013015851378440857,
          0.001747037167660892,
          0.019567320123314857,
          0.007600387558341026,
          0.011602330021560192,
          0.0010910622077062726,
          0.008846580982208252,
          0.009981747716665268,
          -0.0016312227817252278,
          0.0029424165841192007,
          -0.007327660918235779,
          -0.0045135365799069405,
          -0.00695980666205287,
          -0.002997887320816517,
          -0.009594548493623734,
          0.006710289046168327,
          -0.0050840298645198345,
          -0.004242611117660999,
          -0.014065282419323921,
          -0.007505813147872686,
          -0.02777966484427452,
          0.0016891197301447392,
          0.0025770568754523993,
          0.00946760643273592,
          -0.002563689136877656,
          -0.006717665586620569,
          -0.010058145970106125,
          0.004966645501554012,
          0.005416026338934898,
          -0.005797119811177254,
          -0.010344074107706547,
          0.008505497127771378,
          0.008611501194536686,
          -0.014558284543454647,
          -0.0032417927868664265,
          -0.009709990583360195,
          -0.008395900018513203,
          0.006785466801375151,
          -0.02383110113441944,
          -0.0008971091592684388,
          -0.0174228735268116,
          -0.004343630746006966,
          0.00607675826177001,
          0.0063767582178115845,
          -0.005303684156388044,
          -0.015667930245399475,
          -0.0033083967864513397,
          -0.005612051114439964,
          -0.026647210121154785,
          0.0025720598641783,
          -0.010004852898418903,
          -0.005867358762770891,
          0.0013392283581197262,
          -0.001879958319477737,
          0.009258762001991272,
          0.0035738167352974415,
          -0.017948269844055176,
          0.0019542549271136522,
          0.005104265175759792,
          0.006090620066970587,
          -0.00822546985000372,
          0.005042447242885828,
          -0.0034858982544392347,
          -0.005811123177409172,
          -0.0076431650668382645,
          0.015514899045228958,
          -0.009418264031410217,
          -0.01593085192143917,
          0.014153523370623589,
          0.011392063461244106,
          0.0052198851481080055,
          0.0037124722730368376,
          0.014199240133166313,
          -0.0216080192476511,
          -0.011131159961223602,
          0.0005330079584382474,
          -0.004337391350418329,
          -0.003525740699842572,
          0.015897037461400032,
          -0.004014574456959963,
          -0.004002871923148632,
          -0.0010807360522449017,
          0.0024490721989423037,
          -0.012164190411567688,
          -0.012814847752451897,
          -0.005713679827749729,
          0.01613142341375351,
          0.006509060505777597,
          -0.006379270926117897,
          -0.01069373544305563,
          -0.008728209882974625,
          -0.006527534686028957,
          0.01872599869966507,
          -0.026144348084926605,
          0.003555774688720703,
          -0.018123045563697815,
          0.010281318798661232,
          0.020923133939504623,
          0.013346311636269093,
          0.023238539695739746,
          -0.02136942371726036,
          0.0018161596963182092,
          -0.012762356549501419,
          0.005311970598995686,
          0.0015058894641697407,
          -0.011403399519622326,
          -0.006447553634643555,
