{
  "input_shape": [
    28,
    28
  ],
  "preprocess": {
    "scale": 255.0
  },
  "layers": [
    {
      "type": "dense",
      "units": 128,
      "activation": "relu",
      "W": [
        [
          -0.0031016964931041002,
          0.016787214204669,
          0.0005530752241611481,
          0.013028048910200596,
          -0.010682884603738785,
          0.0015818006359040737,
          0.01955488882958889,
          -0.00892692245543003,
          0.00019906314264517277,
          -0.006164568942040205,
          -0.009835048578679562,
          0.0002444834099151194,
          -0.071815125644207,
          -0.0713367834687233,
          0.008147341199219227,
          0.022434528917074203,
          0.01777193881571293,
          -0.003087294287979603,
          0.003909321967512369,
          -0.006262556649744511,
          0.006347534246742725,
          0.0010360905434936285,
          -0.006177349481731653,
          -0.003021570621058345,
          -0.007816125638782978,
          -0.009220066480338573,
          -0.0040056901052594185,
          -0.012910823337733746,
          0.014462842606008053,
          -0.004687831271439791,
          -0.00930790789425373,
          0.0014302307972684503,
          -0.0023211275693029165,
          -0.031317923218011856,
          -0.1364423632621765,
          -0.11846544593572617,
          -0.13704955577850342,
          -0.06266331672668457,
          -0.07060912996530533,
          -0.06932224333286285,
          -0.0591399110853672,
          -0.12458232790231705,
          -0.054617319256067276,
          -0.008914697915315628,
          0.01796051301062107,
          0.01073339395225048,
          -0.010201560333371162,
          -0.015506146475672722,
          -0.02843466028571129,
          -0.040241144597530365,
          -0.07853469997644424,
          -0.051560427993535995,
          -0.008382083848118782,
          0.003495147917419672,
          0.007059585303068161,
          0.010213878937065601,
          0.015698295086622238,
          -0.007943544536828995,
          0.008150492794811726,
          -0.007378853391855955,
          -0.053854648023843765,
          -0.13801991939544678,
          -0.1401231586933136,
          -0.1537443995475769,
          -0.15527595579624176,
          -0.1396571695804596,
          0.02276146411895752,
          -0.07215143740177155,
          -0.3569052219390869,
          -0.4288083016872406,
          -0.360045462846756,
          -0.13965506851673126,
          -0.06661974638700485,
          0.0990748181939125,
          0.1516198068857193,
          0.08890452980995178,
          0.10280332714319229,
          0.013211793266236782,
          0.006290649063885212,
          0.04480566456913948,
          0.07197132706642151,
          0.06680534780025482,
          -0.0026760997716337442,
          0.004799725487828255,
          0.00023370225972030312,
          0.0028926266822963953,
          0.029175011441111565,
          -0.024610253050923347,
          -0.0003990542027167976,
          0.1386021226644516,
          0.10340705513954163,
          0.15070630609989166,
          0.3619718551635742,
          0.16556787490844727,
          0.2758261561393738,
          -0.07604840397834778,
          -0.08663778007030487,
          -0.11920686066150665,
          -0.24914473295211792,
          -0.052181441336870193,
          -0.2083577662706375,
          -0.279742032289505,
          -0.1914423704147339,
          -0.3030133843421936,
          -0.2514740526676178,
          -0.06645378470420837,
          0.07389730960130692,
          0.09703608602285385,
          0.24956925213336945,
          0.0483427569270134,
          -0.02360834926366806,
          0.007060402538627386,
          -0.005931338761001825,
          0.056212786585092545,
          0.10195257514715195,
          0.2955486476421356,
          0.18852292001247406,
          0.013963909819722176,
          0.12100472301244736,
          0.11641993373632431,
          0.004206886049360037,
          -0.06448397785425186,
          0.03606579080224037,
          0.0665668472647667,
          -0.08537577837705612,
          -0.15027815103530884,
          -0.11316831409931183,
          0.04213486239314079,
          -0.026521513238549232,
          0.03163567930459976,
          0.23152048885822296,
          0.20826245844364166,
          0.09163844585418701,
          0.09505945444107056,
          0.1370033472776413,
          0.3288595974445343,
          0.4550938308238983,
          0.24236270785331726,
          0.06507077068090439,
          0.0017055956413969398,
          0.0007563047111034393,
          -0.012419444508850574,
          0.17242547869682312,
          0.1742495447397232,
          0.19254910945892334,
          0.03369401767849922,
          0.027266671881079674,
          -0.02423827163875103,
          -0.13928866386413574,
          -0.010042271576821804,
          0.03763660788536072,
          0.15006138384342194,
          0.038462039083242416,
          0.0020496451761573553,
          -0.0981757715344429,
          -0.02462061680853367,
          -0.018985377624630928,
          0.03685108572244644,
          0.211226686835289,
          0.11929746717214584,
          0.19721610844135284,
          0.11538626998662949,
          0.044497519731521606,
          0.027669353410601616,
          0.17414580285549164,
          0.10518751293420792,
          0.09188929200172424,
          0.016531873494386673,
          0.011068830266594887,
          0.037463780492544174,
          0.05204632505774498,
          0.23819023370742798,
          0.014185165986418724,
          -0.04702486842870712,
          0.011086610145866871,
          0.01844892092049122,
          0.07313213497400284,
          0.11154258251190186,
          0.21712619066238403,
          0.21794547140598297,
          0.183258518576622,
          0.1531715989112854,
          0.010236315429210663,
          0.013346361927688122,
          0.05934379622340202,
          0.11435186117887497,
          -0.07562613487243652,
          -0.17681394517421722,
          -0.05102796107530594,
          -0.17189526557922363,
          -0.31651201844215393,
          -0.32196658849716187,
          -0.24438278377056122,
          0.04181012511253357,
          0.03043767809867859,
          0.026204967871308327,
          -0.04276350885629654,
          0.07678735256195068,
          -0.021595530211925507,
          0.15612287819385529,
          0.1529085487127304,
          -0.0011563787702471018,
          0.18114450573921204,
          0.11142616719007492,
          0.23762460052967072,
          0.10792611539363861,
          0.28739121556282043,
          0.19801577925682068,
          0.1931167095899582,
          0.17684608697891235,
          0.1103837713599205,
          0.027863578870892525,
          0.009537086822092533,
          -0.16642101109027863,
          -0.2677159905433655,
          -0.37224581837654114,
          -0.18690741062164307,
          -0.22290872037410736,
          -0.45113083720207214,
          -0.5911983251571655,
          -0.36060401797294617,
          -0.086161307990551,
          -0.04767659306526184,
          0.018354110419750214,
          -0.03101390041410923,
          0.010958131402730942,
          -0.0830482468008995,
          0.03656568005681038,
          0.05117353796958923,
          0.09853676706552505,
          0.17059679329395294,
          0.09686177223920822,
          0.19205892086029053,
          0.20024050772190094,
          0.19494813680648804,
          0.22608841955661774,
          0.1767287701368332,
          0.10165601223707199,
          0.03793014585971832,
          -0.01104644499719143,
          -0.10705699026584625,
          -0.21664367616176605,
          -0.21359491348266602,
          -0.11086323857307434,
          -0.18704695999622345,
          -0.2605240046977997,
          -0.15653398633003235,
          -0.4276692271232605,
          -0.3030339181423187,
          -0.15618422627449036,
          -0.09258085489273071,
          0.07004984468221664,
          0.01812174916267395,
          -0.019895901903510094,
          -0.031915098428726196,
          -0.05990985780954361,
          0.2430557757616043,
          0.27053678035736084,
          0.2809775769710541,
          0.19877105951309204,
          0.19290460646152496,
          0.18287396430969238,
          0.1421452909708023,
          0.15924416482448578,
          -0.0015674070455133915,
          -0.06750021129846573,
          -0.06159549579024315,
          -0.05879724398255348,
          -0.13189645111560822,
          -0.06651675701141357,
          -0.13251861929893494,
          -0.15008863806724548,
          -0.22833478450775146,
          -0.2094634473323822,
          -0.16024021804332733,
          -0.2434413731098175,
          -0.2743208110332489,
          -0.1379079669713974,
          -0.19436565041542053,
          0.04380258172750473,
          0.027063947170972824,
          -0.027518490329384804,
          -0.04097502678632736,
          0.1435556411743164,
          0.2242080420255661,
          0.20348110795021057,
          0.24133239686489105,
          0.12816005945205688,
          0.1067519560456276,
          0.018581651151180267,
          0.04943764582276344,
          0.042851194739341736,
          -0.11420843750238419,
          -0.1638941466808319,
          -0.10649610310792923,
          -0.20646733045578003,
          -0.04855769872665405,
          0.04545688256621361,
          0.0024758237414062023,
          -0.0464068166911602,
          -0.03817640244960785,
          0.010214095935225487,
          0.009573566727340221,
          0.06794782727956772,
          -0.22469455003738403,
          -0.1854257881641388,
          -0.06817176192998886,
          -0.028308380395174026,
          -0.0196689423173666,
          -0.050761763006448746,
          0.0032751152757555246,
          0.1964612603187561,
          0.2695941925048828,
          0.13810543715953827,
          0.0900476723909378,
          0.010860350914299488,
          -0.08180060237646103,
          -0.04425467923283577,
          -0.08446779102087021,
          -0.035830505192279816,
          0.004664973355829716,
          0.04180437698960304,
          -0.04757118970155716,
          -0.075544573366642,
          -0.04223944991827011,
          0.1309303492307663,
          0.01734490878880024,
          -0.13629114627838135,
          -0.07842526584863663,
          -0.11535871773958206,
          0.01808636635541916,
          0.07553692162036896,
          0.06557823717594147,
          -0.2449580729007721,
          0.11550579220056534,
          -0.005937531590461731,
          -0.021769559010863304,
          -0.07329820841550827,
          0.0037003657780587673,
          -0.017920561134815216,
          0.19783878326416016,
          0.09731654822826385,
          -0.08396615833044052,
          -0.09101720154285431,
          -0.03589005023241043,
          -0.029302159324288368,
          -0.05918651074171066,
          -0.04108705371618271,
          0.032854318618774414,
          0.12328077107667923,
          0.13211213052272797,
          -0.05017238110303879,
          0.035478610545396805,
          0.07867651432752609,
          -0.06830721348524094,
          -0.13691239058971405,
          -0.03127732127904892,
          -0.053616348654031754,
          -0.09471920877695084,
          0.05304895341396332,
          -0.15012599527835846,
          -0.24988768994808197,
          0.16752184927463531,
          0.025853734463453293,
          -0.06269705295562744,
          -0.01118911150842905,
          0.05331038683652878,
          -0.08206497132778168,
          -0.022281166166067123,
          -0.10638399422168732,
          -0.20753856003284454,
          -0.09906469285488129,
          -0.13007701933383942,
          0.0624743290245533,
          0.04953765869140625,
          0.02766714245080948,
          0.06541305035352707,
          0.1363726407289505,
          0.061083655804395676,
          -0.13947296142578125,
          0.05849912017583847,
          0.08218233287334442,
          0.0024072977248579264,
          -0.0874180793762207,
          0.07541035115718842,
          0.06187838688492775,
          0.08041798323392868,
          0.02926608920097351,
          0.05806818976998329,
          -0.11729126423597336,
          0.2524300217628479,
          -0.04006059840321541,
          -0.05195589363574982,
          0.006328071467578411,
          0.08270563930273056,
          0.028449859470129013,
          -0.009123478084802628,
          -0.3977571427822113,
          -0.16362759470939636,
          -0.10745447874069214,
          -0.0498313307762146,
          0.033326730132102966,
          0.0602891631424427,
          0.029810156673192978,
          0.054141853004693985,
          0.11621130257844925,
          -0.044767845422029495,
          -0.053171686828136444,
          0.039925724267959595,
          0.07180697470903397,
          0.062273457646369934,
          -0.048784978687763214,
          0.018305184319615364,
          0.13229437172412872,
          0.07980295270681381,
          0.20024113357067108,
          -0.10060391575098038,
          -0.0075583625584840775,
          0.04259650781750679,
          -0.1517464816570282,
          -0.0297368336468935,
          0.09176656603813171,
          -0.04738558083772659,
          -0.07059411704540253,
          -0.06128725782036781,
          -0.3263077139854431,
          -0.2578813433647156,
          -0.21675527095794678,
          -0.10430533438920975,
          0.04629513621330261,
          0.0793021097779274,
          0.008118859492242336,
          0.05351593345403671,
          0.040407948195934296,
          0.040396276861429214,
          -0.023232687264680862,
          0.08458805829286575,
          0.09852199256420135,
          0.07169188559055328,
          -0.025395210832357407,
          0.0885055735707283,
          0.17185567319393158,
          0.15805679559707642,
          0.20106031000614166,
          0.02940157800912857,
          -0.05863870307803154,
          -0.092546746134758,
          0.10330747812986374,
          -1.3433061951673153e-07,
          0.1223161593079567,
          0.2094634771347046,
          -0.08494836091995239,
          -0.1830328106880188,
          -0.39894795417785645,
          -0.3242107331752777,
          -0.3397960662841797,
          -0.254405677318573,
          -0.04852939024567604,
          -0.015550747513771057,
          -0.030170798301696777,
          0.10212594270706177,
          0.13129116594791412,
          0.03816942125558853,
          -0.039337340742349625,
          -0.009993762709200382,
          0.06567278504371643,
          0.15951168537139893,
          0.04172653332352638,
          0.08826521039009094,
          0.23354220390319824,
          0.2681044340133667,
          0.12950511276721954,
          0.04739769548177719,
          -0.10718559473752975,
          0.007554674055427313,
          0.09530872851610184,
          0.015756985172629356,
          0.13901279866695404,
          0.16010822355747223,
          -0.014868197962641716,
          -0.32298707962036133,
          -0.34375423192977905,
          -0.32361719012260437,
          -0.17906588315963745,
          0.06831636279821396,
          -0.08851027488708496,
          -0.13484181463718414,
          -0.0970965102314949,
          0.10806208848953247,
          0.03792216256260872,
          -0.08365527540445328,
          -0.01455592829734087,
          0.01617954485118389,
          0.10030774772167206,
          0.0792481079697609,
          0.0934796929359436,
          0.07028552889823914,
          0.13174937665462494,
          0.04256018251180649,
          -0.03367464989423752,
          -0.1273714303970337,
          -0.2753617763519287,
          -0.10213661938905716,
          0.05853113532066345,
          0.05465787276625633,
          0.08887457102537155,
          0.21821199357509613,
          0.14883482456207275,
          -0.13729549944400787,
          -0.12390252947807312,
          -0.18222911655902863,
          -0.21749386191368103,
          -0.2039012461900711,
          -0.2433135211467743,
          -0.14795343577861786,
          -0.10702008754014969,
          -0.24622990190982819,
          -0.34990599751472473,
          -0.221506729722023,
          -0.07525395601987839,
          -0.011035273782908916,
          0.09329019486904144,
          0.04021342471241951,
          0.1678651124238968,
          0.143339604139328,
          0.10128845274448395,
          0.02930527552962303,
          0.04754440858960152,
          -0.05230679735541344,
          0.07577671110630035,
          -0.07543375343084335,
          0.10405950248241425,
          -0.016976136714220047,
          0.09906240552663803,
          0.047470901161432266,
          0.2654055058956146,
          0.08940109610557556,
          0.12382693588733673,
          -0.03900156170129776,
          -0.13489827513694763,
          -0.21714892983436584,
          -0.19314906001091003,
          -0.165126770734787,
          -0.20020878314971924,
          -0.2140410989522934,
          -0.27920079231262207,
          -0.15356044471263885,
          -0.1811871975660324,
          -0.09067635238170624,
          0.03533386066555977,
          0.06779450178146362,
          0.13330060243606567,
          0.04382405802607536,
          0.07553332298994064,
          0.06903501600027084,
          0.12325631082057953,
          -0.0010495084570720792,
          0.08886232227087021,
          0.08044316619634628,
          -0.03179780766367912,
          -0.019614748656749725,
          0.028962749987840652,
          -0.05788743123412132,
          0.17253851890563965,
          0.25566744804382324,
          0.1390310376882553,
          0.08269347995519638,
          -0.03654498606920242,
          0.02011098712682724,
          -0.028711624443531036,
          -0.03183223307132721,
          -0.16945090889930725,
          -0.19181588292121887,
          -0.10332326591014862,
          -0.11256606131792068,
          -0.10719022154808044,
          -0.040434855967760086,
          -0.00026682994212023914,
          -0.0055389851331710815,
          0.027634697034955025,
          0.0833483561873436,
          0.0722292810678482,
          0.18188633024692535,
          0.1774822175502777,
          -0.08368082344532013,
          -0.09365461021661758,
          -0.10027961432933807,
          -0.010770543478429317,
          -0.040707677602767944,
          0.11126434803009033,
          0.010130771435797215,
          -0.006746524013578892,
          0.24127960205078125,
          0.10068044811487198,
          0.10924694687128067,
          0.18755996227264404,
          0.04612721875309944,
          -0.06060800701379776,
          0.08192454278469086,
          0.018690554425120354,
          0.12036842107772827,
          0.08622471988201141,
          -0.001500105019658804,
          -0.04691475257277489,
          0.027701061218976974,
          -0.05905231460928917,
          -0.06992977112531662,
          -0.0806305781006813,
          0.13459119200706482,
          0.14522679150104523,
          0.0732099860906601,
          0.021775057539343834,
          -0.0010061722714453936,
          -0.03186010196805,
          -0.12102089822292328,
          -0.04950615018606186,
          -0.0482870452105999,
          0.08486896008253098,
          -0.05056508630514145,
          0.06732771545648575,
          0.2148144543170929,
          0.09726931154727936,
          0.07520019263029099,
          0.15189333260059357,
          0.12895426154136658,
          -0.09191501140594482,
          -0.03537062183022499,
          0.13363949954509735,
          0.09115073829889297,
          -0.0105125168338418,
          0.04010997712612152,
          -0.07596530765295029,
          -0.05584599822759628,
          -0.03976445272564888,
          -0.06443680822849274,
          -0.048857543617486954,
          0.2091657966375351,
          0.016179732978343964,
          0.12603840231895447,
          0.023202812299132347,
          0.052657127380371094,
          0.016003256663680077,
          0.12086902558803558,
          -0.04442901164293289,
          0.0011719433823600411,
          -0.008215049281716347,
          0.2300066351890564,
          0.3452392518520355,
          0.3326084017753601,
          0.2763419449329376,
          0.1844668835401535,
          0.27361342310905457,
          0.2041064351797104,
          0.14485540986061096,
          0.1643560826778412,
          0.28033560514450073,
          0.061780259013175964,
          0.07713189721107483,
          0.0437614880502224,
          -0.01676647737622261,
          -0.08675812184810638,
          -0.1129249855875969,
          -0.01937079057097435,
          -0.08657898753881454,
          0.19531258940696716,
          0.05663183331489563,
          0.034031353890895844,
          0.05517886206507683,
          0.3231391906738281,
          0.21346411108970642,
          0.1371476650238037,
          0.005623436998575926,
          -0.007740285713225603,
          -0.006270819343626499,
          -0.028129590675234795,
          0.3334272503852844,
          0.3212665319442749,
          0.22252725064754486,
          0.2730002701282501,
          0.2405504286289215,
          0.1355297863483429,
          0.14592672884464264,
          0.16545431315898895,
          0.1806485503911972,
          0.0387284941971302,
          0.11791364848613739,
          0.1585419774055481,
          0.009040308184921741,
          -0.1494397222995758,
          -0.186091348528862,
          -0.060529522597789764,
          0.03297743946313858,
          0.13873036205768585,
          0.04923492297530174,
          -0.008870291523635387,
          0.14524193108081818,
          0.11774563044309616,
          -0.23166319727897644,
          -0.24703966081142426,
          0.010171693749725819,
          0.01913425326347351,
          0.011624176986515522,
          0.07315901666879654,
          -0.06238109618425369,
          0.05790583789348602,
          0.4466036260128021,
          0.3819112777709961,
          0.19627544283866882,
          0.2517227232456207,
          0.28515952825546265,
          0.18621107935905457,
          0.03209085017442703,
          0.18983764946460724,
          0.23197388648986816,
          0.1583614945411682,
          0.10107602924108505,
          0.13215473294258118,
          0.06007825583219528,
          0.0207707267254591,
          0.357837438583374,
          0.23554393649101257,
          -0.029959077015519142,
          -0.08710457384586334,
          -0.09256476163864136,
          0.3537232577800751,
          -0.11989729106426239,
          -0.2167956531047821,
          -0.007751105353236198,
          0.006464967969805002,
          -0.0034170604776591063,
          0.005353024695068598,
          -0.011224200017750263,
          -0.085154689848423,
          0.2545143961906433,
          0.3044116795063019,
          0.16490471363067627,
          0.22960731387138367,
          0.23884503543376923,
          0.2712704837322235,
          0.2250322699546814,
          0.13472691178321838,
          0.22773617506027222,
          0.36775046586990356,
          0.33085861802101135,
          0.15841920673847198,
          0.33965805172920227,
          0.34078872203826904,
          0.3640935719013214,
          0.4768679141998291,
          0.3316517770290375,
          0.2958028018474579,
          0.18947741389274597,
          0.19075603783130646,
          0.03298797830939293,
          0.00401493813842535,
          -0.008321366272866726,
          0.004625763278454542,
          -0.009664572775363922,
          0.00046851951628923416,
          0.005280497018247843,
          0.014331527054309845,
          -0.032016951590776443,
          -0.004975995514541864,
          -0.015425506979227066,
          -0.056369829922914505,
          -0.1251935511827469,
          -0.03760576248168945,
          -0.052337270230054855,
          -0.017522340640425682,
          0.061779528856277466,
          0.01978740468621254,
          0.13298852741718292,
          0.17426691949367523,
          -0.05707253888249397,
          0.034743692725896835,
          0.12402045726776123,
          -0.14659126102924347,
          -0.15934257209300995,
          -0.09139888733625412,
          -0.002026204951107502,
          0.013835141435265541,
          0.005374893080443144,
          -0.01698054000735283,
          -0.002411196706816554
        ],
        [
          -0.0019899685867130756,
          0.00487165991216898,
          0.006816992536187172,
          0.009240920655429363,
          0.009077798575162888,
          0.0021518629509955645,
          0.016560178250074387,
          -0.010811302810907364,
          -0.0053991349413990974,
          0.016535114496946335,
          0.012341811321675777,
          0.00972357764840126,
          0.029919754713773727,
          0.02999894507229328,
          0.017506472766399384,
          0.016908982768654823,
          -0.007814331911504269,
          -0.007331302855163813,
          -0.006009035278111696,
          0.009206756018102169,
          0.001530235167592764,
          -0.00046127286623232067,
          0.009463286027312279,
          0.007246809545904398,
          0.00910488422960043,
          0.0003446778282523155,
          0.0031469138339161873,
          0.0030942659359425306,
          -0.0014528939500451088,
          0.01545950211584568,
          -0.010951265692710876,
          -0.002125451574102044,
          -0.05319276824593544,
          -0.0612468384206295,
          -0.01217048242688179,
          0.0023213080130517483,
          -0.04795997217297554,
          -0.10726646333932877,
          -0.1667799949645996,
          -0.15278615057468414,
          -0.08154048025608063,
          -0.06241854280233383,
          0.0076943570747971535,
          0.012240827083587646,
          0.021954357624053955,
          -0.052862249314785004,
          -0.13962651789188385,
          -0.11367014050483704,
          -0.11255452036857605,
          -0.0920250341296196,
          0.022260619327425957,
          0.039308227598667145,
          0.004905221983790398,
          0.002304917434230447,
          0.011667564511299133,
          -0.0025222329422831535,
          -0.0004288615600671619,
          -0.013019159436225891,
          -0.0014631985686719418,
          -0.016208570450544357,
          -0.06307683885097504,
          -0.04153471067547798,
          -0.03583930432796478,
          -0.008438137359917164,
          -0.017478857189416885,
          -0.12393166869878769,
          -0.22952590882778168,
          -0.16090579330921173,
          -0.09781284630298615,
          -0.281399667263031,
          -0.2644975781440735,
          -0.2570425271987915,
          -0.32861319184303284,
          -0.11092378199100494,
          -0.03657815605401993,
          -0.33613303303718567,
          -0.4380229413509369,
          -0.17153801023960114,
          -0.03841050714254379,
          0.03794608265161514,
          0.09909423440694809,
          0.09194887429475784,
          0.015544327907264233,
          0.010372922755777836,
          0.012271060608327389,
          0.0013708790065720677,
          0.20258937776088715,
          0.10623188316822052,
          -0.009360174648463726,
          -0.11305917054414749,
          0.1472732126712799,
          -0.20981863141059875,
          -0.3237342834472656,
          -0.19722318649291992,
          -0.4737509787082672,
          -0.5122674107551575,
          -0.3407208323478699,
          -0.27752771973609924,
          -0.3802722096443176,
          -0.17887544631958008,
          -0.07642263174057007,
          -0.22853034734725952,
          -0.08418289572000504,
          0.16803377866744995,
          0.20697139203548431,
          -0.10593223571777344,
          -0.05452952906489372,
          0.22596865892410278,
          0.147149920463562,
          0.06701985001564026,
          -0.034924715757369995,
          0.010348564945161343,
          0.023269740864634514,
          0.021656904369592667,
          0.19648434221744537,
          0.08748647570610046,
          -0.06425569951534271,
          -0.06968753784894943,
          0.008141335099935532,
          -0.0011331044370308518,
          0.08250943571329117,
          -0.1147022545337677,
          -0.1736152321100235,
          -0.28578445315361023,
          -0.3262333869934082,
          -0.13665008544921875,
          -0.18819274008274078,
          -0.17737971246242523,
          -0.08478611707687378,
          -0.04485994949936867,
          -0.10180702805519104,
          -0.060765426605939865,
          -0.02682117000222206,
          -0.12330413609743118,
          -0.21659702062606812,
          -0.10806210339069366,
          -0.11925195902585983,
          0.15952549874782562,
          0.25612080097198486,
          -0.1043897271156311,
          0.005175460129976273,
          0.00934772938489914,
          0.19130465388298035,
          0.10568199306726456,
          0.15751084685325623,
          0.09124453365802765,
          -0.004079755395650864,
          0.04263811185956001,
          0.1200837641954422,
          -0.02849729172885418,
          -0.046690721064805984,
          -0.08751755207777023,
          -0.07475514709949493,
          -0.01982380822300911,
          -0.04467400163412094,
          -0.05861704796552658,
          0.030685169622302055,
          -0.07530935108661652,
          0.01215397659689188,
          0.1112070083618164,
          -0.03995167091488838,
          0.04885450378060341,
          0.0017717950977385044,
          0.04973064363002777,
          0.09462658315896988,
          0.19770547747612,
          0.007477269042283297,
          -0.19505037367343903,
          -0.013654659502208233,
          -0.009705586358904839,
          -0.17795193195343018,
          0.3139181137084961,
          0.1609511375427246,
          -0.08991532027721405,
          -0.005035892128944397,
          0.003507529618218541,
          0.0007064758101478219,
          0.16060106456279755,
          0.09732740372419357,
          -0.077122263610363,
          -0.10663046687841415,
          -0.09085077792406082,
          -0.04211077094078064,
          -0.1117321029305458,
          -0.056899961084127426,
          -0.029649553820490837,
          0.01973385363817215,
          -0.0007399007445201278,
          0.017259158194065094,
          0.10611625760793686,
          -0.09214022755622864,
          0.13091732561588287,
          0.06254228204488754,
          0.12800092995166779,
          0.06582459807395935,
          0.00475373025983572,
          0.01108638010919094,
          0.17532214522361755,
          0.15665704011917114,
          0.44137993454933167,
          0.2189757525920868,
          -0.1005542054772377,
          0.14175717532634735,
          0.1689794361591339,
          0.07108913362026215,
          -0.018075261265039444,
          -0.08696163445711136,
          -0.21705476939678192,
          -0.1076040267944336,
          -0.009956879541277885,
          -0.11423057317733765,
          -0.12265079468488693,
          -0.05647866055369377,
          -0.0017427955754101276,
          0.005485618952661753,
          -0.05007278546690941,
          -0.00021402335551101714,
          0.1596774011850357,
          0.04069017618894577,
          -0.08170571178197861,
          -0.0948900654911995,
          0.0006730756140314043,
          -0.016811801120638847,
          -0.0007453071302734315,
          -0.2798793911933899,
          0.3457789421081543,
          0.116951122879982,
          0.17504827678203583,
          0.22646436095237732,
          0.200772225856781,
          0.16918665170669556,
          0.1568809151649475,
          0.03644459694623947,
          -0.0938054621219635,
          -0.09605621546506882,
          -0.08188863843679428,
          0.041307542473077774,
          0.07307799160480499,
          0.04193110018968582,
          0.003801048267632723,
          -0.04893357306718826,
          -0.05169287696480751,
          -0.1120135486125946,
          -0.003963092807680368,
          0.07353656738996506,
          -0.03723706677556038,
          -0.038833990693092346,
          0.07217643409967422,
          -0.16937531530857086,
          -0.15719832479953766,
          0.20803894102573395,
          0.1528439223766327,
          0.08758678287267685,
          0.1390632838010788,
          0.06311704963445663,
          0.24454253911972046,
          0.1004910096526146,
          0.28281837701797485,
          0.11745556443929672,
          -2.3800124836270697e-05,
          0.02331950142979622,
          -0.015212112106382847,
          0.03234650939702988,
          0.12083972245454788,
          0.2723618149757385,
          0.2509230077266693,
          0.12475155293941498,
          -0.01663544960319996,
          -0.10328128188848495,
          -0.03226284310221672,
          -0.15485428273677826,
          -0.10103774070739746,
          0.0021200734190642834,
          -0.11158972978591919,
          -0.11409825086593628,
          0.056969158351421356,
          -0.14139944314956665,
          0.16363586485385895,
          0.3809269666671753,
          0.22945088148117065,
          0.11126220971345901,
          0.25493091344833374,
          0.012058183550834656,
          -0.03359288349747658,
          0.06256282329559326,
          0.2299797236919403,
          0.24564647674560547,
          0.08522842824459076,
          0.18799518048763275,
          0.20139449834823608,
          0.4016212821006775,
          0.36446505784988403,
          0.27273985743522644,
          0.24689362943172455,
          -0.04371444880962372,
          -0.05182253569364548,
          -0.05772672966122627,
          -0.051841169595718384,
          -0.03255976364016533,
          0.00469598826020956,
          -0.020672548562288284,
          -0.10593530535697937,
          -0.1845814734697342,
          0.012165389955043793,
          0.1315462440252304,
          0.11040698736906052,
          0.1447402387857437,
          0.3203294277191162,
          0.12146750092506409,
          0.21970468759536743,
          -0.07636501640081406,
          -0.0022024731151759624,
          0.24139222502708435,
          0.26037198305130005,
          0.30084094405174255,
          0.2708260118961334,
          0.2323959320783615,
          0.3641188144683838,
          0.37359434366226196,
          0.4162070155143738,
          0.180903822183609,
          -0.03891776502132416,
          -0.08972515165805817,
          -0.07566354423761368,
          -0.10654865205287933,
          -0.07661884278059006,
          0.07046958804130554,
          0.012263355776667595,
          0.08518368750810623,
          -0.11414697766304016,
          -0.09010601788759232,
          0.08839911967515945,
          0.1386677473783493,
          -0.03898727148771286,
          -0.0677998811006546,
          0.318427711725235,
          0.08202420175075531,
          0.10934990644454956,
          -0.012029331177473068,
          -0.07121451944112778,
          0.21571090817451477,
          0.23502326011657715,
          0.17715488374233246,
          0.15254047513008118,
          0.1199968084692955,
          0.16738706827163696,
          -0.014717171899974346,
          -0.19604727625846863,
          -0.1668339967727661,
          -0.30720093846321106,
          -0.11455203592777252,
          -0.07164986431598663,
          -0.060171209275722504,
          -0.00477381469681859,
          0.053833864629268646,
          0.038593441247940063,
          -0.0789315328001976,
          -0.04414612427353859,
          -0.027958843857049942,
          -0.03359397128224373,
          0.11168837547302246,
          0.09542091935873032,
          0.162925124168396,
          0.3824363946914673,
          0.16478262841701508,
          0.024676568806171417,
          0.06968552619218826,
          -0.09139671921730042,
          0.005400900263339281,
          -0.062047332525253296,
          -0.02610655128955841,
          -0.13239479064941406,
          -0.06238285452127457,
          -0.00358645454980433,
          -0.1794177144765854,
          -0.2834289073944092,
          -0.38999226689338684,
          -0.22483715415000916,
          -0.04585656896233559,
          -0.0951661765575409,
          -0.0783904492855072,
          0.05003872513771057,
          0.06805875152349472,
          -0.000438367627793923,
          0.019224654883146286,
          0.018898332491517067,
          0.18278375267982483,
          0.09520198404788971,
          0.05567806959152222,
          0.1825087070465088,
          0.30305930972099304,
          0.22359827160835266,
          -0.059155695140361786,
          0.014182964339852333,
          0.15416087210178375,
          -0.17684884369373322,
          -0.2234266847372055,
          -0.34108054637908936,
          -0.15986725687980652,
          -0.33863428235054016,
          -0.21944351494312286,
          -0.28574061393737793,
          -0.2688431739807129,
          -0.1834925264120102,
          -0.06335524469614029,
          0.014764439314603806,
          -0.046482592821121216,
          -0.07177500426769257,
          -0.11728786677122116,
          0.06546508520841599,
          0.06607969850301743,
          0.11992184072732925,
          -0.011457398533821106,
          0.10412698239088058,
          0.03352900594472885,
          0.197305828332901,
          0.007644128520041704,
          -0.014830874279141426,
          0.48910677433013916,
          0.15741604566574097,
          -0.04799993336200714,
          -0.07821936905384064,
          -0.014299478381872177,
          -0.30402475595474243,
          -0.44580912590026855,
          -0.46857813000679016,
          -0.25624531507492065,
          -0.31273218989372253,
          -0.32711878418922424,
          -0.3944869041442871,
          -0.2348736673593521,
          0.07158490270376205,
          0.11411049962043762,
          0.16906744241714478,
          0.12865906953811646,
          0.016241293400526047,
          -0.07963143289089203,
          -0.025987589731812477,
          0.005537016317248344,
          0.05616309493780136,
          0.20201386511325836,
          0.023482834920287132,
          0.04259612783789635,
          0.07556110620498657,
          0.15422172844409943,
          -0.025386633351445198,
          0.1358117014169693,
          0.2816470265388489,
          0.025179419666528702,
          -0.03700600937008858,
          0.1464533805847168,
          -0.20301799476146698,
          -0.5277289152145386,
          -0.6377003788948059,
          -0.5486263632774353,
          -0.3156818747520447,
          -0.3498869836330414,
          -0.1724046915769577,
          -0.13833148777484894,
          0.040462907403707504,
          0.11599437892436981,
          0.1596715748310089,
          0.12862473726272583,
          0.0018098889850080013,
          0.03576910123229027,
          0.0013373899273574352,
          -0.01484773401170969,
          0.09489050507545471,
          0.04287315532565117,
          0.05206694453954697,
          0.005001509096473455,
          0.021584047004580498,
          -0.061916861683130264,
          -0.150874525308609,
          0.09799765050411224,
          0.16600647568702698,
          -0.01834269054234028,
          -0.023638520389795303,
          0.21604114770889282,
          -0.17485402524471283,
          -0.4127867817878723,
          -0.40198814868927,
          -0.29412275552749634,
          -0.19039657711982727,
          -0.05021025240421295,
          0.021063322201371193,
          -0.026728589087724686,
          0.09350454062223434,
          0.1821153312921524,
          0.16131559014320374,
          0.0919765904545784,
          -0.0536806620657444,
          -0.009271920658648014,
          -0.038645632565021515,
          0.01153640914708376,
          0.12172073125839233,
          0.06706392019987106,
          -0.0005813954630866647,
          -0.20318907499313354,
          -0.15364398062229156,
          0.07979244738817215,
          0.2848096787929535,
          0.36094778776168823,
          0.3023667633533478,
          0.0005384761607274413,
          -0.07281219214200974,
          0.19601844251155853,
          -0.06546519696712494,
          -0.40202564001083374,
          -0.1971956193447113,
          -0.010064903646707535,
          0.06264159083366394,
          0.005708771292120218,
          -0.04833162948489189,
          0.021985318511724472,
          0.04810645058751106,
          0.1357649266719818,
          0.15254521369934082,
          -0.05097713693976402,
          0.021687086671590805,
          -0.06057794392108917,
          0.004399735946208239,
          0.06067926064133644,
          0.039662040770053864,
          -0.07348904758691788,
          -0.05332055687904358,
          -0.141213521361351,
          -0.06935176998376846,
          0.11670585721731186,
          0.03079351596534252,
          0.07447245717048645,
          0.1685274988412857,
          -0.09010414034128189,
          0.22307537496089935,
          -0.04719578102231026,
          -0.13839472830295563,
          -0.2030191421508789,
          -0.10719723254442215,
          -0.09874627739191055,
          -0.0032741816248744726,
          0.06132825091481209,
          -0.09410545974969864,
          0.10568941384553909,
          0.13520699739456177,
          0.11722401529550552,
          0.20394927263259888,
          0.0634792149066925,
          0.08094090223312378,
          0.12121819704771042,
          0.035702940076589584,
          -0.015026788227260113,
          -0.027889614924788475,
          -0.1843925267457962,
          -0.2513037919998169,
          -0.24328434467315674,
          -0.06928136199712753,
          -0.04445984587073326,
          -0.10316166281700134,
          0.08719826489686966,
          0.170002743601799,
          0.007645507343113422,
          -0.038767095655202866,
          0.15634509921073914,
          0.09735443443059921,
          -0.14423292875289917,
          -0.15833918750286102,
          -0.020191635936498642,
          0.03801478445529938,
          0.11420607566833496,
          0.029270971193909645,
          0.17685313522815704,
          0.22344528138637543,
          0.1458437740802765,
          0.08736573159694672,
          -0.006537838838994503,
          0.07191906869411469,
          0.03895192593336105,
          -0.052818842232227325,
          -0.0635378435254097,
          -0.12770895659923553,
          -0.03360453620553017,
          -0.09786597639322281,
          -0.10507282614707947,
          0.06381490081548691,
          0.0718827024102211,
          -0.047771554440259933,
          0.023873809725046158,
          -0.04330241307616234,
          -0.0037509100511670113,
          0.010561753064393997,
          0.12461712211370468,
          0.11541245132684708,
          -0.11111564189195633,
          -0.20426736772060394,
          -0.04340268298983574,
          -0.11744873970746994,
          -0.0024662362411618233,
          0.03642091155052185,
          0.10949112474918365,
          0.005458626430481672,
          0.034822579473257065,
          0.04956113547086716,
          0.05013889819383621,
          0.10061859339475632,
          0.07318392395973206,
          -0.05018576979637146,
          0.04010798782110214,
          0.09289678931236267,
          -0.09053486585617065,
          -0.1012996956706047,
          -0.052250925451517105,
          0.08604138344526291,
          0.04357508197426796,
          0.009648239240050316,
          0.0029062991961836815,
          -0.018611008301377296,
          -0.018225112929940224,
          -0.01152542419731617,
          0.11586087942123413,
          -0.243886798620224,
          -0.0679657980799675,
          -0.01588035188615322,
          -0.07575175911188126,
          -0.04391894489526749,
          0.0023012959863990545,
          0.14606574177742004,
          0.017080772668123245,
          -0.02678598463535309,
          -0.03738712519407272,
          0.0968398004770279,
          0.1318405717611313,
          0.14888215065002441,
          -0.03250303864479065,
          -0.002417026786133647,
          0.0903932973742485,
          0.02085578814148903,
          -0.041272927075624466,
          -0.027318187057971954,
          0.02765468694269657,
          0.23075418174266815,
          0.03662955388426781,
          -0.01687495969235897,
          -0.10795675218105316,
          -0.012881660833954811,
          -0.00793888047337532,
          0.008253827691078186,
          -0.043686915189027786,
          -0.38893067836761475,
          -0.23631107807159424,
          -0.005573678761720657,
          0.10546659678220749,
          -0.005053340923041105,
          -0.006303015630692244,
          0.03793748468160629,
          -0.038792796432971954,
          0.06630897521972656,
          0.13378258049488068,
          0.18467894196510315,
          0.056651584804058075,
          0.09359719604253769,
          0.05060384050011635,
          0.06748692691326141,
          0.08788301050662994,
          0.05068245157599449,
          0.0358242504298687,
          -0.16211819648742676,
          0.07809699326753616,
          0.2701513469219208,
          0.08830659836530685,
          0.001982335699722171,
          -0.038156989961862564,
          0.014139290899038315,
          0.008053382858633995,
          0.006109342444688082,
          -0.06708934158086777,
          -0.09784281253814697,
          0.04124969616532326,
          0.14555241167545319,
          0.15443767607212067,
          -0.12360072880983353,
          -0.12827803194522858,
          -0.16339503228664398,
          -0.09780655801296234,
          0.014252971857786179,
          0.07719144970178604,
          0.04885037988424301,
          0.001930021564476192,
          -0.031022408977150917,
          -0.17903202772140503,
          -0.06289013475179672,
          0.13069133460521698,
          0.3152989447116852,
          0.10044368356466293,
          -0.03181730583310127,
          0.0016889864346012473,
          0.11423132568597794,
          0.24635258316993713,
          0.16495519876480103,
          0.2529265284538269,
          0.007012767717242241,
          0.007577854674309492,
          0.002361106453463435,
          -0.20371755957603455,
          0.11950557678937912,
          0.015480082482099533,
          -0.05062975734472275,
          0.13768039643764496,
          0.10168954730033875,
          -0.05634576827287674,
          -0.15456867218017578,
          -0.20698529481887817,
          -0.09341613948345184,
          0.16408628225326538,
          -0.02897184155881405,
          0.020256798714399338,
          -0.03290587291121483,
          -0.03823503479361534,
          0.0756092518568039,
          0.13152098655700684,
          0.26429808139801025,
          0.11887897551059723,
          -0.12445566803216934,
          -0.41798803210258484,
          -0.3437487483024597,
          0.0722329318523407,
          0.03207298368215561,
          0.15909405052661896,
          0.003346552373841405,
          -0.008663469925522804,
          -0.006497030612081289,
          0.010849849320948124,
          0.05201486125588417,
          -0.3169889450073242,
          -0.2064538449048996,
          -0.0328332781791687,
          0.34203723073005676,
          0.15865543484687805,
          -0.06526996940374374,
          0.01899885945022106,
          -0.004786433186382055,
          0.05422236770391464,
          0.18376564979553223,
          0.21249011158943176,
          -0.04777722433209419,
          -0.13905984163284302,
          -0.027385953813791275,
          0.2663376033306122,
          0.5426692366600037,
          0.267380028963089,
          -0.07737606018781662,
          -0.03808993101119995,
          0.017304018139839172,
          -0.09698481112718582,
          0.10815665870904922,
          -0.009741700254380703,
          0.004145416431128979,
          -0.01392003521323204,
          0.014033600687980652,
          -0.015158026479184628,
          -0.0010091005824506283,
          0.14384077489376068,
          0.23664946854114532,
          0.19885185360908508,
          0.18710091710090637,
          0.21893437206745148,
          0.19995059072971344,
          0.32878655195236206,
          0.10419190675020218,
          -0.0018781406106427312,
          0.3034231662750244,
          0.32317233085632324,
          0.292995423078537,
          0.2680891156196594,
          0.30160394310951233,
          0.0422641858458519,
          0.3127243220806122,
          -0.11723276227712631,
          -0.233498215675354,
          -0.1352704018354416,
          0.04999794438481331,
          0.0006722744437865913,
          0.008593039587140083,
          -0.0020462770480662584,
          0.0027466528117656708
        ],
        [
          -0.003341024974361062,
          0.02308516949415207,
          -0.0149112893268466,
          -0.01830698736011982,
          0.013090251013636589,
          -7.995027408469468e-05,
          -0.0008618442807346582,
          -0.013355816714465618,
          -0.006114768795669079,
          0.00034999134368263185,
          0.023594308644533157,
          0.01649053581058979,
          0.05108000338077545,
          0.04541357234120369,
          -0.10382894426584244,
          -0.11663181334733963,
          -0.005074651911854744,
          -0.026489946991205215,
          0.011341767385601997,
          -0.011822562664747238,
          -0.008428233675658703,
          -0.0008485140861012042,
          0.008595142513513565,
          -0.006500567775219679,
          0.009747210890054703,
          -0.013004499487578869,
          -0.0007305900799110532,
          -0.007791207637637854,
          -0.014344376511871815,
          0.008503603748977184,
          0.0031565187964588404,
          -0.009206293150782585,
          0.04697679355740547,
          0.01818469725549221,
          -0.08805818110704422,
          -0.09779181331396103,
          0.04896213114261627,
          0.09611504524946213,
          0.1339767575263977,
          -0.024635564535856247,
          -0.09520790725946426,
          0.02474628947675228,
          0.1543627828359604,
          -0.06097216159105301,
          -0.13995076715946198,
          -0.017675606533885002,
          0.18843486905097961,
          -0.013654480688273907,
          0.11694322526454926,
          0.1876373440027237,
          -0.04315214976668358,
          -0.06898467987775803,
          0.006776086520403624,
          0.0030106003396213055,
          0.0033639029134064913,
          0.003725549206137657,
          0.009231386706233025,
          -0.003157334867864847,
          -0.09378209710121155,
          -0.2264653593301773,
          -0.17621970176696777,
          0.04511997103691101,
          0.0709044560790062,
          0.021440139040350914,
          0.03939139470458031,
          -0.060485582798719406,
          -0.07634323835372925,
          0.06400693207979202,
          0.05875036120414734,
          0.22652173042297363,
          0.1297338455915451,
          -0.06884047389030457,
          -0.08748982101678848,
          -0.18136459589004517,
          -0.21869437396526337,
          0.02173999883234501,
          0.01304852869361639,
          0.06787645816802979,
          0.11791592091321945,
          -0.14854349195957184,
          -0.0670861005783081,
          -0.0536164827644825,
          0.004601599648594856,
          0.009949496947228909,
          -0.007325001526623964,
          0.006705516017973423,
          -0.03332822024822235,
          -0.19207188487052917,
          0.2600126266479492,
          -0.06986117362976074,
          -0.08089940994977951,
          0.07859475165605545,
          -0.04653918743133545,
          -0.008014687336981297,
          0.1518433541059494,
          0.15823841094970703,
          -0.07931526005268097,
          -0.05123968422412872,
          -0.1441219002008438,
          -0.19385258853435516,
          -0.29691600799560547,
          -0.29296472668647766,
          -0.004270047415047884,
          0.15268196165561676,
          0.17803767323493958,
          0.19430841505527496,
          0.1969873607158661,
          -0.03957255184650421,
          -0.06897866725921631,
          0.08333437144756317,
          -0.054070163518190384,
          0.007333244662731886,
          9.103177035285626e-06,
          -0.019373247399926186,
          -0.07908761501312256,
          0.25833970308303833,
          0.21925251185894012,
          -0.09026913344860077,
          -0.14212414622306824,
          -0.020336154848337173,
          -0.21139110624790192,
          0.011751647107303143,
          0.04846834018826485,
          0.11376100033521652,
          0.05432483181357384,
          -0.18019670248031616,
          -0.25084158778190613,
          -0.1599077582359314,
          -0.11305094510316849,
          -0.040617868304252625,
          0.10304822027683258,
          0.1197257936000824,
          0.16154752671718597,
          0.17036893963813782,
          0.06421826779842377,
          0.25530433654785156,
          0.3725520074367523,
          0.24172772467136383,
          -0.09444920718669891,
          -0.04524466022849083,
          -0.007433526683598757,
          -0.001095261424779892,
          -0.1842617392539978,
          0.09258086234331131,
          -0.02460835687816143,
          -0.013597235083580017,
          -0.0712149441242218,
          -0.02061094343662262,
          0.03721674531698227,
          0.16269348561763763,
          0.2073175013065338,
          0.2479391247034073,
          0.030660714954137802,
          -0.07256907969713211,
          -0.20129497349262238,
          -0.26952603459358215,
          -0.201374813914299,
          0.003422516630962491,
          0.09989316016435623,
          0.09917348623275757,
          0.038818880915641785,
          -0.11001734435558319,
          -0.032929033041000366,
          -0.01851896196603775,
          0.10407060384750366,
          0.06897595524787903,
          0.02154131606221199,
          0.0860094204545021,
          0.011530885472893715,
          -0.020982829853892326,
          0.13683876395225525,
          -0.3714846074581146,
          0.1247556060552597,
          0.26514750719070435,
          0.04668308049440384,
          0.11222795397043228,
          0.04001440480351448,
          0.04026246815919876,
          0.04386552795767784,
          0.09233003854751587,
          0.02512424997985363,
          -0.011398875154554844,
          -0.12564674019813538,
          -0.2131165862083435,
          -0.17685192823410034,
          -0.07964982837438583,
          0.10497067868709564,
          0.22787992656230927,
          0.1657295525074005,
          -0.07058557868003845,
          0.07041672617197037,
          0.0449344739317894,
          0.024667339399456978,
          0.05426753684878349,
          0.13420094549655914,
          -0.05558537319302559,
          -0.015004499815404415,
          -0.03394397348165512,
          0.006227776408195496,
          -0.4232153296470642,
          -0.021958401426672935,
          0.15735886991024017,
          -0.13376730680465698,
          -0.07261259853839874,
          0.02772974967956543,
          0.054090503603219986,
          0.06790271401405334,
          0.021951735019683838,
          -0.051299259066581726,
          -0.02013876475393772,
          -0.03750482574105263,
          0.04474855586886406,
          0.037097468972206116,
          0.042000915855169296,
          0.08387543261051178,
          0.18632733821868896,
          0.23748897016048431,
          0.2576978802680969,
          0.3250471353530884,
          0.30351829528808594,
          -0.009909438900649548,
          -0.03132206201553345,
          0.2488204687833786,
          -0.069456085562706,
          -0.1962682008743286,
          -0.075374536216259,
          0.022141464054584503,
          -0.1343381106853485,
          -0.022390000522136688,
          -0.04667847976088524,
          0.1095002219080925,
          0.08425287902355194,
          0.07995457947254181,
          0.08224561810493469,
          -0.07312005013227463,
          -0.10346194356679916,
          -0.1391610950231552,
          -0.04266826808452606,
          0.06254053860902786,
          0.1385740488767624,
          0.05206232890486717,
          0.009441947564482689,
          -0.001284587080590427,
          0.020761676132678986,
          0.1390562206506729,
          0.2889200448989868,
          0.04713030904531479,
          -0.14574307203292847,
          0.3068414330482483,
          0.4201548397541046,
          0.0722266286611557,
          -0.09207634627819061,
          -0.03836347535252571,
          -0.10167937725782394,
          -0.04653077945113182,
          -0.10338481515645981,
          -0.2216348946094513,
          -0.15970803797245026,
          0.016118688508868217,
          0.1056894063949585,
          0.20352838933467865,
          0.17226600646972656,
          -0.027984287589788437,
          -0.06355162709951401,
          -0.29582664370536804,
          -0.20112502574920654,
          -0.10176753252744675,
          0.057062938809394836,
          0.06032100319862366,
          -0.15228618681430817,
          -0.13067379593849182,
          -0.15997187793254852,
          -0.06961871683597565,
          0.02196165919303894,
          -0.23443251848220825,
          -0.1213054209947586,
          0.1236126646399498,
          0.1522587090730667,
          0.13358572125434875,
          -0.01918751187622547,
          -0.02059178240597248,
          -0.13549916446208954,
          -0.2040230631828308,
          -0.1428249329328537,
          -0.10425018519163132,
          -0.04093460738658905,
          -0.059498608112335205,
          0.16423462331295013,
          0.22727400064468384,
          0.2658810317516327,
          0.1834065020084381,
          -0.12243013828992844,
          -0.2057569921016693,
          -0.2642982304096222,
          -0.22518153488636017,
          -0.09085497260093689,
          -0.16883526742458344,
          -0.21456633508205414,
          -0.22953017055988312,
          -0.12986288964748383,
          -0.15754517912864685,
          -0.0982654020190239,
          -0.12398648262023926,
          -0.17204031348228455,
          0.08945333957672119,
          0.196818545460701,
          0.07424832880496979,
          -0.047670867294073105,
          -0.04256623983383179,
          -0.3169194161891937,
          -0.25322648882865906,
          -0.38282719254493713,
          -0.28206101059913635,
          -0.07495217025279999,
          0.02800392359495163,
          0.13112907111644745,
          0.1817777007818222,
          0.27708908915519714,
          0.20793721079826355,
          0.01925794966518879,
          -0.05474081635475159,
          -0.21136584877967834,
          -0.060899313539266586,
          -0.08385750651359558,
          -0.0691101998090744,
          0.0006485576159320772,
          -0.09178764373064041,
          -0.09975539147853851,
          -0.11936715245246887,
          0.07097063958644867,
          -0.03591780364513397,
          -0.07906648516654968,
          0.014682759530842304,
          -0.15989497303962708,
          0.002348000416532159,
          -0.28005024790763855,
          -0.028818130493164062,
          0.006573183462023735,
          -0.08328365534543991,
          -0.2501385807991028,
          -0.17863592505455017,
          -0.05338086187839508,
          0.007886807434260845,
          0.11230096220970154,
          0.10413743555545807,
          0.13533958792686462,
          0.16262589395046234,
          0.08587096631526947,
          0.0038868640549480915,
          -0.1251852959394455,
          -0.16528677940368652,
          -0.07914823293685913,
          -0.09305845946073532,
          -0.02100699208676815,
          -0.04640054330229759,
          -0.0420505665242672,
          0.041971560567617416,
          0.1036517396569252,
          -0.05320340022444725,
          0.04477604478597641,
          -0.12702076137065887,
          -0.3435867428779602,
          -0.4173528552055359,
          -0.365919828414917,
          -0.011870356276631355,
          0.07661959528923035,
          -0.08690708130598068,
          -0.20315766334533691,
          -0.13180597126483917,
          0.017063694074749947,
          -0.04189525917172432,
          0.215340256690979,
          0.1562691479921341,
          0.19905374944210052,
          0.23093827068805695,
          0.06253180652856827,
          0.023176632821559906,
          -0.061653319746255875,
          -0.10733149945735931,
          -0.029099076986312866,
          -0.035814106464385986,
          -0.019935395568609238,
          -0.04536156356334686,
          0.018738357350230217,
          0.03194708004593849,
          -0.006072917953133583,
          0.03235115483403206,
          0.04822225496172905,
          -0.10588681697845459,
          -0.17796306312084198,
          -0.5001438856124878,
          -0.1460132747888565,
          0.0766611397266388,
          0.06023440510034561,
          -0.1447272002696991,
          -0.22377870976924896,
          -0.13737550377845764,
          0.05931735038757324,
          0.08546925336122513,
          0.21137744188308716,
          0.21893206238746643,
          0.32305118441581726,
          0.26505452394485474,
          0.11500576883554459,
          -0.11028170585632324,
          -0.18136455118656158,
          -0.19647808372974396,
          -0.15494176745414734,
          0.023755351081490517,
          0.14225663244724274,
          0.10389474779367447,
          -0.046995390206575394,
          0.010656747967004776,
          0.026264261454343796,
          0.1430874764919281,
          -0.01282060332596302,
          -0.017112335190176964,
          0.025034599006175995,
          -0.34572386741638184,
          -0.1227869763970375,
          0.05050686374306679,
          0.03770879656076431,
          0.07054921984672546,
          -0.12278766930103302,
          -0.1115846037864685,
          -0.05945974588394165,
          0.1290336698293686,
          0.2960318326950073,
          0.27129441499710083,
          0.22356152534484863,
          0.2520630359649658,
          0.1238911971449852,
          0.05633246526122093,
          -0.10786818712949753,
          -0.19798198342323303,
          -0.2520495355129242,
          0.1088363528251648,
          0.21975108981132507,
          0.03908434510231018,
          -0.07353807985782623,
          -0.09467362612485886,
          -0.05365109443664551,
          -0.07173573970794678,
          -0.004349060822278261,
          -0.09039588272571564,
          0.06468354910612106,
          -0.06438342481851578,
          -0.37650153040885925,
          -0.024856368079781532,
          -0.044320546090602875,
          -0.051905225962400436,
          -0.09132051467895508,
          -0.33365392684936523,
          -0.08610827475786209,
          0.03298109024763107,
          -0.019093386828899384,
          0.23207257688045502,
          0.07912948727607727,
          0.11846199631690979,
          0.09251222759485245,
          0.07205110788345337,
          0.02329389378428459,
          -0.19924986362457275,
          -0.19088494777679443,
          0.10762040317058563,
          0.0691712498664856,
          0.02060997113585472,
          -0.01525854878127575,
          0.04516793414950371,
          -0.17148655652999878,
          -0.13874807953834534,
          -0.014422568492591381,
          0.082855723798275,
          0.08254462480545044,
          -0.1863154023885727,
          -0.31625428795814514,
          -0.0012728089932352304,
          -0.07810665667057037,
          0.012901665642857552,
          -0.10167109221220016,
          -0.3108793795108795,
          -0.16228336095809937,
          -0.06515909731388092,
          -0.07838908582925797,
          0.05148923397064209,
          0.14921823143959045,
          0.23689542710781097,
          0.16275645792484283,
          0.04741218686103821,
          -0.07663196325302124,
          -0.17686951160430908,
          -0.13189886510372162,
          0.08456341177225113,
          0.07468176633119583,
          0.084527388215065,
          0.02967384271323681,
          0.062002670019865036,
          -0.15854398906230927,
          -0.03105269744992256,
          0.13678571581840515,
          0.14249709248542786,
          -0.0037917252629995346,
          -0.028719201683998108,
          -0.33801791071891785,
          -0.19030748307704926,
          -0.07401937991380692,
          -0.09326507151126862,
          -0.04027580842375755,
          -0.27177900075912476,
          -0.17516964673995972,
          -0.1663673371076584,
          -0.14976081252098083,
          0.013508250936865807,
          0.08749186247587204,
          0.04689378663897514,
          0.08669748902320862,
          0.08673958480358124,
          0.18351905047893524,
          0.0395902618765831,
          -0.06580445915460587,
          0.051766350865364075,
          0.02207772433757782,
          0.014391263946890831,
          0.06505098938941956,
          0.06455981731414795,
          -0.1352998912334442,
          -0.11755102127790451,
          0.09250666946172714,
          0.028986968100070953,
          -0.10986603796482086,
          -0.22648537158966064,
          -0.20490099489688873,
          -0.015559748746454716,
          -0.03282846510410309,
          0.09862551093101501,
          0.06459211558103561,
          -0.2058030068874359,
          -0.1533430516719818,
          -0.13832201063632965,
          -0.14073722064495087,
          0.07002529501914978,
          0.09003236144781113,
          0.005144643597304821,
          0.06515342742204666,
          0.1492539644241333,
          0.15131592750549316,
          0.0956316813826561,
          0.042654335498809814,
          -0.04338928684592247,
          -0.07411913573741913,
          0.09106592833995819,
          0.061819758266210556,
          -0.03237869217991829,
          0.028150442987680435,
          -0.0016645537689328194,
          0.11025982350111008,
          0.09104099124670029,
          -0.09716140478849411,
          -0.41862472891807556,
          -0.10850002616643906,
          -0.016296090558171272,
          0.317520409822464,
          0.20422881841659546,
          0.027750564739108086,
          -0.12712344527244568,
          -0.08497285097837448,
          -0.12989038228988647,
          -0.0894695520401001,
          -0.11657309532165527,
          0.018227554857730865,
          -0.09420697391033173,
          -0.07328517735004425,
          0.17219212651252747,
          0.08214250206947327,
          0.07045561820268631,
          0.041187748312950134,
          0.0946478471159935,
          -0.009576495736837387,
          0.033964864909648895,
          0.015978053212165833,
          -0.05235195904970169,
          -0.054726798087358475,
          0.02388189174234867,
          -0.028460992500185966,
          0.11441211402416229,
          0.171769380569458,
          -0.38145947456359863,
          0.011569217778742313,
          -0.014706158079206944,
          -0.01138382963836193,
          -0.011048388667404652,
          0.07572920620441437,
          -0.1481422483921051,
          0.07503059506416321,
          -0.043925609439611435,
          -0.009535546414554119,
          -0.0867001861333847,
          -0.021859854459762573,
          -0.11259656399488449,
          -0.05304181948304176,
          0.09737986326217651,
          0.02640553005039692,
          0.00736904377117753,
          0.02888978272676468,
          -0.004648908972740173,
          -0.059575844556093216,
          -0.004220524337142706,
          0.008881183341145515,
          0.08835551887750626,
          0.13495199382305145,
          0.05436345934867859,
          0.06217522174119949,
          0.24738264083862305,
          0.05629393458366394,
          -0.2406465858221054,
          -0.04270070418715477,
          -0.026900362223386765,
          0.0022136098705232143,
          -0.14140553772449493,
          -0.10728629678487778,
          0.06307747960090637,
          -0.041913848370313644,
          -0.16129589080810547,
          -0.09911137074232101,
          -0.08470960706472397,
          -0.12295223027467728,
          -0.041555941104888916,
          -0.0034546705428510904,
          -0.027042441070079803,
          -0.09526406228542328,
          -0.019287612289190292,
          -0.023243525996804237,
          0.10571388155221939,
          0.033563219010829926,
          0.12277007848024368,
          0.11225058883428574,
          0.14065922796726227,
          0.21957258880138397,
          0.06220993027091026,
          0.19767233729362488,
          0.2353426218032837,
          0.15762728452682495,
          0.15399324893951416,
          -0.05302232876420021,
          0.0011340113123878837,
          0.023333029821515083,
          -0.06251630932092667,
          0.004657793790102005,
          0.07947741448879242,
          0.12313167005777359,
          0.008190066553652287,
          -0.1407891809940338,
          0.011804604902863503,
          0.0615236833691597,
          0.13659623265266418,
          0.023780738934874535,
          0.030553003773093224,
          -0.029753178358078003,
          0.06508190929889679,
          0.09559927880764008,
          0.21465757489204407,
          0.19560734927654266,
          0.17936883866786957,
          0.17224855720996857,
          0.20798836648464203,
          0.27386847138404846,
          0.15915024280548096,
          0.16913215816020966,
          0.24273250997066498,
          0.17497855424880981,
          0.1762697398662567,
          -0.0015595497097820044,
          -0.004890945740044117,
          -0.006560389418154955,
          0.0937570109963417,
          0.09384261816740036,
          -0.003182940185070038,
          -0.022062478587031364,
          -0.01025677751749754,
          -0.06690569221973419,
          0.0555950328707695,
          0.17554205656051636,
          0.16996923089027405,
          0.16391319036483765,
          0.056995049118995667,
          0.03003707528114319,
          -0.06329196691513062,
          -0.012654122896492481,
          0.1249648854136467,
          -0.0280914343893528,
          0.001719799474813044,
          0.01048483420163393,
          0.20270195603370667,
          0.022627048194408417,
          0.10812585055828094,
          0.3646053075790405,
          -0.16548767685890198,
          -0.15217670798301697,
          -0.16362576186656952,
          0.0007452293648384511,
          -0.01969641074538231,
          0.0010357950814068317,
          0.18436948955059052,
          0.09214705973863602,
          -0.2380639761686325,
          -0.3005680739879608,
          0.03847174718976021,
          -0.02298448234796524,
          0.0037192273885011673,
          -0.012116331607103348,
          -0.1612107902765274,
          -0.1211148276925087,
          -0.08780139684677124,
          0.03966480493545532,
          0.01359169464558363,
          0.022872578352689743,
          0.031470879912376404,
          0.060558971017599106,
          0.19394905865192413,
          0.03969871997833252,
          0.14220532774925232,
          0.22085149586200714,
          0.3781769275665283,
          0.5708889365196228,
          0.1925167441368103,
          -0.0750352218747139,
          -0.1620759814977646,
          0.014947007410228252,
          0.001000657444819808,
          0.020868156105279922,
          0.0008937736856751144,
          0.021638039499521255,
          0.08700740337371826,
          -0.19587679207324982,
          -0.01203564926981926,
          0.09905734658241272,
          0.2450888305902481,
          0.2278692126274109,
          -0.030290447175502777,
          0.054179638624191284,
          0.25363588333129883,
          0.08991788327693939,
          0.1241643950343132,
          0.21469537913799286,
          0.1177062839269638,
          0.14539745450019836,
          -0.06896435469388962,
          -0.26545336842536926,
          -0.013854297809302807,
          0.1479361355304718,
          -0.01714244671165943,
          0.17019127309322357,
          -0.011646784842014313,
          -0.024684729054570198,
          -0.0004219537659082562,
          -0.0030329027213156223,
          0.018160540610551834,
          -0.008496190421283245,
          0.004091108217835426,
          -0.003170678624883294,
          -0.0016956804320216179,
          -0.033435434103012085,
          -0.0023834980092942715,
          -0.015115665271878242,
          -0.0856221541762352,
          -0.1098029837012291,
          -0.11571206897497177,
          0.02819555066525936,
          0.05794675648212433,
          -0.14284531772136688,
          -0.1680777221918106,
          0.005626334343105555,
          -0.15462274849414825,
          -0.4271983504295349,
          -0.19682584702968597,
          0.040917377918958664,
          -0.11106186360120773,
          -0.14917731285095215,
          -0.21215081214904785,
          -0.14099012315273285,
          -0.0144247030839324,
          0.0012206333922222257,
          -0.0018503584433346987,
          -0.0070450385101139545
        ],
        [
          0.0005680816830135882,
          0.002751321066170931,
          -0.00951240211725235,
          -0.016488440334796906,
          0.012726076878607273,
          0.0024669799022376537,
          0.0001554691989440471,
          -0.010569857433438301,
          0.002101478399708867,
          0.0005862009711563587,
          0.004932825919240713,
          -0.012995525263249874,
          -0.014600247144699097,
          -0.021782824769616127,
          -0.010165072046220303,
          0.0002705018559936434,
          0.0023177138064056635,
          0.01602747105062008,
          -0.016742493957281113,
          -0.0010638699168339372,
          -0.0010690359631553292,
          0.0023004510439932346,
          0.001185219851322472,
          0.0051759690977633,
          0.018825585022568703,
          0.0016342031303793192,
          -0.0010424136416986585,
          0.025252029299736023,
          0.007928889244794846,
          -0.017456326633691788,
          0.011567830108106136,
          -0.006807072553783655,
          0.03789346665143967,
          0.06450614333152771,
          -0.004565430339425802,
          0.015679005533456802,
          -0.014532851986587048,
          0.00015269991126842797,
          -0.00606350414454937,
          0.013199103064835072,
          0.020806707441806793,
          -0.01165124773979187,
          0.02102489024400711,
          0.029539046809077263,
          -0.0673578679561615,
          -0.039866432547569275,
          0.025738047435879707,
          0.002960208570584655,
          0.009456871077418327,
          0.022518331184983253,
          -0.036865945905447006,
          -0.014349399134516716,
          0.0020348355174064636,
          -0.0017106897430494428,
          0.025101173669099808,
          0.014791863970458508,
          0.0032583780121058226,
          -0.011292179115116596,
          -0.02573738433420658,
          -0.0017056363867595792,
          -0.015411636792123318,
          0.020838571712374687,
          -0.008463491685688496,
          -0.023190125823020935,
          -0.08784782886505127,
          -0.08928657323122025,
          -0.08067169040441513,
          -0.09829669445753098,
          -0.14200980961322784,
          -0.11112574487924576,
          -0.0055549354292452335,
          0.4180971682071686,
          0.4027996063232422,
          0.1857975572347641,
          0.09152963757514954,
          0.12011034041643143,
          0.05822405219078064,
          -0.11742565780878067,
          -0.11871431767940521,
          -0.08785349875688553,
          -0.05607542395591736,
          -0.06282316893339157,
          -0.0016915055457502604,
          0.027979083359241486,
          0.018184401094913483,
          0.012982378713786602,
          0.16448795795440674,
          0.05050869286060333,
          0.02618112601339817,
          0.08548399060964584,
          0.12139281630516052,
          -0.0019813680555671453,
          -0.20519205927848816,
          -0.2949164807796478,
          -0.2714492380619049,
          -0.29273712635040283,
          -0.029355591163039207,
          0.028548911213874817,
          0.07219849526882172,
          0.09971711039543152,
          0.0732111856341362,
          0.023148387670516968,
          0.10782722383737564,
          -0.2507998049259186,
          -0.10416580736637115,
          -0.03423912823200226,
          -0.11621139943599701,
          -0.041798654943704605,
          -0.024886293336749077,
          -0.09105880558490753,
          -0.2714079022407532,
          0.005584942176938057,
          -0.014267109334468842,
          0.060849629342556,
          0.13357354700565338,
          0.11855671554803848,
          -0.04329391196370125,
          0.04918915405869484,
          0.04770449176430702,
          -0.13526375591754913,
          -0.17446981370449066,
          -0.07361365109682083,
          -0.035433363169431686,
          0.07792440801858902,
          0.005415692459791899,
          0.05535581707954407,
          0.11550358682870865,
          0.1169884204864502,
          -0.017859118059277534,
          -0.07227445393800735,
          0.021481173112988472,
          -0.05280289053916931,
          -0.08162921667098999,
          0.08208555728197098,
          0.09318801760673523,
          0.2230508029460907,
          0.14901228249073029,
          0.1251070648431778,
          -0.21265371143817902,
          -0.12172417342662811,
          -0.0035673941019922495,
          -0.00565330358222127,
          0.1766708642244339,
          0.12314466387033463,
          -0.15879127383232117,
          0.029536621645092964,
          0.005137370899319649,
          -0.05847865715622902,
          -0.09463713318109512,
          -0.03606319800019264,
          0.0016060670604929328,
          0.05544447898864746,
          0.0636076107621193,
          0.03879619017243385,
          -0.046528156846761703,
          -0.007158215623348951,
          -0.04690989851951599,
          -0.04757175222039223,
          -0.1592671424150467,
          -0.054538894444704056,
          0.009948940016329288,
          -0.03005213662981987,
          0.09810590744018555,
          0.10924417525529861,
          0.13403436541557312,
          0.1529497653245926,
          -0.12653084099292755,
          -0.04356127232313156,
          0.0032298825681209564,
          -0.10651376843452454,
          0.002909613074734807,
          -0.004376084543764591,
          -0.09994130581617355,
          -0.03431035578250885,
          -0.155218243598938,
          -0.08981849998235703,
          0.037161458283662796,
          -0.0077536944299936295,
          -0.020768506452441216,
          0.01886753737926483,
          -0.036359209567308426,
          0.013311190530657768,
          0.039809711277484894,
          0.0007023587240837514,
          0.10326920449733734,
          0.23502682149410248,
          0.048209670931100845,
          -0.01549476757645607,
          0.03414634242653847,
          0.06778059154748917,
          0.07991131395101547,
          0.01041461806744337,
          0.21289972960948944,
          0.14652502536773682,
          0.04520673677325249,
          -0.13656951487064362,
          0.01423998549580574,
          -0.22099433839321136,
          -0.08434256166219711,
          0.1336504966020584,
          -0.2701655328273773,
          -0.22920118272304535,
          -0.3672972023487091,
          -0.3231390714645386,
          0.006134771276265383,
          0.013286703266203403,
          -5.7959885452874005e-05,
          -0.0991850197315216,
          -0.02149779535830021,
          0.009626640006899834,
          0.0016492862487211823,
          -0.012538336217403412,
          0.09737344831228256,
          0.1279994547367096,
          0.068427674472332,
          0.08830516785383224,
          0.08482706546783447,
          0.05881303548812866,
          0.11335710436105728,
          0.16045837104320526,
          0.08143411576747894,
          0.14492420852184296,
          -0.0375388041138649,
          -0.13100500404834747,
          -0.01342030894011259,
          -0.0791872963309288,
          -0.11171208322048187,
          0.12066777050495148,
          -0.12646053731441498,
          -0.19579923152923584,
          -0.2272418737411499,
          -0.34311801195144653,
          0.09819052368402481,
          0.04976615309715271,
          0.03682668134570122,
          -0.020858215168118477,
          -0.07102681696414948,
          -0.053221408277750015,
          -0.1382243037223816,
          -0.11707330495119095,
          -0.07512401789426804,
          -0.03639870136976242,
          0.032693881541490555,
          -0.04374482110142708,
          -0.12483161687850952,
          0.08534111827611923,
          0.11610521376132965,
          0.06112230569124222,
          0.28691422939300537,
          0.3665620982646942,
          -0.10117074847221375,
          0.03223932161927223,
          -0.055663660168647766,
          -0.02247503027319908,
          -0.08323367685079575,
          0.04142660275101662,
          -0.09296245127916336,
          -0.07931969314813614,
          -0.22537249326705933,
          -0.1600305140018463,
          0.1414041668176651,
          0.0961584597826004,
          0.10101238638162613,
          0.011414787732064724,
          0.013594722375273705,
          0.03967541083693504,
          -0.12123783677816391,
          -0.15061387419700623,
          -0.24807004630565643,
          -0.22906403243541718,
          -0.20895643532276154,
          -0.20935241878032684,
          -0.22198353707790375,
          -0.0729985162615776,
          0.13406001031398773,
          0.06161778047680855,
          0.5457865595817566,
          0.26101818680763245,
          0.04978242889046669,
          -0.17740699648857117,
          -0.05876024439930916,
          0.058852121233940125,
          -0.2086915820837021,
          -0.17188525199890137,
          0.005360625684261322,
          0.033209990710020065,
          -0.3531742990016937,
          -0.028885040432214737,
          0.20185832679271698,
          0.08057060837745667,
          0.04124016687273979,
          0.04703434929251671,
          0.1113414317369461,
          -0.03951813280582428,
          0.02043600007891655,
          -0.15956203639507294,
          -0.2571575939655304,
          -0.393380731344223,
          -0.29019227623939514,
          -0.19887147843837738,
          -0.1368761509656906,
          -0.09182970970869064,
          -0.0022095520980656147,
          0.10992956906557083,
          0.414218932390213,
          0.5360073447227478,
          0.06162640452384949,
          -0.26075664162635803,
          -0.01553150825202465,
          -0.025056125596165657,
          -0.0344562828540802,
          -0.16948357224464417,
          -0.07918334007263184,
          -0.08127349615097046,
          -0.1748732179403305,
          -0.007319055497646332,
          0.07334642857313156,
          0.08657042682170868,
          0.03737832233309746,
          -0.030070537701249123,
          -0.05724363029003143,
          0.03182180970907211,
          -0.005638917908072472,
          -0.11942921578884125,
          -0.09094003587961197,
          -0.1586238443851471,
          -0.0851898193359375,
          -0.0810713842511177,
          -0.0861029401421547,
          -0.03193918988108635,
          -0.02062978222966194,
          0.07601036876440048,
          0.23870697617530823,
          0.2790401875972748,
          0.040529344230890274,
          -0.07309306412935257,
          -0.07157433778047562,
          -0.025659535080194473,
          0.1625319868326187,
          -0.07211989909410477,
          0.05435575172305107,
          -0.18209770321846008,
          -0.1546398401260376,
          0.022670337930321693,
          0.009252773597836494,
          0.10917934030294418,
          0.13331474363803864,
          0.09174766391515732,
          -0.015532173216342926,
          0.1614275723695755,
          0.14574380218982697,
          0.05590725317597389,
          0.025125892832875252,
          0.007027468644082546,
          0.037036873400211334,
          -0.17028111219406128,
          0.012821201235055923,
          -0.033141862601041794,
          -0.09770700335502625,
          -0.08063921332359314,
          -0.18110673129558563,
          -0.06645367294549942,
          0.03750854730606079,
          -0.16308270394802094,
          -0.007715373300015926,
          -0.0075848279520869255,
          0.04270974546670914,
          0.11774009466171265,
          0.08948259055614471,
          -0.1887160837650299,
          -0.19675017893314362,
          0.038261737674474716,
          -0.017600469291210175,
          0.08128821849822998,
          0.16338177025318146,
          0.18306300044059753,
          0.3275139331817627,
          0.3315475583076477,
          0.22159045934677124,
          0.15314310789108276,
          0.042167313396930695,
          0.03667394071817398,
          -0.034829095005989075,
          0.005041773431003094,
          0.043659672141075134,
          -0.08158467710018158,
          -0.12997369468212128,
          -0.40600839257240295,
          -0.49860116839408875,
          -0.38207894563674927,
          -0.40528687834739685,
          -0.04662221297621727,
          0.05599905550479889,
          0.03563548997044563,
          0.0318584069609642,
          -0.01932603493332863,
          -0.19788405299186707,
          -0.18363957107067108,
          -0.4543777108192444,
          -0.24460336565971375,
          -0.06310867518186569,
          0.1702183187007904,
          0.1541256308555603,
          0.13006627559661865,
          0.21505755186080933,
          0.20487096905708313,
          0.1741524040699005,
          0.07371508330106735,
          0.02518181875348091,
          -0.03861776366829872,
          -0.06526201963424683,
          -0.014008736237883568,
          0.059612810611724854,
          -0.09374359995126724,
          -0.19784823060035706,
          -0.48411253094673157,
          -0.4039205014705658,
          -0.2725788652896881,
          -0.2736862599849701,
          -0.03524773567914963,
          0.04162297770380974,
          0.056902192533016205,
          0.18984219431877136,
          -0.15543325245380402,
          -0.16774271428585052,
          -0.49702951312065125,
          -0.7851252555847168,
          -0.6264446377754211,
          -0.23044739663600922,
          -0.052300043404102325,
          0.1998317688703537,
          0.1712646782398224,
          0.24475209414958954,
          0.1735718995332718,
          0.08231796324253082,
          -0.006680666469037533,
          0.0874873474240303,
          0.08455659449100494,
          -0.011724639683961868,
          -0.17214573919773102,
          -0.15239214897155762,
          -0.06110334023833275,
          0.008458571508526802,
          -0.22906239330768585,
          -0.1399669200181961,
          -0.1770378053188324,
          -0.0004407863598316908,
          -0.09895593672990799,
          -0.0159304179251194,
          0.0760522410273552,
          0.1144285574555397,
          -0.12434156984090805,
          0.1294601857662201,
          -0.33001938462257385,
          -0.6425140500068665,
          -0.5451432466506958,
          -0.5152981281280518,
          -0.38323554396629333,
          -0.011006751097738743,
          0.1295202076435089,
          0.20068056881427765,
          0.16024671494960785,
          0.07068692892789841,
          0.08114208281040192,
          0.1187899187207222,
          -0.05679135397076607,
          -0.18561042845249176,
          -0.2652072310447693,
          -0.2086324244737625,
          -0.018076816573739052,
          -0.04471699520945549,
          -0.18619690835475922,
          -0.179717555642128,
          -0.3308141231536865,
          -0.22119580209255219,
          -0.06827148795127869,
          0.010583892464637756,
          0.14165066182613373,
          0.05640720948576927,
          0.05436297506093979,
          0.0937848761677742,
          -0.2077314406633377,
          -0.350041002035141,
          -0.5978397130966187,
          -0.8172621130943298,
          -0.7103074789047241,
          -0.4955630302429199,
          -0.21289798617362976,
          -0.15461300313472748,
          -0.10150422900915146,
          -0.010938374325633049,
          0.11393972486257553,
          0.033034179359674454,
          -0.14099867641925812,
          -0.1781533807516098,
          -0.25885701179504395,
          -0.1667608916759491,
          -0.12697657942771912,
          -0.21420615911483765,
          -0.22936506569385529,
          -0.19749532639980316,
          -0.2554841935634613,
          0.008531720377504826,
          -0.06189901754260063,
          0.1454511433839798,
          0.13388364017009735,
          0.17294856905937195,
          0.08850403130054474,
          0.28838905692100525,
          0.10303860902786255,
          0.08875507116317749,
          -0.3525000810623169,
          -0.6011421084403992,
          -0.7123088836669922,
          -0.4521886706352234,
          -0.30681684613227844,
          -0.399476021528244,
          -0.27606937289237976,
          -0.0019240844994783401,
          0.022226449102163315,
          0.04110289365053177,
          -0.1214764192700386,
          -0.2726786732673645,
          -0.19199895858764648,
          -0.12871818244457245,
          -0.16292275488376617,
          -0.30651816725730896,
          -0.29166918992996216,
          -0.31981658935546875,
          -0.2082880437374115,
          0.05915455147624016,
          0.0034502085763961077,
          0.10181911289691925,
          -0.24120160937309265,
          0.11331908404827118,
          0.2394174039363861,
          0.3400118052959442,
          0.2510342299938202,
          0.2827909588813782,
          0.0972055122256279,
          -0.0087039889767766,
          -0.1318807303905487,
          -0.15703323483467102,
          -0.2720080316066742,
          -0.3082122802734375,
          -0.22734315693378448,
          -0.02350643463432789,
          -0.007272054441273212,
          0.038725920021533966,
          -0.14235980808734894,
          -0.11597463488578796,
          -0.045686472207307816,
          -0.03492047265172005,
          -0.24208056926727295,
          -0.2267777919769287,
          -0.1616661250591278,
          -0.08839926868677139,
          0.07908185571432114,
          0.07491526752710342,
          0.0057403952814638615,
          -0.010797460563480854,
          -0.029505198821425438,
          0.02181825041770935,
          0.17375987768173218,
          0.2264975905418396,
          0.18957096338272095,
          0.27062949538230896,
          0.29427531361579895,
          0.29555484652519226,
          0.12205839157104492,
          0.19021180272102356,
          0.03942595049738884,
          -0.10893628001213074,
          -0.13720259070396423,
          -0.04080842062830925,
          -0.04083022475242615,
          -0.028277987614274025,
          -0.02326015755534172,
          0.00711606303229928,
          0.15716023743152618,
          -0.15422743558883667,
          -0.2825310230255127,
          -0.007907549850642681,
          -0.03500262275338173,
          -0.05427029728889465,
          -0.11954973638057709,
          0.0840562954545021,
          0.10944265127182007,
          0.08281546086072922,
          -0.017753122374415398,
          -0.09481143206357956,
          -0.031023159623146057,
          0.23619453608989716,
          0.176426962018013,
          0.1817495971918106,
          0.3443976044654846,
          0.3396986722946167,
          0.2872040867805481,
          0.3018203675746918,
          0.19008348882198334,
          0.03488730639219284,
          -0.07084885239601135,
          -0.026714900508522987,
          -0.019306186586618423,
          -0.040858637541532516,
          -0.012264999561011791,
          -0.0057260747998952866,
          -0.06860305368900299,
          -0.1456187665462494,
          -0.1948961466550827,
          -0.06739521771669388,
          0.06461367011070251,
          0.12186155468225479,
          -0.09201899915933609,
          0.04046507924795151,
          -0.028036082163453102,
          0.08336377888917923,
          0.09379395097494125,
          -0.17443053424358368,
          -0.051703423261642456,
          0.015986904501914978,
          0.013119873590767384,
          0.12981870770454407,
          0.04158768057823181,
          0.2105264663696289,
          0.18211404979228973,
          0.21207723021507263,
          0.17671650648117065,
          0.07827061414718628,
          0.04236415773630142,
          0.05771743878722191,
          -0.06603262573480606,
          -0.0876270979642868,
          -0.04544852674007416,
          -0.06979595124721527,
          -0.218084916472435,
          -0.22609350085258484,
          -0.14739227294921875,
          -0.11769136786460876,
          -0.05835865065455437,
          0.07465191185474396,
          -0.0062932223081588745,
          0.015990303829312325,
          -0.015465136617422104,
          0.0009481997112743556,
          0.008167216554284096,
          0.11366607993841171,
          -0.00495122978463769,
          -0.12845991551876068,
          -0.030606474727392197,
          0.00064968375954777,
          -0.07617079466581345,
          0.10646829754114151,
          0.04410705715417862,
          0.1506238728761673,
          0.05576227605342865,
          0.07932477444410324,
          0.048578791320323944,
          -0.039909157902002335,
          -0.0838000625371933,
          -0.02985530160367489,
          -0.033593084663152695,
          -0.06073443964123726,
          -0.2785488963127136,
          -0.28242501616477966,
          -0.10977793484926224,
          -0.07254445552825928,
          -0.18773184716701508,
          0.04305945709347725,
          -0.12509800493717194,
          0.04373154789209366,
          0.004667406901717186,
          0.0005006855353713036,
          0.0007169393356889486,
          0.117842897772789,
          0.11271384358406067,
          0.0615348294377327,
          0.023830607533454895,
          -0.11493901908397675,
          0.04093489795923233,
          -0.02071978896856308,
          0.028098437935113907,
          0.09142037481069565,
          -0.028280235826969147,
          -0.008691379800438881,
          -0.1028067022562027,
          -0.19013306498527527,
          -0.1546299308538437,
          -0.21024686098098755,
          -0.1627933830022812,
          -0.04681987315416336,
          -0.16839687526226044,
          -0.035103023052215576,
          -0.004171223845332861,
          0.062395285815000534,
          0.15501712262630463,
          0.03912800922989845,
          -0.12946964800357819,
          -0.019439108669757843,
          0.002604010049253702,
          0.0035123724956065416,
          0.015862684696912766,
          0.10534071922302246,
          -0.03507639840245247,
          -0.03345857933163643,
          0.05671437084674835,
          -0.2056337147951126,
          -0.10056107491254807,
          0.02183331362903118,
          -0.06329459697008133,
          -0.07917337119579315,
          -0.11851982027292252,
          -0.05566966161131859,
          -0.02266363613307476,
          -0.01839815452694893,
          -0.012909676879644394,
          0.3148326277732849,
          0.3663533627986908,
          -0.10816770046949387,
          -0.26184940338134766,
          -0.17067427933216095,
          0.013914024457335472,
          0.3284240961074829,
          0.3778644800186157,
          0.04407976567745209,
          -0.02225502021610737,
          -0.04499271139502525,
          -0.0005511355702765286,
          0.010755995288491249,
          -0.0021248413249850273,
          0.00960142258554697,
          0.20711708068847656,
          0.31124210357666016,
          0.062131933867931366,
          0.054994117468595505,
          0.32698172330856323,
          0.0009799291146919131,
          0.2597319185733795,
          0.16299250721931458,
          0.15557946264743805,
          0.22936029732227325,
          0.1638677418231964,
          0.43281328678131104,
          0.4484231770038605,
          0.5925549268722534,
          0.6565096974372864,
          0.14457610249519348,
          -0.03342127427458763,
          0.05845676735043526,
          0.006811088416725397,
          0.18561531603336334,
          0.12283255904912949,
          -0.010594234801828861,
          -0.05768633633852005,
          0.014158662408590317,
          -0.0030358119402080774,
          0.005061381962150335,
          -0.013874663040041924,
          -0.004603038541972637,
          -0.0020725997164845467,
          -0.014044463634490967,
          -0.022707033902406693,
          -0.008457760326564312,
          -0.01121616456657648,
          -0.07010108977556229,
          0.030624350532889366,
          0.2681628465652466,
          0.33592188358306885,
          0.09534983336925507,
          0.12450587004423141,
          0.6299121379852295,
          0.45669424533843994,
          0.24040265381336212,
          -0.028308693319559097,
          0.04057684540748596,
          -0.001108494121581316,
          -0.02024903893470764,
          -0.019245170056819916,
          -0.04860764369368553,
          -0.011833618395030499,
          -0.014447114430367947,
          -0.007924857549369335,
          -0.007519157603383064,
          0.014142216183245182
        ],
        [
          0.013559513725340366,
          0.004599549807608128,
          -0.019201014190912247,
          -0.010528049431741238,
          -0.013046183623373508,
          0.001136739389039576,
          0.0036567775532603264,
          0.005459763575345278,
          -0.021746912971138954,
          0.007782499771565199,
          0.010347217321395874,
          0.003963680937886238,
          0.1012009009718895,
          0.09194974601268768,
          -0.006919424049556255,
          -0.01374171394854784,
          -0.0019485855009406805,
          -0.00677863135933876,
          -0.009080423973500729,
