{
  "input_shape": [
    28,
    28
  ],
  "preprocess": {
    "scale": 255.0
  },
  "layers": [
    {
      "type": "dense",
      "units": 128,
      "activation": "relu",
      "W": [
        [
          -0.0003428936470299959,
          -0.0023244554176926613,
          0.0022001329343765974,
          0.005573350470513105,
          -0.007815799675881863,
          0.02111620083451271,
          -0.012385238893330097,
          -0.012137296609580517,
          0.00879994872957468,
          -0.00805484876036644,
          -0.0022329080384224653,
          -0.010793428868055344,
          0.0016119814245030284,
          0.0024866678286343813,
          0.007095785811543465,
          0.0010087109403684735,
          -0.012601206079125404,
          0.004246373660862446,
          -0.02240840345621109,
          0.005549391731619835,
          -0.007500289008021355,
          0.018032176420092583,
          -0.007967782206833363,
          0.01377120241522789,
          -0.011880922131240368,
          -0.029962273314595222,
          -0.0026624100282788277,
          0.010213005356490612,
          0.0044869412668049335,
          -0.009132424369454384,
          0.00015948757936712354,
          0.021826639771461487,
          -0.009223676286637783,
          0.0048566279001533985,
          0.0032575305085629225,
          0.0010778584983199835,
          0.05993536114692688,
          0.035781074315309525,
          0.07143920660018921,
          -0.0096748610958457,
          -0.07122036814689636,
          -0.19856995344161987,
          0.14672522246837616,
          0.15645311772823334,
          0.003527385415509343,
          -0.04403642192482948,
          0.03471687436103821,
          0.05609208345413208,
          0.031852684915065765,
          -0.00951063260436058,
          -0.0076360804960131645,
          0.0031003914773464203,
          0.015262733213603497,
          0.0073688137345016,
          0.010959570296108723,
          -0.007496757432818413,
          -0.009139570407569408,
          -0.00021620803454425186,
          -0.010023996233940125,
          0.00847888458520174,
          0.0035655552055686712,
          0.004817654378712177,
          0.02187287248671055,
          0.05685241520404816,
          -0.043590206652879715,
          -0.02570885419845581,
          -0.13507764041423798,
          -0.1528795063495636,
          -0.06749976426362991,
          0.275913268327713,
          0.3061475455760956,
          0.30975186824798584,
          0.1831575632095337,
          0.02813691832125187,
          -0.03491820767521858,
          -0.000872517004609108,
          -0.1988842785358429,
          -0.2658834457397461,
          -0.21460257470607758,
          -0.0419544018805027,
          0.07527697086334229,
          0.0519452728331089,
          0.0135498633608222,
          0.008415804244577885,
          -0.0073693483136594296,
          0.006822782102972269,
          0.2475629448890686,
          0.25062882900238037,
          -0.14109031856060028,
          -0.25973138213157654,
          -0.2225610911846161,
          -0.3583337366580963,
          -0.4753371477127075,
          -0.5906440019607544,
          -0.4559314250946045,
          -0.23237116634845734,
          0.08232554793357849,
          0.19776490330696106,
          0.010499604977667332,
          0.009017749689519405,
          0.2835843861103058,
          0.1294282078742981,
          -0.07417809218168259,
          0.032873161137104034,
          0.08366160839796066,
          0.12984231114387512,
          0.2674510180950165,
          0.3585283160209656,
          0.05190380662679672,
          -0.30116865038871765,
          -0.2741922438144684,
          -0.006716434378176928,
          -0.00044818062451668084,
          0.021722586825489998,
          0.26951006054878235,
          0.0680280476808548,
          -0.2682294547557831,
          -0.5591309070587158,
          -0.22991003096103668,
          -0.16496360301971436,
          -0.027906280010938644,
          -0.13801415264606476,
          -0.03951510041952133,
          -0.04695235937833786,
          0.045515503734350204,
          0.00570834381505847,
          0.08261659741401672,
          0.1152220219373703,
          0.0835697129368782,
          0.09759244322776794,
          -0.07759232819080353,
          0.08992262929677963,
          0.14603683352470398,
          0.0929451510310173,
          0.0933205634355545,
          -0.0331125482916832,
          -0.06485989689826965,
          -0.3278348445892334,
          -0.10187754780054092,
          -0.060781799256801605,
          0.005214795935899019,
          0.014390944503247738,
          0.16480684280395508,
          -0.16909386217594147,
          -0.42059484124183655,
          -0.37777096033096313,
          -0.06038183718919754,
          -0.023950466886162758,
          -0.16138812899589539,
          -0.13940417766571045,
          -0.22659966349601746,
          -0.03890121728181839,
          0.042946066707372665,
          0.04967484623193741,
          0.03259221836924553,
          0.08865320682525635,
          0.03533323481678963,
          0.023545952513813972,
          -0.1280953735113144,
          -0.04371567443013191,
          -0.05361209809780121,
          0.07649564743041992,
          0.11573374271392822,
          0.10269241034984589,
          0.2723293900489807,
          0.14228275418281555,
          -0.09428635239601135,
          -0.1568956822156906,
          -0.00022803476895205677,
          -0.028514347970485687,
          -0.20131586492061615,
          -0.11664797365665436,
          -0.08680858463048935,
          -0.12979358434677124,
          -0.18736611306667328,
          -0.046877671033144,
          -0.08483132719993591,
          -0.08811919391155243,
          -0.2149338275194168,
          0.009925858117640018,
          0.2095136046409607,
          0.10671958327293396,
          0.06600761413574219,
          -0.0007000390323810279,
          -0.07986096292734146,
          -0.08571074903011322,
          -0.1137494146823883,
          -0.06962689012289047,
          0.05840133875608444,
          0.10263132303953171,
          0.1659025251865387,
          0.1289599984884262,
          0.18325813114643097,
          0.2688485085964203,
          0.0853578969836235,
          0.1584155112504959,
          0.0030704683158546686,
          -0.18289409577846527,
          -0.3073117733001709,
          -0.22737178206443787,
          -0.11001558601856232,
          -0.19161753356456757,
          -0.11172639578580856,
          -0.1324234902858734,
          -0.09588658064603806,
          0.10050167888402939,
          -0.04319090396165848,
          -0.04223445802927017,
          0.13670483231544495,
          0.10599350184202194,
          -0.014009898528456688,
          0.0190898384898901,
          -0.04749199375510216,
          -0.05007476732134819,
          -0.0737357884645462,
          -0.08997859060764313,
          0.00035049300640821457,
          0.010208203457295895,
          0.11878170818090439,
          0.13812904059886932,
          0.1497097909450531,
          0.11537254601716995,
          -0.034330904483795166,
          0.002640761202201247,
          -0.018799621611833572,
          -0.24485206604003906,
          -0.24844881892204285,
          -0.15287120640277863,
          0.018219465389847755,
          -0.185363307595253,
          0.14467260241508484,
          0.02785154990851879,
          0.05241149663925171,
          0.13552512228488922,
          0.020376836881041527,
          0.02819536067545414,
          0.1720810830593109,
          0.22061648964881897,
          0.2058548778295517,
          0.08657458424568176,
          -0.11522474139928818,
          -0.0298087727278471,
          -0.06322897970676422,
          -0.038182470947504044,
          -0.13733547925949097,
          -0.09417782723903656,
          0.009521998465061188,
          0.2534729838371277,
          0.23133470118045807,
          0.12423942238092422,
          0.07277178019285202,
          -0.14117753505706787,
          -0.008678755722939968,
          -0.10657916218042374,
          -0.2804130017757416,
          -0.2148708701133728,
          -0.1516381800174713,
          -0.26627200841903687,
          -0.0494709312915802,
          0.023067384958267212,
          0.041312746703624725,
          0.06500869989395142,
          0.01068962924182415,
          0.10993759334087372,
          0.03632285073399544,
          0.13151085376739502,
          0.16899842023849487,
          0.1829032301902771,
          -0.022381272166967392,
          -0.08559126406908035,
          0.051975008100271225,
          0.05116576701402664,
          -0.1153256893157959,
          -0.10170496255159378,
          0.06580837070941925,
          0.2062474638223648,
          0.13074295222759247,
          0.28056037425994873,
          0.15729156136512756,
          0.1062273159623146,
          -0.006358695682138205,
          0.09893670678138733,
          -0.23010821640491486,
          -0.3280779719352722,
          -0.18810302019119263,
          -0.3702019453048706,
          -0.2533535361289978,
          0.012721861712634563,
          0.01964985951781273,
          -0.08150485903024673,
          0.014725503511726856,
          0.05914654582738876,
          0.11485742777585983,
          0.15712778270244598,
          0.22595427930355072,
          0.22341351211071014,
          -0.020376646891236305,
          -0.0452050045132637,
          0.010840600356459618,
          -0.02945811301469803,
          -0.1626838743686676,
          -0.015019149519503117,
          -0.09455446153879166,
          -0.09895601868629456,
          -0.1488388627767563,
          -0.0340149961411953,
          -0.08048559725284576,
          0.33986547589302063,
          -0.00202870462089777,
          0.14301882684230804,
          0.006877492647618055,
          -0.11462100595235825,
          -0.3282717168331146,
          -0.3133976459503174,
          -0.32834410667419434,
          0.09954026341438293,
          -0.03194887191057205,
          0.023336969316005707,
          -0.012036480009555817,
          0.06965546309947968,
          0.10908307880163193,
          0.15749210119247437,
          0.24171988666057587,
          0.20340384542942047,
          0.098329097032547,
          -0.12910132110118866,
          -0.028357243165373802,
          -0.13594867289066315,
          -0.028071638196706772,
          -0.15640416741371155,
          -0.3027580976486206,
          -0.26744958758354187,
          -0.23534831404685974,
          -0.1739502102136612,
          0.04667801037430763,
          0.3303004503250122,
          0.0022224290296435356,
          -0.026880979537963867,
          -0.008934596553444862,
          -0.12810099124908447,
          -0.27092862129211426,
          -0.366784006357193,
          -0.06012427806854248,
          0.11717373132705688,
          -0.038367148488759995,
          0.12067630887031555,
          -0.02610943652689457,
          0.07634961605072021,
          0.13586439192295074,
          0.14343459904193878,
          0.17365892231464386,
          0.2310566008090973,
          0.17748375236988068,
          0.04539606720209122,
          0.056308746337890625,
          0.05894261226058006,
          0.06668796390295029,
          -0.0026874584145843983,
          -0.1161426231265068,
          0.039458148181438446,
          -0.06135338172316551,
          0.05920671299099922,
          0.08216288685798645,
          0.33163881301879883,
          0.16899096965789795,
          -0.008657540194690228,
          -0.07160904258489609,
          0.01420630980283022,
          -0.17019909620285034,
          -0.10080572962760925,
          0.07862451672554016,
          -0.21787399053573608,
          -0.08974991738796234,
          -0.10693390667438507,
          -0.19092631340026855,
          0.08144601434469223,
          0.08371836692094803,
          0.12808829545974731,
          0.13812662661075592,
          0.25914713740348816,
          0.1399577111005783,
          -0.01717764139175415,
          0.11954521387815475,
          0.04863058775663376,
          0.27510297298431396,
          -0.08933758735656738,
          -0.18387967348098755,
          0.07627904415130615,
          -0.06493601948022842,
          0.08448430150747299,
          0.18454675376415253,
          0.020385494455695152,
          0.01126318983733654,
          0.011430269107222557,
          0.19975149631500244,
          0.2680131196975708,
          -0.1613381952047348,
          0.19348099827766418,
          0.022973312065005302,
          -0.3132074475288391,
          -0.30254098773002625,
          -0.25555434823036194,
          -0.11425534635782242,
          0.031138811260461807,
          0.07366559654474258,
          0.1256745606660843,
          0.1725301295518875,
          0.03607480600476265,
          0.05736852064728737,
          -0.08096849918365479,
          -0.12546531856060028,
          -0.03975890204310417,
          -0.12150924652814865,
          -0.30901721119880676,
          -0.33449724316596985,
          -0.08143655955791473,
          -0.045093391090631485,
          0.0795648992061615,
          0.476733535528183,
          0.12264876812696457,
          0.008029887452721596,
          -0.019759856164455414,
          0.22960685193538666,
          0.08883441984653473,
          -0.3089854121208191,
          0.06141037493944168,
          -0.219468891620636,
          -0.1998046189546585,
          -0.11832001060247421,
          -0.04733056575059891,
          -0.031475815922021866,
          0.026780320331454277,
          0.07427282631397247,
          0.2501453757286072,
          0.27319011092185974,
          0.011040925979614258,
          -0.07360128313302994,
          -0.3122083246707916,
          -0.18991757929325104,
          -0.17676153779029846,
          -0.4024291932582855,
          -0.42321228981018066,
          -0.33934512734413147,
          -0.07996628433465958,
          -0.0713885948061943,
          0.06919246912002563,
          0.06858561933040619,
          0.12883912026882172,
          0.002678397111594677,
          0.12975828349590302,
          0.18829666078090668,
          -0.15177641808986664,
          -0.397266149520874,
          -0.38399600982666016,
          -0.12458395212888718,
          -0.09709610044956207,
          -0.07075360417366028,
          0.1635371893644333,
          0.07178694754838943,
          0.10162865370512009,
          0.033696334809064865,
          0.13135682046413422,
          0.11086226999759674,
          -0.12281156331300735,
          -0.217771515250206,
          -0.34361588954925537,
          -0.23912669718265533,
          -0.32278209924697876,
          -0.3389694094657898,
          -0.3869161307811737,
          -0.2846968173980713,
          -0.07486394047737122,
          -0.09460276365280151,
          0.0765259712934494,
          0.24118997156620026,
          0.11055698245763779,
          0.005212913732975721,
          0.12001565098762512,
          0.08271688222885132,
          -0.13261224329471588,
          -0.2717705965042114,
          -0.3403347432613373,
          -0.30633702874183655,
          -0.1365118771791458,
          -0.0006380261038430035,
          0.10676716268062592,
          0.17877937853336334,
          0.11652673780918121,
          0.1041598692536354,
          0.003429320640861988,
          -0.09053169190883636,
          -0.3960530459880829,
          -0.48675426840782166,
          -0.4717039465904236,
          -0.19146883487701416,
          -0.21840353310108185,
          -0.18440142273902893,
          -0.15078981220722198,
          -0.04778258875012398,
          0.08761774748563766,
          -0.08257163316011429,
          0.10300862789154053,
          0.3657286465167999,
          0.20418867468833923,
          -0.1674533635377884,
          0.198927640914917,
          0.11147838830947876,
          -0.15845048427581787,
          -0.4751298725605011,
          -0.2781926691532135,
          -0.24188289046287537,
          -0.07173147052526474,
          0.05213147774338722,
          0.36690494418144226,
          0.13080501556396484,
          -0.016110489144921303,
          -0.009715789929032326,
          -0.05397430434823036,
          -0.1995774358510971,
          -0.5623843669891357,
          -0.5291013717651367,
          -0.24516445398330688,
          -0.1355624794960022,
          -0.07983347028493881,
          0.088875912129879,
          0.10379169136285782,
          0.012246076948940754,
          0.18953026831150055,
          0.027542466297745705,
          0.13923418521881104,
          0.16909325122833252,
          0.20142777264118195,
          0.1721944361925125,
          0.10827301442623138,
          -0.07482830435037613,
          -0.21691158413887024,
          -0.23437641561031342,
          -0.35592779517173767,
          -0.19365912675857544,
          -0.04096560180187225,
          0.1272585391998291,
          0.23499354720115662,
          0.1254730522632599,
          0.0025804389733821154,
          -0.09362766146659851,
          -0.07645066827535629,
          -0.33299019932746887,
          -0.3432367146015167,
          -0.18094687163829803,
          -0.12291873246431351,
          -0.05916661024093628,
          0.05021008476614952,
          0.14329199492931366,
          0.09222719073295593,
          0.06753095984458923,
          0.28396373987197876,
          0.05551309883594513,
          0.11813125014305115,
          0.011834953911602497,
          0.13108716905117035,
          -0.008653565309941769,
          -0.12822949886322021,
          -0.22995758056640625,
          -0.049071818590164185,
          0.01886938139796257,
          -0.24047216773033142,
          -0.1672000288963318,
          -0.07521353662014008,
          -0.005830452777445316,
          0.058915019035339355,
          0.23811224102973938,
          0.24779464304447174,
          0.09933213144540787,
          -0.20276689529418945,
          -0.2604580819606781,
          -0.10431886464357376,
          -0.015245243906974792,
          0.042708661407232285,
          0.011068975552916527,
          0.016576267778873444,
          0.14650942385196686,
          0.040173377841711044,
          0.12076906859874725,
          0.1711842566728592,
          0.07666411995887756,
          0.17529696226119995,
          0.16004866361618042,
          0.2499733418226242,
          0.20265209674835205,
          -0.022733062505722046,
          -0.19757063686847687,
          0.13688308000564575,
          -0.002880283398553729,
          -0.05353008955717087,
          0.02481989562511444,
          -0.017205623909831047,
          0.020535562187433243,
          0.20420964062213898,
          0.20900367200374603,
          0.16944962739944458,
          0.060913294553756714,
          -0.15733635425567627,
          -0.18901129066944122,
          -0.0565541572868824,
          0.02586572803556919,
          -0.055363357067108154,
          -0.037099432200193405,
          0.022090841084718704,
          0.13353309035301208,
          0.13402321934700012,
          0.06793022900819778,
          0.0029644945170730352,
          0.09576631337404251,
          0.0038099931553006172,
          0.19915734231472015,
          -0.08660992234945297,
          0.18886719644069672,
          0.07508569955825806,
          -0.043900612741708755,
          0.08618134260177612,
          0.09126901626586914,
          0.25845271348953247,
          0.04255804792046547,
          0.1536812037229538,
          0.06857717037200928,
          0.12624491751194,
          0.178012877702713,
          0.09842786192893982,
          0.06993384659290314,
          0.06179384887218475,
          0.0522816926240921,
          -0.007280102465301752,
          0.08956500142812729,
          -0.06540674716234207,
          0.05317430943250656,
          -0.03678843379020691,
          0.15366780757904053,
          0.1948995739221573,
          -0.03347676619887352,
          -0.11556877940893173,
          -0.17461910843849182,
          -0.07683619856834412,
          0.26568320393562317,
          -0.09717600047588348,
          0.0036675899755209684,
          -0.010044042952358723,
          0.022695451974868774,
          -0.28510504961013794,
          -0.045910682529211044,
          0.14295607805252075,
          0.11429997533559799,
          0.14143800735473633,
          0.02326081320643425,
          0.08076351881027222,
          -0.006616722326725721,
          -0.05328816920518875,
          0.11861181259155273,
          0.08045700192451477,
          -0.027949193492531776,
          0.008501247502863407,
          0.02397286891937256,
          0.03562786802649498,
          0.0042618256993591785,
          -0.05503480136394501,
          -0.09415125101804733,
          -0.17629550397396088,
          -0.24854521453380585,
          -0.14164045453071594,
          0.05894460156559944,
          0.09246855229139328,
          0.2731764316558838,
          0.024181921035051346,
          0.004606619011610746,
          -0.0059261443093419075,
          -0.021392488852143288,
          -0.14569470286369324,
          -0.28177496790885925,
          -0.05849194526672363,
          0.20289330184459686,
          0.23520611226558685,
          0.14842170476913452,
          0.05746861547231674,
          0.08720841258764267,
          0.1212354376912117,
          0.08097174763679504,
          -0.0699845477938652,
          -0.06924290955066681,
          -0.1878475397825241,
          -0.22555305063724518,
          -0.3748384714126587,
          -0.13863413035869598,
          -0.10398511588573456,
          -0.2246933877468109,
          -0.16701653599739075,
          -0.1581142246723175,
          -0.2086227387189865,
          -0.002955593401566148,
          0.19844691455364227,
          0.17371191084384918,
          -0.008488290011882782,
          -0.0037890018429607153,
          -0.016896681860089302,
          -0.005669446662068367,
          0.2554350793361664,
          0.15198266506195068,
          -0.17458830773830414,
          0.05333958938717842,
          0.2505423128604889,
          0.2394755631685257,
          0.31389451026916504,
          0.19244498014450073,
          0.23211966454982758,
          0.09940207004547119,
          0.09140483289957047,
          0.1775696873664856,
          -0.15591157972812653,
          -0.3701614439487457,
          -0.1110592931509018,
          0.10112252831459045,
          -0.0561969056725502,
          -0.17486633360385895,
          -0.12104043364524841,
          -0.1282859742641449,
          -0.1541416496038437,
          0.07561424374580383,
          0.1434924304485321,
          0.11388888210058212,
          0.007841203361749649,
          0.016130490228533745,
          0.0002752714208327234,
          0.005374164320528507,
          -0.24400672316551208,
          -0.3261052370071411,
          0.12957237660884857,
          0.17206643521785736,
          -0.06381209194660187,
          0.23194722831249237,
          0.16199706494808197,
          0.12773260474205017,
          0.1567278802394867,
          0.1492810845375061,
          -0.13237273693084717,
          -0.21734823286533356,
          -0.45775294303894043,
          -0.49103569984436035,
          -0.3397035598754883,
          -0.22892369329929352,
          -0.09918482601642609,
          -0.04443272575736046,
          -0.025031350553035736,
          -0.1146412193775177,
          0.013543442822992802,
          0.005479428917169571,
          -0.0365724191069603,
          0.008645931258797646,
          -0.003109475364908576,
          -0.006638735067099333,
          -0.01646449975669384,
          0.00998131837695837,
          -0.004504275508224964,
          0.08976531028747559,
          0.06473244726657867,
          0.06370772421360016,
          0.049630023539066315,
          -0.1803516149520874,
          -0.1515786051750183,
          -0.07609892636537552,
          0.06832461804151535,
          -0.09165407717227936,
          -0.18790970742702484,
          -0.028406063094735146,
          0.11753029376268387,
          0.030393365770578384,
          -0.2533901035785675,
          -0.2661153972148895,
          -0.11718936264514923,
          0.0989733561873436,
          0.08979832381010056,
          0.06772356480360031,
          -0.002648188266903162,
          -0.009364739060401917,
          -0.0058008343912661076,
          -0.0021212820429354906,
          0.009841899387538433
        ],
        [
          -0.012190137058496475,
          0.013122618198394775,
          0.012646143324673176,
          -0.0012018970446661115,
          -0.01625354215502739,
          0.0033549636136740446,
          0.00762462243437767,
          -0.008148427121341228,
          0.003255366114899516,
          0.008596153929829597,
          0.011347278952598572,
          0.0020588517654687166,
          0.011831097304821014,
          0.07187288254499435,
          0.0524921789765358,
          0.0213853120803833,
          0.0007982782553881407,
          -0.012397145852446556,
          -0.006777383852750063,
          -0.012691057287156582,
          -0.010034308768808842,
          0.004474066663533449,
          -0.003743740264326334,
          -0.011015227064490318,
          0.0065294429659843445,
          -0.003413283033296466,
          0.0023290282115340233,
          0.005278188735246658,
          -0.016841061413288116,
          0.01864086650311947,
          -0.0005658097215928137,
          -0.002938874065876007,
          -0.025923261418938637,
          -0.025278635323047638,
          -0.01720501109957695,
          0.009883626364171505,
          0.045277878642082214,
          0.048987939953804016,
          0.12365580350160599,
          0.09822627902030945,
          0.11237850785255432,
          -0.023662935942411423,
          0.19664841890335083,
          0.22452527284622192,
          0.16213205456733704,
          0.14245906472206116,
          0.1423577070236206,
          -0.04815347120165825,
          -0.008165517821907997,
          -0.008046986535191536,
          -0.00191427709069103,
          0.007448893506079912,
          -0.000946330837905407,
          -0.010902679525315762,
          0.004946920555084944,
          -0.0008340999484062195,
          -0.0033627531956881285,
          0.00046653192839585245,
          0.024053111672401428,
          -0.009599428623914719,
          -0.06007207930088043,
          0.00838864129036665,
          0.006956775672733784,
          0.027218231931328773,
          -0.04376569762825966,
          0.015315975993871689,
          0.10565841943025589,
          0.1441834717988968,
          0.28733572363853455,
          0.20944756269454956,
          0.1147620752453804,
          0.1549762338399887,
          0.28049442172050476,
          0.30990660190582275,
          0.2580437660217285,
          0.08364943414926529,
          0.09418482333421707,
          -0.14806152880191803,
          -0.039838191121816635,
          0.04563775658607483,
          0.05830572545528412,
          0.04997370392084122,
          0.010643077082931995,
          0.004501891788095236,
          -0.0007418287568725646,
          0.00036472047213464975,
          0.2885475754737854,
          0.17128916084766388,
          -0.01617141254246235,
          -0.06468293070793152,
          -0.036083295941352844,
          0.034092217683792114,
          0.11953805387020111,
          0.08955969661474228,
          0.08379849046468735,
          0.14044687151908875,
          0.2423781454563141,
          0.1860157698392868,
          0.06720602512359619,
          0.21186651289463043,
          0.26918062567710876,
          0.02640831656754017,
          -0.05680367723107338,
          -0.012843831442296505,
          -0.040886592119932175,
          -0.2572574317455292,
          -0.016996746882796288,
          -0.0006210851133801043,
          0.04964391142129898,
          0.2260543406009674,
          0.11019578576087952,
          -0.008223139680922031,
          -0.01860051043331623,
          -2.8987824407522567e-05,
          0.31558147072792053,
          0.24134501814842224,
          0.0022515254095196724,
          -0.046820756047964096,
          0.1411985158920288,
          0.3051998019218445,
          0.5251368284225464,
          0.48831623792648315,
          0.42550909519195557,
          0.45796725153923035,
          0.2875558137893677,
          0.2998962700366974,
          0.2340669482946396,
          0.18587438762187958,
          0.12118235230445862,
          -0.02458363212645054,
          -0.09448175877332687,
          -0.20692738890647888,
          -0.27086254954338074,
          -0.26032736897468567,
          -0.30723074078559875,
          -0.3257920444011688,
          -0.1325749307870865,
          0.003102000802755356,
          0.17406180500984192,
          0.017603974789381027,
          -0.002029322786256671,
          0.006378368474543095,
          0.36070144176483154,
          0.18655428290367126,
          0.12366324663162231,
          -0.04748380184173584,
          0.024654671549797058,
          0.10381542891263962,
          0.08197520673274994,
          0.13447819650173187,
          0.2643985450267792,
          0.03288531303405762,
          -0.12964670360088348,
          -0.15666665136814117,
          -0.09263284504413605,
          -0.05123608186841011,
          -0.004033329430967569,
          -0.09826145321130753,
          -0.076901376247406,
          0.057167898863554,
          0.005929270293563604,
          0.09384998679161072,
          -0.022272644564509392,
          -0.11633480340242386,
          -0.19395914673805237,
          -0.024155335500836372,
          0.09068906307220459,
          0.02482398971915245,
          0.02018856815993786,
          0.13819199800491333,
          -0.17978385090827942,
          0.04164404422044754,
          -0.03644828870892525,
          -0.12520596385002136,
          -0.05475836619734764,
          -0.0681035965681076,
          0.010265990160405636,
          0.03094484843313694,
          -0.037690017372369766,
          -0.2815282344818115,
          -0.23206225037574768,
          -0.11733493953943253,
          -0.01952567882835865,
          -0.039941754192113876,
          0.012195633724331856,
          0.2098013460636139,
          0.21528871357440948,
          -0.008735902607440948,
          0.04101836308836937,
          0.09676045924425125,
          -0.06494423002004623,
          -0.08670186996459961,
          -0.1306338906288147,
          0.03135835751891136,
          0.11234699934720993,
          0.03274703770875931,
          -0.010275296866893768,
          0.011548853479325771,
          -0.14717639982700348,
          0.02133064903318882,
          0.15139228105545044,
          0.046794310212135315,
          -0.07920464128255844,
          -0.11451186239719391,
          -0.1544421762228012,
          -0.22255735099315643,
          -0.22924183309078217,
          -0.19502991437911987,
          -0.1142483726143837,
          0.02094506472349167,
          0.062028832733631134,
          0.18193475902080536,
          0.2386036068201065,
          0.22741462290287018,
          0.28436699509620667,
          0.08867081999778748,
          0.07091379165649414,
          0.2180132269859314,
          0.16875377297401428,
          0.007862630300223827,
          -0.2059585601091385,
          -0.16729769110679626,
          0.0900733545422554,
          0.06615068018436432,
          -0.1479734480381012,
          0.0009178718901239336,
          -0.07618022710084915,
          0.21041245758533478,
          0.3627570569515228,
          0.09573835134506226,
          -0.05716089531779289,
          -0.07012970745563507,
          -0.30109426379203796,
          -0.3259820342063904,
          -0.2043866366147995,
          -0.11762003600597382,
          0.01114861760288477,
          0.08147946745157242,
          0.08389338850975037,
          0.1608401983976364,
          0.2300863116979599,
          0.28208136558532715,
          0.1766880601644516,
          0.14804385602474213,
          0.10354111343622208,
          0.09111566096544266,
          0.24976204335689545,
          0.1444525271654129,
          -0.2117283046245575,
          -0.14253413677215576,
          0.09391267597675323,
          0.20116832852363586,
          0.01274715643376112,
          -0.0047609093599021435,
          0.17017094790935516,
          0.1842895746231079,
          0.04866008087992668,
          -0.09088592231273651,
          -0.025606278330087662,
          -0.1211409941315651,
          -0.12307048588991165,
          -0.09964028745889664,
          0.005741612985730171,
          -0.06592631340026855,
          -0.01701478287577629,
          0.09832699596881866,
          0.1341685950756073,
          0.14092572033405304,
          0.12043017148971558,
          0.05750717222690582,
          -0.016490599140524864,
          -0.014247473329305649,
          0.04924817755818367,
          0.04317864030599594,
          0.18406327068805695,
          0.2883935272693634,
          -0.031382232904434204,
          0.22259144484996796,
          0.139041006565094,
          -0.12220072746276855,
          0.012370094656944275,
          -0.06765154749155045,
          0.11559243500232697,
          0.1650020033121109,
          -0.13080745935440063,
          -0.17519675195217133,
          -0.04194580018520355,
          -0.07353998720645905,
          -0.002652425318956375,
          -0.02117922343313694,
          0.14464935660362244,
          0.03019619733095169,
          0.03578772395849228,
          0.12848040461540222,
          0.062309205532073975,
          0.03529893606901169,
          -0.0012804283760488033,
          -0.1733039766550064,
          -0.011893665418028831,
          0.012795818969607353,
          0.08391693979501724,
          -0.024309556931257248,
          -0.010496635921299458,
          0.26903247833251953,
          0.10644026845693588,
          0.0383601076900959,
          0.20083962380886078,
          0.1083957776427269,
          -0.09169697016477585,
          0.11875314265489578,
          -0.00296549079939723,
          -0.036852408200502396,
          0.08325202763080597,
          0.010690677911043167,
          0.08218599855899811,
          0.003027993720024824,
          -0.026434913277626038,
          0.0643841028213501,
          0.0450630858540535,
          0.09629148244857788,
          -0.0747128576040268,
          -0.03294140100479126,
          0.04651474952697754,
          -0.040535539388656616,
          -0.1400991827249527,
          -0.156179741024971,
          0.03736986219882965,
          0.08875691890716553,
          0.08099406957626343,
          -0.08109410852193832,
          -0.01200962346047163,
          0.09356819093227386,
          0.10266471654176712,
          0.23469974100589752,
          0.35057389736175537,
          0.23112361133098602,
          -0.07468531280755997,
          0.053588125854730606,
          -0.026356106624007225,
          -0.07147892564535141,
          0.01760542206466198,
          -0.10841488838195801,
          -0.0021088605280965567,
          -0.007431940641254187,
          -0.05128677189350128,
          0.061790645122528076,
          -0.06836061924695969,
          -0.13919636607170105,
          -0.3447760045528412,
          -0.3929770588874817,
          -0.07050055265426636,
          -0.0743609145283699,
          -0.10259725898504257,
          0.003834150033071637,
          0.08914267271757126,
          0.10787134617567062,
          -0.0847235843539238,
          -0.02710312232375145,
          -0.1017002984881401,
          -0.08947152644395828,
          -0.05148985609412193,
          0.12189804762601852,
          0.21837501227855682,
          0.1304497867822647,
          0.2060699462890625,
          -0.05310933664441109,
          -0.18052147328853607,
          -0.051110975444316864,
          -0.14505764842033386,
          -0.14608846604824066,
          -0.09262152761220932,
          -0.14851734042167664,
          -0.0558309331536293,
          -0.05669618397951126,
          -0.19877520203590393,
          -0.10859117656946182,
          -0.3063909709453583,
          -0.18714462220668793,
          0.08895859867334366,
          -0.014252905733883381,
          -0.1015772596001625,
          -0.01694738306105137,
          0.09456955641508102,
          0.05988876894116402,
          -0.07265011966228485,
          -0.11411958187818527,
          -0.08106521517038345,
          -0.25301393866539,
          -0.3635023236274719,
          -0.07913406938314438,
          0.08589796721935272,
          0.04079717770218849,
          -0.08115855604410172,
          -0.05458315834403038,
          0.07619459927082062,
          0.04516209289431572,
          -0.15350084006786346,
          -0.36902204155921936,
          -0.15986749529838562,
          -0.19892947375774384,
          -0.10996774584054947,
          -0.10591630637645721,
          -0.14927929639816284,
          -0.0009054738329723477,
          -0.1080753430724144,
          0.020894519984722137,
          0.16254442930221558,
          0.049238305538892746,
          -0.16293777525424957,
          -0.08883372694253922,
          0.040531307458877563,
          -0.047332845628261566,
          -0.03017127700150013,
          -0.049335841089487076,
          -0.11981082707643509,
          -0.10958869755268097,
          0.048118188977241516,
          -0.054222967475652695,
          0.2104414403438568,
          0.11577516794204712,
          -0.06640026718378067,
          0.06026070564985275,
          0.20273055136203766,
          -0.21145308017730713,
          -0.21114115417003632,
          -0.2889564633369446,
          -0.13677068054676056,
          0.01613425277173519,
          0.06504350155591965,
          -0.09372628480195999,
          -0.20674701035022736,
          -0.03288362920284271,
          -0.0469181127846241,
          0.06729301065206528,
          0.15106919407844543,
          -0.006772196386009455,
          -0.15149274468421936,
          -0.2604444622993469,
          -0.09201990813016891,
          -0.12560752034187317,
          -0.12362264841794968,
          -0.20186392962932587,
          -0.2318885177373886,
          -0.19147387146949768,
          0.02225489169359207,
          -0.09232605248689651,
          0.17019937932491302,
          0.06723485141992569,
          -0.03955112397670746,
          0.1331958919763565,
          0.2506959140300751,
          -0.13574010133743286,
          0.012948740273714066,
          -0.28564974665641785,
          -0.16187439858913422,
          -0.02984321117401123,
          0.07256551086902618,
          0.13590726256370544,
          -0.04680415615439415,
          0.004427947569638491,
          0.034548208117485046,
          0.15783792734146118,
          0.05977471172809601,
          -0.06472668051719666,
          0.009116408415138721,
          -0.217453733086586,
          -0.2068459540605545,
          -0.17495307326316833,
          -0.3290066123008728,
          -0.23037944734096527,
          -0.32722097635269165,
          -0.30831393599510193,
          -0.04772903397679329,
          -0.048644620925188065,
          0.2288961261510849,
          0.14246994256973267,
          -0.015001648105680943,
          0.18811878561973572,
          -0.024583643302321434,
          -0.07432187348604202,
          0.0756283849477768,
          -0.05406033247709274,
          -0.14593586325645447,
          -0.043403707444667816,
          0.029571015387773514,
          0.03115491010248661,
          -0.00621824013069272,
          -0.010914217680692673,
          0.11110519617795944,
          0.13522660732269287,
          0.06285775452852249,
          -0.09878003597259521,
          -0.035512033849954605,
          -0.14120520651340485,
          -0.1722845882177353,
          -0.1221957728266716,
          -0.23028139770030975,
          -0.18959808349609375,
          -0.22665446996688843,
          -0.22415784001350403,
          -0.0336945503950119,
          0.19283361732959747,
          0.24365033209323883,
          0.20038320124149323,
          0.1837484985589981,
          0.35739779472351074,
          0.06501111388206482,
          -0.044690608978271484,
          0.15477178990840912,
          0.16784794628620148,
          -0.03787966072559357,
          -0.00017210769874509424,
          -0.1081702932715416,
          -0.14607226848602295,
          0.0021308306604623795,
          -0.0024629049003124237,
          0.03854905441403389,
          0.0728246346116066,
          -0.07476344704627991,
          -0.06122278794646263,
          0.054400485008955,
          -0.037632446736097336,
          -0.018636861816048622,
          -0.10576267540454865,
          -0.10557117313146591,
          -0.022458616644144058,
          -0.121999092400074,
          -0.13088105618953705,
          0.08225949108600616,
          0.01354104746133089,
          0.10029632598161697,
          0.17314256727695465,
          0.15670377016067505,
          -0.012930920347571373,
          -0.05445872247219086,
          -0.02156647853553295,
          0.10072016716003418,
          0.13312815129756927,
          0.06988983601331711,
          0.020996006205677986,
          -0.055557917803525925,
          -0.1518704891204834,
          -0.12758585810661316,
          -0.16695669293403625,
          -0.03782336413860321,
          0.06146877631545067,
          -0.05342508479952812,
          -0.023129181936383247,
          0.07708963006734848,
          0.05795440822839737,
          0.07548803836107254,
          0.004959182348102331,
          -0.10822935402393341,
          -0.18102802336215973,
          -0.10053107142448425,
          0.004722825717180967,
          0.037847887724637985,
          0.08551053702831268,
          0.03301630914211273,
          0.125309556722641,
          0.001777207013219595,
          -0.058514732867479324,
          0.048840224742889404,
          0.2865065932273865,
          0.2116321474313736,
          0.08291585743427277,
          0.11209656298160553,
          0.09879683703184128,
          -0.07265131920576096,
          -0.11012490093708038,
          -0.10237455368041992,
          -0.16819551587104797,
          -0.04111110419034958,
          -0.04766866937279701,
          -0.017629627138376236,
          0.05557513236999512,
          0.1322629153728485,
          0.21658998727798462,
          0.22081297636032104,
          0.06967072933912277,
          -0.06195150315761566,
          -0.08967460691928864,
          0.013807988725602627,
          0.15063653886318207,
          0.14573444426059723,
          0.02902529202401638,
          0.2662120759487152,
          0.24170878529548645,
          0.21820516884326935,
          0.21267937123775482,
          0.329944372177124,
          0.33769237995147705,
          0.15093903243541718,
          0.021442677825689316,
          0.1316530704498291,
          0.11259613931179047,
          -0.08951100707054138,
          -0.03022080473601818,
          0.010000495240092278,
          -0.060847897082567215,
          0.03258597105741501,
          0.09107398241758347,
          0.10081884264945984,
          0.13253745436668396,
          0.1750171184539795,
          0.13062581419944763,
          0.19921332597732544,
          0.18824169039726257,
          0.003358691930770874,
          -0.06246962398290634,
          0.11730518937110901,
          0.18147899210453033,
          0.12062876671552658,
          9.936825517797843e-05,
          0.24318508803844452,
          -0.04567693546414375,
          0.20622208714485168,
          0.13190533220767975,
          0.2406512200832367,
          0.04648170620203018,
          0.05448675900697708,
          0.2017965018749237,
          0.08238661289215088,
          0.038423653692007065,
          0.013638759031891823,
          0.09241500496864319,
          -0.05570068210363388,
          0.06623188406229019,
          0.09378837794065475,
          0.10248738527297974,
          0.08390667289495468,
          0.1401454359292984,
          0.1221681758761406,
          0.02012324519455433,
          0.10912243276834488,
          0.15383760631084442,
          0.10504824668169022,
          -0.07731147855520248,
          0.0031733536161482334,
          0.05308545008301735,
          0.2706998586654663,
          0.22848673164844513,
          0.07642199099063873,
          -0.061770353466272354,
          -0.004347527399659157,
          0.010151511058211327,
          0.28308162093162537,
          -0.008674591779708862,
          -0.04906066134572029,
          0.10809708386659622,
          0.042101457715034485,
          0.10087649524211884,
          0.05533383786678314,
          0.06642786413431168,
          0.05690329149365425,
          0.07748566567897797,
          0.16992032527923584,
          0.16936074197292328,
          0.06831122934818268,
          0.1856253445148468,
          0.19824530184268951,
          0.10646415501832962,
          0.0459069162607193,
          -0.009891767054796219,
          0.06774120032787323,
          -0.011726816184818745,
          0.20063382387161255,
          0.2005271017551422,
          0.15028256177902222,
          0.19888201355934143,
          0.1840747594833374,
          -0.014830752275884151,
          -0.029460512101650238,
          0.014333019033074379,
          0.06823110580444336,
          0.03399394080042839,
          0.13509808480739594,
          0.08301221579313278,
          -0.020600855350494385,
          -0.14823386073112488,
          0.0024735003244131804,
          0.08813013136386871,
          0.09847110509872437,
          0.034399114549160004,
          0.11972859501838684,
          0.03941405192017555,
          0.029931336641311646,
          0.02786526456475258,
          0.024209145456552505,
          -0.004047809634357691,
          -0.09050171077251434,
          0.07187800109386444,
          0.05626369267702103,
          0.10796843469142914,
          0.057193320244550705,
          -0.07204152643680573,
          0.26562464237213135,
          0.11761774867773056,
          0.1064099594950676,
          0.011180753819644451,
          -0.007330259308218956,
          0.0024257563054561615,
          -0.16008983552455902,
          -0.17800463736057281,
          -0.1462738960981369,
          -0.18853183090686798,
          0.07989311963319778,
          0.07976079732179642,
          0.20256690680980682,
          0.16540516912937164,
          0.05881206691265106,
          0.049533549696207047,
          0.17726321518421173,
          0.08306148648262024,
          -0.03165566548705101,
          -0.03922570124268532,
          0.043964795768260956,
          0.05241454020142555,
          0.12652549147605896,
          0.2872428894042969,
          0.12933264672756195,
          0.010309373959898949,
          -0.047198399901390076,
          -0.13539838790893555,
          -0.13351793587207794,
          -0.10279431939125061,
          0.031234802678227425,
          0.009811250492930412,
          -0.0007911555003374815,
          0.0008629311923868954,
          0.006617803126573563,
          0.13814498484134674,
          -0.22791679203510284,
          -0.3601307272911072,
          -0.3185606300830841,
          0.049203284084796906,
          0.10216864198446274,
          0.10032177716493607,
          0.1548464596271515,
          0.166593998670578,
          0.14327718317508698,
          0.15329016745090485,
          -0.15822048485279083,
          -0.1968868225812912,
          0.12857408821582794,
          0.1455099731683731,
          0.11121781170368195,
          0.08831045031547546,
          -0.08680179715156555,
          -0.24891240894794464,
          -0.018520314246416092,
          0.11648007482290268,
          0.010499455034732819,
          -0.05971668288111687,
          0.010980385355651379,
          0.005016557406634092,
          -0.012098842300474644,
          0.01036421675235033,
          -0.010970758274197578,
          -6.517167639685795e-05,
          -0.026372764259576797,
          -0.05439864471554756,
          -0.04779204726219177,
          0.022596633061766624,
          0.0122303431853652,
          -0.02132982201874256,
          0.29345136880874634,
          0.19428423047065735,
          -0.04865304008126259,
          0.1337650567293167,
          0.1601390540599823,
          0.020002681761980057,
          -0.026572441682219505,
          -0.2516181468963623,
          -0.27040836215019226,
          -0.18542751669883728,
          -0.13016866147518158,
          -0.14570941030979156,
          -0.04599789157509804,
          0.009300381876528263,
          -0.0004537376225925982,
          -0.0021829670295119286,
          -0.01238810271024704,
          -0.006276997737586498
        ],
        [
          0.00413290923461318,
          -0.0058155180886387825,
          0.012425725348293781,
          0.009873504750430584,
          -0.017542392015457153,
          0.0072668250650167465,
          -0.0003513094561640173,
          -0.0023677737917751074,
          0.005932657513767481,
          -0.004065250512212515,
          0.012146334163844585,
          0.0025926155503839254,
          0.010142072103917599,
          0.007982369512319565,
          0.02448178455233574,
          0.01362807210534811,
          0.006741888355463743,
          0.018152693286538124,
          0.007025181781500578,
          0.01030336506664753,
          0.00701564084738493,
          0.013779301196336746,
          0.0010646568844094872,
          0.0027135959826409817,
          -0.00020039088849443942,
          0.019821759313344955,
          -0.0057360404171049595,
          -0.004478794988244772,
          -0.005504526663571596,
          0.0037631767336279154,
          -0.006906535010784864,
          0.00987945031374693,
          -0.008208278566598892,
          -0.010086569003760815,
          0.012580527924001217,
          -0.01718643493950367,
          -0.046361371874809265,
          -0.01716860942542553,
          -0.023675723001360893,
          0.01710507832467556,
          0.048229705542325974,
          -0.01715973950922489,
          -0.09676419198513031,
          0.12144003808498383,
          0.14016364514827728,
          0.2512947916984558,
          0.269057959318161,
          0.1255788654088974,
          0.14246459305286407,
          0.11056612432003021,
          0.02097604237496853,
          -0.008721154183149338,
          -0.0006110713584348559,
          0.014370734803378582,
          -0.0012449838686734438,
          -0.008530493825674057,
          0.01226434949785471,
          0.007419525645673275,
          -0.007011519744992256,
          0.17156989872455597,
          0.1758812665939331,
          -0.01350012794137001,
          0.04386300593614578,
          0.10348699986934662,
          0.04594838619232178,
          -0.09190715849399567,
          -0.048778485506772995,
          0.06326167285442352,
          0.11742126941680908,
          0.09918053448200226,
          -0.14334331452846527,
          -0.15989375114440918,
          -0.0305927861481905,
          -0.1239791214466095,
          -0.0026557662058621645,
          0.1522216647863388,
          0.1133996844291687,
          0.2012658417224884,
          0.24431292712688446,
          0.2429867684841156,
          0.21782566606998444,
          -0.07961714267730713,
          -0.0006485567428171635,
          -0.014179236255586147,
          0.001792156952433288,
          0.007962853647768497,
          0.03590007871389389,
          0.02311084046959877,
          -0.18584714829921722,
          0.05703386291861534,
          -0.09733498841524124,
          -0.16092996299266815,
          -0.10383913666009903,
          0.07730007916688919,
          0.09505180269479752,
          -0.06098150461912155,
          -0.0841318890452385,
          0.14206711947917938,
          0.28778761625289917,
          0.14868390560150146,
          0.1023607924580574,
          0.0012747650034725666,
          -0.15640807151794434,
          -0.2708789110183716,
          -0.0845264345407486,
          -0.08356756716966629,
          0.08274024724960327,
          0.2074214220046997,
          0.1566942036151886,
          -0.146600142121315,
          -0.0987294614315033,
          0.019214700907468796,
          -0.01701420545578003,
          0.010087326169013977,
          0.15717947483062744,
          -0.08927871286869049,
          0.08122231811285019,
          -0.1908833235502243,
          -0.22144834697246552,
          -0.10184737294912338,
          -0.07269753515720367,
          -0.0741063728928566,
          -0.17010095715522766,
          -0.2714938223361969,
          -0.16885587573051453,
          0.09818204492330551,
          0.07221149653196335,
          0.17396128177642822,
          0.19852536916732788,
          0.25112202763557434,
          0.1451675146818161,
          0.006943061016499996,
          -0.09657953679561615,
          -0.1636989563703537,
          0.035272352397441864,
          -0.005084196571260691,
          -0.16977459192276,
          -0.25115934014320374,
          -0.27185651659965515,
          0.26273608207702637,
          0.0006075809360481799,
          0.001949195982888341,
          0.17879630625247955,
          -0.27412182092666626,
          -0.1831056773662567,
          -0.2588968873023987,
          -0.08128245919942856,
          0.11453831195831299,
          0.05366406962275505,
          -0.30480819940567017,
          -0.18971705436706543,
          -0.1272805780172348,
          0.004676468670368195,
          0.1503908336162567,
          0.046294309198856354,
          0.1559215933084488,
          0.1986512541770935,
          0.3398979902267456,
          0.27457478642463684,
          0.18325243890285492,
          0.010897526517510414,
          -0.1282401829957962,
          -0.17038197815418243,
          -0.27848565578460693,
          -0.060638442635536194,
          0.10992414504289627,
          0.18256178498268127,
          0.09186264872550964,
          0.00976625457406044,
          -0.13692127168178558,
          -0.10072430968284607,
          -0.08755433559417725,
          -0.1958618313074112,
          -0.16739016771316528,
          -0.1415174901485443,
          -0.13137657940387726,
          -0.20642919838428497,
          -0.18051600456237793,
          0.037261705845594406,
          0.060209278017282486,
          -0.000800365989562124,
          -0.01815701462328434,
          -0.03420819342136383,
          0.056847475469112396,
          0.19797198474407196,
          0.4143214225769043,
          0.43631425499916077,
          0.26200196146965027,
          0.17746193706989288,
          0.13879792392253876,
          0.07514024525880814,
          -0.0858556479215622,
          -0.16487452387809753,
          -0.0945034772157669,
          -0.3483354151248932,
          -0.18835307657718658,
          0.03629497438669205,
          0.019728653132915497,
          -0.09088701009750366,
          0.01142021082341671,
          0.027436966076493263,
          -0.272068589925766,
          -0.07113757729530334,
          -0.09727679193019867,
          -0.1546008586883545,
          0.04395882040262222,
          0.16020016372203827,
          0.16165713965892792,
          -0.008744643069803715,
          -0.055300816893577576,
          -0.10336500406265259,
          0.06697706133127213,
          0.055315326899290085,
          0.37505239248275757,
          0.5323179960250854,
          0.33112412691116333,
          0.18497683107852936,
          0.16096268594264984,
          0.17410391569137573,
          0.12885023653507233,
          0.1225356012582779,
          0.06487298756837845,
          -0.3094361424446106,
          -0.3044394254684448,
          0.3519938588142395,
          0.07871431112289429,
          0.29381582140922546,
          0.1844365894794464,
          -0.0932788997888565,
          -0.2225748896598816,
          -0.08234290778636932,
          -0.10817516595125198,
          0.027078701183199883,
          0.0027141671162098646,
          0.04112987965345383,
          -0.08185029029846191,
          -0.08427345007658005,
          0.07486482709646225,
          0.08914203196763992,
          -0.017552433535456657,
          0.038359634578228,
          0.09188878536224365,
          0.26079612970352173,
          0.2565820515155792,
          0.22243008017539978,
          0.06593932211399078,
          0.10349404811859131,
          0.23897849023342133,
          0.012904622592031956,
          -0.17981597781181335,
          -0.2538433372974396,
          -0.359210729598999,
          0.03608042374253273,
          0.01114270556718111,
          0.3607173562049866,
          0.05248837172985077,
          0.040415480732917786,
          -0.16370269656181335,
          -0.1302451193332672,
          -0.19241125881671906,
          -0.04755115136504173,
          -0.08042636513710022,
          -0.024924572557210922,
          -0.1598135381937027,
          -0.07500488311052322,
          0.13604125380516052,
          0.07398740947246552,
          -0.09043464809656143,
          -0.29234448075294495,
          -0.18097099661827087,
          -0.06478599458932877,
          0.22842080891132355,
          0.31784701347351074,
          0.07557958364486694,
          0.05495427921414375,
          0.17748863995075226,
          0.09377841651439667,
          -0.08208899945020676,
          -0.22148652374744415,
          0.1252395212650299,
          0.04410350322723389,
          0.018123360350728035,
          0.06875558197498322,
          0.0719047263264656,
          4.645070475817192e-06,
          -0.10333359986543655,
          -0.14044195413589478,
          -0.009289632551372051,
          0.038973793387413025,
          0.027974409982562065,
          -0.12197457253932953,
          -0.07573903352022171,
          -0.060576651245355606,
          0.04701252654194832,
          0.1428391933441162,
          -0.10257497429847717,
          -0.2636853754520416,
          -0.1427364945411682,
          -0.014148097485303879,
          -0.07025735825300217,
          0.12918230891227722,
          0.10412696748971939,
          0.1599770486354828,
          0.2753045856952667,
          0.23440328240394592,
          -0.14368097484111786,
          -0.19025753438472748,
          0.17857788503170013,
          0.0358479879796505,
          0.13370585441589355,
          0.08959120512008667,
          -0.006851091515272856,
          -0.12566086649894714,
          -0.32955601811408997,
          -0.10875675827264786,
          0.2287832796573639,
          0.1927810162305832,
          -0.022317608818411827,
          -0.04019768908619881,
          -0.024181513115763664,
          -0.09427649527788162,
          0.0812893807888031,
          0.14592142403125763,
          -0.22371086478233337,
          -0.23435257375240326,
          -0.15207011997699738,
          -0.14240965247154236,
          -0.1385512501001358,
          -0.01367871928960085,
          0.009219680912792683,
          0.08462081849575043,
          0.2865215539932251,
          0.39243924617767334,
          0.05545401945710182,
          0.01043423917144537,
          0.08070296049118042,
          0.0033429020550101995,
          0.020776521414518356,
          0.04412331432104111,
          -0.06813829392194748,
          -0.06934851408004761,
          -0.1671878844499588,
          0.13394932448863983,
          0.11301850527524948,
          0.029224028810858727,
          0.05656752735376358,
          0.012804772704839706,
          -0.023919079452753067,
          -0.059151824563741684,
          0.012322637252509594,
          -0.06826503574848175,
          -0.19643977284431458,
          -0.13597525656223297,
          -0.027380557730793953,
          -0.09934164583683014,
          -0.032646793872117996,
          -0.015210103243589401,
          -0.06274459511041641,
          0.038730643689632416,
          0.23036523163318634,
          0.1395743489265442,
          -0.00033262293436564505,
          -0.011909235268831253,
          0.10058347135782242,
          -0.004868549294769764,
          0.0709695890545845,
          -0.0398300439119339,
          -0.16526217758655548,
          0.19393055140972137,
          0.010085079818964005,
          0.1075870618224144,
          0.020727625116705894,
          0.11464498937129974,
          0.0047960891388356686,
          0.06988413631916046,
          -0.08770015090703964,
          -0.10489391535520554,
          -0.0674852654337883,
          -0.05530945956707001,
          0.008312965743243694,
          -0.1053340882062912,
          -0.16992664337158203,
          -0.0601092167198658,
          -0.035267993807792664,
          -0.1007942259311676,
          0.005062399432063103,
          0.10570964217185974,
          0.1664000153541565,
          -0.02285250462591648,
          0.022409124299883842,
          0.14254392683506012,
          0.06943182647228241,
          0.052649687975645065,
          -0.050636935979127884,
          0.008694973774254322,
          -0.35492444038391113,
          0.1268346756696701,
          0.26755228638648987,
          0.04608049616217613,
          0.11566968262195587,
          0.12844514846801758,
          0.0837009996175766,
          0.09587135165929794,
          -0.054932598024606705,
          -0.042625635862350464,
          0.07314790785312653,
          0.0458894744515419,
          0.07375725358724594,
          -0.21519041061401367,
          -0.04991848021745682,
          0.012676006183028221,
          0.05097409337759018,
          0.09956204146146774,
          0.15365031361579895,
          0.08509428054094315,
          -0.019802896305918694,
          -0.12896312773227692,
          -0.18595090508460999,
          0.2531430721282959,
          0.022644557058811188,
          0.03955192491412163,
          -0.08137615770101547,
          -0.07713565975427628,
          -0.3010193109512329,
          0.13701097667217255,
          0.1861371546983719,
          0.05759306997060776,
          0.11892608553171158,
          0.053711988031864166,
          0.08008506149053574,
          0.03947867825627327,
          -0.1591726690530777,
          0.00827555451542139,
          0.045146506279706955,
          0.11012749373912811,
          0.037009067833423615,
          -0.17807109653949738,
          -0.08014005422592163,
          0.025043020024895668,
          0.09371867030858994,
          0.14366507530212402,
          0.07226064801216125,
          0.06499980390071869,
          0.01386098749935627,
          0.014432718977332115,
          -0.3204804062843323,
          0.10465654730796814,
          -0.006767041049897671,
          0.021129360422492027,
          -0.08970768004655838,
          -0.17471857368946075,
          -0.3917085826396942,
          0.004325245972722769,
          0.027785789221525192,
          0.014845936559140682,
          0.0838342234492302,
          0.05378567799925804,
          0.1518014520406723,
          -0.016202548518776894,
          -0.15047834813594818,
          -0.12494843453168869,
          -0.15104001760482788,
          0.11294060945510864,
          -0.08710207790136337,
          -0.17229613661766052,
          -0.11501123011112213,
          -0.16398370265960693,
          -0.10676906257867813,
          0.02603914774954319,
          -0.014686350710690022,
          0.0792926773428917,
          -0.05684421956539154,
          -0.24162006378173828,
          -0.33655792474746704,
          0.06615167111158371,
          0.022273659706115723,
          0.009664480574429035,
          -0.21688885986804962,
          -0.2248431295156479,
          -0.33275532722473145,
          -0.04981347918510437,
          -0.06530686467885971,
          -0.05095504969358444,
          0.1125684455037117,
          0.10473880171775818,
          0.2350684255361557,
          -0.09169034659862518,
          -0.2729993462562561,
          -0.23951566219329834,
          -0.005386815406382084,
          0.11121714860200882,
          0.005278115160763264,
          -0.11250779032707214,
          -0.14282368123531342,
          -0.13645939528942108,
          -0.04183317720890045,
          -0.015797974541783333,
          -0.04365217313170433,
          0.051363538950681686,
          0.05926143378019333,
          -0.03591436892747879,
          -0.16798503696918488,
          0.02374812588095665,
          -0.024053048342466354,
          0.2133304923772812,
          -0.07127145677804947,
          -0.1220816895365715,
          -0.42951875925064087,
          -0.1538209617137909,
          -0.1382196843624115,
          0.0386357456445694,
          0.10939077287912369,
          0.3237966299057007,
          0.2788243591785431,
          -0.1956082582473755,
          -0.37166157364845276,
          -0.4193923771381378,
          -0.23363275825977325,
          0.040330350399017334,
          -0.05292844399809837,
          -0.02852638065814972,
          0.00794032122939825,
          0.008807274512946606,
          -0.07725130021572113,
          -0.092831090092659,
          -0.026409119367599487,
          0.15299850702285767,
          0.1638030856847763,
          0.05149032920598984,
          -0.26425817608833313,
          -0.01594986394047737,
          -0.14395058155059814,
          -0.061355117708444595,
          0.34883537888526917,
          0.2776253819465637,
          -0.2958545982837677,
          -0.11818183213472366,
          0.005877344869077206,
          0.07839171588420868,
          0.1525304913520813,
          0.2828035354614258,
          0.19082513451576233,
          -0.10956448316574097,
          -0.36358827352523804,
          -0.2945822775363922,
          -0.09202341735363007,
          0.04901165887713432,
          0.005574043374508619,
          -0.018676767125725746,
          -0.03950759023427963,
          -0.1491369903087616,
          -0.10188513249158859,
          -0.1256544440984726,
          0.05447607487440109,
          0.14973832666873932,
          0.009696856141090393,
          -0.23375554382801056,
          -0.3289600610733032,
          -0.04581594467163086,
          -0.12494107335805893,
          0.002483957912772894,
          0.30757802724838257,
          0.3075607120990753,
          0.011888050474226475,
          0.09698442369699478,
          0.23086322844028473,
          0.024515749886631966,
          0.11358192563056946,
          0.10815059393644333,
          0.22130051255226135,
          0.07449070364236832,
          -0.1361112743616104,
          -0.16236695647239685,
          -0.008122344501316547,
          0.011149127036333084,
          -0.008900533430278301,
          -0.1682056039571762,
          -0.22851066291332245,
          -0.19413262605667114,
          -0.14073605835437775,
          -0.10827922075986862,
          0.07731084525585175,
          0.023769792169332504,
          -0.21124084293842316,
          -0.4140256941318512,
          -0.29909685254096985,
          -0.15219412744045258,
          -0.15522587299346924,
          -0.1645689308643341,
          0.028332272544503212,
          0.18150505423545837,
          0.29579147696495056,
          0.13905048370361328,
          0.10826718062162399,
          0.17326898872852325,
          0.1539251208305359,
          0.18250450491905212,
          0.2739465832710266,
          0.22039172053337097,
          0.07343905419111252,
          -0.12851496040821075,
          -0.10731082409620285,
          -0.18993352353572845,
          -0.13233797252178192,
          -0.21257005631923676,
          -0.18688566982746124,
          -0.17622072994709015,
          -0.17561031877994537,
          -0.3014400899410248,
          -0.22363872826099396,
          -0.013218211941421032,
          -0.33534732460975647,
          -0.5134109854698181,
          -0.2751424312591553,
          0.1666833460330963,
          0.06577048450708389,
          -0.15680764615535736,
          -0.1613483875989914,
          0.1385185420513153,
          0.28046345710754395,
          -0.03639582544565201,
          0.043860845267772675,
          0.2122076004743576,
          0.24257388710975647,
          0.259207159280777,
          0.3492657244205475,
          0.3718717396259308,
          0.11349880695343018,
          0.11289145052433014,
          -0.05316150560975075,
          -0.1610485464334488,
          -0.22353827953338623,
          -0.29134705662727356,
          -0.08733581751585007,
          -0.10265635699033737,
          -0.2227107137441635,
          -0.3134564459323883,
          -0.32399821281433105,
          -0.13243155181407928,
          -0.27954918146133423,
          -0.3161977231502533,
          -0.22149315476417542,
          -0.13269737362861633,
          0.08612152189016342,
          0.007188297342509031,
          -0.0007934493478387594,
          -0.07916951924562454,
          0.09274281561374664,
          -0.12212984263896942,
          -0.11238058656454086,
          0.07952991873025894,
          0.16245397925376892,
          0.12425531446933746,
          0.15624147653579712,
          0.28250864148139954,
          0.25035586953163147,
          0.13942444324493408,
          0.01516991201788187,
          -0.20443065464496613,
          -0.33621612191200256,
          -0.07609886676073074,
          0.17740988731384277,
          -0.1401865929365158,
          -0.28858405351638794,
          -0.4376277029514313,
          -0.3006232976913452,
          -0.13315731287002563,
          -0.24052546918392181,
          -0.3170040547847748,
          -0.2542632818222046,
          -0.2895646393299103,
          -0.005522956606000662,
          0.0039521558210253716,
          -0.0050355661660432816,
          -0.17291267216205597,
          0.0108205396682024,
          0.09293759614229202,
          0.1565425544977188,
          0.03196663782000542,
          0.005630803760141134,
          0.1075514703989029,
          0.07014776766300201,
          0.19056692719459534,
          0.20994818210601807,
          0.2555572986602783,
          0.07365249842405319,
          -0.2847622334957123,
          -0.15398450195789337,
          0.07647556811571121,
          0.1438511461019516,
          -0.05501201003789902,
          -0.29703477025032043,
          -0.07127551734447479,
          -0.32017990946769714,
          -0.31212180852890015,
          -0.18636347353458405,
          -0.08180960267782211,
          -0.15152309834957123,
          0.003146120347082615,
          0.006031885743141174,
          0.0012565795332193375,
          0.0034969605039805174,
          0.03256217762827873,
          -0.030586397275328636,
          -0.1976405531167984,
          -0.2679049074649811,
          0.027098452672362328,
          0.09054290503263474,
          0.0523497499525547,
          -0.01138082891702652,
          0.2452196627855301,
          0.3965078890323639,
          0.06969646364450455,
          0.02206963114440441,
          0.007630219217389822,
          0.12708306312561035,
          0.06405290961265564,
          -0.22475111484527588,
          -0.1614915281534195,
          -0.024936048313975334,
          -0.10836423933506012,
          -0.21512985229492188,
          -0.14164821803569794,
          -0.06654626131057739,
          0.05586395040154457,
          0.000911588198505342,
          0.017544856294989586,
          -0.0068042464554309845,
          -0.006378393620252609,
          0.008789554238319397,
          -0.004720234777778387,
          0.21152731776237488,
          -0.03162746503949165,
          -0.1730993092060089,
          -0.17554421722888947,
          -0.019553005695343018,
          0.13268119096755981,
          0.18125692009925842,
          0.2604021430015564,
          0.21605609357357025,
          0.11551333218812943,
          0.17307744920253754,
          0.2514321804046631,
          0.14533232152462006,
          -0.033037248998880386,
          -0.31673479080200195,
          -0.2367573380470276,
          0.06006897985935211,
          0.0040024579502642155,
          0.05699799954891205,
          0.022868385538458824,
          0.13341477513313293,
          -0.06036997586488724,
          -0.05154133215546608,
          -0.006267479620873928,
          -0.011384912766516209,
          0.010044528171420097,
          -0.007332433480769396,
          -0.006710090674459934,
          0.003508667228743434,
          -0.11038702726364136,
          -0.13968417048454285,
          0.15608875453472137,
          0.23948301374912262,
          0.26796773076057434,
          0.2988761067390442,
          0.4255107641220093,
          0.30163854360580444,
          0.06868454068899155,
          -0.034766558557748795,
          -0.02510826103389263,
          -0.06568872183561325,
          -0.07275655120611191,
          0.1484571248292923,
          0.12608404457569122,
          0.09811664372682571,
          0.04379367083311081,
          0.021600643172860146,
          0.009683544747531414,
          -0.05366528406739235,
          -0.007892347872257233,
          -0.010069173760712147,
          0.011315805837512016,
          0.017540711909532547
        ],
        [
          -0.008712531998753548,
          -0.010646888054907322,
          0.001286311773583293,
          0.008822384290397167,
          0.00994013249874115,
          0.004665423650294542,
          -0.017869750037789345,
          0.0011060308897867799,
          -0.0038239355199038982,
          -0.021304769441485405,
          0.012796767987310886,
          0.006455317139625549,
          0.093850277364254,
          0.05047585070133209,
          -0.054113540798425674,
          -0.05943445488810539,
          -0.009511732496321201,
          0.010337797924876213,
          0.014157135970890522,
          -0.008099607191979885,
          -0.005313799250870943,
          0.006258281413465738,
          0.011987424455583096,
          0.004669233225286007,
          0.011859627440571785,
          -0.0016475769225507975,
          -0.002698474330827594,
          0.007266482338309288,
          -0.005269387736916542,
          -0.010454759933054447,
          0.0037438268773257732,
          -0.0014129901537671685,
          0.04702172055840492,
          0.07412414252758026,
          0.08849319070577621,
          0.10746161639690399,
          0.09814975410699844,
          0.16664177179336548,
          0.26563623547554016,
          0.09113971143960953,
          -0.006920456420630217,
          0.16923090815544128,
          0.1036660298705101,
          0.16940443217754364,
          0.1154676005244255,
          0.27226316928863525,
          0.3863275647163391,
          0.3127369284629822,
          0.22510212659835815,
          0.09282533079385757,
          -0.012602187693119049,
          -0.04968877136707306,
          -0.00014872264000587165,
          -0.00045666343066841364,
          -7.412730155920144e-06,
          -0.007927552796900272,
          0.00362975662574172,
          -0.006493025925010443,
          0.13587266206741333,
          0.026766980066895485,
          0.08883291482925415,
          0.17609094083309174,
          0.1263682097196579,
          0.13693955540657043,
          0.3292897641658783,
          0.20464380085468292,
          0.025903644040226936,
          0.12388111650943756,
          0.01565389148890972,
          -0.2059374451637268,
          -0.0572265088558197,
          -0.05269014835357666,
          -0.15144312381744385,
          -0.05122792348265648,
          0.026353461667895317,
          -0.04957401379942894,
          -0.010022621601819992,
          0.2743135392665863,
          0.4379672706127167,
          0.1935853809118271,
          0.13869835436344147,
          -0.019817044958472252,
          -0.004481748212128878,
          0.005955338012427092,
          0.0038290254306048155,
          -0.008892440237104893,
          -0.22186672687530518,
          -0.0626412183046341,
          0.03532160446047783,
          0.11541027575731277,
          0.19198620319366455,
          -0.08329635113477707,
          -0.12396600097417831,
          0.126540407538414,
          0.03742517903447151,
          0.15065567195415497,
          0.02840319648385048,
          0.06144940108060837,
          0.22045616805553436,
          0.2964102029800415,
          0.12292183935642242,
          0.08424931019544601,
          0.027047909796237946,
          0.029619386419653893,
          -0.07980822771787643,
          0.35848644375801086,
          0.28156235814094543,
          0.4113141596317291,
          0.12817829847335815,
          0.053813386708498,
          0.01159175205975771,
          0.0022905946243554354,
          0.0016390976961702108,
          -0.00551249273121357,
          -0.26174187660217285,
          -0.21382354199886322,
          -0.24336855113506317,
          -0.11511142551898956,
          -0.014771969988942146,
          -0.02973605878651142,
          -0.23491217195987701,
          0.07019001245498657,
          0.044998910278081894,
          -0.007785624824464321,
          0.01677912473678589,
          -0.1627800464630127,
          -0.09366698563098907,
          -0.1173042431473732,
          -0.11254820972681046,
          -0.02366640232503414,
          -0.09696058183908463,
          -0.0831216350197792,
          -0.07155553251504898,
          0.142947256565094,
          0.06031946837902069,
          0.09630942344665527,
          0.20997999608516693,
          0.29161280393600464,
          0.20011666417121887,
          0.12382417917251587,
          0.019274208694696426,
          -0.010309131816029549,
          -0.06539864093065262,
          -0.11549706757068634,
          -0.2854233384132385,
          -0.25949251651763916,
          -0.043050773441791534,
          0.14257937669754028,
          0.24712909758090973,
          0.1578836590051651,
          0.11374811828136444,
          0.17263579368591309,
          0.26151034235954285,
          0.18813756108283997,
          0.10418260097503662,
          -0.05055973306298256,
          0.04519594833254814,
          0.02810695953667164,
          -0.049327876418828964,
          -0.07724869251251221,
          0.03858301416039467,
          0.10662131011486053,
          0.10336943715810776,
          -0.12113144993782043,
          -0.007888945750892162,
          0.48669978976249695,
          0.4326799511909485,
          0.10319779813289642,
          -0.01202014647424221,
          0.05188886448740959,
          0.15369749069213867,
          -0.24688944220542908,
          0.0710296630859375,
          0.14070473611354828,
          0.022998645901679993,
          0.0752582922577858,
          0.21824650466442108,
          0.1333732008934021,
          0.10862354934215546,
          0.18416035175323486,
          0.24419493973255157,
          0.041437722742557526,
          -0.06380554288625717,
          -0.10715464502573013,
          -0.2081335037946701,
          -0.14628590643405914,
          -0.12751483917236328,
          0.06339171528816223,
          -0.049352165311574936,
          -0.07045594602823257,
          0.15229763090610504,
          0.13764408230781555,
          0.017394693568348885,
          0.34480419754981995,
          0.1458437144756317,
          0.09183437377214432,
          0.035646211355924606,
          0.048707444220781326,
          0.08902239799499512,
          -0.05701727420091629,
          0.08928067237138748,
          0.14015395939350128,
          0.022234538570046425,
          0.12077179551124573,
          0.18677400052547455,
          0.20672103762626648,
          0.17572428286075592,
          0.11746811121702194,
          0.020064113661646843,
          -0.05720038712024689,
          -0.21906574070453644,
          -0.22084634006023407,
          -0.20559805631637573,
          -0.09921863675117493,
          0.037751439958810806,
          -0.02650556154549122,
          -0.11031389236450195,
          -0.09181099385023117,
          0.038917623460292816,
          0.07063248753547668,
          0.09750701487064362,
          0.15622808039188385,
          -0.06173692271113396,
          0.020519763231277466,
          0.060213636606931686,
          0.21965181827545166,
          0.06986748427152634,
          0.11820166558027267,
          0.03134575113654137,
          0.02881808951497078,
          0.11373143643140793,
          0.10076727718114853,
          -0.0053305309265851974,
          0.17404180765151978,
          0.03358869254589081,
          0.10230523347854614,
          0.17147716879844666,
          0.005168772302567959,
          -0.0473894402384758,
          -0.0932159498333931,
          -0.11632317304611206,
          -0.0007538259378634393,
          0.03867688402533531,
          -0.004719773773103952,
          0.08284728974103928,
          -0.07446683198213577,
          0.0401594452559948,
          0.3225727677345276,
          0.22345022857189178,
          0.23779889941215515,
          0.014266666024923325,
          0.1301758736371994,
          0.14918962121009827,
          0.23027412593364716,
          -0.09201422333717346,
          0.1332997977733612,
          -0.04979049414396286,
          -0.01088971272110939,
          -0.0026641213335096836,
          -0.14131321012973785,
          0.059314846992492676,
          0.05640269070863724,
          -0.08955195546150208,
          0.06562685966491699,
          0.1120205670595169,
          0.07696093618869781,
          0.08525077253580093,
          -0.0819564014673233,
          -0.06957194954156876,
          0.015678413212299347,
          0.03897187486290932,
          0.035817958414554596,
          0.09081095457077026,
          0.11270085722208023,
          0.08690478652715683,
          0.2407759726047516,
          0.31519815325737,
          0.5966142416000366,
          0.24319997429847717,
          0.016958080232143402,
          0.13869939744472504,
          0.08050358295440674,
          0.011417723260819912,
          0.0028252468910068274,
          0.07693749666213989,
          -0.008053252473473549,
          -0.05857664719223976,
          -0.09491698443889618,
          -0.044491663575172424,
          0.04132618010044098,
          0.010445293970406055,
          0.038037680089473724,
          0.10745613276958466,
          0.15207792818546295,
          0.07849366217851639,
          -0.051397860050201416,
          -0.11910901218652725,
          -0.03508838266134262,
          0.019693512469530106,
          0.0068642557598650455,
          0.05178479850292206,
          0.16795925796031952,
          0.14940887689590454,
          0.15657256543636322,
          0.44751834869384766,
          0.20969416201114655,
          0.3344079852104187,
          -0.056315068155527115,
          0.06849831342697144,
          0.26072898507118225,
          -0.21433642506599426,
          0.17868787050247192,
          0.03304865211248398,
          -0.11208754032850266,
          -0.029780583456158638,
          -0.06571903824806213,
          -0.10835357010364532,
          -0.015188389457762241,
          -0.13757717609405518,
          -0.015411162748932838,
          0.10702531039714813,
          0.11551783978939056,
          0.1427992433309555,
          -0.0098949633538723,
          -0.1813017725944519,
          -0.16147352755069733,
          -0.15324360132217407,
          -0.007386803161352873,
          -0.09993401914834976,
          0.013819864951074123,
          0.06652215123176575,
          0.02675187587738037,
          0.4035281240940094,
          0.3538816571235657,
          0.49534446001052856,
          0.15292571485042572,
          -0.011301866732537746,
          -0.021150551736354828,
          -0.10109630227088928,
          0.24207738041877747,
          -0.07639850676059723,
          -0.1941273808479309,
          -0.19022196531295776,
          -0.13645736873149872,
          -0.12740090489387512,
          -0.08701540529727936,
          -0.05132986232638359,
          0.08852234482765198,
          0.16209711134433746,
          0.20353224873542786,
          0.05699464678764343,
          -0.05154121667146683,
          -0.13897398114204407,
          -0.06894382834434509,
          -0.0633777379989624,
          -0.051121726632118225,
          -0.017067261040210724,
          0.033279966562986374,
          0.017910342663526535,
          -0.16926473379135132,
          0.3331519365310669,
          0.524127185344696,
          0.33525463938713074,
          0.16712774336338043,
          -0.25471580028533936,
          0.02830200269818306,
          0.14866046607494354,
          0.21025562286376953,
          -0.23865509033203125,
          -0.0911780595779419,
          -0.13155296444892883,
          -0.06856425106525421,
          -0.0599760040640831,
          0.08129347115755081,
          0.08655354380607605,
          0.17749765515327454,
          0.22524034976959229,
          0.157352477312088,
          -0.04280036315321922,
          -0.0104178786277771,
          -0.08114151656627655,
          -0.0632508173584938,
          0.027038024738430977,
          -0.03592243418097496,
          0.04713120684027672,
          -0.015202189795672894,
          -0.03942465782165527,
          -0.1118573248386383,
          0.002881490159779787,
          0.32641515135765076,
          0.1334170252084732,
          0.1630868911743164,
          0.09220881760120392,
          -0.020798495039343834,
          0.022110775113105774,
          0.06583918631076813,
          -0.25108805298805237,
          0.04593775048851967,
          0.030437657609581947,
          0.021848617121577263,
          0.04802131652832031,
          0.043458759784698486,
          0.14512555301189423,
          0.14562110602855682,
          0.20767825841903687,
          0.11467824876308441,
          0.03834017366170883,
          -0.00365433725528419,
          -0.06466672569513321,
          0.025033744052052498,
          0.004905425477772951,
          -0.018340030685067177,
          -0.08422666788101196,
          -0.13552509248256683,
          -0.17614653706550598,
          -0.1254061758518219,
          -0.03773451969027519,
          0.21214652061462402,
          -0.04389955475926399,
          0.05853894352912903,
          0.0715499073266983,
          -0.0724499374628067,
          -0.06455014646053314,
          0.13121168315410614,
          -0.16167563199996948,
          -0.07299821823835373,
          0.024080947041511536,
          -0.004535149782896042,
          -0.06626854836940765,
          0.08607301115989685,
          0.07402685284614563,
          0.1479186713695526,
          0.1270848661661148,
          0.039079759269952774,
          0.07337383925914764,
          0.043011777102947235,
          -0.07099492102861404,
          -0.031377263367176056,
          0.051414329558610916,
          -0.04854685440659523,
          0.004932365380227566,
          -0.039821039885282516,
          -0.12982217967510223,
          0.10133438557386398,
          0.1313956081867218,
          0.26080459356307983,
          -0.11926236003637314,
          0.04979415610432625,
          0.020469019189476967,
          -0.12751473486423492,
          -0.1941692978143692,
          0.05195474624633789,
          -0.14070071280002594,
          -0.06324931234121323,
          -0.021413065493106842,
          -0.009713164530694485,
          0.1150338277220726,
          0.09341294318437576,
          0.13092154264450073,
          0.14160048961639404,
          0.1745135486125946,
          0.07112303376197815,
          0.019031725823879242,
          0.0031727722380310297,
          -0.05202570930123329,
          0.11893851310014725,
          0.0519370511174202,
          0.10705381631851196,
          0.02479153871536255,
          0.04132772609591484,
          -0.034042056649923325,
          0.20849138498306274,
          0.021614395081996918,
          0.2032698541879654,
          -0.15119127929210663,
          -0.17724289000034332,
          0.014882557094097137,
          -0.18850958347320557,
          -0.09699395298957825,
          0.05189070105552673,
          0.06831742823123932,
          -0.004447223152965307,
          0.08017992973327637,
          -0.0696503147482872,
          -0.005372826941311359,
          0.16338342428207397,
          0.15301065146923065,
          0.2864934802055359,
          0.14982354640960693,
          0.043740347027778625,
          -0.081224724650383,
          -0.11967850476503372,
          0.00524792168289423,
          0.04739943891763687,
          0.011588848195970058,
          0.0060337381437420845,
          0.016200199723243713,
          0.08544707298278809,
          0.14891430735588074,
          0.289805144071579,
          0.18189051747322083,
          0.08122604340314865,
          0.0012793086934834719,
          -0.007976304739713669,
          -0.11209786683320999,
          -0.22133255004882812,
          -0.2073248326778412,
          0.08401460945606232,
          0.2045464962720871,
          0.13659514486789703,
          0.19199539721012115,
          0.021326227113604546,
          0.07311899960041046,
          0.05608103796839714,
          0.019724242389202118,
          0.008756610564887524,
          0.08068680763244629,
          0.006961993407458067,
          -0.12302219867706299,
          -0.11999915540218353,
          -0.05156781151890755,
          -0.05758539214730263,
          -0.05188346281647682,
          -0.0989321768283844,
          -0.038431961089372635,
          -0.03433328866958618,
          -0.0027003311552107334,
          0.23222672939300537,
          0.1853882372379303,
          -0.031890593469142914,
          0.19402319192886353,
          -0.09373516589403152,
          -0.13006852567195892,
          -0.03925132378935814,
          -0.06407544016838074,
          0.1051691323518753,
          0.13276347517967224,
          0.05768205225467682,
          0.09266401082277298,
          0.027641916647553444,
          0.08263910561800003,
          -0.035940878093242645,
          0.08946675807237625,
          0.025627871975302696,
          -0.0057953475043177605,
          -0.0015057157725095749,
          -0.0614340677857399,
          -0.0950731486082077,
          -0.1363397091627121,
          0.010226055979728699,
          -0.1047399714589119,
          -0.1272205114364624,
          -0.09521126002073288,
          0.03534284606575966,
          0.07015109807252884,
          0.16741082072257996,
          -0.03415442258119583,
          -0.15365873277187347,
          0.19212059676647186,
          -0.09176339209079742,
          -0.0015807265881448984,
          -0.015572544187307358,
          0.12526100873947144,
          0.033871281892061234,
          -0.031986504793167114,
          0.026715083047747612,
          -0.0077213020995259285,
          0.028490712866187096,
          0.034255363047122955,
          -0.038609325885772705,
          0.03339006379246712,
          0.043893758207559586,
          0.08526380360126495,
          0.06236690655350685,
          -0.04989985376596451,
          0.042566388845443726,
          -0.1289849877357483,
          -0.14972476661205292,
          -0.15185731649398804,
          -0.12706325948238373,
          -0.08627733588218689,
          0.0914447233080864,
          0.07403941452503204,
          -0.024031516164541245,
          -0.20000983774662018,
          -0.19630414247512817,
          0.08291888982057571,
          -0.22035855054855347,
          -0.19090978801250458,
          0.053572043776512146,
          0.14317817986011505,
          -0.029973646625876427,
          0.1115804985165596,
          -0.0336044542491436,
          0.01912611909210682,
          -0.008928941562771797,
          0.013158736750483513,
          0.05449328571557999,
          -0.043225716799497604,
          0.13277077674865723,
          0.0855187177658081,
          0.009524599649012089,
          -0.01657075807452202,
          -0.005189598072320223,
          -0.08339352905750275,
          -0.07375606149435043,
          -0.13015498220920563,
          -0.10089851915836334,
          -0.09064901620149612,
          0.045568037778139114,
          0.1365416795015335,
          0.052423086017370224,
          -0.22231082618236542,
          -0.10729044675827026,
          0.28900566697120667,
          0.044166240841150284,
          -0.18871328234672546,
          -0.08037836104631424,
          0.0735212042927742,
          -0.02158026397228241,
          0.11993379145860672,
          -0.10724783688783646,
          0.003472820622846484,
          0.09802450984716415,
          -0.04552370682358742,
          0.023862069472670555,
          0.04800219461321831,
          0.23869726061820984,
          0.21387213468551636,
          0.053953416645526886,
          -0.008279174566268921,
          0.05345826968550682,
          0.07709524780511856,
          -0.11413221061229706,
          -0.22821453213691711,
          -0.06228116527199745,
          -0.22991503775119781,
          -0.06082472577691078,
          0.01790342666208744,
          0.11650200188159943,
          -0.09390471875667572,
          -0.07185597717761993,
          -0.011380502954125404,
          0.054336704313755035,
          0.009981747716665268,
          -0.0016312227817252278,
          -0.07516937702894211,
          -0.014384915120899677,
          0.3377361297607422,
          -0.021874915808439255,
          -0.005560547579079866,
          -0.08040718734264374,
          0.003950869664549828,
          0.057307884097099304,
          0.1704227477312088,
          0.15508805215358734,
          0.19431310892105103,
          0.1000542938709259,
          0.11809755116701126,
          0.0487353540956974,
          0.06646555662155151,
          -0.15734772384166718,
          -0.1991654634475708,
          -0.13002444803714752,
          -0.22378085553646088,
          -0.1264001727104187,
          0.09494908899068832,
          0.11622035503387451,
          -0.2415398359298706,
          -0.0486999936401844,
          -0.18180374801158905,
          -0.0032417927868664265,
          -0.009709990583360195,
          -0.008395900018513203,
          0.06201360747218132,
          0.04039764776825905,
          -0.15934211015701294,
          0.009851056151092052,
          0.0064728702418506145,
          -0.17342707514762878,
          -0.1213071271777153,
          0.027871595695614815,
          0.0755811408162117,
          0.1561906635761261,
          0.2236391007900238,
          0.22049911320209503,
          0.19044503569602966,
          0.027431746944785118,
          0.16650424897670746,
          -0.15899775922298431,
          -0.13350817561149597,
          -0.11038224399089813,
          -0.289316862821579,
          -0.4379477798938751,
          -0.05625959485769272,
          -0.1252141147851944,
          -0.049763794988393784,
          -0.08401595056056976,
          -0.10513506084680557,
          -0.0034858982544392347,
          -0.005811123177409172,
          -0.0076431650668382645,
          -0.12440285086631775,
          0.14825011789798737,
          -0.04521971195936203,
          -0.2846401035785675,
          -0.09735045582056046,
          -0.3124348819255829,
          -0.40444713830947876,
          -0.20847825706005096,
          0.10921680182218552,
          0.15310581028461456,
          -0.02917172573506832,
          -0.11924555897712708,
          -0.10456262528896332,
          0.17058517038822174,
          0.1952071189880371,
          0.08018696308135986,
          0.056092843413352966,
          -0.04464428871870041,
          -0.3481104373931885,
          -0.026736456900835037,
          0.10434350371360779,
          0.18834055960178375,
          0.16904257237911224,
          -0.15309356153011322,
          -0.02130715548992157,
          -0.008728209882974625,
          -0.006527534686028957,
          0.01872599869966507,
          -0.026144348084926605,
          -0.20893914997577667,
          -0.3150676190853119,
          -0.3294178545475006,
          -0.43823689222335815,
          -0.46334680914878845,
          -0.1492958664894104,
          -0.17763268947601318,
          -0.19581115245819092,
          0.07527384907007217,
          0.24825866520404816,
          0.11723271757364273,
          -0.33924806118011475,
          -0.10689006000757217,
          -0.034532755613327026,
          -0.2117348164319992,
          -0.1737568974494934,
          -0.08199434727430344,
          -0.09254801273345947,
          0.006981499958783388,
          0.032738108187913895,
          -0.15016479790210724,
          -0.22230060398578644,
          0.021815456449985504,
          0.007009381428360939,
          0.000222512346226722,
          -0.02610914222896099,
          0.007012238260358572,
          -0.013013905845582485,
          -0.010351249016821384,
          0.1005454882979393,
          0.06371556222438812,
          -0.1586204618215561,
          -0.18011072278022766,
          -0.17476771771907806,
          -0.04874469339847565,
          -0.0892796665430069,
          -0.06243585795164108,
          0.005926058162003756,
          -0.03277833014726639,
          -0.24066410958766937,
          -0.11354682594537735,
          -0.06995929777622223,
          -0.03918612003326416,
          -0.11069183051586151,
          -0.07083500176668167,
          0.0955052599310875,
          0.09317938983440399,
          0.07481405138969421,
          -0.06263589859008789,
          -0.011887862347066402,
          0.003842204110696912,
          -0.025739101693034172,
          -0.004828689619898796
        ],
        [
          -0.004184248857200146,
          0.007588296663016081,
          0.012209073640406132,
          -0.0019996582996100187,
          -0.01150316558778286,
          -0.00037515952135436237,
          0.010119556449353695,
          0.016174927353858948,
          0.00929971318691969,
          0.010418646037578583,
          -0.0020447601564228535,
          -0.0025737022515386343,
          0.03918830305337906,
          0.07950099557638168,
          0.07701810449361801,
          0.09654485434293747,
          0.009814589284360409,
          -0.012364676222205162,
          -0.008015050552785397,
          0.006705099251121283,
          0.0019900468178093433,
          -0.0009040539152920246,
