{
  "input_shape": [
    28,
    28
  ],
  "preprocess": {
    "scale": 255.0
  },
  "layers": [
    {
      "type": "dense",
      "units": 128,
      "activation": "relu",
      "W": [
        [
          -0.005768162440606674,
          -0.01018298788690913,
          0.011587956581782964,
          -0.015759377341131958,
          0.0026462082757544247,
          -0.017483057934455887,
          -0.0026619204075393125,
          -0.001981188205111771,
          0.005255758472945867,
          0.0010586098988911228,
          0.005305381824371097,
          -0.016436635362321234,
          0.010792871236702186,
          -0.02080274112111005,
          -0.014234828075991541,
          -0.004649621007860263,
          0.003196581830050238,
          0.0035891525649936755,
          -0.009234607741085435,
          0.01941898239978673,
          0.008091599389357851,
          -0.005178844581529613,
          0.016029479995587136,
          -0.021069370997557915,
          0.019416240297921727,
          -0.00292422915139632,
          0.008052372745085025,
          0.002105606506482848,
          0.007192444297187996,
          -0.011208875326167987,
          -0.007608019391292086,
          0.007344078795454166,
          -0.01169101748336519,
          0.0037667734624669464,
          -5.675239181532256e-05,
          -0.015120059642751404,
          -0.0008641986355850399,
          0.0190634833424901,
          -0.0006307881523947244,
          0.006335441033868837,
          0.005463552870396236,
          -0.001361717524942321,
          0.011229598156455538,
          -0.011337196466315203,
          0.009615480819320555,
          -0.0021235319171490456,
          -0.017458311864861388,
          -0.0012349709919923578,
          0.0019375687544053203,
          -0.003053429272611849,
          -0.005767757920246443,
          0.014427183812872087,
          -0.0021313175349000225,
          -0.002134073851788436,
          0.006440359776622623,
          -0.01319724133421753,
          0.0003434069497494112,
          -0.010306679872762023,
          0.006703366451030639,
          0.003844672720673567,
          0.005394188182683641,
          -0.0033100562637879112,
          0.011279889848587693,
          -0.005418225046562535,
          -0.012468216072916333,
          0.004699563679539149,
          -0.0035885376369111633,
          -0.018075669850347954,
          -0.004560778279958239,
          0.005065527824286074,
          0.0018761275169723805,
          -0.0062166234706299865,
          0.008005846295021395,
          0.0036944778202506936,
          -0.008896389107371498,
          -0.005081914146626591,
          0.00651771061091662,
          -0.00088105865278523,
          -0.0034429906605014573,
          0.008741971766546045,
          -0.0013223491020876294,
          -9.414315136781335e-05,
          0.012059070375290448,
          -0.0056997846441332175,
          0.00961078098843714,
          -0.01647757724639398,
          -0.0012227043031709038,
          0.009868173719082855,
          -0.004091925760778072,
          0.0033608771412330027,
          0.002673698124192911,
          0.004234531935659042,
          -0.0030887904764308354,
          -0.006233191281861906,
          0.01729612594687558,
          0.007599149417852184,
          -1.9519654875556558e-08,
          0.006405526113426065,
          -0.008772403265479753,
          0.004457172487299832,
          0.0025103222426476053,
          -0.012684742522389892,
          -0.0032212135559973186,
          0.008710077333940823,
          0.007143947290237837,
          0.005938691298495134,
          0.006861575631924199,
          -0.008636029209571731,
          -0.0026882134831879368,
          -0.009771934941000444,
          0.0023721945204616627,
          -0.007017856120057201,
          0.00059995432224182,
          -0.034203730028294056,
          5.6180169327586716e-05,
          -0.007759920482772944,
          0.0008608566637052387,
          0.008163975279151886,
          0.010291659286211674,
          0.01615906739148009,
          -0.002400400515417571,
          0.0032958478130085374,
          0.0032564383883037264,
          0.010329070973761323,
          0.009248549649344549,
          0.000630344620891548,
          -0.0008154635260989042,
          0.015617019315634893,
          -0.008859660125509245,
          0.004970762814963908,
          -0.00525675365472716,
          -0.0064071021200068435,
          -0.012827836733228098,
          0.004501332632573169,
          -0.0019624472745329536,
          -0.004774169961734167,
          0.01811903790126663,
          -0.009467732526201844,
          -0.0086536229273404,
          0.0010842233179549532,
          -0.002906549556191213,
          0.005827268198639698,
          0.0015128815481175561,
          -0.005336739459976307,
          0.0025370320005040975,
          -0.004960919349763021,
          0.02221415726228619,
          -0.014133905958817668,
          0.003146614872561007,
          0.018546195131202085,
          -0.0023661140844585342,
          -0.025923032073405194,
          0.012282270062529426,
          -0.011371474277971043,
          0.01119175760158022,
          -0.0017794864179447839,
          -0.004718526268022914,
          0.0009830976642114977,
          -0.011117362358511988,
          0.0012637063870574888,
          -0.006007905666385648,
          -0.014137159082876214,
          -0.009623703525187927,
          -0.011668835601808513,
          0.0025840724212900386,
          0.005377772996313625,
          -0.016338347211756792,
          0.014821723503144164,
          -0.004554430189028828,
          -0.012564576914821369,
          0.0124370783736367,
          0.011103769994040467,
          -0.009231376505917113,
          0.013154065204901975,
          0.0030806289412371388,
          0.008022391846187246,
          -0.005474219284692204,
          -0.006415096731376551,
          -0.003515371264617873,
          -0.011547452691507643,
          0.00030645353547995393,
          -0.01676381847946079,
          0.014672856016813958,
          0.0007728943535800642,
          -0.007849154568584973,
          0.0019133567058929265,
          -0.001636213522620901,
          0.013300789447786697,
          0.0011875977449514576,
          -0.011969470841534076,
          0.006933793760719251,
          0.0024098783827216784,
          0.008430355784617207,
          -0.01615001354197563,
          -0.00035705820074058333,
          -0.0024148887468549477,
          0.030859965856798396,
          -0.004359625685903494,
          0.00041403220673983965,
          -0.005990970379287229,
          0.005155723739291446,
          -0.004176405793011541,
          0.006173635850804966,
          0.01685547063589128,
          0.004366209423943407,
          -0.01540671064715446,
          -0.01244909283717427,
          0.02210403116990897,
          0.01836494413784295,
          0.0165618160767234,
          0.006251815347406779,
          -0.010136857889617393,
          -0.015342947075321257,
          -0.0023396425605030084,
          -0.01220282452244072,
          0.013091753041230392,
          0.0064685871704929536,
          0.0011837784393262996,
          -0.006723378011176863,
          -0.0037720103288873875,
          -0.002471369545182992,
          0.004049002566269692,
          -0.004017304403879474,
          0.0014791669982843422,
          0.004780983813181569,
          -0.0014488799180455685,
          -0.010493842476922827,
          0.002459820993365455,
          0.0032040182805525477,
          0.0010341463704676517,
          0.0023368727673247973,
          -0.01935529856868572,
          -0.009430744983972323,
          -0.004842309858049918,
          0.00258099202625891,
          -0.004476047902843047,
          0.003163063279156741,
          -0.004088376140827702,
          -0.0021074589082537387,
          -0.0012281891308289204,
          0.012663295995615729,
          -0.0025886433143339905,
          0.00721656592887397,
          -0.004263246056856728,
          -0.011102323960269172,
          -0.000774812785938876,
          -0.026906613259786022,
          0.014484418247369638,
          0.002477122911651799,
          0.0026372237636899305,
          -0.011217327586487271,
          0.00899977621274108,
          0.005845287953498055,
          -0.01297252847620709,
          -0.012909365551543319,
          -0.0005853200025876952,
          0.004424269159713011,
          0.00459805887641797,
          -0.01395680259847969,
          -0.0078990312794414,
          -0.0028590699079427584,
          -0.0012534584679578964,
          0.009412328262810547,
          0.005656547738028392,
          -0.0059115299949922375,
          0.004085040202385356,
          -0.0006175477260012185,
          -0.002858985134217055,
          -0.002109802693053885,
          0.009011051671502705,
          -0.0006041333496178765,
          -0.009135064213380601,
          -0.00022553609683411267,
          -0.012871996295110422,
          0.003999711645349288,
          0.004403005375191533,
          -0.0028499816869714655,
          -0.008715948297853078,
          0.0015764695675505706,
          -0.009477865844107033,
          -0.004690520909811663,
          -0.002436655553376037,
          0.0089632424824268,
          0.007531121167446071,
          0.022607399549033996,
          -0.0029070056346072906,
          0.006199539548577699,
          -0.0031354503520465192,
          -0.002211545087942107,
          -2.5594783402729988e-05,
          -0.0008492040530220682,
          0.0005812145014438328,
          0.016021558199964533,
          -0.005035187932375478,
          -0.02565152031599048,
          0.0016590792246477491,
          0.00657640753511654,
          0.007370213297800591,
          -0.01010133166687844,
          -0.005339882541904434,
          1.62660993434943e-05,
          -0.007234342891373282,
          0.0007598117524016549,
          -0.0021350613997941927,
          -0.0011315037710517585,
          -0.005331358180378913,
          -0.009346564490582791,
          -0.0055117938869364835,
          0.007250185793473684,
          0.009115901427816785,
          -0.004668305601336905,
          0.002020040046445101,
          -0.004658574764316982,
          -0.008466669769736965,
          0.012850273323469375,
          2.4386706954443045e-05,
          -0.007086071167576871,
          -0.006180616021988934,
          0.012441894497215125,
          -0.0002786700828741867,
          0.007519516403006576,
          0.0038035682704850586,
          -0.006392329725847706,
          0.0044434639743101,
          -0.00934536687094707,
          0.019933929031858616,
          -0.008551996327005436,
          0.005617868084367808,
          0.011922193330578494,
          0.0130941151177902,
          -0.0018396601121314236,
          0.006130700264962855,
          0.002509306430236535,
          0.005910736844173602,
          0.0017088189246485528,
          -0.0042018080290599944,
          -0.0006076630767427979,
          0.00784252461180756,
          -0.01117706838502061,
          -0.008026128828478545,
          0.01560734421108515,
          -0.004702000545137285,
          0.0061945506285027985,
          0.0036728570596726456,
          -0.018173015860007503,
          -0.002262315211054102,
          -0.003312359088881247,
          0.009944620329984718,
          0.0015321411439801526,
          0.0028791122512205657,
          0.018031317357774055,
          0.012836946998200411,
          0.00043884995082577125,
          0.00166783540245967,
          0.005869806470893483,
          -0.008761151647081132,
          0.009205410974320385,
          0.006082254883451153,
          0.00585058609173703,
          -0.021199782217598936,
          0.011896441428262503,
          -0.001949742975764779,
          0.006262678568828802,
          -0.01587419059698936,
          0.016920442443952632,
          0.01482801084225635,
          -0.005301940927818439,
          0.011204811991402962,
          0.0013438816663133798,
          0.00881493488730882,
          0.010749928372308442,
          -0.015583460787218872,
          0.0028012234167720056,
          -0.0073464972798836375,
          -0.009744178346454533,
          0.007676797865105403,
          0.013900954312316057,
          -0.0023414301876126644,
          -0.012633952250212759,
          -0.020224927106783034,
          0.01064599872597376,
          -0.008009486274832446,
          0.006691273545828551,
          -0.01367539789110838,
          0.0003346094030148227,
          0.0014645871255336165,
          0.0075745498301546576,
          -0.014873293497228178,
          -0.010135908429669691,
          0.0038436322363955525,
          0.0007220020091534212,
          0.013226254494960947,
          -0.0013748092342917137,
          -0.006051153088168864,
          0.003093314837876424,
          0.02117773605049905,
          -0.003136274193167582,
          -0.018030213708770605,
          -0.015374583326313375,
          -0.02062062586508009,
          -0.01441804664004221,
          -0.013104399496107267,
          -0.004091605158145426,
          -0.011594514071135443,
          0.017658945852554432,
          0.0050576379279496176,
          0.005919181235266226,
          -0.0038396015900584754,
          -0.004565701373661508,
          0.004231453353651044,
          -0.010134027637828912,
          -0.019408779971393675,
          0.0027882558121035596,
          -0.0018961293747632752,
          0.017159684704243904,
          0.003185357703251121,
          0.0022449897395278016,
          0.0029849451449747823,
          0.00738382348191938,
          -0.021303301190936614,
          -0.008997801637223796,
          -0.0032189862738537453,
          0.0019799902177101807,
          -0.008431366131604875,
          0.008740734235810683,
          -0.0038135884904645463,
          0.0022504980375465298,
          0.0017042200863817375,
          0.0037847654415081177,
          0.0022924826891394853,
          -0.016675206866615604,
          -0.00656967241928043,
          -0.002557081989419549,
          0.004120498158924213,
          0.001976160723637713,
          -0.024604325594895015,
          -0.01135345905824081,
          0.010228179072598603,
          0.0024908337454030093,
          0.008752495888128266,
          -0.010993217424223224,
          -0.008944222630630787,
          -0.005004191468168118,
          -0.010767848600576356,
          -0.007530832809510213,
          0.005100627174801209,
          0.005535428347015527,
          -0.02042467484126617,
          -0.01593065130760442,
          -0.0037172460907660067,
          -0.017941353890264786,
          0.014598434455822693,
          -0.004571211071158133,
          0.0011725092910725167,
          -0.007081122673389391,
          -0.01619098142911622,
          -0.008904817324605682,
          0.0026252347915541223,
          -0.0022443082607693367,
          -0.0033344592165694326,
          0.000754917711136062,
          -0.01441180072738796,
          -0.004779015956176535,
          -0.0042987340414003174,
          -0.002780850461353935,
          0.009960829922927942,
          0.0032808080838916042,
          -0.00977723229552719,
          -0.02340852151343114,
          -0.006422954144517163,
          -0.002486425794537473,
          0.009000026703914438,
          -0.0051349536831002286,
          0.01651869159733545,
          0.008310188097002645,
          0.001725562969441753,
          -0.004921769363044679,
          -0.007987423228231236,
          0.007794912097230892,
          -0.014727782403211393,
          0.0061582181977475345,
          0.006093094235051522,
          -0.011159432083379708,
          -0.020255880247962547,
          -0.001128081603025453,
          -0.0038611522846336488,
          0.016598725365942472,
          0.0072319488176153445,
          0.00970391629921314,
          0.005617397435923686,
          -0.009412844390889621,
          -0.002312820572368482,
          0.002034166543517637,
          -0.0016614530083044106,
          0.004747807698441192,
          -0.017074292889612028,
          -0.00019249953698107395,
          -0.015764445560987658,
          -0.0012838821152474002,
          0.0020806065240042302,
          0.003926332474978082,
          0.008395786523369142,
          -0.01724356070315503,
          -0.018549060600128925,
          -0.013366090435730775,
          -0.012417518746223596,
          0.006527816890580291,
          0.017620429952832556,
          0.013036281317042169,
          0.01050255864054979,
          0.005435391550024445,
          -0.008782826888185102,
          0.0031201328465063558,
          0.011442358842099569,
          -0.008988693274742344,
          -0.012112008285519399,
          0.007301732197657606,
          -0.006589998251597,
          0.00498359035953223,
          -0.008823182638671167,
          0.017059411891723247,
          0.015027974175229084,
          0.007933729207408435,
          0.006838258767432229,
          0.01731618496084351,
          0.004278890781995161,
          0.006826667505850987,
          0.0012720424798569312,
          0.004210061239921446,
          -0.00035312504322671467,
          -0.004854284839989415,
          0.0035020413213162544,
          0.008390427828565375,
          0.0030208736352393367,
          0.007620787248340874,
          0.003518722930563707,
          0.021268274895119448,
          0.007815599926933134,
          -0.01287372797145993,
          -0.004452703197457085,
          -0.029160939879535712,
          0.0030591232470976023,
          -0.0030718611930726147,
          -0.009121103882172356,
          -0.011320861043442505,
          0.00921582174361535,
          0.008754255741066842,
          0.009181479678297461,
          -0.0024539016371950017,
          0.010828962613689177,
          0.00643353234144674,
          0.0004288501824601309,
          -0.0015865541523117262,
          -0.0007363390907081686,
          0.008199027536941772,
          -0.010233035053981838,
          0.0023883651218223898,
          0.008747371784583326,
          -0.026211471088758487,
          -0.0015289275556060096,
          -0.00973815841033246,
          0.008848189352891092,
          0.004543344781696673,
          0.004232149728939522,
          0.006155818856106325,
          0.020537387993218265,
          0.0011758189953396808,
          0.009826359221359396,
          0.008806396985432396,
          0.008773076788336212,
          0.0001533863553722647,
          -0.008145152174671407,
          -0.01103496129846053,
          0.0031194237190517817,
          -0.007889672984528211,
          -0.019086846420256924,
          0.0004695589213501535,
          0.001502231907741135,
          0.013713959347634046,
          0.013716825791522181,
          -0.015064955575851895,
          -0.010216716204730521,
          0.01066999638881769,
          0.001271536604139704,
          -0.009251981520838722,
          0.002872358259092301,
          -0.006032259891647668,
          0.0024300840722919505,
          -0.008062900246801136,
          0.022192384579505717,
          -0.006776123116452385,
          -0.01458975318746571,
          0.0050550425910179195,
          0.009581480811728844,
          -0.0036764159814636887,
          -0.002462955024479268,
          0.0073242063469898125,
          -0.0168532728356429,
          -0.010583521567526906,
          -0.007580655045142289,
          0.00625476937480857,
          -0.017346925018246504,
          0.022629021341372995,
          -0.006155897593153273,
          -0.01047169059590059,
          0.02147599097735749,
          0.013030895587897834,
          -0.0017340339391111487,
          0.00821945418623093,
          -0.01644444641924731,
          -0.004537640410499205,
          -0.0009955060989082455,
          0.012043173748397917,
          0.003992078182641487,
          -0.007699543850402468,
          0.0029228684959716716,
          -0.0059847328457582755,
          -0.00820294452992896,
          0.00406184342909726,
          -0.0006001711068921476,
          0.015418717022838702,
          -0.004040914577237588,
          -0.001639832798570256,
          -0.023155910305456752,
          0.00350012760480398,
          -0.017015734902110984,
          -0.0025329465712932145,
          0.010861406083939009,
          -0.004351491149177276,
          -0.005601132209521341,
          -0.002123203758096231,
          0.006258163774384575,
          0.00897774885697806,
          -0.0026214969679461803,
          0.003639418332797447,
          -0.006483128554778956,
          -0.006650298358029136,
          0.0014434172477097694,
          0.021335843426601317,
          -0.013296381535428852,
          0.0028636671553394573,
          -0.004513187615928882,
          -0.023346510401267097,
          0.007022656333571957,
          0.0018522446708788302,
          0.0012563161543807692,
          0.009315994424090611,
          -0.0030712267993901407,
          0.0011826219464095215,
          0.004640090123918355,
          -0.007984535501622862,
          -0.005369569531049946,
          -0.003499237066446927,
          0.021045142876499636,
          -0.021794653416802312,
          -0.00486033041689852,
          0.0010257534581572776,
          0.004163047593584173,
          0.02170626200235778,
          0.002106526274708038,
          0.02149018111431492,
          -0.010061429020934069,
          0.0031315451955503514,
          -0.005432594906579515,
          -0.0005444661799578961,
          -0.012489659303409258,
          -0.010695054507129861,
          -0.013155970889464977,
          -0.001914302642914036,
          0.0031642297648676264,
          0.016775824547421266,
          -0.004001012621282346,
          -0.006245096096773836,
          -0.008922352812119496,
          -0.006396609009680031,
          0.0014787852502500165,
          -0.028174551932459223,
          0.011018950017800417,
          -0.004461078831040551,
          -0.0066940919147982685,
          -0.0022520656551732725,
          -0.019512070929380947,
          0.007050561677650657,
          0.008598266011898836,
          -0.0010728963014266747,
          0.0064278820256345945,
          -0.0020519070582213647,
          0.0004235112140380773,
          -0.01915846513033443,
          -0.013723197097407212,
          -0.015837782664758524,
          0.02319561798992397,
          -0.003206731996732763,
          -0.025193465859994223,
          0.0009985410385274628,
          0.0035386531882421095,
          0.013355546367503298,
          -0.008624018620515013,
          0.002948775762332515,
          -0.002090708647094085,
          -0.01021546334894774,
          0.012414649328056472,
          -0.004882104306305451,
          0.01426244871255027,
          -0.010505211115997663,
          0.009162545001436942,
          -0.016794007901663896,
          -0.0006063002241613774,
          0.0035194091220310786,
          0.00276373257943093,
          -0.03585444470502707,
          -0.0024820909433998155,
          0.0018427602552413022,
          -0.020675022765100432,
          -0.002600041678031326,
          0.02642555047755457,
          0.001394716218777538,
          -0.005540707428413743,
          -0.008601913598372273,
          -0.016219872508163553,
          -0.005427222042891945,
          0.006519969082889764,
          0.01303650439989329,
          0.010965520793171047,
          -0.018091147866493434,
          -0.004844669655188118,
          -0.0020807738528030857,
          -0.009308946205736688,
          0.00371689482138518,
          0.0060772327809613825,
          -0.001945227190989564,
          0.0017191971975959641,
          0.01152660744293815,
          -0.0012865766287928667,
          -0.004889322879312768,
          0.018867719605530603,
          0.005851009384509621,
          0.016431626879501768,
          0.005907300252531738,
          0.0008297257119973363,
          0.007185448947651246,
          0.0007275463258481453,
          -0.0029199614343867054,
          0.0015048767538672666,
          0.0013795735677547966,
          0.01660159820264522,
          -0.004751655179290361,
          0.005964289995342563,
          -0.0013419182622383225,
          -0.0022514497717963738,
          -0.002302243976295993,
          0.006497455940281537,
          0.012773332011964131,
          -0.006616093781812696,
          -0.001995732643306397,
          0.0015899761913149915,
          -0.014851267672146427,
          0.022763176537704082,
          0.0013086969319699565,
          -0.015293547983396952,
          0.004169167734813777,
          0.005179158056625022,
          -0.00835859663150958,
          0.00042621781870420496,
          -0.0005722534508764426,
          -0.00442986693433211,
          0.003175819248180431,
          0.006034533180464249,
          -0.013360813871060629,
          -0.005777968901099464,
          -0.0007037504397739529,
          0.002578511643126063,
          -0.006904260367708342,
          0.012384226740135592,
          0.0005098355302856966,
          0.0126569329015051,
          0.008013089464974515,
          0.004993890338980435,
          0.0018828781178442822,
          0.0020882231305634842,
          0.007029839929175322,
          -0.016566811371457185,
          -0.010138405785392365,
          0.013713919504777669
        ],
        [
          0.013049324211918303,
          0.013186495560385677,
          -0.008900622604107926,
          -0.0071761944778604625,
          0.0016797406705577461,
          -0.008927012161042577,
          -0.007623425698276977,
          0.006041057001975728,
          -0.020252761588730427,
          -0.005506215288526123,
          -0.004189456026634273,
          0.0017925933423642865,
          0.0069697694311862506,
          -0.008869242599098432,
          -0.008096004476851512,
          -0.009762765076097251,
          0.00943163211522223,
          0.000957919680146949,
          0.007654779391363627,
          0.0009626893790602614,
          -0.0006359265669054591,
          0.0014301528564422494,
          -0.009959121919448482,
          -0.006277211838908862,
          0.0030801890495265327,
          -0.021151068728046472,
          -0.0030800022814149405,
          -0.006575455196474548,
          -0.008050196714741227,
          0.0044331217761468325,
          -0.002524290825641689,
          0.004243486352606051,
          0.02110348155347087,
          -0.0015322126273991316,
          -0.0003573120720898298,
          -0.02082121647242953,
          -0.004567896426559009,
          0.003488386712539509,
          0.0015967515637268087,
          -6.900880599456409e-05,
          -0.008699034430951888,
          -0.001401789049602729,
          0.006893152633264511,
          -0.0053963178250191765,
          0.0017916497736477485,
          0.00823305079453605,
          0.005188290538953961,
          0.008642382710863537,
          -0.0031199511608707964,
          -0.022623574159711612,
          0.009222219003287627,
          0.009616297785325323,
          0.0048328520493709564,
          0.0023398772279822873,
          0.001271902811702952,
          -0.009247036997932364,
          0.010798040545323146,
          -0.005071484464335771,
          0.014564651754099624,
          0.010142165609439575,
          0.004810581618433613,
          0.0008467342008150494,
          -0.007443768609149899,
          0.004221077981264297,
          0.0007955253276879844,
          0.008165198398430574,
          -0.011788272415604838,
          0.010586764688834564,
          -0.004548403466695255,
          0.0009977917026479685,
          -0.0032125157141619817,
          -0.0070131026098875626,
          0.009393934193607942,
          -0.009889754363415175,
          -0.004964752520986714,
          -0.004377634798514502,
          -0.009160580725618601,
          0.010061810965590692,
          -0.00397141573002529,
          0.008489726969051195,
          0.013503343314178146,
          0.007262344756706444,
          0.015156014746287126,
          -0.0008700655213815722,
          -0.014034715531999156,
          -0.008922451290902174,
          0.010870809433772884,
          0.014141173777027047,
          -0.0009444929986608818,
          -0.015981667967750253,
          -0.023184190328738752,
          0.0005336577176773124,
          -0.005517893058470017,
          0.00142784028612797,
          -0.011394821084998365,
          -0.011242479652442296,
          0.012700922434264168,
          -0.006240952605014325,
          -0.0019229345548025906,
          -0.008269442947518522,
          0.008920435410693588,
          0.0024263093723604794,
          0.003912046752356844,
          -0.00010189107287233931,
          -0.012062772847761277,
          0.0023013520941661215,
          -0.0026103576234027936,
          0.0100921399466867,
          -0.0010548581854970538,
          0.011455964086152643,
          -0.016980570431099698,
          -0.01051650907462595,
          0.006719892130725835,
          -0.0050055701206572455,
          0.013619371205137936,
          0.009994645298238807,
          -0.007975257430208936,
          -0.012805873885432719,
          -0.012669833183112583,
          -0.005808402639181305,
          0.0029447461887784437,
          0.000615474636254933,
          -0.007297258763651127,
          -0.011333553859917996,
          0.013247503300027956,
          0.006974647860243507,
          -0.004359794102271663,
          0.0032391890740493118,
          0.004269138828451308,
          0.004218173711316483,
          0.0006536471863507352,
          0.010324876166467998,
          0.006663958792190758,
          0.0069462746297472636,
          -0.008217373735044947,
          0.01069110391154257,
          0.004470051973396429,
          0.0009694706338358401,
          -0.011211218005682273,
          0.003292082454390739,
          0.011971965428986871,
          0.015253773863572087,
          -0.001487289028786997,
          -0.00978572811830405,
          0.0008667864558885237,
          0.009116870448552545,
          0.012962055235771389,
          -0.00892479818671108,
          0.0059337537160344105,
          0.001262257812881927,
          0.012670151374952357,
          -0.009526368243124804,
          -0.0075003047520813835,
          0.008401371763390298,
          -0.012061742839037338,
          0.006457937815998836,
          -0.0037927633951378636,
          -0.01134182537955247,
          -0.0057304983291503585,
          0.01859573013388996,
          -0.015124372988895313,
          0.011378947136461554,
          -0.01064651472813304,
          0.0017946894459339676,
          0.0012377784125207159,
          -0.009540302469269757,
          0.0012926848884168742,
          0.003140664112975724,
          0.011677651632364037,
          0.001273109884190253,
          0.001346862501491112,
          -0.008997094266241817,
          -0.01290055838990912,
          -0.004864792330044301,
          -0.00857905084215555,
          0.022363345745669252,
          -0.000949316700976338,
          -0.0033473648756286683,
          0.01709175061657277,
          0.015213630201812723,
          -0.01515521187331217,
          -0.0011072449633066429,
          -0.005256760562427769,
          -0.007444156852352191,
          -0.0014694241988119172,
          -0.011597216995843648,
          0.006332227861942551,
          0.008467571471570302,
          -0.007627928390832673,
          -0.007966935050765189,
          0.007293748879458953,
          0.011147071381165509,
          -0.011876978020337048,
          0.0010743156300239652,
          -0.02221526899208864,
          -0.0031692163737838514,
          0.008929130528433735,
          0.00044281588458964377,
          0.014730362351172468,
          -0.0027684657174681044,
          -0.004940314438812679,
          -0.020044411338072325,
          -0.007720514762180441,
          -0.00026338891632603386,
          0.024937586165368324,
          -0.007160589911418623,
          0.013753988253876286,
          0.013152418397256631,
          0.012744842168644042,
          -0.019242643095321046,
          0.006651493146782327,
          0.0012943336376989019,
          -0.011101447493263914,
          -0.008430223099972062,
          0.007499132935286497,
          -0.0021947856794337353,
          0.007270624092618546,
          -0.005052507492210956,
          0.015118297252056264,
          0.012339500333456878,
          0.028950302257136844,
          0.012478871501344104,
          -0.01496311462708145,
          0.016165212067996645,
          -0.011000590286150937,
          -0.0026907519139739047,
          0.010864786758642237,
          0.00416799812674272,
          0.007737206576520513,
          -0.004593452940577786,
          -0.0007426281920272824,
          0.0036665377266955883,
          -0.008182828392041968,
          -0.002488599691297295,
          6.964755044888781e-05,
          -0.00913924983807427,
          -0.016090932350738146,
          0.0038999837135634346,
          -0.01754723861308858,
          -0.002758732242427737,
          -0.0027612438072685823,
          0.002557628159455096,
          0.0065288234982537495,
          -0.010802768428996763,
          -0.01707585959621142,
          -0.010272068690895017,
          -0.002426038999586674,
          -0.006485882769721312,
          0.01957659568480517,
          0.002908024496726345,
          -0.013469705811441687,
          -0.0016349766336305567,
          -0.013953831968053722,
          -0.0010073773580385075,
          -0.004603512415198803,
          0.006641957588412993,
          -0.003601788895273723,
          -0.009069962477243213,
          -0.007410992065394027,
          -0.016969831600591713,
          0.015360257533394955,
          0.0073601351289732456,
          0.0020867631786275994,
          0.00808679841771025,
          0.0030427992287741404,
          -0.0008467051626241944,
          -0.024522235123455496,
          -0.003728455695030271,
          0.006338709744486906,
          0.010924478878687336,
          0.011162541000683502,
          0.009305662862656286,
          0.0028120347903763986,
          -0.0075315102451176145,
          -0.007558786083944536,
          0.004713765123232024,
          -0.004094903891371248,
          0.021703607643158512,
          0.010788310334560222,
          0.004988932377619458,
          -0.01612089930173299,
          -0.00603114107103229,
          -0.007874886492749318,
          -0.0001708426386590695,
          0.00933610462069945,
          -0.0007081369887435202,
          -0.009213721603107307,
          0.014248054499434571,
          0.0037698349914320503,
          0.01358907355328279,
          0.001714976252395534,
          -0.002726086423625237,
          -0.010259698052961055,
          0.008212197078033244,
          0.01897977115979047,
          0.009345867373152517,
          -0.016177449623245358,
          0.0009043266489813754,
          0.023712555278734275,
          0.021640496807071367,
          0.0004803317751864341,
          0.008182261467035433,
          0.003149403826835565,
          0.009130326268279618,
          -0.017048733839474355,
          0.006719791141672835,
          0.012002166818446907,
          0.00041261139399501046,
          0.007205260444239218,
          0.0014871198003368338,
          -0.007717788471251429,
          0.013210632820885991,
          0.01581633798237966,
          -0.007893242882845496,
          -0.006680138920817126,
          -0.006245278992447315,
          0.006627247109712006,
          -0.00903928575505878,
          0.007699937316751362,
          -0.010665762571973571,
          0.0026072846353087857,
          -0.013117965914396675,
          -0.005305772570068975,
          -0.00018794089348105834,
          -0.018714983453120605,
          0.013762122854110834,
          -0.010710188688705283,
          -0.0002364548674329412,
          -0.008570428267651127,
          -0.005588891760280148,
          -0.010497155210462534,
          -0.009448135821435893,
          -0.006881255583107651,
          -0.008614548761782392,
          0.00878996831090513,
          0.01973760385553176,
          0.008428356010180073,
          0.0012119173259615775,
          0.02449900559523269,
          0.004295312430605107,
          -0.010929971297468553,
          0.0013290506159722238,
          -0.008921896307093714,
          0.008705853776227441,
          -0.0068818598596416735,
          -0.001895042707099421,
          -0.003939747639452199,
          0.0008917051104846126,
          -0.016089714571333014,
          -0.0028740074050913216,
          -0.020444975049235824,
          -0.009527330947414477,
          -0.01119192792439903,
          -0.011079762377384113,
          -0.0010418492004539786,
          0.007724985701614859,
          -0.0003886937993091709,
          -0.003223071287642234,
          0.005292896635811212,
          -0.007466159758425136,
          -0.012179566550858775,
          0.0031095507385557304,
          -0.012164615724139715,
          -0.013773703818690376,
          -0.006086749663119671,
          0.000775969807854414,
          0.010428081286270539,
          0.00802572580113212,
          -0.0042008682771476945,
          -0.0011232679085981221,
          0.004989595718204747,
          0.01155402703360003,
          0.002984891662217276,
          0.004993578579046078,
          0.009107682031770387,
          0.010732004422321605,
          0.018423759054347982,
          0.022611833232882742,
          -0.001251466248088907,
          0.002769951037551685,
          -0.00759139768628263,
          0.00905152650091448,
          -0.018958749410728067,
          0.005683617286929533,
          0.0011417395201647838,
          -0.0024421020910520763,
          0.004674100826436175,
          0.000916687879182252,
          -0.00534093447979891,
          -0.012530027265540929,
          0.0020007054946116053,
          -0.003112390906987502,
          0.006367557412180131,
          0.0018391435528765498,
          0.009942480042662374,
          -0.005363093258885347,
          0.015123193252885286,
          0.005718959664003828,
          0.008326033982445765,
          -0.009010209372504737,
          -0.014605063990941414,
          -0.00850541546966484,
          -0.011037051075048036,
          0.0078034517533549395,
          -0.0009518566150138557,
          -0.012403188128537813,
          0.000272750002340585,
          0.02213393390710634,
          0.00883990505736654,
          0.010103138711020926,
          -0.011264694371044616,
          0.02804330206510971,
          -0.007978076251061166,
          -0.016820287578028524,
          -0.00751667113206249,
          -0.0086626717055091,
          0.012119595494697223,
          -0.0049551677832981094,
          0.004976837075397998,
          -0.0034823557912729087,
          0.006479607089899365,
          -0.0012677494669294071,
          0.014044577722955543,
          -0.001766029344296497,
          0.012573625459460143,
          -0.0012185350726716987,
          -0.03321404566772766,
          0.018142796637773476,
          0.0022465390376364513,
          0.01644167578812627,
          -0.008588576833540525,
          -0.006950208864545351,
          -0.00908935506153584,
          -0.014379276012565294,
          0.010485966947040492,
          -0.0024333304131659577,
          0.011534651374571476,
          -0.008214302327966591,
          0.010498051786296043,
          0.01327069876192361,
          -0.005148280315224745,
          0.01712812320409365,
          0.0008461872808306985,
          0.006714283181571507,
          0.002654739522273856,
          0.020035152506703596,
          -0.016787223454211863,
          0.00853865494199825,
          0.004333745400227147,
          0.00026192043080716556,
          0.01422594275662225,
          0.004197257879615524,
          -0.003673962644492644,
          0.005706359178280792,
          -0.004919299696739484,
          0.0014764937136071336,
          -0.0024512862951072203,
          -0.008812236287680929,
          -0.0011812262396271769,
          0.001923047919125675,
          0.0006971554399159933,
          -0.012308871133336561,
          0.001646479793368247,
          -0.028403987419393234,
          -0.001721867621784009,
          0.0062380284368849,
          -0.01407255741777403,
          -0.009652938084055434,
          0.002429378228176669,
          0.007369716922249468,
          0.0027254811587922013,
          0.0022464019200439567,
          0.008271667769065943,
          -0.01848287199244695,
          -0.009545927254558228,
          0.015069848341880986,
          0.00020408888704896412,
          -0.008709690523805234,
          -0.0163773410693162,
          -0.0014473930842212033,
          -0.01346779742678193,
          4.8682246225400445e-06,
          0.006802243553412032,
          -0.009378259038073057,
          -0.007652268895521961,
          -0.017501474081244976,
          -0.007378872663316952,
          0.0032772147673216278,
          0.0045094594669903626,
          -0.005448032441450915,
          -0.010467450056431418,
          -0.02142373652949059,
          0.004186131842344236,
          0.005413490917139036,
          0.015396269941442895,
          -0.019188760775102662,
          0.012297908802937643,
          -0.0024144865708164444,
          0.013366879226458033,
          -0.012259634478690851,
          0.001090146827146139,
          -0.0073236957878459585,
          -0.015478729453161262,
          -0.003871353541029784,
          0.004043755574367,
          -0.004636046708568447,
          0.01011077733944321,
          -0.00437755336740928,
          0.002489671564995963,
          0.00019260604333819738,
          0.01108779870896652,
          0.005282387146219932,
          0.003725912932076644,
          -0.003457135761511145,
          -0.003990348930920926,
          0.014320830960544501,
          0.0028826351175039863,
          0.0043649926136625815,
          -0.006264851498263601,
          0.012664818684257293,
          0.003176864138509429,
          0.0028010385765645813,
          0.009427746618025647,
          0.002411653967291013,
          0.018189100153631434,
          0.004472384137039293,
          0.0019728660783093137,
          -0.005012843420980341,
          -0.01086009300910269,
          0.002230925683316597,
          0.001543443875445882,
          -0.004966484374128693,
          0.0012055258835092244,
          -0.0005383565079465041,
          -0.01704695221700972,
          -0.010345347351615804,
          0.002319550119050034,
          -0.00027071820893216273,
          -0.021290835799310476,
          -0.002920601397341696,
          0.023014033523594116,
          0.0068807971195497366,
          0.004731590996565783,
          -0.017716449801802963,
          -0.010549948748096713,
          0.0108531528138794,
          -0.003747899432369716,
          -0.010433218579274988,
          0.0029054797642801638,
          -0.001846000142831948,
          -0.004638092659136674,
          -0.006643168330227228,
          -0.009557733084713397,
          -0.010657434973051256,
          -0.00234067344345381,
          -0.014450008194047653,
          -0.025133793001167876,
          -0.0063301476650218635,
          0.00018375994759966516,
          0.026541038467454554,
          0.00553862396313253,
          -0.010628821782280749,
          -0.01588193216407912,
          0.0009529329647640754,
          -0.028838233306258322,
          -0.015098627573237289,
          -0.00016917099687004626,
          0.026509690176335955,
          0.006244029006190955,
          -0.023329264790920155,
          -0.013361844407441814,
          0.002694256971520451,
          -0.0038754467695526628,
          -0.002334589233822192,
          -0.004067478132855251,
          0.006897681795349448,
          0.0007072636202996671,
          -0.0018186278153688033,
          -0.021215553106677044,
          0.004092144338302794,
          0.01275816934226796,
          -0.005749539257407585,
          -0.00589822918108468,
          -0.013478355445839823,
          -0.019740471312034644,
          -0.003770030137533171,
          0.011102901005989981,
          -0.003667846592177414,
          -0.005249077889615993,
          -0.006993125971318387,
          -0.007620899678864265,
          -0.010044773943072214,
          -0.00868394223886445,
          -0.013802575689765062,
          0.004295488478949328,
          -0.016908094627969397,
          -0.012193693096984246,
          0.0016943619097550308,
          -0.012811950514915058,
          0.0058668744328009064,
          -0.005016021325575491,
          0.006105107024994837,
          0.012956654407340186,
          -0.00788520854766483,
          0.005412002537052933,
          0.005926050961719252,
          0.011942532653867733,
          -0.0013984307835243571,
          0.006950049105014603,
          -0.00030112959480558247,
          -0.008902341436990494,
          0.013808660412157642,
          -0.014853842827299131,
          -0.003947341874446636,
          -0.020159053680829823,
          -0.001250328027225674,
          -0.00022905306870219173,
          0.016278324167676387,
          -0.0024174789353865224,
          0.0029236402166870445,
          0.0003705933279144036,
          0.01373951780018547,
          -0.002461396811287332,
          0.011170532280582146,
          -0.002245639771996899,
          -0.009496354254507795,
          -0.013048885165826208,
          -0.0043402898231155295,
          2.7212921605874918e-05,
          0.0011842981852734243,
          0.006763841212120226,
          -0.0008948460051963802,
          -0.008999823432540164,
          0.004462911948885945,
          -0.016445236004255764,
          0.001297526084473741,
          -0.022347060059873983,
          -0.003319174891921868,
          0.000119351057319918,
          -0.014951651703351195,
          -0.0005034918215472472,
          -0.003245751682872206,
          0.0026477244605187513,
          0.026375169473516397,
          -0.006775010270867088,
          0.006071803906594011,
          -0.0034389746865134477,
          -0.001247406875461462,
          -0.0029134905744991,
          0.013110017409094524,
          0.00398086892418265,
          -0.007909001285984372,
          -0.011494925545043708,
          -0.008417377486786067,
          0.018182157223321775,
          -0.0007463030703594825,
          -0.005410973732965967,
          0.012358740793595087,
          -0.0028695846680249675,
          -0.010641483688852697,
          -0.0023829839212299955,
          0.00396517518250813,
          -0.0002963838703593733,
          -0.0018069016079579443,
          0.007484689117718866,
          -0.008621854603943931,
          -0.014121064204559509,
          0.004585491779054724,
          -0.0018010815418018143,
          0.008755296060508528,
          0.016106575125952555,
          -0.016871047496629325,
          -0.015141435728866748,
          0.003832014960092208,
          -0.008455055015413986,
          0.010364807812536939,
          -0.020791558617728804,
          0.0034849845457744213,
          0.003450047277281189,
          -0.005607025881696744,
          0.019229671035507753,
          -0.001455341752247401,
          0.009088340361324566,
          0.017779926463449117,
          0.0030875366784182314,
          -0.0009781154559281061,
          0.009008079221598707,
          -0.0038518284039569628,
          -0.006626117414145777,
          -0.0016314260712460846,
          0.012876983270865186,
          0.005763806091483767,
          -0.009495527424631669,
          0.003375319526391444,
          0.0035702222574617165,
          -0.015157476578698271,
          -0.01899225552085372,
          0.005197134797165598,
          -0.005007289333535006,
          -0.01037289369522764,
          -0.0038881988111440563,
          0.001067053278399827,
          0.005645586313003242,
          -0.00021619400794404127,
          -0.0036532619819825115,
          -0.010156072343194336,
          -5.338642416036859e-05,
          -0.014214322457691669,
          -0.004414280722849332,
          0.014222942529349594,
          0.014514911408145776,
          -0.007960644983383707,
          -0.0063156871400744646,
          0.0005372356986348196,
          0.0017398734180968825,
          0.0017048957234788182,
          -0.00651557817118665,
          -0.011555644017352198,
          -0.011666648798407522,
          -0.013570558971959568,
          0.007601001655561776,
          0.012022491929013888,
          0.007220588775464262,
          -0.0062018068242156625,
          0.008239360189152459,
          -0.005468793595516881,
          0.009053462259814722,
          -0.009068771904503076,
          -0.02027224958918748,
          -0.02114144718932243,
          -0.00501080155272911,
          0.003880771599248385,
          -0.014181450611438707,
          -0.006105877539703118,
          -0.005941467397614963,
          -0.004855926219216328,
          0.01473460930054604,
          -0.014452402533929666,
          0.001741644024542062,
          -0.0007205195436957063,
          -0.01902347013978895,
          0.012076581524689616,
          0.004424298257248228,
          -0.0007116287671599359,
          0.0051019179008144405,
          0.00630189489088426,
          -0.0023451795283436832,
          -0.011216512435363864,
          -0.004661915989299116,
          -0.003265713091431823,
          -0.004190413280475383,
          -0.0036307674189443384,
          -0.007680687840003648,
          0.013604273827047913,
          -0.013578292349342887,
          -0.007770441607144711,
          -9.312203581007567e-05,
          -0.006024411734059256,
          0.017971774581711834,
          0.0037350468227094424,
          0.009356395396598135,
          0.014442230512369323,
          0.0028455686048369034,
          -0.012674982802526725,
          -0.004191437408049834,
          -0.01246553775466752,
          -0.004740803010196228,
          -0.004232148029485581,
          0.0016479414010444494,
          -0.0019129210814562763,
          -0.0005798628558151135,
          -0.011596476237831223,
          0.0013253431025933577,
          -0.011096426042564247,
          -0.001214749903189284,
          0.009775682522061688,
          -0.006014338816889654,
          -0.010694567578308183,
          -0.016096036994300702,
          -0.016624506984001773,
          -0.0040883434977628435,
          -0.002094390999589308,
          0.007208775295540415,
          -0.013675681265421567
        ],
        [
          -0.002596892121554205,
          -0.004688602807404216,
          0.02531022753068368,
          0.00522819873008486,
          0.010442275962447446,
          0.014343984321791856,
          0.002522594620422669,
          -0.00936835057944749,
          0.003942323607563549,
          -0.004676369432742182,
          -0.0016501309689101666,
          0.007569278303363954,
          -0.0027009173760592455,
          0.008597132925399492,
          -0.009377515417039272,
          0.007252434550246781,
          -0.003346653856904057,
          -0.0051395338792508275,
          0.0027786374544422824,
          -0.0011636031880276276,
          -0.01851570543728758,
          0.0004020906714806498,
          -0.009046816158411608,
          -0.007761880968739441,
          0.0028607574058706975,
          -0.009657125038234883,
          0.00841660340805539,
          0.008349042294422017,
          0.0047629180234542694,
          -0.0023745348188892105,
          0.0008750140216491608,
          0.0005845720063305701,
          0.008321196172848109,
          -0.010654658464534825,
          0.007101571756231253,
          0.006432243877829068,
          0.00238099621923055,
          -0.012658599784641272,
          -0.00667695538240594,
          0.015740153811837958,
          -0.003889112531675217,
          -0.0011728011698321265,
          -0.01906071813283261,
          -0.0018060850465761373,
          0.008698187049412559,
          0.0024428234849788832,
          0.0015754591356779263,
          0.007683826112365348,
          0.007565743425820788,
          -0.0005305248590849355,
          -0.005089220144291719,
          -0.0017352757173929407,
          0.0012269862436241942,
          -0.0012511773332163998,
          0.011129010102770518,
          -0.004118774964996012,
          -0.010043655534747217,
          0.006091719850464011,
          0.019859241479032303,
          -0.0035138548613621195,
          -0.002916692586930124,
          7.934249141488766e-05,
          0.024929980559288578,
          -0.0014160057083910755,
          -0.0046143042779730956,
          -0.016979776285803546,
          0.02227180583582428,
          -0.014478369804291633,
          0.0035752576356391135,
          0.004517982376863502,
          -0.002500257165594091,
          -0.004156542104583637,
          -0.003973762427965473,
          -0.001133339255567445,
          0.00426507606123278,
          0.009627237705419081,
          -0.008301948257467107,
          0.008017339791790971,
          -0.007030842894576778,
          0.002487002211360867,
          0.006998408365689394,
          0.0079463434249639,
          0.0017408352923697812,
          0.0006721473937140566,
          -0.003907063148557417,
          -0.013218884033929663,
          -0.00570196476686774,
          0.019334606334306077,
          -0.009211453804984447,
          -0.012832691663091247,
          0.0017177960523995354,
          -0.031200113014202936,
          -0.0024648225676072956,
          0.0022115391402888814,
          -0.0026982139058359606,
          0.006190255732129522,
          0.0022882479625178547,
          0.0006646445659899856,
          0.003890576399678463,
          0.013269297592619175,
          0.0008330601709567731,
          0.015566355466410584,
          0.007194745863490249,
          0.007669472503625762,
          0.0038555989828815275,
          0.0006926346691665862,
          -0.006700208632981746,
          -0.006629098683498731,
          -0.012934304230865435,
          0.00109023316073454,
          -0.0009897331166558176,
          -0.004741326213498819,
          0.0021752970260266007,
          0.00022515794884278733,
          0.00412007294270186,
          -0.012221068812479259,
          0.00040694785596359536,
          -0.0021247079988413733,
          -0.00409766090238505,
          0.006772612487317674,
          0.006075889722012489,
          0.00955966157476192,
          0.014878505860679864,
          -0.008341212195414286,
          0.007515000769162087,
          0.007312784515897332,
          -0.011891842237384417,
          -0.006164605772938389,
          -0.0012327209079556702,
          -0.006214889155391375,
          -0.012722256568212686,
          0.00897536091528884,
          -0.011650624590722148,
          0.008071160568964252,
          0.0023045217886512436,
          0.006804590914719877,
          0.0022166481552373636,
          0.013045427024633302,
          -0.016661771000300706,
          0.003732694853137732,
          0.0035717272978501484,
          0.0006279574946738416,
          -0.0006493300651054026,
          0.011382990534173233,
          0.007364461034748732,
          -0.007125845155258478,
          -0.000594771703326881,
          0.0035016511132780577,
          -0.004238978960199399,
          -0.0073454656538205826,
          0.01130932902158646,
          0.007372109659315116,
          0.013926701987083512,
          0.015585489282988252,
          0.010650761301427274,
          -0.009223025579641601,
          -0.01179985206866646,
          0.009036892284729621,
          -0.016341053608028913,
          -0.002526825271005548,
          0.00559359041342822,
          -0.00721715851168504,
          -0.004391646178108722,
          0.020146360170522102,
          -0.007893740178135048,
          -0.006817581600958878,
          0.014543034013604189,
          -0.005510664693134131,
          -0.0050128107056287355,
          0.0066655891058200805,
          0.0026164900799796383,
          0.00442192741874611,
          0.008309925309009822,
          0.0021095933776670993,
          0.006953119884283311,
          -0.002272161353953428,
          0.00421373844283408,
          0.0013223505009588197,
          0.007800861948968413,
          0.0031076278450095306,
          -0.014749832966358128,
          -0.004489184676429112,
          -0.017504286579259426,
          0.012933911249745186,
          0.007641201397084342,
          0.0013683934966697729,
          0.00501607421166556,
          0.007735625938387965,
          -0.019910704076080525,
          0.015528279334707015,
          -0.0009104636978116998,
          0.007337370024185996,
          0.0015291140305736287,
          0.006320065099469526,
          0.014317849986477683,
          0.001829110833834525,
          -0.013504946274088887,
          0.0012656141348579887,
          -0.002851072564574209,
          0.001491336916269794,
          0.008099929592015944,
          0.00043346798422839176,
          -0.010097679627726017,
          0.008736297631909837,
          0.02305353286240773,
          -0.014411314639811375,
          0.01642820857675252,
          0.003853191813454866,
          0.011598425189348479,
          0.009674160204955465,
          0.00011284888061515892,
          -0.0024672996867484928,
          0.016235674633589374,
          0.0002143262201602916,
          0.00471789836667506,
          0.007789945838228241,
          0.0065992655269583615,
          0.0038533938196657416,
          -0.017529352178140705,
          -0.02133840835234129,
          0.002475373018303744,
          -0.012757541311517387,
          -0.011969905160866838,
          -0.00589739803142927,
          -0.0012130522452501174,
          0.014146805343801295,
          0.0035240839556521034,
          0.002799847803737447,
          -0.001580048889310842,
          0.018449546870403875,
          -0.00833383934959874,
          -0.012271599248026444,
          -0.004449663801135613,
          -0.010219619575195972,
          -0.009011655909018411,
          -0.01473138557744218,
          -0.0032559003234406696,
          0.006460590013314314,
          0.005592660450302886,
          -0.013498601363894637,
          -0.0008870836538115594,
          -0.02136802272699716,
          -0.010566117502466237,
          0.0006747931502307031,
          -0.0007192506726575161,
          0.004256110731534278,
          0.009489145150917795,
          0.0021074045062828752,
          -0.007207488602666144,
          -0.0013757123579519373,
          -0.0198920209889887,
          -0.004649478667441003,
          -0.006416960716049023,
          0.001184544121704033,
          -0.007132164622944519,
          -0.004770298961847786,
          -0.00218075103474728,
          -0.008057145038823689,
          0.011932990538537691,
          0.010646336952422744,
          -0.0037490004895524994,
          0.010590976235054488,
          -0.01587870912310419,
          -0.011885503540864666,
          -0.007587611416620017,
          0.0017459322569710752,
          -0.00048728808055525756,
          -0.012801594516098294,
          0.01077474229150537,
          0.007714668391589186,
          -0.0037318858933607485,
          -0.0005099143827788221,
          0.0002337460387780354,
          -0.005300330874935984,
          -0.004849021527596185,
          0.02585308354005313,
          -0.002555556453489914,
          -0.017643647074930612,
          0.012569209247041477,
          0.007666547021428311,
          0.01001979888279132,
          0.002634589098645669,
          -0.0065969685572255165,
          0.007462336199311854,
          -0.006926118319648611,
          -0.008325357492682227,
          0.004208652850366256,
          0.003730849871538581,
          -0.0017537234785870576,
          0.0034807283624201336,
          -0.0005614945294810908,
          -0.0011563440619564028,
          0.005130048142714797,
          0.0061854971308542145,
          0.014306802069185852,
          0.0029161497437502123,
          0.00014237370627295153,
          0.0010139244327756684,
          -0.0020853399187344018,
          0.00011231408465610921,
          0.00012199254282496107,
          0.00783355939379619,
          0.0067879104426891825,
          -0.007501983397552777,
          -0.013331746742688697,
          0.012009327448242783,
          -0.01573286247485078,
          0.011283103844364697,
          0.0009825030026192247,
          0.0010030370746530928,
          -0.0002483781626202307,
          -0.0026835874481274447,
          0.0177342555811376,
          -0.0007075010212826238,
          0.006177968706320375,
          0.0006582359495382496,
          -0.006601248830168542,
          -0.0021123951310315562,
          0.014560984535276917,
          -0.0015060688086745264,
          0.012557469651649776,
          0.006669494982845124,
          0.022005673130962612,
          0.011978159090623407,
          0.007640316690463725,
          -0.009995224134541507,
          -0.023829811651934693,
          0.013150357348789467,
          -0.018615005827366655,
          0.003146760141482429,
          -0.012951122634092782,
          -0.0036871236126273478,
          -0.02025448219917615,
          -0.008274360809371063,
          0.0072291995678941436,
          0.0036403586620753882,
          -0.008613234621496465,
          -0.012689859071246166,
          -0.010128689469358574,
          0.0006903321964083924,
          -0.0006602243667286717,
          -0.0012076304996577357,
          -0.015628871399343748,
          -0.0007003265278742708,
          -0.011781934602439243,
          0.0176522879363042,
          0.002193825473123609,
          4.216213591151673e-06,
          -0.012465890930879436,
          0.007633424620168681,
          0.007578671349487492,
          -0.0058840037900141475,
          -0.007690101027028733,
          0.007748194274602189,
          -0.0023271408601910184,
          0.006421927791060783,
          -0.0007318694556213766,
          -0.01663861745885376,
          -0.009085301743558134,
          0.012190443277068893,
          -0.016401435146274266,
          -0.0014414385522799101,
          -0.010488366246209949,
          -0.0032524914330239276,
          0.003302680385179106,
          0.017677239360933884,
          -0.01647649608241544,
          -0.015546704899118394,
          0.015785175256959067,
          -0.007676667342807585,
          0.00261676275774774,
          0.00830059009336734,
          0.006277411036857821,
          0.015396183349935803,
          0.00432913945630408,
          -0.002582651041083101,
          -0.0016470533061051756,
          0.00374727040794273,
          0.0030017243459801142,
          -0.004607163175136572,
          0.021206185766099134,
          -0.0013152955689912232,
          0.016505954634341284,
          -0.0008793325686523568,
          0.00022088945156547177,
          0.009864312012858461,
          -0.011744552688803818,
          -0.0008312480899120436,
          0.013338512796496269,
          -0.011198527688456932,
          -0.016716064789227096,
          -0.014590992189686267,
          0.008435570150090313,
          -0.008975213812908021,
          -0.00010737646607494749,
          -0.0033863341770712114,
          0.0017220970101381194,
          0.014942236341659478,
          0.002710156062976695,
          -0.009679070503020956,
          -0.005439068920496576,
          -0.0024898121718960175,
          0.007959698076111145,
          -0.013344515099043332,
          0.000963962484791484,
          0.003981057234111024,
          0.011964879973937923,
          0.011362563004378915,
          -0.014965105106108536,
          -0.0035133830148402078,
          -0.0060499001523944594,
          -0.004314734752066596,
          -0.01878954779684399,
          -0.004630555683691512,
          0.008807016632528301,
          0.0024877318348734915,
          -0.007617379970780295,
          -0.0055976462434595975,
          0.006698103777737801,
          -0.007968773020413208,
          0.0026789120940237973,
          0.009199856948725575,
          0.012221170253758852,
          -0.004809462508163015,
          -0.00929443423872385,
          -0.015697408584749616,
          -0.004752774244408246,
          -0.0001082516388123375,
          -0.0048674171133572045,
          0.00490373554400823,
          0.014024426771472838,
          -0.013677850364676277,
          0.01231871077075513,
          -0.006729729280274486,
          0.008229324830900378,
          -0.009264019816148435,
          -0.01571729042009371,
          -0.0006993217461404793,
          0.00886063708410907,
          0.001436209352929953,
          0.01704981384886331,
          -0.013869021160892168,
          -0.00021354165547181095,
          0.01627556511101655,
          0.0050413834985745,
          -0.002893974115271379,
          0.004765649021123876,
          -0.0035829997484285955,
          0.010784107105080059,
          0.002659991502507224,
          0.00412583429294107,
          0.013025355977524538,
          -0.005409105501883729,
          -0.017276155727030982,
          -0.006682247074299898,
          0.0038164159850690668,
          0.011321571303652609,
          0.003788763999072416,
          0.0053462206437580465,
          0.023541298630640823,
          -0.0024306414958034316,
          0.007037432617895236,
          0.014568184056781846,
          0.004929000556180681,
          -0.0006875637910194741,
          -0.007248471932328026,
          0.01000481663603882,
          -0.0003385222576957991,
          -0.014361977964486053,
          0.0037560878012573846,
          -0.0031050329257936273,
          0.0034352530770856873,
          -0.010490482859794117,
          -0.0019856912698701145,
          0.009681766347144108,
          0.024283166183832944,
          0.005158010097528707,
          -0.006258483097805079,
          -0.0021123190203691617,
          0.019491883338043622,
          -0.005931533612533404,
          -0.0038112954299402723,
          -0.011018307942755825,
          0.0055060662979649,
          0.015424913846249142,
          -0.00561346641965816,
          0.01595572217187607,
          -0.007057764607312999,
          0.008141157165565202,
          -0.000872356012793586,
          0.015360970474963265,
          -0.01866296441617856,
          -0.0018245685607467428,
          0.006101417858210699,
          -0.01441091562870305,
          -0.0006855940490456438,
          0.012598931445540673,
          0.011143687199138138,
          0.0042183990928730515,
          0.0039269589545043474,
          -0.0085997842025179,
          0.003936374567628712,
          0.0034979344971388902,
          0.0017691866529133003,
          0.003501457327153195,
          -0.004691160510422338,
          0.0005351966612589801,
          0.01434674208555205,
          0.020515944993017877,
          -0.004862397939134691,
          -0.0007455095331378174,
          -0.007559477270923251,
          -0.01305341862309489,
          0.0030461767189034106,
          0.00074526978643307,
          0.007993238817848256,
          0.004709255086475402,
          -0.004836343883375172,
          0.017208709332410258,
          -0.01018064008982341,
          -0.002274530256564511,
          0.006291559626979937,
          0.0032361459330598986,
          0.014806467906494956,
          -0.007689874080369863,
          0.012379842688986684,
          0.016453389658679415,
          -0.015346146990325342,
          0.001965837489702198,
          -0.002980773331730911,
          0.006493209400334254,
          -0.01277409857192114,
          -0.0027080175442484524,
          -0.009064069829918394,
          0.0024535468675737295,
          -0.0002026656236070744,
          0.02191007376849186,
          -0.006680060625600718,
          0.0004604947949063238,
          0.005256885551377742,
          0.008430899052051688,
          7.462159467022702e-05,
          -0.01203003159853309,
          0.003276070440675107,
          0.007818047405477983,
          0.009298319652768216,
          0.00849718063911004,
          0.016979860651665794,
          -0.005265429472276778,
          -0.001774059875174439,
          0.00863456551813581,
          -0.008231745816395965,
          -0.0047604578836760985,
          0.0003322576038039901,
          0.008470907672598702,
          0.007695487341970505,
          -0.01203476993290632,
          -0.003708209275813601,
          -0.005066363363145604,
          0.009469340259601383,
          -0.0006082557856084457,
          -0.0059078673412180415,
          -0.013714699538266846,
          -0.0032656736161382495,
          0.006300869881130627,
          0.005106986532190209,
          -0.013705427357921055,
          0.010331276726932567,
          0.010882711831745507,
          0.0010017308461258989,
          -0.0008631779775289486,
          0.014690235051876213,
          0.012159793560272808,
          -0.0058866088900336455,
          0.00044551269479643123,
          -0.008923014804946899,
          0.006898808057676488,
          -0.00011727234962523051,
          -0.004668659811506551,
          -0.015254432327140459,
          -0.00782145295154334,
          -0.007138425788864561,
          0.003655021372698728,
          -0.0009126939231767013,
          0.004378685005917445,
          0.004538670990787971,
          -0.0034725439335632196,
          -0.005893443028491143,
          -0.0017868558445004264,
          -0.006178146207045294,
          0.006797494473513911,
          -0.0007595838027245099,
          0.0024411892794461553,
          0.0050281386833383335,
          -0.016130287956301587,
          0.021416567543911455,
          0.005414687312107953,
          -0.00017633525764929975,
          -0.003542963285804654,
          -0.00619934249708609,
          0.010935617344474569,
          -0.0032369029707414437,
          0.006076116629389887,
          -0.002883496021683158,
          0.002656899667980775,
          0.0024419182905636152,
          0.011248883689980364,
          -0.006746257797755685,
          -0.00919144932978302,
          -0.0020231173203312755,
          -0.02004729766161815,
          -0.0008686267682928543,
          -0.0009422070366311603,
          0.005855931253228858,
          -0.007122145671153756,
          -0.0007001732049609198,
          6.837695939092884e-05,
          0.0033204882454261776,
          -0.0021416891322173716,
          0.01621136862528005,
          0.006195278498728235,
          0.00591926274648856,
          0.025864280519755225,
          -0.011520651687879637,
          -0.018094672492251093,
          0.002083158779770031,
          0.0011771636982981762,
          0.011311476700996382,
          -0.0020004204700317454,
          -0.009714613493079184,
          0.019143394254416465,
          0.0019422270924674611,
          0.010972054756890571,
          -0.0020398517603463493,
          -0.02366398985822601,
          -0.007343882984269891,
          -0.01849830860241207,
          0.008203703206714479,
          0.00040712368781833697,
          0.004460631120932525,
          0.00427712628474857,
          -0.0069185376326818815,
          0.003670558716224871,
          0.008899997543227754,
          -0.009360879993903413,
          0.0008972380597711411,
          0.003946149751250961,
          0.017363967772009232,
          0.004138276183020758,
          0.004745749532438542,
          -0.0012897713947941935,
          0.012872394660577068,
          0.009873388064342386,
          -0.004019977580887969,
          -0.012466117437673035,
          0.014491741366717572,
          -0.009953597916302093,
          0.0039354529106597844,
          0.008287092299304539,
          -0.011386099560218795,
          -0.0111936850056202,
          -0.008969159414555897,
          0.005685639999711902,
          0.010153865985965696,
          0.002845645100260234,
          0.023183425197287978,
          0.002584621188340636,
          0.004120937562589541,
          0.006858723830120993,
          -0.01021978357070072,
          0.008649895156029975,
          -0.00548950425901836,
          0.0010178039377262429,
          0.0006802401763029122,
          -0.009814942365550368,
          -0.0004732279031567631,
          -0.0031842030348372004,
          0.004875178863695875,
          0.009133627175765546,
          -0.0031866616280491933,
          -0.006751382623199745,
          -0.012173129550956424,
          0.0009150823662547137,
          -0.012098424069709497,
          0.008396524363595682,
          0.003731124794111659,
          -0.0059979428700693,
          0.0010648505366367585,
          -0.008990970085239781,
          0.007562711492351204,
          0.006524626827448344,
          0.01844572172232316,
          -0.012996446580051637,
          -0.016065500617157853,
          0.0008780896004966831,
          0.002829135700864092,
          -0.002620999953922267,
          -0.007009308995662984,
          -0.015644388293429085,
          0.000150312487595883,
          -0.007243563031047407,
          0.0046284117450215104,
          0.012971693038050118,
          -0.00019545598611358007,
          -0.0001342093279078994,
          0.011591727896173755,
          0.002068005065726567,
          -0.006075195866826152,
          0.011985880111386025,
          0.006191324841895413,
          -0.010342864626496558,
          -0.0008692963676803571,
          -0.014719029121369204,
          0.004657187561830608,
          0.0031363679401841776,
          0.009475411356444087,
          -0.005809661195156657,
          -0.009972388990759126,
          0.0124526305409437,
          0.004073739090428429,
          -0.000868462292357635,
          0.013436956497651711,
          0.01884508856600254,
          0.01876388169259917,
          -0.007077220744219256,
          0.010079686637369037,
          -0.005459942842243904,
          -0.008426167916307195,
          0.0010528209591719,
          -0.0066748610998227965,
          -0.001010723541600191,
          0.006555003552363246,
          -0.0012992344132666486,
          -0.009487708611855395,
          -0.014235821184398676,
          0.010966504415168148,
          0.010764994609944248,
          -0.006169893076252556,
          0.014144762528571895,
          -0.016219248871708798,
          0.006173062289714608,
          -0.0008930199986255828,
          -0.008014428169580952,
          -0.005391671040649938,
          -0.015165736942417404,
          0.0015273504327685638,
          -0.01778082375653665,
          -0.011567737824491718,
          -0.004774605979872614,
          0.009023178263678846,
          -0.004963478736528887,
          -0.001683259934624329,
          0.004042202204069405,
          0.00021772323635353545,
          -0.0015830586408494632,
          -0.0027677652222939855,
          -0.0061438729425260675,
          -0.005207309679479811,
          0.00525663962087118,
          0.012898036020036004,
          -0.002689246549554058,
          -0.02907623786631878,
          0.006219958784931997,
          0.004398539122786475,
          -0.009821987400128063,
          -0.007251280566779959,
          -0.007441229819008225,
          0.018513842158401454,
          -0.006438845783098823,
          0.013019297241023362,
          0.00034847321802843555,
          -0.0093445781409246,
          0.0009595676758972677,
          0.009211110559730805,
          -0.0011815675399083772,
          -0.0008517492721082169,
          0.009278638539843793,
          -0.009915447382957774,
          -0.004807357692243524,
          0.020974450565108226,
          0.012414908970941288,
          -0.006963753693070364,
          -0.021211116238512972,
          0.009976391338976117
        ],
        [
          -0.00033419360896162705,
          0.011753476798045656,
          -0.006533475971211205,
          0.014893421200745462,
          -0.01173143907830171,
          0.010597593451472584,
          -0.00621588539025612,
          0.023551968859632545,
          -0.005784320611743775,
          0.009896881253381416,
          -0.004045120742929568,
          0.01451460249539402,
          -0.002633864170576594,
          -0.009280244115950567,
          -0.008907523314376074,
          -0.009554502825566592,
          -0.014307647158116806,
          -0.006163997384616692,
          0.0026465819397286,
          -0.004819085798947603,
          -0.011988925471725398,
          -0.010049756742053512,
          -0.006778526184764071,
          -0.0035131184603113207,
          -0.005291759141980258,
          -0.003081503236710509,
          0.01742314992563398,
          0.011195116036187525,
          -0.0016193697993161285,
          -0.004127841165388148,
          -0.0042424065292421065,
          0.011179971939065916,
          -0.0023808302532090492,
          0.0059228053808893216,
          0.0033998956520943364,
          -0.003712405883425688,
          0.019186110985507047,
          0.00746806859233822,
          0.004269860184373425,
          -0.005880781037987881,
          0.006478183405138064,
          -0.013891153572989524,
          -0.006301527885061159,
          -0.006674517669839753,
          0.0034884927218564307,
          0.0008677316478916335,
          -0.0004417466877056004,
          0.001968173842873412,
          0.005401872939833154,
          -0.008085851714066717,
          -0.015506200522013359,
          -0.004387862704715671,
          -0.005284399596169374,
          -0.0020565510886040622,
          -0.002211146454740375,
          -0.018047067383488744,
          0.0034794023713990586,
          0.021498578423614564,
          -0.005733128386687585,
          0.00322012448786445,
          0.004767870223523209,
          0.0023149319964338956,
          -0.002032580014092108,
          0.00392165813373645,
          -0.003706268922582033,
          -0.0034780588414753356,
          -0.004882259196148264,
          0.004123217840037832,
          0.002905933731032816,
          0.0015129002866080027,
          -0.002478219610505331,
          0.007061308388230354,
          -0.006136513927518619,
          -0.00427736083462801,
          0.012423434192374246,
          0.017241228325784945,
          -0.0032592850929448382,
          -0.001622710674818643,
          -0.00832325024142912,
          -0.00622664218238925,
          0.017218675276057523,
          0.0025629504863456855,
          -0.005457261867361483,
          0.009937593017477897,
          -0.01027283338704131,
          -0.006555643930225284,
          0.004167149733212729,
          -0.013936265696898669,
          -0.0036995567656992858,
          0.014478357762897631,
          -0.0016841885677054483,
          0.0054536793890030116,
          0.01091767009407926,
          -0.004868035933699639,
          -0.018050092926783008,
          0.00104131360151751,
          0.017356892612593825,
          0.009947298933838335,
          0.0077080933861086425,
          0.02838017036192847,
          -0.00039687705865632016,
          0.02346182084287798,
          -0.0029013666202326593,
          -0.012253493378581639,
          0.012000992963043957,
          0.008222037193367648,
          0.007342300608620066,
          -0.010799796800865808,
          0.011662078900889257,
          -0.007191682305276653,
          -0.004990613567059999,
          0.004000171980310771,
          0.004234841683528241,
          -0.005702420881972835,
          0.007071553551335101,
          0.0032873750576783893,
          0.0007299500289367675,
          -0.012635094530421078,
          -0.020692235267862485,
          0.005625066917168644,
          -0.007666622358617523,
          -0.0006543860982194586,
          0.0002636583571523671,
          0.01072223341870275,
          0.00035184148067927783,
          0.00022575603905448425,
          0.008693344592189501,
          0.0009079810144962553,
          -0.016508747712669875,
          -0.0022937348874187678,
          0.005882571069650439,
          0.020865664114798194,
          0.008611833228971955,
          -0.002824622271867018,
          0.011151099921480903,
          -0.00846220631627467,
          0.01739196103506356,
          -0.02904615839276257,
          0.011999128846720768,
          0.012994231812160922,
          0.0022655990720579487,
          0.0027721892983062026,
          -0.0017354959723364502,
          0.0033941689330119484,
          0.004048923620825807,
          0.005264215774804908,
          -0.007963773535888173,
          0.007149142969880518,
          -0.010800274314775022,
          0.02353696220198772,
          0.007295239965034056,
          -0.01349215358870037,
          0.007230431769380807,
          -0.016398843879726725,
          -0.0058279116526629305,
          0.011117371787424597,
          -0.014771297450578497,
          0.009089023946265271,
          -0.008842212405597414,
          0.008408093646301082,
          0.0015368767184354634,
          -0.009691322396361743,
          -0.011660786742145117,
          0.01049244985651214,
          0.00161461747823048,
          -0.015042269175688015,
          0.019076079306517998,
          0.008181750572140148,
          0.0011578682210194183,
          0.0024679270810785644,
          0.016501317296400284,
          -0.012869853599123824,
          -0.00265525165486311,
          0.009293063615856571,
          -0.011528234620764822,
          0.003149641731358301,
          0.0003962726690514884,
          -0.003772141017642936,
          0.008119391857047171,
          -0.0035439062930195777,
          0.007033059880129251,
          0.009367489285076155,
          -0.015660192041323417,
          0.0026669450947385447,
          0.012057523751801875,
          0.004906483229889953,
          -0.007145567822303981,
          -0.006301720275872212,
          0.007131398037131902,
          0.006155172054294904,
          0.0158398660766046,
          -0.006991829683753603,
          -0.005816750753847576,
          -0.0031374036895266653,
          0.0045041503945993785,
          -0.010057009240790813,
          -0.004785593712969816,
          -0.00427993235888276,
          0.013632651770566826,
          0.009129922324765173,
          0.0001694707773644864,
          -0.008909976422098757,
          -0.009746347342543258,
          -0.021583844613972187,
          0.0015692756085765643,
          0.007296687532330111,
          -0.01828249097504684,
          -0.020619923180696692,
          0.010914125864320466,
          -0.012252010500338244,
          0.01823755229567953,
          -0.018734015533236673,
          0.0021555054441514967,
          -0.008168419200743408,
          -0.005946606104938344,
          -0.0189175268565825,
          -0.003810967164396933,
          0.007709490962341698,
          0.004989358783193626,
          0.009318516241442861,
          0.007678393656198453,
          -0.008666091180811162,
          -0.001609872246119245,
          0.0026530503722809276,
          -0.015400975158069619,
          4.178459496141233e-05,
          -0.0012292320950418904,
          0.003253480098411704,
          0.00019406252146000717,
          0.004944567936810872,
          -0.005090233320401463,
          -0.00923543858433948,
          0.006536798308984947,
          -0.0032526407726678553,
          0.012941601024357317,
          -0.0029895666321991888,
          0.008959843699787593,
          -1.5553280408284132e-05,
          0.008835302033197363,
          -0.01573816624012325,
          -0.008491497504169668,
          -0.0003240350420524989,
          0.004940531735856519,
          -0.02173314682003503,
          0.017921486191374625,
          -0.0067318705031861,
          0.002124841945420771,
          -0.01639904913287992,
          0.0044793160033307425,
          -0.0072140325588773225,
          -0.002767691459180497,
          0.004370816780390242,
          -0.0016426549049488473,
          -0.009054660505173829,
          -0.012017188533620498,
          -0.0003220124373636892,
          0.0046510541964795826,
          -0.008026733027168836,
          0.0120373799763206,
          -0.00446301945935836,
          0.0047411457800130225,
          -0.003982511366434738,
          0.0023275447564497097,
          -0.011096438030469518,
          0.007224952197918924,
          -0.00983938524129586,
          0.005002305144921144,
          0.015225825546424447,
          -0.0068479173679076005,
          -0.006907193441837116,
          0.011774114462397192,
          0.015845806480518903,
          0.0002590531155682729,
          0.01878851311406912,
          -0.0027340093717483993,
          0.0031489181895088666,
          0.023026405022932184,
          0.0034676413604765506,
          0.009061427790717816,
          -0.021322754529854944,
          -0.013823414356281606,
          0.0057985889885150774,
          -0.0007105726535611796,
          0.003183529609411985,
          -0.016384535475405453,
          0.00367027072204499,
          -0.016564392608375108,
          0.002177682456057145,
          0.005675786113609055,
          -0.004245912359183428,
          -0.004942368200081444,
          -0.003626036107379457,
          -0.003694849057379296,
          0.004254620235346802,
          0.008600765267480498,
          0.02468228422210972,
          -0.013706024531696868,
          -0.003100397623516769,
          0.004374205178352661,
          -0.019151500914766417,
          -0.011899981063742446,
          0.01198702545285872,
          -0.0019837045905995087,
          -0.0009519158831416016,
          0.004108846512337864,
          -0.006522444394224727,
          0.002519680405959899,
          0.013957839815104027,
          -0.012148864980653921,
          0.022346156348295017,
          -0.021003884435793846,
          0.006664792512678598,
          0.02402999293384752,
          0.004646324535561689,
          0.0028254655164141073,
          -0.003819606974917296,
          -0.0031514406642239295,
          -0.001881573953762221,
          -0.0030188372162839395,
          0.0042577912103666975,
          -0.009113560858865699,
          0.0028693203368001063,
          0.007796782113216728,
          0.007710974688745637,
          -0.009022449249833852,
          0.003697921862045363,
          0.00953348888673206,
          -0.008832545812951682,
          0.0009089264242905014,
          -0.00122906680648909,
          0.01189774004589864,
          0.0009716053211287381,
          0.01369903349263793,
          -0.014080605403192876,
          0.019394345991395855,
          0.00730354826423747,
          -0.0012836212200471456,
          0.0241732985425273,
          -0.009013144243143461,
          -0.007419772499585865,
          -0.012260520375137923,
          0.008447363419396106,
          -0.0024859814951517937,
          -0.0011519027284271925,
          0.018141069242285084,
          -0.00676958069805245,
          0.009449520264051268,
          0.0018620022568902773,
          -0.003894108153707046,
          -0.017170165342945586,
          -0.0009265223072179325,
          0.013542968366479603,
          0.003573467436774911,
          0.024731234791397036,
          -0.01544929165261658,
          0.005983178584829598,
          0.017098836746534077,
          -0.0036564897731901098,
          0.01105097781201263,
          0.0011916437807152945,
          0.00047832012825003387,
          0.022350425161013973,
          0.004294439525046763,
          0.0024600522110028804,
          -0.004486319430731073,
          -0.005360389514080854,
          0.0226542871597563,
          0.01132509560999763,
          0.018453215733038417,
          -0.009383198598711133,
          0.011745488470334273,
          0.006372005075743219,
          -0.019558830996794722,
          -0.0038775017350644037,
          0.005311370752816155,
          -0.0005539238798777566,
          0.003958543765739007,
          0.016951901204244692,
          0.003893159051823968,
          0.02049734795156065,
          -0.002108219437446279,
          -0.00013482906685645732,
          -0.027575769013464452,
          -0.003744981684844084,
          0.011064906013129861,
          -0.013932446125025961,
          -0.010444759404648188,
          -0.0032154075935242744,
          -0.01668970579376058,
          0.0018527325072710584,
          0.006477280989230761,
          -0.017601773015547575,
          0.0030426024807017073,
          -0.008846145119502675,
          0.00661580732042125,
          0.018044340927809054,
          -0.008965966267332487,
          0.0020842877003058214,
          -0.01378291304894697,
          -0.0022895725343550625,
          -0.014423831877057938,
          -0.001171906993845959,
          -0.001273456941050457,
          -0.015663518339460444,
          -0.003993535895352478,
          0.0005885637659340412,
          -0.00402126709238795,
          -0.0015279123598718695,
          -0.003972465470314438,
          -0.0019711350735644503,
          0.0029635605862957464,
          0.0005980118305208044,
          0.0108112978843586,
          0.005262839368730907,
          0.0032721277781044946,
          -0.009024954924273684,
          0.008548317995882964,
          -0.005712679000554844,
          0.0064670820930396245,
          -0.014466197873920422,
          0.007967271409594884,
          0.005553222980181628,
          0.009645964110571876,
          -0.0010312783724784624,
          0.01891458518891766,
          -0.021200455616090554,
          -0.0068907127287088825,
          -0.005763100638504819,
          -0.001467280331216299,
          0.006092864551792124,
          -0.0022016099668414613,
          -0.00038157615353849947,
          0.0029963401426879584,
          -0.012868575691018472,
          0.01838867915148978,
          0.007459012275794845,
          0.007810610079923092,
          0.007241855102283021,
          0.02101776200890011,
          -0.005315896294211451,
          0.003663633639145552,
          0.014444797219299175,
          -0.008435378870674849,
          -0.0008764657396072366,
          -0.0076172392408560795,
          -0.00340086727381188,
          0.002144433571015865,
          0.011953468519996891,
          0.003002014141161871,
          -0.009787227291011705,
          -0.0006525995844019304,
          0.019699854147491157,
          -0.002991060362996855,
          0.010757474226508941,
          0.001847498652334625,
          0.0015974396313174636,
          0.004496840894677398,
          -0.0006842283464106595,
          -0.01517717547515284,
          -0.0013093008471894189,
          -0.005440372568830238,
          0.007464010835432946,
          0.005617159523870437,
          -0.003354466225576609,
          -0.007690804993854463,
          -0.007668111537145287,
          -0.009037529848695497,
          -0.019492597550015884,
          0.01625697531296037,
          -0.0008609530191978236,
          0.008975974419818738,
          -0.0018832479335739944,
          -0.0076557880992650755,
          -0.0029790229508502336,
          -0.0007540552199593252,
          -0.01327694668266602,
          -0.014649988933994797,
          -0.0038887908215965556,
          -0.01115281811780976,
          0.00024649766349183323,
          -0.0032612141069358275,
          0.00039251462218973035,
          0.004316179386572934,
          0.012530006295405148,
          -0.006657758379687399,
          -0.023748097554911793,
          -0.007431729642159295,
          -0.0010917529103169866,
          0.006827311337410339,
          0.013475932741965804,
          -0.013434213299173412,
          -0.009551464885884604,
          -0.015004114124503504,
          0.008127601691982041,
          -0.012755006544811811,
          -0.009028063901461887,
          0.014056783215448175,
          -0.011275796771379179,
          0.016336021135938305,
          0.0024458925640236016,
          0.01202799200523888,
          0.008494053530448563,
          -0.006030022613989379,
          -0.0036682796019862386,
          -0.01601310591162978,
          -0.020376419192055076,
          0.009519596428907219,
          -0.001850261843353732,
          0.0027651487743883857,
          0.001512981350897141,
          -0.011578772590599608,
          -0.015611384765901693,
          -0.002590945671444195,
          0.01591055652984428,
          -0.0076593665872547465,
          0.011726217368244987,
          0.007717311190477604,
          0.008121813015268781,
          0.002897123603097649,
          -0.0002018325816229273,
          0.009110756770554092,
          -0.002582926699693513,
          0.0005201317334913916,
          0.009224727704138019,
          -0.002509437057598199,
          -0.005844704606318659,
          0.012472595239193703,
          -0.008347748622361121,
          0.014502304375413697,
          0.004348204522277947,
          0.0006495591975866293,
          0.014408914407583696,
          -0.01683692580027687,
          -0.009657779795242584,
          0.0036060355807122275,
          -0.009840460071521298,
          0.006281974204883003,
          0.0034812473703663407,
          -0.0010174459987796435,
          0.015579402472410365,
          -0.01174755404676045,
          -0.007835306589537025,
          -0.006404763841949117,
          0.004925455045601508,
          -0.0044765279674146416,
          0.0010197461666773644,
          -0.010513119036799126,
          0.005197219443103777,
          0.011882442063543955,
          -0.0012734217179889286,
          -0.00037011227225391193,
          -0.030301599709478988,
          -0.0033323368210690413,
          -0.007103115176792929,
          -0.004083871788966286,
          0.0018622181641244119,
          -0.005369655239565569,
          -0.010519356452997784,
          -0.002375646087306707,
          0.01396628442214928,
          -0.0025745406726542246,
          -0.0005693748202866738,
          -0.005842216411236738,
          0.013288931836554508,
          -0.007382325694611172,
          -0.008566023607375087,
          0.009192883407078885,
          0.007582191722415356,
          0.007863511260768981,
          -0.005007891703414469,
          -0.0013706735188967665,
          0.0014337468422138818,
          0.011400682784909983,
          0.016600461251323112,
          0.014735497188065627,
          0.004075776304351956,
          0.012175888509415705,
          -0.0020937597863514117,
          0.008423976605038462,
          0.014082288639115259,
          0.010927725603732293,
          0.01308860249218198,
          -0.0035985780875144625,
          -8.56263588251979e-05,
          -0.00865649542033085,
          -0.021473096264010456,
          0.015000547236224872,
          -0.0019135809588462214,
          -0.03701198819148382,
          -0.003787691749070368,
          0.008830779454250343,
          -0.012858128046095934,
          0.006050446268978547,
          -0.003828288425021341,
          -0.006889662774386537,
          0.0207838250151332,
          0.004529235801085873,
          -0.00565191758763507,
          -0.011893818068902407,
          -0.0004949216551736324,
          -0.002905905213936793,
          0.003045863318809427,
          -0.005897147950604415,
          -0.0007011540807312514,
          0.007934366848586186,
          -0.02211911983673698,
          0.018068515285678776,
          0.013130547386753892,
          -0.004003098595095339,
          0.01459049794101817,
          0.0012858689541421864,
          0.011211886613102363,
          0.01644870313882809,
          -0.01352402811331536,
          -0.013968916580522904,
          0.009019062870447044,
          0.00031264048354065157,
          0.005146817273436454,
          0.0035262181691889634,
          0.0036919557624883878,
          0.0010836885864870536,
          -0.010008078540266554,
          -0.011910349958323454,
          0.01332320890878228,
          -0.021373373384930124,
          0.018065258328567514,
          -0.0048496147605935945,
          -0.0008334682156889972,
          -0.0027678758204236933,
          0.015266470829432529,
          -0.0028383338685645833,
          -0.006806110519831647,
          0.01591699879765715,
          0.008153614772055461,
          0.006777893223709399,
          -0.00040794536246508735,
          0.0018631019398163817,
          -0.0025506980314519184,
          -0.0027307374707726735,
          0.009567759167905124,
          0.0007757620679814967,
          0.00195700530258898,
          0.008063891084290894,
          0.025435560527252925,
          0.018059676179565953,
          0.016785901418184923,
          -0.016798225182104158,
          0.018060129666357838,
          -0.006956209988079973,
          0.0074681143769951205,
          0.005864460083551202,
          -0.007410059305958441,
          0.014178784556568576,
          -0.0041220947526758945,
          -0.008764816495669625,
          0.004638690826051666,
          0.009711210068751228,
          -0.012593446418386512,
          -0.003189608056606769,
          -0.010077810979903679,
          -0.01178698303093731,
          0.006369020874403067,
          -0.0029978098398043933,
          0.0092195860335623,
          -0.0026342137413474563,
          0.003530230485985679,
          0.0046723211389831515,
          -0.01133639293132016,
          -0.013029912958060845,
          0.017561766762659966,
          -0.007948163095346324,
          -0.00545550286084845,
          0.008371786030044152,
          0.007675169259347779,
          -0.004354695822367679,
          -0.007825747291413356,
          -0.0016864360761296884,
          -0.003091284545365277,
          0.006355685277761354,
          -0.00721781573604856,
          0.016577243607134477,
          0.0006831717627632664,
          -0.002444725691525581,
          -0.009722653227369002,
          0.010608737323942909,
          0.008644522016611514,
          0.002959167641229498,
          -0.005836533447215845,
          -9.81622476308084e-06,
          0.0006771372947095743,
          -0.003931754028791789,
          -0.003222463927233949,
          -0.008263447884988803,
          -0.016268101771464635,
          -0.007025601718923475,
          0.0020228527604271972,
          0.0016761543462955578,
          -0.003910754879182296,
          -0.007155820149359813,
          -0.010203726250507632,
          -0.01088687028344633,
          -0.0031476805131207416,
          0.0027869615780340517,
