{
  "input_shape": [
    28,
    28
  ],
  "preprocess": {
    "scale": 255.0
  },
  "layers": [
    {
      "type": "dense",
      "units": 128,
      "activation": "relu",
      "W": [
        [
          0.004238364981397272,
          -0.0033414965197585203,
          0.007544673919301326,
          0.0034641735815406907,
          -0.007344338413649867,
          0.020779433926920308,
          0.006750253877458854,
          -0.002486738704589742,
          0.011642376251392314,
          -0.006426930612891791,
          -0.007662132277349774,
          -0.004139662429730201,
          -0.014636512674106834,
          -0.020753844041882817,
          -0.004929329831393216,
          0.0020490465287283607,
          -0.015477544119461912,
          0.019324203239716963,
          0.003666345825451738,
          -0.001888518548561691,
          0.011878718224878302,
          -0.0024018206630766893,
          -0.01570789908213444,
          -0.004459043628864497,
          0.005816677383535877,
          -0.003797286766323515,
          -0.0031787140345092986,
          0.014406012452041195,
          0.012926530495915932,
          -0.0007276406877386073,
          -0.01596706581793999,
          -0.017564071289633932,
          0.00928346287244834,
          -0.005615931433114673,
          0.021182657417578302,
          -0.008878045390367384,
          0.008763341042710523,
          0.0003799138023143613,
          -0.002212775965735454,
          -0.013281346565015577,
          0.0081297685366264,
          -0.0030228105982923487,
          0.007829603513741694,
          0.01137385495690286,
          -0.0019993732187392104,
          -0.00287164048854583,
          0.002419287847277036,
          0.004167266927064688,
          0.01418593862572795,
          -0.01196623292500954,
          -0.0060954927678986935,
          0.0025979265687121706,
          0.010121436584346081,
          0.0025349690411726866,
          0.0021349025779227814,
          0.005116719342314399,
          0.010457572723736635,
          0.004511290160424154,
          -0.008435528927147475,
          -0.0028914967123120396,
          0.014827940867799457,
          -0.006406904465240587,
          -0.010224512071721916,
          -0.0026059813958986744,
          0.002878483741352471,
          0.006981148192483092,
          -0.007687693145823244,
          -0.001999360276816911,
          -0.004003400862992331,
          -0.008678247325757692,
          -0.011265833011438164,
          -0.010838905135656319,
          -0.002275573287296693,
          0.0014356038782392339,
          -0.004565842163204842,
          0.002621315317960865,
          -0.0006548853521563357,
          0.009407042679895585,
          0.00686476074045571,
          0.0010873609662764093,
          -0.010712935355734664,
          0.003155796111714854,
          0.008567869208401307,
          -0.0010536807168715686,
          -0.004191199559120885,
          0.002107807090701781,
          -0.003940822695176297,
          -0.004307934171108104,
          -0.005834590630098827,
          0.0050065253893815135,
          0.017568936800725365,
          0.0022851510530630275,
          -0.017606180122267816,
          -0.009902587654710525,
          -0.004115222768673348,
          0.0044074797117709605,
          0.017023247196316708,
          -0.0076934918222799275,
          -0.011672842968927113,
          0.01584547339114809,
          0.008882955981152204,
          0.007338227973327586,
          0.002052621521367728,
          0.004001626307833938,
          0.006570895816170711,
          0.005061064420836648,
          -0.001651703708864426,
          -0.0016507984613869956,
          0.007329584693810489,
          0.0017078417475675032,
          0.004101499346027611,
          -0.0014774357832067105,
          -0.007357596617412203,
          -0.0051226017148496015,
          -0.012132680463409533,
          -0.0036227191607789712,
          -0.00021818209664289657,
          -0.006927355988309981,
          0.007270197822433989,
          0.007357503055587293,
          -0.009759778481730697,
          0.017573460609234034,
          0.016131075328697574,
          0.001901950713190081,
          0.000737337188741663,
          0.008960247280294664,
          0.00787984456936983,
          0.01336089735734978,
          0.01698469517603401,
          0.008601618211351907,
          0.019011029071469857,
          0.005444420260874629,
          -0.010250231124682636,
          0.01158654289359938,
          0.0036078485485840067,
          0.00031527824821740025,
          0.003268598950765975,
          0.003696391284086144,
          -0.0073154757450416144,
          0.011801812612806155,
          0.0054570589039448425,
          -0.006601094841462992,
          0.004767193167230237,
          0.009105580969859653,
          -2.7898381296405755e-05,
          -0.0035855091537104374,
          -0.0059236997287492755,
          0.008750574763755957,
          -0.008674757594978391,
          -0.006326821057810893,
          -0.0022018661135160904,
          0.010306204274209804,
          -0.00012559432847556685,
          -0.007874354707382384,
          -0.0014313167588413762,
          -0.0017598913036550826,
          -0.002157845446750718,
          -0.0006156470057575059,
          0.001410533259292902,
          0.012795058596893472,
          -0.011492012982615034,
          0.0031462248898928183,
          0.019368359912373283,
          -0.004854570808587123,
          0.0004311744705276919,
          0.0032190209140425014,
          -0.0009465350120663005,
          -0.0065022196150541734,
          -0.0028233413652380573,
          -0.0009314315037409944,
          0.000361798349402398,
          -0.012379638945235152,
          -0.006064400808930289,
          -0.001235560509973818,
          0.025874583226556797,
          -0.0014917839358246903,
          -0.0006817405336077706,
          0.00869595515132476,
          -0.002456237206418724,
          -0.0034398863303994123,
          0.00624936419500476,
          -0.0010829562478619397,
          -0.010139804812490721,
          0.012067823213224032,
          -0.026324915760251085,
          0.004616975246927842,
          -0.00903971821190054,
          -0.0017850875837368226,
          0.01597118917690317,
          0.0007615680794707703,
          -0.007746546577524487,
          0.00017444303358872822,
          -0.011962247641109069,
          -0.01116880454085936,
          -0.0010782117163291268,
          0.0060937675375334266,
          -0.02014728696262309,
          0.004590318270722227,
          -0.01023140467914884,
          0.007883027447018156,
          -0.003679101773110445,
          0.0014093193366368421,
          -0.0033947724853616618,
          -0.0114256363974889,
          -0.007493266984696575,
          5.97681423832645e-05,
          0.011166220736303202,
          -0.006530916595696912,
          -0.000937574698000854,
          0.005044867751859106,
          -0.008336616351369676,
          -0.009812426622390303,
          0.009638850368765946,
          -0.008723072273165275,
          -0.00800891821669217,
          -0.0025773372564787712,
          0.01068102798723662,
          -0.007344601176111997,
          -0.0014103716455222731,
          0.0020009942731744443,
          -0.005666710763495554,
          -0.00737105614854004,
          -0.018100249320524724,
          0.0016132079286876294,
          0.008635804898444328,
          -0.004018008904531454,
          0.009871126742330087,
          -0.021749387327019306,
          0.002142665058795534,
          -0.00773941655636559,
          0.0019178335021772421,
          -0.011417672658524943,
          0.010150751729707337,
          0.006308075062270894,
          -0.0025290204454460454,
          -0.004022275423530239,
          -0.005314624360250094,
          0.014408713293802623,
          -0.005557147666514937,
          0.0023112192042094785,
          -0.021709947420052052,
          0.0033594000214831037,
          -0.004655454905048295,
          -0.012708501754113427,
          0.017379032238072634,
          0.003779375700205095,
          -0.006746487783191721,
          -0.01087833937048364,
          -0.009544638257922611,
          -0.006699820171559207,
          0.006691151842439615,
          -0.007250098005571447,
          0.008685498692075955,
          0.005876585081037831,
          -0.0029400065942138333,
          0.011859813273041172,
          0.002530367298815033,
          -0.00821746668456062,
          0.0009829838148733344,
          0.0006566436197972626,
          0.014330244732252615,
          0.0031008101198764545,
          -0.018218522359409704,
          0.00811033424313173,
          0.0012744984744031268,
          -0.011309681335622322,
          -0.010817519402746664,
          -0.0031700035524210753,
          0.0004604359979748306,
          0.003512315030180165,
          -0.0010842514500712555,
          0.004782888691677449,
          -0.0014585473783048223,
          -0.015571745901021443,
          -0.0008437452594699299,
          0.003224829176110684,
          -0.0015670580287666857,
          0.02244182243017927,
          -0.0027103278123854317,
          0.008254675568923713,
          -0.0018228210513985654,
          -0.00998580662741652,
          0.012814617708523011,
          -0.015505537550251951,
          0.013734915214688719,
          0.002056191026342805,
          0.015514286465780867,
          0.01741441547925077,
          -0.006241639600510038,
          0.005931167621715583,
          -0.017109420238189458,
          0.01103498141763582,
          -0.0020442768776280738,
          -0.0016785574884830418,
          -0.012362311146811975,
          0.011075430487918331,
          0.008871811992373758,
          -0.0004128711851540876,
          -0.005170499649061394,
          0.011867663093780734,
          -0.007421407121809976,
          0.006846178363212169,
          -0.015347964476840757,
          -0.005263449522844362,
          -0.006747850922998431,
          -0.00661727060180384,
          0.014828364396960565,
          -0.005739134233557367,
          -0.011165780141570832,
          0.010323384794821863,
          -0.02095874661003272,
          0.016358649720485643,
          0.0025752306990024826,
          0.0006397068599726656,
          0.015987523872772733,
          0.00015717677512359443,
          -0.0031381144329106167,
          -0.0033415494240679722,
          -0.006025827198743667,
          -0.009064016246453402,
          0.0048522521350335465,
          0.010531392733037779,
          -0.009544686822024692,
          0.005605936416124295,
          -0.0003683392536808214,
          0.0044122102531040245,
          -0.002287969347159834,
          0.0018319717453593896,
          0.0024482951867454594,
          -0.0003981287687144022,
          0.014191915218315069,
          -0.004617107779684766,
          -0.006311486548642322,
          8.82357503482495e-05,
          0.013453265779508998,
          -0.0008700527352215907,
          -0.01376963350760081,
          -0.022049491117386428,
          0.0077957246123323155,
          0.012245979364130466,
          -0.005937445734436444,
          0.0068205838262444364,
          0.013699716161736195,
          0.0074631533252423835,
          0.0014247128168952444,
          0.01110330284357157,
          0.011455632552973143,
          0.011431576951119515,
          -0.005909070769758343,
          -0.009661655164470977,
          0.0009608327594357274,
          -0.010960629778441358,
          0.026880216931824037,
          -0.00032351699304302025,
          -0.009304328579015536,
          0.01289105347962412,
          0.016194314415632013,
          -0.010023495327451858,
          0.011522793414381309,
          -0.00033211748018191874,
          0.010504889343427028,
          -0.010128008593068172,
          0.010276090080158165,
          0.020717404530229827,
          0.02393176566099193,
          0.005470611711305753,
          0.0011850151985480315,
          -0.009077470899326753,
          -0.001832681056009957,
          -0.0012111982022769009,
          0.0018322057486728196,
          0.007509507859889618,
          0.010874284561892425,
          -0.015129939288376054,
          -0.0022222470509678876,
          -0.002392710372443841,
          -0.00041811225964367825,
          -0.006103627130018683,
          0.011684999397187274,
          0.006859551676322644,
          -0.006860511628010775,
          -0.000401355487618552,
          -0.012477530285469614,
          0.003058753779978076,
          0.0035618698751385004,
          -0.008547332803298321,
          -0.00147966637842744,
          -0.02066386722809838,
          0.0015918935407695633,
          0.01659490132037693,
          0.0018988938464223977,
          -0.005728852520531929,
          -0.014720250275062083,
          -0.0014975213039223037,
          -0.0001605669885689415,
          0.011739217944869111,
          -0.019364933224620202,
          0.0005192913029284276,
          -0.01463178351121158,
          0.0014697475633606782,
          -0.020675831864873203,
          -0.00348018095761377,
          -0.006608405043114375,
          -0.005158832033924864,
          -0.01059623569636475,
          -0.015630289349371638,
          0.001791976885365811,
          -0.0024452325338978373,
          0.009678614761482662,
          0.017492512815735838,
          0.0011624762714629463,
          0.004117888671538095,
          0.009558218968189935,
          -0.003915425967382508,
          -0.010142498539014874,
          0.009253715051379289,
          -0.018771579364254748,
          0.0032968864658079696,
          -0.023216996863643993,
          0.006482379487793051,
          0.0003370458041513036,
          -0.014007777264856395,
          0.005602930162751261,
          0.006624293310897525,
          0.02010852509099824,
          -0.0034507713013533156,
          -0.007358725930273499,
          -0.0013203483952116397,
          -0.003258753211276829,
          0.013726108394082254,
          0.012400170379148721,
          -0.0022794724611209824,
          -0.010244788953136576,
          0.009958354675834804,
          0.013023327770804784,
          0.0170800028742753,
          -0.003265772512964262,
          0.007048307846366484,
          0.013038493603194062,
          -0.00409490389815266,
          0.004271101927571458,
          0.011540434296228063,
          -0.015623798022782439,
          0.008399398255960859,
          0.007438775310962471,
          -0.005606253195108539,
          0.011455503825995129,
          0.002137074666204005,
          -0.0008235025026360486,
          0.010900290921919107,
          -0.02315294884767665,
          -0.0037046828234160853,
          0.010674036765222984,
          0.0050069258942385285,
          -0.002417779822074243,
          -0.012038090464581042,
          0.011863022765986993,
          -0.007277929596129036,
          -0.0001886764506175292,
          0.011297213160905824,
          -0.01545915268503848,
          0.0008954455965747765,
          -0.01563274669437453,
          -0.012406188346285287,
          0.0025403588603497684,
          0.006689938886270913,
          -0.0043621696325346114,
          -0.0016914286127643144,
          -0.02084377372004934,
          0.011314790093895919,
          -0.009711403827713839,
          0.01716269603050598,
          0.021374690131634396,
          0.0006910346602054405,
          0.008256992556328516,
          0.008783979913784244,
          0.0015226903762917052,
          -0.005519579772921818,
          0.010908235440107763,
          -0.017434998476847038,
          0.014083398774596394,
          0.013881392997666444,
          -0.008004764083910336,
          -0.011050768499584097,
          0.010787475823478538,
          0.005075079963413224,
          0.009024948259221044,
          0.009829206711425287,
          0.00023385162709418532,
          -0.009655390296311458,
          -0.0031959320020607104,
          -0.015140983716658968,
          -0.0014270052076642992,
          -0.009790902348985225,
          -0.007532734757279783,
          0.008399681881672935,
          -0.004747990364490761,
          -0.002025805156601025,
          0.004806172809560984,
          0.001982600403075309,
          -0.004689996053671758,
          -0.001317147259928476,
          -0.003629369385965717,
          0.003144408194269408,
          -0.008886412363605885,
          0.0076366640320618085,
          -0.0025677156155592975,
          -0.004751334547079733,
          0.01012968299096762,
          -0.012272451918613338,
          0.0043897706096883505,
          0.010492004100752704,
          0.0028822970112999313,
          0.0038889929101606035,
          -0.008717737417400765,
          -0.011114978383098596,
          0.001527163202909808,
          0.0026327382639092277,
          -0.003497644255264312,
          -0.008312611477140805,
          -0.0005826029732186765,
          0.001044844354947276,
          -0.0012568733995495362,
          -0.008138257448848284,
          1.0341905084854694e-05,
          0.011740664526005359,
          0.001651879504352871,
          0.007803987141647602,
          0.008052251095656566,
          0.002714856433064871,
          0.0004339844624901194,
          -0.013738950042331381,
          0.021591513870493108,
          -0.004427603792437139,
          0.011934821431075373,
          0.010270736278509518,
          0.01228916326962341,
          0.003140466670128945,
          -0.008920370274357553,
          0.002446204963607101,
          0.017673238813128593,
          0.001177703652363566,
          -0.0019273220443117268,
          -0.004902861765896533,
          -0.0042731137245939224,
          -0.013802735068169363,
          0.004180653160307009,
          0.0023240324049182545,
          -0.0015042269953755112,
          -0.005553743339309402,
          -0.015625248565187464,
          -0.0011715069704852864,
          0.00028144590574232,
          -0.0027393121883282803,
          0.001949779959451696,
          0.0016837461302891149,
          0.0043657522059780685,
          0.00487129972669599,
          0.0035656048581297257,
          0.003839787454293856,
          0.011130113134102827,
          0.016880769049718036,
          -0.0030820659559255147,
          -0.012444228761160319,
          0.01046268724464662,
          0.003094025197637378,
          0.004482245443359938,
          0.01272260469035463,
          0.007231963919492269,
          0.005761894102493988,
          0.007499537020401486,
          -0.016893366191027794,
          -0.004513913837107884,
          0.005093815600621604,
          -0.00812037841073976,
          0.0026179513870631223,
          -0.004847486163865865,
          -0.0024940184461609456,
          0.013739282087806611,
          -0.004681982637202808,
          -0.0028477933597572842,
          0.017258176757432617,
          0.0034412008832578056,
          -0.005243445240209099,
          -0.00539110192185855,
          0.007153074539524346,
          0.00245013167571291,
          -0.003900892410458467,
          0.012976139215506475,
          -0.0057950878255311426,
          -0.0026657825414662544,
          0.002997888525228967,
          -0.014873921600679288,
          -0.008408151348747344,
          -0.005867154512055372,
          -0.019663484549992113,
          0.006432960826669174,
          0.005199317082710692,
          0.0019426660139022843,
          0.006941559744223601,
          0.01471606307245269,
          -0.0021393254643828474,
          0.01700589837219373,
          0.015473064788156656,
          0.008866792431591936,
          0.011829587233441016,
          -0.0036871256216740567,
          0.00173079731733821,
          -0.004977894603836081,
          4.3227330374036326e-05,
          0.0027168315492064237,
          0.022463135030142523,
          -0.004214396025804807,
          -0.018757841636923633,
          -0.006731518236753255,
          -0.006267956047507576,
          -0.0033589796281501528,
          -0.0002499673481863338,
          -0.004035858666115895,
          -0.001910730881793673,
          0.0013892140663777795,
          -0.0017406348500588482,
          -0.007041460124661967,
          0.014817478130594457,
          0.024757504852158184,
          0.00951122653640669,
          0.01311502635872663,
          -0.0005690101148148739,
          -0.0003827523882183858,
          -0.005027008536209918,
          0.007613568907315301,
          0.006584431030557666,
          0.006589279816476553,
          0.003134612370429517,
          0.00550722680449072,
          -0.01622278524587247,
          -0.012242954061963341,
          -0.011322621719854627,
          0.011556612663421036,
          0.003930021256233915,
          -0.005382854135583383,
          0.004802820942598676,
          -0.0031378576038317554,
          0.0010170395282093493,
          -0.0082225938964182,
          -0.0009649618995736894,
          0.00428994597362774,
          0.0023315749505072726,
          0.004309805345014257,
          -0.014554825001678666,
          -0.009128094021247849,
          -0.008111704343911933,
          -0.0026027518481401726,
          -0.000553273643624633,
          0.009711528141588682,
          0.013963187412485747,
          -0.0022654177661064643,
          -0.00759278939973296,
          0.0009226209569905436,
          0.001304165070865237,
          -0.004704345943940293,
          -0.007397443002487497,
          -0.004399320538554083,
          0.012782262115453214,
          0.012320928369586044,
          -0.011516893780224476,
          0.002729239089492118,
          -0.003868449380764115,
          0.005179319733598392,
          -0.0105236830449483,
          0.014633783057870614,
          0.007234894907395798,
          -0.0007513213673872181,
          0.0008403032342125656,
          -0.0020820026739552444,
          0.005773084105328115,
          -0.0035448118903115963,
          -0.015948044144841012,
          0.00571026945254301,
          0.012009063231719512,
          0.004478205526873684,
          -0.009029666799333024,
          0.001768668521532251,
          -0.0005715018782662245,
          -0.007031643258804287,
          -0.0065984175597416286,
          0.014536374987328664,
          -0.015162543844091674,
          -0.0039003637324170597,
          -0.0012062694395353695,
          0.0014631546460547541,
          0.0027159890108573843,
          -0.008952345134904196,
          -0.01341899018125213,
          -0.0010617017806220795,
          -0.0010072759548092264,
          -0.004310506684407612,
          -0.0011409228906997305,
          0.026077474288376108,
          -0.005606824523855934,
          -0.0026827208725265445,
          -4.1275762043130794e-05,
          0.016439128318806766,
          0.012705493578227721,
          0.008999013234307492,
          0.017983900507495872,
          -0.019020782039923564,
          0.002683912031765032,
          0.001810821917444998,
          0.004235831752137317,
          -0.02144713572091301,
          -0.003421776584944557,
          -0.007538495845829796,
          0.005163326973527223,
          0.005943150754333647,
          0.0008837081060662107,
          -0.0006940733000394345,
          0.0030350453159260944,
          -0.013891463735747801,
          0.0014123517475229874,
          -0.016598976608366126,
          0.00958831307124782,
          -0.002402249008640904,
          0.010863336974869601,
          -0.009555109908897087,
          -0.01265937348929553,
          0.001183507774410553,
          0.003753687920031251,
          -0.016143482600263027,
          0.0031955812071131034,
          0.006808480347782866,
          0.009086920613753702,
          -0.007091875449650881,
          0.007634235289674939,
          0.006455986491166968,
          -0.008144536450661214,
          -0.0038548640405402525,
          -0.003520746677119891,
          0.015109677323445361,
          -0.00012096718933588701,
          -0.004823727239999713,
          -0.012052822993411722,
          -0.010118514769970988,
          -0.00863499997284642,
          -0.014349781268148915,
          -0.004404121220823415,
          -0.008708334871634518,
          -0.00558144754421293,
          0.01303323158239754,
          0.008562105205047865,
          -0.009681308745068113,
          -0.015185482808378519,
          -0.001230744486670392,
          -0.006382038445188038,
          0.016125347373160452,
          -0.0011350816236379321,
          -0.015566219917664695,
          0.008047188410193957,
          0.010429709711663243,
          -0.014744938600989932,
          -0.00574403283531313,
          0.01659967368116975,
          0.0050160708646867155,
          -0.016380202843814896,
          -0.0044264439851377565,
          0.0008908093923314489,
          0.0058568568354154405,
          -0.0010996095857141392,
          0.003383087794383901,
          -0.0008064528185217748,
          -0.0034766592812705823,
          0.026184420857465213,
          -0.0008584158555419043,
          -0.009630275818122608,
          0.0005133815846778256,
          0.007244563495211138,
          -0.004471294917808311,
          -0.009272629607987441,
          -0.010333224383146305,
          -0.0006156686086922223,
          0.0071735104595990655,
          -0.004590593112806652,
          0.006392316749502976,
          -0.01810425303794748
        ],
        [
          0.008735290035814889,
          0.005254601718671572,
          0.0027200730219886326,
          -0.0004220237010815225,
          -0.006024861582625332,
          -0.00987181728199834,
          0.019747656894448812,
          0.013048525893984154,
          0.004856132769703116,
          -0.010796487807565355,
          -0.0005612778097446765,
          0.005070591242281668,
          0.0017930247464671193,
          0.006093630051720818,
          -0.00669999515206698,
          0.011990415302500373,
          -0.003855803913974634,
          0.012751131921986004,
          0.002367502318278151,
          0.008607773264428069,
          -0.008171305565588979,
          0.0015664175715573833,
          0.003083911136448392,
          0.004290324724206486,
          -0.013547891664120197,
          -0.009305321692465247,
          0.017982663597726482,
          -0.0030554672124672756,
          -0.0011339628040472514,
          -0.001222863872659329,
          0.009592744935637396,
          0.001231491901639497,
          -0.007000305567834922,
          -0.004630948732866402,
          0.004244740377622126,
          0.015041587997077553,
          0.013609092364365525,
          0.008462742974489814,
          0.014801091981838986,
          0.0014359330870822883,
          0.0027108966215198312,
          0.014054905190745154,
          -0.010555841866276323,
          0.0015074303687219247,
          -0.008669671007525512,
          -0.009396474302012639,
          -0.0015294670178635436,
          0.007106598917159606,
          -0.01639042760822947,
          -0.004265855760539251,
          -0.006518374035917293,
          -0.00568149150400089,
          0.0021460479081504094,
          0.009953215326919824,
          0.008435723875795392,
          -0.008443473686722124,
          0.025344747159641218,
          -0.004356899309619915,
          0.0038993759817318825,
          -0.011105004309137778,
          0.007657026730089911,
          0.00995194001049448,
          0.00583448815845785,
          0.00520691820451355,
          -0.008744085965154417,
          0.0028862086780032307,
          0.004730615099658536,
          -0.0016830074634893496,
          0.015003694965793386,
          -0.010761913126005654,
          -0.004371585065866327,
          0.0028426648832332335,
          0.006335289887011121,
          0.011806013805514517,
          0.005541006595094311,
          0.009669876120596811,
          -0.00261247450711872,
          0.0009345574107179561,
          0.0043375781082118205,
          0.0008278716689081049,
          -0.01025434019534467,
          -0.005717731047781278,
          -0.0025402566238865625,
          0.00840615140529213,
          -0.00505226037492018,
          -0.007983273124612292,
          0.011112813101953013,
          -0.0036129065770017163,
          -0.004467634668704232,
          -0.0026728609853558715,
          0.009202374519811552,
          0.01498927011913898,
          -0.009242590179202259,
          0.002235202215200335,
          0.000921583548685997,
          -0.016980563236765833,
          0.003080459727684476,
          5.895687322133199e-05,
          -0.0058588606684394605,
          -0.006100449863710499,
          -0.004135738628034499,
          -0.006427819548678725,
          0.009318860828769884,
          -0.007556508814805903,
          0.004162073791947832,
          0.0030854504190127004,
          -0.0045398622526886655,
          0.0012191208232435237,
          -0.004859491336266406,
          0.016774817754789555,
          0.001046248758481553,
          0.010881959950566858,
          -0.010747289348621325,
          -0.005003851284483315,
          -0.011164112040263031,
          -0.005190471485282876,
          0.01224558284227635,
          -0.0019479399524283281,
          -0.007552601945142443,
          0.0009615736924501826,
          -0.008149436655430496,
          0.014157516952142733,
          -0.004381506995974299,
          -0.004875347012155622,
          -0.0026824318685672445,
          0.008304747412084127,
          0.006422079186379487,
          0.007103518271409124,
          0.007721006421501323,
          0.002935316347210731,
          0.0016784098196821469,
          -0.0007245928703137258,
          -0.02372838996734361,
          -0.007561443461893763,
          -0.008516134348503993,
          0.00789077268407367,
          0.00985053099100294,
          0.011734683019243478,
          -0.009461319701232375,
          0.0007653062265931787,
          -0.0005962997227971078,
          -0.010203654911623861,
          0.007002477807063319,
          -0.015616423893738579,
          -0.019910684241388164,
          -0.012117753916961987,
          -0.018402543018971155,
          -0.013716047178084225,
          0.003825558994199184,
          0.0079466982531055,
          0.02348087187334202,
          0.00046074289474959195,
          -0.015533791622542968,
          -0.0038444664529670783,
          -0.003937515609333195,
          0.006692879380028442,
          8.426576882402997e-05,
          0.016052547612177007,
          -0.001284670357543204,
          -6.88384136191977e-05,
          0.0014848046712650173,
          0.012059054137333972,
          -0.009156278163398346,
          0.0035784831374173964,
          0.0020335664328614005,
          -0.007958219063589686,
          -0.010764382292147974,
          -0.012289923635202963,
          0.007890183043579784,
          0.009694408345288792,
          0.0007626416360866494,
          -0.006405350084003507,
          0.013622832872131905,
          -0.015820493261732644,
          -0.017543687290127768,
          -0.0068273049265522206,
          0.013932721673361213,
          -0.009416940996758333,
          0.00462087388555886,
          0.004263860966436266,
          -0.010260030340632727,
          0.0043905400930318176,
          -0.021258233708635024,
          0.011402012267030628,
          -0.009451058405644119,
          -0.007755300835180283,
          0.005197410350732515,
          0.021129951998148388,
          0.0013897664411522484,
          0.011628143373021444,
          -0.002256125710487864,
          0.004739013224608469,
          -0.006735265232921064,
          -0.01795128614265114,
          -0.001968877901665442,
          0.01343911946129378,
          0.0033906465127564777,
          -0.01552987498564795,
          0.006831364144901825,
          -0.012091944301725865,
          0.0057364553301676,
          -0.004576685616627986,
          -0.010565440492910095,
          -0.008411454104988683,
          -0.018409093720842155,
          -0.009788378161948452,
          -0.0013750119973306519,
          0.007485961778930026,
          0.007976544033941293,
          0.018543428055832784,
          0.00707118639487995,
          0.007542819359635104,
          -0.004976174765244557,
          0.005172526483194804,
          0.013933953866481136,
          0.013657578529137166,
          0.009648220108864864,
          0.0042865162054315405,
          -0.0074064874724886955,
          0.010850026708286527,
          0.002353583722186149,
          -0.011814406601033656,
          -0.01047018547582341,
          -0.015945942506745612,
          -0.0011842983192763043,
          0.0029022091777248554,
          0.003787864705559726,
          0.000865484416792675,
          -0.019298434402618077,
          -0.0006912292522249706,
          -0.0028950874047560466,
          0.0025960861901337044,
          0.014094327825954867,
          -0.00176989447900193,
          0.016498246510607363,
          -0.013143072788748218,
          -0.0024238444844503324,
          -0.009130868052473689,
          -0.007952817253065595,
          -0.004604987209427221,
          0.0053908696773375675,
          0.011447941548168977,
          0.004244710178394093,
          -0.0017623650908038008,
          0.00824346564652151,
          -0.003406445013470193,
          -0.011475553749211116,
          -0.011337311414927416,
          -0.00039863836755752976,
          -0.009944039914001173,
          -0.01753710431055611,
          -0.009055749787146228,
          -0.005404180660547112,
          0.004998370187783387,
          -0.004709336754389497,
          -0.00046257154532231936,
          -0.007690296866041878,
          -0.007210810599538846,
          0.012261576852380121,
          0.0014215062441140962,
          0.00848418597289154,
          0.010910628325095874,
          0.010056463541368419,
          -0.012107108982058606,
          0.013829011750906397,
          -0.0009386313599808859,
          0.0029150574545597687,
          -0.02603110250455997,
          -0.013639156355394371,
          -0.01217181685205173,
          -0.01433966472026181,
          -0.0021273425951147586,
          0.0020769409246300576,
          0.0009921657896473637,
          -0.006977128214334898,
          -0.012460786412643667,
          0.006134413590693024,
          -0.0017176916971190317,
          -0.005931036196183727,
          0.013143380418994311,
          0.012687565366223974,
          0.0015614334190180552,
          -0.011746803998489421,
          -0.009260928396342854,
          0.011103407185374383,
          -0.01193283751248832,
          0.0036229446461939654,
          0.0083525421051966,
          0.009119295801859639,
          -0.010992125402412676,
          -0.004088303966945264,
          -0.0010602698271902741,
          0.008456856006095245,
          0.006348949506806651,
          -0.0003779462200575845,
          0.010899587757114679,
          -0.026281686888217456,
          -0.02243359486148389,
          -0.00023208273635965415,
          -0.011730278666555651,
          -0.026992635138443487,
          0.010446266073589418,
          0.016383687789728228,
          0.0022297400402927,
          0.031165194394484938,
          0.018646053294031736,
          -0.010551637668532978,
          -0.0012929330819542789,
          -0.02223058685571545,
          -0.011445449485776756,
          -0.009455771080099925,
          0.004019434294420719,
          0.008066042193253693,
          -0.023858868550932548,
          0.009980030368738093,
          0.008871994675612276,
          -0.003371352596027793,
          -0.005783779101016685,
          0.006048479471866062,
          -0.004012465187911668,
          0.0046219899164038816,
          0.005855213690166762,
          -0.007613181101566589,
          -0.0030400671807101105,
          -0.010757126248946291,
          0.0035062346034041535,
          -0.017243867368138516,
          -0.011647110129770561,
          -0.00536497589940861,
          0.004393515402110172,
          0.011539728228372475,
          -0.015402563428694822,
          0.0042023918132621995,
          -0.014994566594131613,
          -0.0024839097374612993,
          -0.007056672412365163,
          -0.01192351535525058,
          0.0009785447659744026,
          0.0029757331974887054,
          -0.003727773732819836,
          0.007067679545562733,
          -0.016821164982662475,
          0.005861013318586341,
          -0.007347963023251711,
          0.013644617267831158,
          -0.00962385770115075,
          0.006032379485830034,
          -0.014872768958049858,
          0.0016202426927746745,
          -0.0009003864959949483,
          -0.019073858423672856,
          -0.01601688420998599,
          -0.008151066640577716,
          -0.01352444703242186,
          0.0033516466242094357,
          -7.556250089259007e-05,
          0.0019387275425159862,
          0.0006385719437062903,
          -0.0039285943529626865,
          0.02130088747311856,
          0.005250304174857961,
          0.013729693664908988,
          0.015487989996680543,
          0.008979311544194173,
          0.01134132488571873,
          0.004409763340932265,
          0.0089312602797557,
          0.009712012682872903,
          -0.009054344095116209,
          -0.010474717707883196,
          -0.0011266565625101836,
          0.01831760167698651,
          -0.006229816331968174,
          0.0054938915907500495,
          0.002733375354045329,
          -0.004574223428116103,
          -0.0006589858914456037,
          -0.008900039970663621,
          0.005417481840599515,
          0.008718371948347271,
          -0.004383092387164562,
          0.005391264984534132,
          -0.001228163670308099,
          -0.006626875757793027,
          -0.0053114536517958645,
          0.00464073946275488,
          -0.0038047462826241024,
          -0.004068613037811359,
          0.009267356341643392,
          -0.01018993470710134,
          0.0003508379581586257,
          0.00297150262224728,
          0.005439854599139003,
          -0.0027779255829998083,
          0.01512722398737644,
          -0.0052393033900320985,
          0.0020989118365389286,
          0.0042748688979541314,
          0.008031195571529669,
          0.010204074855452936,
          -0.0278600211633182,
          -0.000885896277533279,
          0.010166335422893791,
          -0.0037467217416221584,
          0.009164810199732917,
          0.0005910172697902007,
          0.009312786219426668,
          -0.01066660544414763,
          -0.012897362158260523,
          -0.015135150464778164,
          0.007728340177847003,
          0.026399587489866906,
          -0.0051376178477476,
          -0.020044170045979137,
          0.005608338725642381,
          0.011067255415450557,
          -0.004130732147138532,
          -0.006411728974227062,
          0.0015336191237217778,
          -0.003451718980565599,
          -0.00036698771537568966,
          -0.012433268221358098,
          0.0015503003329094976,
          -0.014648548950615202,
          0.002047499025677271,
          0.00303962437617502,
          -0.006338644327381536,
          0.013974585723159913,
          0.002435083301203816,
          0.003599838013140781,
          0.004012742369933005,
          0.016757259772239935,
          6.777646440602275e-05,
          0.00044282905372410654,
          0.005609947880728582,
          0.011115158267776521,
          -0.008068811674726189,
          -0.011317123374588305,
          0.01307682669940768,
          0.007925408290388049,
          0.0018843403906741607,
          -0.007284836768435093,
          -0.012931003085870361,
          -0.008589102034304795,
          -0.00881224781040179,
          0.003488178962701889,
          0.0034207560173337005,
          0.007681668691839227,
          0.002981732113012495,
          0.002375900166670986,
          0.0014259530029747975,
          0.013803875600478617,
          0.0012184406117940242,
          -0.005103075565591154,
          -0.012085987030481887,
          -0.017391890407226766,
          0.00505900638618951,
          -0.0035086317529859474,
          3.5300993454379285e-05,
          -0.0019801542059945648,
          -0.019842869569350857,
          0.0074278342767275275,
          0.010677369475911936,
          -0.007685285544056005,
          0.002583769256287572,
          0.02175388244065209,
          -0.006586784255366668,
          -0.006834339235754597,
          0.0013232924983668307,
          -0.006999399044144495,
          0.002536920390867075,
          0.012276270662607041,
          0.005504657919081608,
          0.0025150315617022407,
          0.006705301646951515,
          -0.006447728298151767,
          -0.019158376476334157,
          0.01747888485706608,
          0.008466518513278967,
          -0.020050923454390336,
          0.005277383561089255,
          0.014125480816066608,
          -0.015431650746657918,
          0.009076101874401572,
          0.005249349458200197,
          0.013418429177726659,
          -0.006355576931220086,
          -0.011226016349244422,
          -0.013368036765456772,
          0.0013612228361303696,
          -0.014317892911603803,
          -0.011137794952934287,
          -0.009796498525840079,
          -0.001230354343240923,
          -0.006640054251389238,
          0.01354394573725953,
          0.009528634568537342,
          -0.008187006941279705,
          -0.0009237623524109686,
          -0.0018101893132457198,
          -0.005830491942606695,
          0.003190399547204431,
          -0.0032106310898474388,
          0.010799121074870554,
          0.006787103691933288,
          -0.005034750637667301,
          0.019656184438696104,
          0.00136455752285438,
          -0.0026627599450396266,
          0.008267986763149635,
          0.007200343958962808,
          0.000460457607438664,
          0.0019878455857289166,
          0.0040204828200121265,
          -0.008708659551719377,
          -0.004847030453577007,
          -0.023957806677116746,
          7.652750082470123e-05,
          -0.0015754774390868477,
          -0.0008800415963496933,
          0.006601072598681002,
          -0.004270067650289758,
          0.008884221558411783,
          -0.007694421754091625,
          0.0029832764609106217,
          0.010834338312489882,
          -0.015060029449953344,
          -0.0003107552521649231,
          -0.020008878086893698,
          -0.011234424170305752,
          -0.0017661146527424326,
          0.001522589050841451,
          0.011192884888774787,
          -0.0010102082878040487,
          -0.007361804478314341,
          0.018776019477304177,
          -0.004922799881677614,
          -0.01268135693961004,
          0.006412634992148443,
          0.004395110268683884,
          0.0006454263694902869,
          0.014182641894450301,
          -0.022336363795232947,
          0.01723682226003957,
          0.0023246550757744363,
          0.004906379578074891,
          0.013416567431353853,
          0.00632741262052363,
          0.007695038568309104,
          0.004988803224931775,
          -0.01385750721110672,
          0.003957179911769552,
          0.0015734250682744799,
          0.001862704331993976,
          0.014398109722629053,
          0.00223803613294875,
          -0.00845883454537802,
          -0.0007249813049325202,
          -0.0009118752655016181,
          -0.0004098511680487069,
          -0.003995894283743127,
          0.013137720226309492,
          -0.013940331278455413,
          -0.0014246804673653769,
          0.008811273712356718,
          -0.008403678421134266,
          -0.005470879337167639,
          0.0009725369025988935,
          0.011819768697559931,
          0.004194240547541897,
          -0.0006510590571169761,
          0.010820826147785314,
          -0.02352994480258746,
          0.014668619885839932,
          0.006616502782232497,
          0.015185440771503456,
          0.008357504447375996,
          -0.0009090211731760571,
          0.006321316964494238,
          0.010230412033185093,
          -0.001463236938113505,
          0.00010625926671367612,
          0.004102853020310631,
          -0.002170543488230469,
          0.00029397883081960823,
          0.004145930688052306,
          -0.022287152704014233,
          -0.006694750768927259,
          0.00527548550013777,
          -0.00011808939851070138,
          0.01775143678819107,
          -0.018190230483532802,
          0.011225305767517997,
          -0.002191306460940441,
          -0.003110277414041316,
          0.013010158521492404,
          -0.0049563786265978595,
          0.006142201933857128,
          0.002472347259924866,
          -0.004118969294567679,
          0.008182234318066308,
          -0.009816893362148528,
          0.00044557098780766905,
          -0.018423674042115222,
          0.00614181487746019,
          -0.02096059369042134,
          -0.002077735600432836,
          -0.003220985618747245,
          0.008530676284597407,
          -0.006173724743251142,
          -0.004788463562355249,
          -0.029562253865105866,
          0.007542601036412628,
          0.01485859915962845,
          0.01640706494728291,
          0.01947928775340544,
          0.0124574752612224,
          -0.0076547193241944395,
          0.021197215293156515,
          -0.0005518235924495621,
          0.019166419794965323,
          -0.002372989827046,
          -0.01620828379527462,
          0.02017486958840489,
          -0.004493341597574558,
          0.021519834585667908,
          0.010592915505470969,
          -0.0017698358522665306,
          0.0027027239687062083,
          -0.0010413238089633228,
          0.008257190740546589,
          -0.01153002596104705,
          0.003867788368588532,
          -0.009913277859149612,
          -0.012481594678871409,
          0.013790876684435937,
          -0.004661464972882085,
          0.005519026804292452,
          0.006071679078958478,
          0.018281559014525862,
          0.01572218896774335,
          0.01370040172112276,
          0.0035583640574094674,
          0.006525294497955137,
          -0.004160838873364328,
          -0.001039062583975495,
          -0.002010607799938154,
          0.009551704150442158,
          -0.016025662019659985,
          -0.008626420513992743,
          0.005023456990211592,
          -0.002335408273884472,
          0.0045333916358756155,
          -0.006541469290888647,
          0.007504336645941491,
          0.004166603548277453,
          -0.006296130696360481,
          0.011413074362378798,
          -0.007766944861745074,
          0.004142061487058335,
          0.005081196064107502,
          0.0010125122390887134,
          0.004169068793854061,
          -0.0009967294836846644,
          -0.01010110845847237,
          -0.007725565670751758,
          -0.01183224582137191,
          -0.010831506137111032,
          0.01871581028201197,
          -0.010393058886017811,
          0.005627647088575953,
          0.0017924635104210071,
          0.010581138949207527,
          0.00026241361528035203,
          -0.004160013355655894,
          0.004054695406736186,
          0.0034986752712851655,
          -0.005589860040623391,
          0.006092539946257807,
          -0.004912732066984974,
          0.020218021467862037,
          0.010387709380124528,
          0.005552293790784293,
          4.863136748277894e-05,
          0.022314618164430033,
          0.0001936812205500329,
          0.005790831758812265,
          -0.0031606433083732526,
          0.011010860442068414,
          -0.002120552193490598,
          -0.015738196300974047,
          -0.0003046387164887623,
          0.008256678892662515,
          0.0017041373681423889,
          -0.007985260427062917,
          -0.0015416243518833561,
          -0.014282592765572874,
          -0.004637340330723285,
          0.003386523916900343,
          0.008360934413027482,
          -0.007745580001512164,
          -0.020191253895533536,
          0.008281742546833056,
          -0.010317925713307521,
          0.008073469577773398,
          0.0003452510747231387,
          -0.024390165753056952,
          -0.00885926895480478,
          0.003339639659813598,
          -0.004966054609634617,
          0.0007530438757828568,
          -0.01163148802096055,
          0.004460934246796082,
          -0.008130369291526586,
          -0.00022360396556769674,
          -0.0027054243104025024,
          0.0038049992309590014,
          -0.000900263272371759,
          0.000490936179616837,
          0.004029947327806578,
          -0.013815938388418188,
          0.006978589881498132,
          -0.01751046495416528,
          -0.001052132277374366,
          -0.0014893421153406483,
          -0.007280789110518857,
          -0.013946419872182685,
          0.0027591261456690057,
          0.008434888168088898,
          0.012693849203638299,
          0.012430167662354679,
          0.008506148220980501,
          -0.011483555454005178,
          0.00570349627358951,
          -0.0056471885795112645,
          -0.004245386202834703,
          -0.022221478606500974,
          0.00703653078733724,
          -0.016729026068939286,
          0.011221245914035956,
          0.012611080782068611,
          0.008708393285559425,
          -0.015773109987300308,
          0.01089575659783525,
          -0.00279382372570267,
          0.0048355437036556185,
          0.001081175340982278,
          0.011735102582772739,
          -0.0008543469248035234,
          0.010726216639634172,
          -0.008805067259385678,
          0.007309238450266084,
          0.027697225707050903,
          -0.00016538750525229765,
          -0.004159610592680786,
          -0.0029080173741362933,
          -0.0008467627240722877,
          -0.007327057871990488,
          0.004897837625582077,
          -0.005711274676647782,
          0.0055000443098324955,
          -0.004910135425545344,
          -0.013484961312044897,
          -0.002471430738913052,
          0.00047531292027153566,
          0.014737688905139545,
          0.006929460355653408,
          0.009104003175475868,
          0.007079794598599258,
          -0.010022341676689283,
          -0.0066854915341724485,
          0.008323348325443307,
          0.01618989712576319,
          -0.005812734666660012,
          -0.015994273105314524,
          -0.01029218633298393,
          0.0031517926142427357,
          -0.004089808725304909,
          6.562201885165719e-06,
          -0.01166261070672419,
          -0.002267250751170911,
          0.005215070874412507,
          -0.0009091842359603958,
          0.0008670216914292621
        ],
        [
          -0.019994835082725065,
          0.00629484031950721,
          -0.003647224423028476,
          0.007801828133024947,
          0.016221277839322413,
          -0.0008573980141165672,
          0.0009123195044629695,
          -0.0036336988573200165,
          -0.01030094076961845,
          0.007013749698373022,
          0.0055619454900661894,
          0.0012152587278369644,
          0.002058814699764911,
          -0.01089142984923009,
          0.005614583631849567,
          0.00839632884419182,
          0.002653360403953977,
          -0.013108424679154757,
          0.0077089061187485585,
          0.01373899310194687,
          -0.0033205558966783568,
          -0.01995619517349321,
          0.01773119949088691,
          -0.0077776861823570026,
          0.011070058312814924,
          0.01602717886287818,
          0.01296295679375723,
          0.001395262451524297,
          -0.005658264082273141,
          0.024293713909216946,
          0.0076422916488215675,
          0.005385330311623573,
          -0.014374847478167046,
          0.009082444809972815,
          0.005300499279837215,
          -0.00018940764888376023,
          0.008632326999666649,
          -0.00016357335441603008,
          0.004285274057081049,
          0.004212393243305913,
          0.009430396569983575,
          -0.011922050393279784,
          -0.018824827895209856,
          -0.010476565840431676,
          -0.010628103284176934,
          -0.009756607292397612,
          -0.005147436944487679,
          -0.007517361162714342,
          0.018410933417493586,
          0.010309683317981747,
          0.011886066617367295,
          -0.02249679133758521,
          0.0016048340688338903,
          0.003538197249700236,
          0.01825092594834702,
          -0.0015022249849412363,
          -0.008858489288637401,
          0.008975299692306172,
          0.013128777740667778,
          0.0018554289367648433,
          -0.003962114612585583,
          0.004124677813853332,
          0.0018778694518808016,
          -0.015694339004423886,
          0.011692029462220883,
          -0.010883052565735508,
          0.0036152399421299436,
          0.010322384045443124,
          0.0007131700574751012,
          0.005364036949213478,
          0.01393569266049243,
          -0.00039613878213771905,
          -0.006829495900140568,
          -0.01168802788532265,
          0.0016561561739413914,
          0.006516246871556529,
          0.010493792748684158,
          -0.009882777210631431,
          0.002917256595235132,
          -0.002532461772866895,
          0.010214794657241068,
          -0.000703610041860994,
          0.007393847115118493,
          0.0058401856286970175,
          -0.005213555204938377,
          0.018206772928802677,
          -0.0107223587528947,
          0.012298919281816843,
          0.015839406603673795,
          -0.020555251969066476,
          0.016921275863607876,
          -0.0016178499138001202,
          0.0080987990855554,
          -0.0022411645393044122,
          0.005642226128694746,
          -0.002938652294803106,
          -0.008405177339791488,
          0.001227818611249021,
          -0.0030669542085812952,
          0.009952037097721654,
          0.008605906075299657,
          -0.003392217367666127,
          0.0004053373029883485,
          0.0075739968543143245,
          -0.015582133733053376,
          0.0003398929284600887,
          -0.004338828658478952,
          0.007190301451525154,
          -0.025298770247707613,
          -0.0036449964188479574,
          0.024149843609359983,
          -0.010943440249844042,
          -0.015301487534689372,
          0.0079373667035835,
          -0.010081694137191032,
          0.012130167389940827,
          0.0144622580973451,
          -0.00412372224675956,
          0.0027488416096640455,
          0.005085219025370928,
          -0.004811377663090719,
          -0.021904724947342774,
          0.012100082743157306,
          -0.014754768359205504,
          0.010484931158524224,
          -0.004905034610264698,
          -0.00040162747658687326,
          0.0011802662759689408,
          0.002497498359975926,
          0.0043630181731676735,
          0.001086123685742993,
          -0.009402318797703037,
          0.001588903926650564,
          -0.014571336404317535,
          -0.01439117101848267,
          0.006205130850391249,
          -0.0009934022294258652,
          0.005142377442498734,
          0.009433089949891966,
          -0.010576253475600273,
          0.023367347786738168,
          0.00796038080626538,
          0.016701675934405733,
          0.006901211744363669,
          0.013183390104156784,
          -0.0006515700384434632,
          -0.005706214733830439,
          -0.002793078160535678,
          0.0010841735792498914,
          -0.005514482943561977,
          -0.0031610730039489787,
          -0.0016420285209713303,
          -0.019367358916071702,
          -0.014495873016324158,
          0.01422821709736502,
          0.009777669268079645,
          0.005944675111975189,
          0.006257881623623818,
          0.01041075882099988,
          0.00011439473941240313,
          -0.0042679207337311615,
          0.0036200146816273114,
          0.0037798155591090977,
          0.0032545000600712123,
          0.010087524884765497,
          -0.00700850339654417,
          -0.006849266055145352,
          -0.013330915315262815,
          -0.008101506207613133,
          0.0022856006078953986,
          -0.0018442531189770163,
          0.02461023076902453,
          0.008977032559894538,
          -0.008654990734010938,
          0.0018642985970327133,
          -0.003597995981590093,
          -0.016041292867233516,
          0.01306165015992712,
          -0.03435105592892505,
          -0.004450914318712355,
          0.007453929658512959,
          -0.0003365813982034058,
          0.0054268160826015455,
          0.0024922061133867512,
          0.0014455478106387993,
          0.010057074836563751,
          -0.0011964563459200468,
          -0.0027889009753741434,
          0.0022783170507763954,
          -0.011447212653926502,
          -0.010506111237551428,
          0.011860608171965221,
          0.003577526841875199,
          -0.021206949991202328,
          -0.004533412606236776,
          -0.013474010317163505,
          -0.0018875674007681423,
          -0.004560867165444676,
          -0.0026035785655637252,
          0.00812467534593607,
          0.0003544120801819317,
          -0.011419868215854874,
          0.004181051175258919,
          -0.011703148564140576,
          -0.002145849082582256,
          0.00478251905558808,
          -0.006769490835089702,
          -0.011887209633974145,
          0.00582532015955769,
          0.01143907723819132,
          -0.0007335533834226353,
          -0.023901585082496554,
          -0.01325146120045325,
          0.002723778879145263,
          0.016913936096693775,
          -6.98570292430359e-05,
          -0.0050503473347676435,
          -0.01601690401276552,
          0.02171948074831157,
          -0.010819973291316082,
          -0.001819950195602376,
          0.00012699560892103499,
          0.002714163891703116,
          -0.005953744071271326,
          0.0010553246188055806,
          0.0019495354785194258,
          0.002044784189627103,
          0.0163929645661378,
          -0.004059865343803823,
          0.009329416413244215,
          0.00490931076676395,
          0.0056529190514442605,
          0.007379328639270116,
          -0.006738822588324867,
          -0.015304936099933882,
          0.010548580767864732,
          -0.018713230708066547,
          -0.0033071452232914275,
          -0.001906798876299863,
          -0.007276277501393,
          -0.010754587168453322,
          -0.010483011282442263,
          -0.0013894187794499897,
          -0.0032652276467476224,
          -0.019052004081040456,
          -0.003973293611777339,
          0.009946459724171375,
          -0.003410316482091147,
          0.014390422781456863,
          0.005468881349347838,
          -0.009613332019240767,
          -0.006014355544104882,
          0.0006124570384902241,
          -0.008065534655431212,
          -0.00982800010662701,
          0.006005522959173744,
          -0.004674108190276301,
          -0.012198132796364098,
          -0.008019575155643614,
          0.0010481191808876383,
          0.020313141014558844,
          -0.001522982048096026,
          0.0018241227145959881,
          -0.0030339228991886785,
          -0.01578303768576207,
          0.010785386374716568,
          0.01008956294447616,
          0.007282181178571001,
          -0.0028943998226242224,
          0.011561249940537902,
          0.0030252025507284948,
          -0.004123359766345485,
          0.007457894203874994,
          0.02242160541113385,
          0.0027750273812525545,
          0.017890377194702652,
          0.011067956997588084,
          -0.014875048215167393,
          0.010959478946430727,
          -0.0008670499930635029,
          -0.004500673210406935,
          -0.010464754356932041,
          -0.005252156423070626,
          -0.024392154649360207,
          -0.0019784820981672137,
          0.0010803995163599543,
          0.004379199644797008,
          -0.014693977529507225,
          -0.0035007299298156574,
          -0.0024272858891213837,
          -0.010930822440643034,
          -0.007045642043185031,
          -0.007406420448063673,
          -0.0128322047308773,
          -0.004340711695499256,
          0.0246077556065864,
          0.006988948776743357,
          -0.005030910677610866,
          0.024315001753550374,
          -0.004187161056300809,
          0.019085404812905826,
          -0.0042267212459690595,
          0.0005267253219795125,
          -0.0063100723285646945,
          0.020064343796714505,
          -0.004182934858328292,
          -0.0006886895176321101,
          0.015285191857210017,
          0.0013390567613675646,
          -0.004088837353208343,
          -0.014214309505890775,
          -0.004512784343429021,
          0.0005725120444633196,
          -0.01726962163788997,
          0.0119943579030392,
          -0.012153666995401767,
          0.0018064423232417737,
          -0.0045806860467146986,
          0.004261590422721927,
          0.005384307825651172,
          -0.005131253942513201,
          -0.0032597979967460083,
          0.0023476199536669397,
          -0.012352907471202273,
          -0.014093107146360946,
          0.0024961884174824586,
          -0.006767865803009472,
          0.0034260129750644137,
          0.015919474442093542,
          -0.0018669502944635079,
          0.005179211783759623,
          -0.00437763459901836,
          -0.01816311883616959,
          -0.0020815459709946672,
          0.005008718736465212,
          0.006308920992306169,
          0.006064856878787665,
          -0.0007397683691985411,
          -0.005549032053413817,
          -0.0028308111840873048,
          -0.0033184270660065406,
          -0.01402958767365218,
          -0.01580748700220961,
          0.004437179205113898,
          -0.0053677645684147325,
          0.0012036111728267217,
          0.005146499725092179,
          0.0029987144857687976,
          0.009009730821667594,
          0.008769016458229568,
          -0.007102693090349087,
          -0.005485609738572731,
          -0.002015766866493772,
          -0.026893820747878223,
          0.0023906526413410628,
          0.010604014965064945,
          0.0052146140656216975,
          0.006938956552139322,
          -0.0012191196230567469,
          -0.0028733772176277278,
          0.015133129062210338,
          -0.00030401265425020635,
          0.008481305918956272,
          0.00030067926313816706,
          -0.016239728679772258,
          -0.005958329679278781,
          -0.0070306122344234515,
          -0.004761972118035284,
          0.002038336019166581,
          -0.004684847175422654,
          0.011998904726050481,
          -0.008126518502110462,
          -0.009851627281622139,
          -0.01627422033623138,
          -0.0043712880403137325,
          -0.009152615950760595,
          -0.0017635966277069746,
          0.019636288509398435,
          -0.0054331812963918,
          -0.011958946436885195,
          0.0021343746239335204,
          -0.00926657463518981,
          -0.014341163075202548,
          0.005908166752903893,
          -0.017345483856303048,
          0.006692133859714261,
          0.0073495704939283224,
          0.02471935880280476,
          -0.001340345945852156,
          0.0007751534124616306,
          0.0010099035492985055,
          0.007654388388434124,
          -0.0017922992226059834,
          -0.0006969302790355094,
          -0.0009133733232586371,
          0.009952548560207745,
          -0.008909580111793462,
          -0.0073305794929301804,
          0.009218931693182292,
          0.005815757555661423,
          0.0020751777468084633,
          -0.007215569520190043,
          -0.006596284927320979,
          0.0016602177188225417,
          -0.0005599154064083057,
          -0.0070226885117805815,
          -0.00733627521776082,
          -0.004272189400505061,
          0.012129953523142835,
          0.008139175158811294,
          0.003425498812813058,
          0.0016454166449554896,
          -0.0028919727849453475,
          0.01161780180082154,
          -0.003623800363518932,
          -0.0006945218072024205,
          0.017269596502502912,
          0.0013001273343383301,
          0.011523129220905483,
          -0.007143331588465317,
          0.005129596063894898,
          0.0029238446091895526,
          -0.005759345148137065,
          0.019729937889972456,
          0.009695472475329306,
          -0.00427695579487604,
          -0.0011142925612506011,
          -0.005396759051891753,
          0.003946532757887147,
          -0.005452183278029281,
          -0.008544529504648122,
          0.015440861034845065,
          0.012926036598800062,
          -0.010961998041311734,
          -0.013689299976017604,
          0.00985949781275729,
          -0.0010762020275681165,
          0.0004897483901219625,
          0.005375362895350807,
          -0.01453008254727473,
          -0.005616352085023927,
          -0.007248185748449288,
          -0.003036040621379469,
          0.008170417325471755,
          -0.005753139732109033,
          -0.014240943112752978,
          -0.0021065768577417806,
          -0.002954800975608084,
          -0.00491466165887428,
          0.0004882523051694105,
          0.007166557001732326,
          0.003560235920216132,
          0.0010896025992711048,
          0.001971127999436282,
          -0.0038188614956767503,
          0.021152090685662255,
          -0.02315735569837461,
          -8.060092119551177e-05,
          0.0048728707334191115,
          -0.001299074238582488,
          0.006209468631521498,
          -0.005950185474941833,
          -0.010536633182804369,
          -0.014740875080450173,
          -0.00899326248853469,
          -0.018368913846959652,
          -0.0076141520553408846,
          0.012766083726384363,
          -0.003346920620273845,
          0.008942866128557773,
          -0.0020658960818808257,
          -0.01016093864334428,
          0.00604732812127471,
          0.006084438799034644,
          0.0017663254216459272,
          -0.015364571264336673,
          0.009419208334237454,
          0.007779592865509649,
          -0.015772724740339913,
          -0.006979932273254072,
          0.008610325859562722,
          0.017415768607681386,
          0.007609447970673834,
          0.012607336649263317,
          -0.0022373380601524596,
          0.006505947543897883,
          -0.004326434758913613,
          0.017870091335661798,
          -0.0009967856435345985,
          -0.007904660829542791,
          0.00741499895629816,
          0.003614351545394852,
          -0.010255831233113149,
          0.015371666528771711,
          0.004937547652038835,
          -0.0012523566603047213,
          -0.006126512149683412,
          0.013733433816124659,
          -0.003535361311394334,
          0.00048087486731048824,
          -0.012426714720175988,
          0.0071569391804518125,
          0.0074063516606030205,
          -0.00028612664187831443,
          0.0020452652311647623,
          -0.0005063745062515839,
          -0.0033698158459910077,
          -0.006150377874801119,
          -0.010345623197875442,
          0.003763587214560423,
          0.006647032147959883,
          -0.012594682450911193,
          -0.00995287570813105,
          -0.0048055140254316285,
          0.014960665037236358,
          0.005725925924341914,
          -0.0057972924855431715,
          -0.011775870709999733,
          -0.002120269848412593,
          0.008288154613275336,
          -0.017480950285793568,
          0.0024985776642949833,
          0.00283779904149458,
          -0.011171179248422718,
          0.01279729902779188,
          0.015643289846780845,
          -0.006172812185966472,
          -0.0030150077975254113,
          -0.0014712843092996991,
          0.00625734950279262,
          -0.0023876899984490506,
          0.004653011742485847,
          -0.010311518445922927,
          0.004069689789255746,
          0.015484212716841821,
          0.022629207807793136,
          0.0063486382900468956,
          0.003457069488552761,
          -0.014073516480573697,
          -0.008605939700623868,
          0.0013811884296324264,
          -0.004534196495622901,
          0.007946993852266182,
          0.011281007054846645,
          -0.00774550288165641,
          0.005783119426165303,
          0.0037675501827382427,
          0.0005127899362106167,
          0.004319178685240054,
          -0.023639805695136053,
          -0.0005329991040510284,
          0.0013975675342595684,
          0.012294028972113997,
          -0.010328190305635343,
          -0.000689107733574883,
          -5.191477897880404e-05,
          0.003805548190086719,
          -0.011398969054568926,
          -0.011381887974165108,
          -0.006294821741333659,
          -0.0032682143386225833,
          0.0021727864330860673,
          0.0048672322600741445,
          -0.014561144402058182,
          -0.0066283439156520655,
          -0.00563616574323101,
          0.00018911464084266061,
          -0.0033363575728189328,
          0.006541775240117831,
          0.008986703007591728,
          0.01527535377501068,
          0.002708098361468355,
          0.004719853330244204,
          -0.022081107637838368,
          0.011182370266614935,
          -0.006852257142047299,
          -0.00040918378001839956,
          0.006211443251572635,
          -0.0070441738850743904,
          -0.00956670287566184,
          0.00455961418724423,
          0.027183122655766445,
          -0.0006167928324109498,
          0.012397163645438301,
          0.009690124055072047,
          -0.00682835438736709,
          0.0036383330708678763,
          0.02300315080982345,
          0.007954332213685494,
          0.007247646330206425,
          -0.010263787119594048,
          -0.006890219642608604,
          0.011109829438143237,
          0.005663760935545944,
          -0.00965207556139313,
          0.010132795836935809,
          0.006745661926357418,
          -0.006840139454881315,
          0.008829174629396625,
          0.013323467773305762,
          -0.009477003637589696,
          -0.006785443422222065,
          0.0038407031112567052,
          0.007241109356315702,
          0.006037563688841894,
          0.0039927355532340105,
          0.0032396805840435128,
          0.025419841281767882,
          0.0025823858587737283,
          -0.00974098479520246,
          -0.001047700451274476,
          0.010899677588660733,
          -0.010304915543858683,
          0.002209962489227018,
          5.386452209556271e-05,
          0.0147451669911499,
          -0.022088150117125803,
          -0.009810758427424465,
          -0.009829197640307433,
          0.004818341951828455,
          0.01529081360961916,
          -0.005700963543802957,
          0.007119552553984751,
          -0.026970118312026815,
          0.0257268548187927,
          -0.0040749556590232985,
          0.006784306207294791,
          0.016297851119489077,
          -0.007179590858651319,
          -0.0025681260832033366,
          -0.0016654700131477616,
          0.0010713281282172908,
          -0.005019548009721371,
          -0.008023676308916587,
          0.00033882805891720326,
          -0.010093694159281137,
          -0.015218329617843506,
          0.012083487493369736,
          0.0072111785310368685,
          0.013029750923484636,
          -0.008507422828653135,
          -0.00786478731988125,
          0.002579924248867449,
          -0.004103939805863223,
          -0.02315052941114255,
          -0.012601789657651748,
          -0.008827613745450017,
          0.0003615048516274178,
          -0.01710680247771818,
          0.0052435109240254905,
          -0.019519364688634133,
          0.000959412026574738,
          0.007263690896732221,
          -0.0023585017842573785,
          -0.001806020821949375,
          -0.006057099936096615,
          0.02194691353013419,
          0.010534783615188725,
          0.007448341158596384,
          0.013270468445962354,
          0.005383651323284558,
          0.005994875521918394,
          -0.011699451689901798,
          0.007616244619163777,
          -0.006957917984474831,
          -0.011403071283734972,
          -0.004577663337054522,
          -0.009193655087906255,
          0.0008571278502394897,
          -0.01996196930687277,
          -0.013445333786910514,
          -0.0062877080024079345,
          0.011073275286075537,
          0.013856638861919545,
          -0.006447819401455394,
          0.02020978102251003,
          -0.01810442702454201,
          -0.00575617205778677,
          -0.01943888482933686,
          0.012745223379255259,
          -0.00028770957877640016,
          -0.0018550984824031497,
          -0.009995310800596355,
          0.009717739311312354,
          0.0016619108031975427,
          0.002085834014482641,
          0.005496460251427863,
          0.006086095458393336,
          -0.0021459346656736485,
          -0.0019276790026356658,
          -0.00048224086098461996,
          -0.012476487518376269,
          0.003694583777710475,
          0.0001494051667591705,
          -0.009310687883504204,
          -0.005118193908610593,
          0.001274484412035606,
          -0.020784971353718384,
          0.0006937954440841454,
          0.0020093038806019785,
          -2.102462713430502e-05,
          0.013059670125770315,
          -0.006397720098350903,
          0.00420529378622583,
          0.005631578665591101,
          -0.00488229401137075,
          -0.03357843007569401,
          -0.017119913859993865,
          0.002218689583492865,
          -0.0016306989251726482,
          0.016542425613358717,
          0.010329079925087381,
          0.009957302009531313,
          -0.017890496154424288,
          0.0033772260763370787,
          0.0035216441210073196,
          0.0020224583498823596,
          -0.0032229039651610254,
          -0.008971964609988201,
          0.0005206157353425603,
          0.007683632813046677,
          -0.014616887203633189,
          -0.006171202062975927,
          0.008812160634639713,
          0.012493159772801906,
          0.018696989427675045,
          -0.011285367064609092,
          0.007961887288169699,
          -0.013961409875610547,
          0.01096408631696433,
          -0.023147614837686233,
          0.00399779156513174,
          0.0025965914321535717,
          0.010843396184468586,
          -0.02011598716679613,
          -0.0031397361309677707,
          -0.012930262664182252,
          0.002309917846304463,
          -0.009026270820694689,
          0.012160270785490765,
          0.007476804440770604,
          -0.010570812580971412,
          -0.011378084146121856,
          0.004360781136736251,
          0.005922256282850317,
          0.000640432665059197,
          -0.0017779742716374353,
          -0.01588171898481982,
          0.013459295416986204,
          -0.005536354131167105,
          -0.014557690490486908,
          0.007232260480213415,
          -0.00411158227185722,
          -0.004505849750357979,
          -0.0020788161701302574,
          0.0033329345192338678,
          -0.00852537308369465,
          -0.0071840746316102645,
          0.01641984980933914,
          -0.012152992573413662,
          -0.005276161263557244,
          0.011676748146768745,
          0.00023601622570697852,
          -0.005069773511004386,
          0.004163845262457536,
          0.012259548915251136,
          0.007864301607989238,
          -0.01584818366220579,
          0.01523564268084792,
          -0.0002807832233057858,
          -0.010855181876511515,
          -0.0037648061918972076,
          0.001507888752959272,
          0.009904059208341878,
          0.0004394370141153776,
          -0.00577675572406504,
          0.011774496017527388,
          0.0036230154922763094,
          -0.02061756109909049,
          0.011437856791979678,
          -0.003259839308625056,
          -0.0010447308811801915,
          -0.0003535327595990921,
          -0.005885368720382758
        ],
        [
          -0.0012813430792312102,
          -0.010981251176805184,
          -0.0031379953660467153,
          -0.01435918107497361,
          -0.011809114695274405,
          0.0028368309305348196,
          0.007172440078672772,
          -0.02799406550320352,
          -0.007945606307856299,
          -0.005402975226833204,
          -0.007424362223421012,
          0.010425454092663515,
          -0.006608964356598972,
          0.006047361346282497,
          0.0005773932796361231,
          -0.002914568775550123,
          0.014559340690326175,
          0.01597016383665967,
          -0.0058538685061641175,
          0.010346918369194507,
          -0.007763187551761648,
          -0.0057656158710339914,
          0.01442822436712432,
          0.0031977058703968747,
          0.020415548632776948,
          0.014738450959265402,
          0.0042485892677174945,
          0.01035550597629811,
          -0.011552812550386418,
          -0.0031265328763600097,
          0.0027482724311192197,
          -0.014412682817939726,
          -0.005248135552581154,
          0.0021755447320387024,
          0.005109142832634595,
          0.0002033084417331778,
          0.023935382840118515,
          0.012428363866715338,
          -0.012465932323466987,
          -4.852321889606102e-05,
          -0.011055233378908944,
          -0.010799224983060794,
          0.0005345674151159944,
          0.006234096337394708,
          0.012458564988707375,
          0.017448865594402944,
          -0.0030978291062118395,
          -0.0063222474264767615,
          -0.003561745304256197,
          0.01914996405372591,
          0.004942472572762937,
          0.006480360648559287,
          -0.02509699175302852,
          0.014498886654852874,
          0.0079168001875017,
          -0.003641168264743711,
          0.009703624605539059,
          -0.0022190117790903494,
          0.017936283586363504,
          0.014225941155656882,
          -0.0054883452150281346,
          0.005472469478447407,
          -0.0031641193951267967,
          -0.011649075694200475,
          -0.01415711785535065,
          0.010768890469655415,
          0.00920740746269214,
          -0.007587498220878439,
          0.010450779328501122,
          0.008380840055225488,
          0.009100650615246132,
          0.018530977189042456,
          0.0038106016842526427,
          0.013184048859048461,
          0.008403051580228329,
          -0.017432332621010186,
          -0.01099366562630262,
          -0.010614619285301344,
          0.008988031261144029,
          0.0027830250452296787,
          -0.006475508615677381,
          0.007274079678592239,
          -0.02014963524002799,
          -0.013952138203647567,
          0.010533379735571146,
          0.010554718110032581,
          -0.006886828486050052,
          -0.001107249112572666,
          -0.004784485533018036,
          0.003697927479882917,
          -0.00019550945333214744,
          0.0008557870937047816,
          -0.005017771187965539,
          0.004921398631134875,
          0.011346551517657788,
          -0.008886708227535036,
          0.009194622431459873,
          0.0029176127175638052,
          0.0009495269415341101,
          -0.003317123026894712,
          -0.003118510082362353,
          -0.012547753947781131,
          -0.009203527400469605,
          0.003720042251481995,
          0.010617422672268163,
          -0.012602549183193623,
          -0.023727337349854393,
          0.001126251160707764,
          -0.008323617014099328,
          -0.0031171917267524174,
          -0.006822552983875412,
          0.01415718742831509,
          0.0018918490907463951,
          -0.013067472951203092,
          0.012764742109385082,
          0.0030515994192267955,
          -0.00014751624007424107,
          0.007357533314127474,
          -0.0017164634016892774,
          0.012991082425706948,
          -0.015562955145447062,
          -0.002923005672544689,
          -0.0032955955955933955,
          -0.005050509981643674,
          0.009309213393466199,
          -0.013691992177862216,
          -0.00662323049063273,
          0.007490648920267627,
          0.015786036966789346,
          0.011249827465788065,
          -0.007044108063457566,
          -0.004493048482540618,
          -0.007355877606293263,
          0.01012711650967541,
          -0.001579294369513263,
          0.00907635812493692,
          0.004131753682302229,
          0.0116849104853816,
          0.007585320807110582,
          -0.003933607496893536,
          0.0006615380924160926,
          0.0081521473375626,
          0.012569672132190362,
          0.0063773813327844845,
          -0.0024793342363816006,
          0.010686349726714995,
          -0.024214783813896423,
          -0.023918114691406242,
          -0.0058423711029975236,
          0.02200714629613333,
          -0.014424978517840883,
          -0.0010786511720142092,
          -0.003624497126644012,
          0.018025294703426932,
          0.007010240247911477,
          1.4546628702644281e-05,
          -0.02033072995385941,
          0.010804649183635726,
          0.007166211414053662,
          -0.0026304502061891936,
          0.012196790626494805,
          -0.0003971879694005762,
          -0.004025552486517277,
          -0.021346309907543434,
          0.0027650947011444416,
          0.01100336694305843,
          0.006290644691329613,
          -0.004193988376637285,
          0.01698680166258561,
          0.005665712898544053,
          -0.009380724516214719,
          0.013772772498756287,
          -0.0032131514365600035,
          0.013771554389330799,
          -0.0010624616663674669,
          0.012980941940198405,
          -0.007914175823887959,
          -0.0009224114950250872,
          0.013402056774770275,
          0.007081333881426961,
          -0.001328223308011236,
          0.006432487714035788,
          -0.0012995603120737195,
          0.005271989364255646,
          -0.011479778629363321,
          -0.005907917129148548,
          0.018809992168930305,
          -0.01796908799766925,
          -0.005335134158475164,
          -0.004633979204875245,
          -0.010717502841849406,
          0.007462449785319569,
          0.01132574506380543,
          0.010643005820290482,
          0.002343703149188139,
          -0.013370828418057635,
          0.009073143163280246,
          -0.014037830207862995,
          -0.01212418463555923,
          0.0075682907534460695,
          -0.0027338380633454185,
          0.0061760391926988295,
          -0.004984456049901124,
          -0.018970002350614447,
          -0.014697533304780193,
          0.011553537462994066,
          -0.009773361106561398,
          0.012860571732380855,
          -0.0022514865679258765,
          -0.015478309556265649,
          -0.005591991851750601,
          0.0005908975156231798,
          0.02043276506635949,
          0.01919993038023584,
          0.00620292763020816,
          0.0016639466641805254,
          -0.01694866828286753,
          -0.0012798775620441476,
          0.003775166084438319,
          -0.00644261339542795,
          0.005307419559571376,
          0.0017325672896058464,
          0.004476974374397208,
          0.00824420815019159,
          0.00568077162295034,
          -0.0019039164568234825,
          -0.011568847807457192,
          0.0053657597996513715,
          0.016417289714693795,
          7.204761654410414e-06,
          0.010557876761025143,
          0.005274171836265903,
          -0.000998102871844052,
          -0.005753961571393977,
          -0.002245233434281129,
          -0.0024675096124973797,
          -0.0053241409929566845,
          0.01426510136831983,
          0.01517374814632565,
          -0.007104090795790465,
          0.0006046548604938232,
          -0.01035770156018591,
          0.0006166241633309334,
          -0.0168179668505936,
          -0.005645064251335532,
          0.005589119471710052,
          0.0023102799614538347,
          -0.032933113605918385,
          0.01876889517356572,
          -0.010729978997619094,
          -0.021908126741178736,
          0.014027795102153906,
          0.005853885461080937,
          -0.01598949129135878,
          -0.01670851018554235,
          0.0023085561969575035,
          -0.00533703722176525,
          -0.008035972951922274,
          -0.0033460284337305146,
          -0.0019345421037899344,
          0.01877845501102229,
          0.0010120934614812132,
          -0.008309460701541446,
          -0.015690809748077336,
          0.008641401776059163,
          -0.0073227230975581635,
          -0.004566816380525926,
          0.011930185646880894,
          -0.002388329164457285,
          -0.0034129540486466333,
          0.009720039280402343,
          0.014910278550422481,
          -0.006649146306184975,
          -0.002721527658193981,
          0.0026156758435699067,
          -0.00516500508444097,
          -0.006221426338591463,
          -0.0008174904579578169,
          -0.010567461783057485,
          0.0010364322837051656,
          -0.012828488354204757,
          0.010018234260123767,
          -0.013023701471126315,
          -0.013115104080129171,
          -0.011283408830070334,
          0.0049200094714357875,
          0.0038493110411745514,
          -0.017243873561279537,
          0.005894808967717185,
          -0.011451552801077696,
          0.0013958518187999398,
          -0.00840503256825199,
          -0.01241185285621969,
          -0.029155075044539264,
          0.0008331733532533546,
          0.0023342377242293556,
          -0.0038016831311610145,
          0.009143250951615457,
          -0.006375706233930842,
          0.010538407234333079,
          -0.004298888099843127,
          0.012435979083138527,
          0.001317457986574148,
          0.012184323166517413,
          0.007565764026017172,
          -0.011670009062866596,
          0.0066602479313889185,
          0.02295780573916692,
          0.021828230748853983,
          -0.011212977785319376,
          0.012325690644543849,
          -0.0025888519957299816,
          -0.00047141779278802497,
          0.010856219955869608,
          0.006126831169558076,
          0.02841104708913339,
          0.009145374990722934,
          0.0037831520312970996,
          0.012211003559751656,
          -0.015226011806512634,
          0.0030389822108726912,
          0.012904099393720597,
          0.004185644707851659,
          0.0034059110608446507,
          0.008135915823798152,
          -0.011239154196723526,
          -0.00928870403312201,
          -0.010775265615561098,
          0.0035893663974809853,
          -0.010210687516010057,
          0.0023802065605241745,
          -0.007747765008885662,
          -0.006771958455991571,
          -0.0055410595201992275,
          -0.008323560248932993,
          -0.003952443436804633,
          -0.005910517930383473,
          -0.002669082583678387,
          -0.013424790413260319,
          -0.015665096088169236,
          -0.01568278312351053,
          0.007794133267002387,
          0.0016110558790838406,
          0.0083764146498672,
          0.010635768166215658,
          0.006112226750709725,
          0.005670028482677855,
          0.011358324522073453,
          0.009541799938418952,
          -0.00044540348180985214,
          0.001743048723160075,
          0.00509919653144088,
          -0.011759999744599714,
          0.001592778096436903,
          -0.00801731093533553,
          -0.0073309013023837456,
          -0.0036683967831436987,
          -0.019328169753983788,
          -0.007949437338488375,
          0.011800657605410617,
          0.0036856058145559372,
          0.002167057678828789,
          -0.01036689487080431,
          0.002803319066700175,
          -0.007013738240437288,
          -0.024304320677647505,
          0.01977633929963876,
          0.002656706846431087,
          0.006387304709792079,
          0.014835060036736868,
          -0.0016462703010230262,
          -0.005009025817036873,
          -0.027977080588171502,
          -0.0053157777473440875,
          0.0066641759680502455,
          -0.00023595124950137524,
          0.012496443245645902,
          0.005411102553689592,
          0.010885307855579814,
          -0.01860223595957284,
          0.026960861238879696,
          0.010585947927682306,
          6.405186711978003e-05,
          0.01530665943790069,
          -0.004524529790839337,
          0.00884380300449102,
          -0.012311969636020879,
          -0.00945305476976123,
          0.0024212513577433654,
          -0.0017402690426074222,
          0.013510907943215578,
          0.00270716996862381,
          0.025429778632203307,
          0.0010558999745303168,
          -0.010176425505394018,
          -0.004681080346703381,
          -0.0004809969196867477,
          -0.006858304187863373,
          0.0022244705858816857,
          0.0003555865257669639,
          -0.0042777491170885645,
          0.010885368045604266,
          -0.01595083985338332,
          0.0009356835995581313,
          0.0037008756268795836,
          -0.000944080210739942,
          -0.00019092710920291537,
          -0.006685737297209552,
          0.008477086989185032,
          -0.014194580776255603,
          0.007565560306891676,
          0.0060240466083108755,
          -0.002706175938772795,
          0.007588515798621779,
          -0.0010624454746076325,
          -0.008629829265406544,
          -0.014636172509385327,
          0.0037682397573552497,
          -0.0009217020628447187,
          -0.0021738340467742042,
          -0.0027528326794269914,
          0.0176779104219578,
          0.007125252309343089,
          -0.016129146425280915,
          0.010035465766102033,
          -0.0018203412609797754,
          -0.008839128429181766,
          -0.0022398726657914527,
          -0.012908859002463307,
          -0.0015824705526881304,
          -0.0030517359433939956,
          0.0034878753518111493,
          0.016008916715265956,
          0.009710783011248073,
          0.009556849157088342,
          -0.01528832833782933,
          0.0037163908431375055,
          -0.005913535710153445,
          0.002822421819622276,
          -0.004105368427903121,
          -0.0007676592135091436,
          0.005223634445393813,
          0.011926749060462954,
          -0.003900853132442417,
          0.008388346463158508,
          -0.006625285051421804,
          -0.011224345340426819,
          -0.007125322444962695,
          0.0009944720791177273,
          0.0068404984459032175,
          0.0004266079659103287,
          0.003397219615886859,
          -0.0056874940243756165,
          0.004087574660912831,
          0.008918881873389859,
          -0.006906394061566172,
          -0.0048064630146251435,
          0.0001731648994300979,
          0.008576268246083981,
          -0.012812914764322525,
          0.006651308968034039,
          -0.009241081888994314,
          0.008787868509044264,
          0.013170469304915555,
          0.013902407079080017,
          0.01733674362124146,
          0.012373542267202843,
          0.005913786843791078,
          -0.0006469739888112847,
          -0.0054956987376570945,
          -0.0037923089052399423,
          0.0004205089615535649,
          -0.019270074274707578,
          -0.030763787839935653,
          0.015291350847601519,
          0.0014307675746053434,
          -0.003154212104844633,
          0.004390155257288008,
          -0.0010279957402023296,
          0.007853552169817184,
          -0.001265126105532786,
          -0.01004691762906439,
          0.013442675197990164,
          0.003532814810253653,
          -0.007165448329226084,
          -0.002429836662295478,
          0.0046260453005884964,
          -0.007512283017025277,
          -0.0026336395255836787,
          0.0015328218699754651,
          -0.008149035480757096,
          0.015376399434398476,
          -0.007166241073484097,
          -0.007386488263618024,
          -0.011185645613034471,
          0.005849285116209166,
          0.0042637520078466174,
          0.001622229709563708,
          0.004897506092338399,
          0.004953790044252457,
          0.015327079428296551,
          -0.022844543163826832,
          0.008069140609018328,
          -0.00038799536774235553,
          -0.0008074927580618185,
          0.005431950114205231,
          -0.009878683582934152,
          0.023625995270515718,
          0.005859001505701963,
          0.0021301639918829126,
          0.0035802590392634615,
          0.0035090951597944453,
          -0.006241275705474035,
          0.012191181349922739,
          -0.00919152152945983,
          0.00025744573170061755,
          -0.0047782242329047825,
          -0.008736515264001755,
          -0.009654957140564002,
          -0.008050537546044855,
          -0.0012110515352957156,
          0.010300172770083587,
          0.0034315325677143215,
          -0.0001758329489868961,
          0.007493381655375592,
          0.004682264561613028,
          0.009627573761701815,
          0.0053360879147547734,
          0.00952363029663871,
          0.02665211540827393,
          -0.004462469925461838,
          0.0169458342703061,
          -0.011426302591812572,
          -0.0030235639097026135,
          0.008959489919238168,
          -0.0066906626517284195,
          -0.004360456320394053,
          0.015583424530465597,
          0.000673141113422162,
          -0.002904825271424397,
          -0.007865779262706648,
          0.0008175806313791045,
          -0.00242371541744276,
          0.0053977802870690044,
          -0.005048792066355753,
          -0.004836406954255327,
          0.007569226560472204,
          -0.013635603437018157,
          -0.0019923706338610425,
          0.018110337295933615,
          -0.011349979298887964,
          0.006270075485610934,
          0.00665991705418251,
          -0.002688217764157171,
          0.004111858806152287,
          0.009741287632243805,
          0.002776494125634883,
          -0.010222875226205528,
          0.004598439143579232,
          -0.005447546077048821,
          0.005807141012961462,
          0.013417496582490501,
          0.0090387795057138,
          0.012329348098402722,
          0.006283444540879312,
          -0.010316099689737394,
          0.012223344901549861,
          0.0046244747613525174,
          -0.009252689223060124,
          -0.011431500727000561,
          -0.0028044142116533267,
          0.01185382145259513,
          0.0018762787974445478,
          0.01436334328920017,
          0.02846552498923221,
          0.010448249029314863,
          0.01902825889335413,
          -0.004780678210365366,
          0.010651332229644117,
          -0.0007196889965798753,
          0.013100320965488018,
          -0.012241657564493835,
          0.02000189187583975,
          -0.00395162749965884,
          0.005819291658811247,
          -0.008748577378567381,
          -0.007464393467760156,
          -0.0026267721394193544,
          -0.006607609339809297,
          -0.009565460831724168,
          0.011666011681241421,
          3.823926671491943e-05,
          -0.0074709956226405765,
          -0.009227418205660308,
          0.008218142356067736,
          -0.014874421635434919,
          0.0026452979544943273,
          0.008323383958543994,
          0.013001527097680774,
          0.003122189823997285,
          0.011876380159352835,
          0.007164140463800969,
          0.010896704907293369,
          -0.009194560649583856,
          -0.011521715457904529,
          8.997787000362093e-05,
          0.0018285197178564633,
          -0.02407362600878468,
          0.007401476136322777,
          0.00530461008106698,
          0.0024580611710987845,
          -0.011521187100706888,
          0.004822304617021631,
          -0.008037871027560236,
          0.006520642498266405,
          -0.012820093111664555,
          0.018320233946140824,
          0.014184049833075005,
          -0.016251223301611332,
          0.00436319606917979,
          -0.012529845884723438,
          -0.010874731366050354,
          0.008744196527023285,
          -0.0002603040697663541,
          0.007566560631040349,
          -0.00563280956271331,
          -0.001096127749852056,
          0.004969712253795671,
          0.03049860066025621,
          0.0075142967948936355,
          -0.0022655058858440723,
          0.009234605466376942,
          0.006602369242793722,
          0.0070486116678028414,
          -0.0010674283378657285,
          -0.001374687837217463,
          -0.0024010481395105106,
          0.0207275025086725,
          0.012725152396173906,
          -7.562895403865868e-05,
          -0.004078710083504862,
          0.00667790645770402,
          -0.013201067611166186,
          0.007014339930809814,
          -0.010897480962148088,
          -0.010981294633576442,
          0.005633353889753821,
          -0.0010952998868980909,
          0.015617435465726625,
          -0.008681364384359142,
          -8.854494524608395e-05,
          0.003334376149233921,
          -0.009123104668885017,
          0.0020539919958946578,
          0.013762067853549066,
          0.006745051057901136,
          -0.007172095618566119,
          -0.011475337386314064,
          -0.0046792653098492445,
          0.00900912900320038,
          0.015203716374306961,
          0.023162309388742263,
          0.005789428659155266,
          0.02672608309791795,
          0.005007801628367312,
          -0.0010745769589833307,
          0.01713940015677085,
          0.017480085037749584,
          -0.0034884425052833703,
          0.001934466608450185,
          0.011607882781162074,
          -0.011122316860131036,
          0.008009598026010416,
          -0.011926473838710329,
          0.018386938067655696,
          0.009686527399642306,
          0.02228813059082418,
          0.006517465824660613,
          -0.007703631906160185,
          -0.008753145523115225,
          -0.0021498471623902036,
          -0.0015802534493103918,
          0.001577099930794197,
          -0.0026918720039759885,
          -0.012530002132149966,
          -0.01830900001558101,
          -0.011760864471167845,
          -0.01921319302511423,
          0.012601327065853485,
          0.012570680501780705,
          -0.005242084210042153,
          0.012007108342849654,
          0.0007890545159537705,
          0.003002102482092696,
          -0.003583402638872402,
          -0.010332276517939913,
          -0.0003072525292277859,
          0.007492279272888011,
          0.004518486290006616,
          0.01154164308294108,
          -0.0006455422300260259,
          0.006370880183046062,
          -0.006851936546708323,
          0.007629821405686,
